{"learner":{"attributes":{"best_iteration":"99","best_ntree_limit":"100","scikit_learn":"{\"use_label_encoder\": false, \"n_estimators\": 100, \"objective\": \"binary:logistic\", \"max_depth\": null, \"max_leaves\": null, \"max_bin\": null, \"grow_policy\": null, \"learning_rate\": null, \"verbosity\": null, \"booster\": null, \"tree_method\": null, \"gamma\": null, \"min_child_weight\": null, \"max_delta_step\": null, \"subsample\": null, \"sampling_method\": null, \"colsample_bytree\": null, \"colsample_bylevel\": null, \"colsample_bynode\": null, \"reg_alpha\": null, \"reg_lambda\": null, \"scale_pos_weight\": null, \"base_score\": null, \"missing\": NaN, \"num_parallel_tree\": null, \"random_state\": null, \"n_jobs\": null, \"monotone_constraints\": null, \"interaction_constraints\": null, \"importance_type\": null, \"gpu_id\": null, \"validate_parameters\": null, \"predictor\": null, \"enable_categorical\": false, \"max_cat_to_onehot\": null, \"eval_metric\": null, \"early_stopping_rounds\": null, \"callbacks\": null, \"classes_\": [0, 1], \"n_classes_\": 2, \"_estimator_type\": \"classifier\"}"},"feature_names":[],"feature_types":[],"gradient_booster":{"model":{"gbtree_model_param":{"num_parallel_tree":"1","num_trees":"100","size_leaf_vector":"0"},"tree_info":[0,0,0,0,0,0,0,0,0,0,0,0,0,0,0,0,0,0,0,0,0,0,0,0,0,0,0,0,0,0,0,0,0,0,0,0,0,0,0,0,0,0,0,0,0,0,0,0,0,0,0,0,0,0,0,0,0,0,0,0,0,0,0,0,0,0,0,0,0,0,0,0,0,0,0,0,0,0,0,0,0,0,0,0,0,0,0,0,0,0,0,0,0,0,0,0,0,0,0,0],"trees":[{"base_weights":[-5.631068E-1,9.8372513E-1,-1.275E0,1.4605714E0,-8.0851066E-1,-1.4687644E0,4.691358E-1,1.8181819E-1,1.7241379E0,6.857143E-1,-1.4082841E0,-1.540797E0,1.2982457E0,-1.1794872E0,1.2189349E0,1.6521739E0,-4.2857143E-1,6.236559E-1,1.8742138E0,1.5E0,-9.230769E-1,-1.6965517E0,2.857143E-1,-1.7183418E0,-6.3247865E-1,-8E-1,1.6078432E0,5.4545456E-1,-1.7333333E0,1.6363636E0,-9.3333334E-1,-0E0,1.8095238E0,-9.8734176E-1,8.108108E-1,1.4E0,-7.027027E-1,1.9047619E0,-8E-1,-4E-1,1.8095238E0,-1.6E0,8E-1,-1.7985611E0,4E-1,1.0476191E0,-1.2727273E0,-1.8439425E0,-1.0921053E0,-1.1563636E0,1.2E0,-5E-1,1.8297873E0,1.4285715E0,-6.666667E-1,-0E0,-1.8571428E0,1.7410072E0,-1E0,-1.6521739E0,9.0909094E-1,-1.2328767E0,1.2E0,-9.0909094E-1,1.3333334E0,1.6428572E0,-1E0,1.2727273E0,-1.3333334E0,1.9358975E0,-8E-1,-1.8787879E0,-1.8181819E-1,1.5294118E0,-5E-1,3.529412E-1,-1.8646408E0,-5.4347825E-1,-1.8709677E0,6.666667E-1,-1.4333333E0,1.5492958E0,-1.0769231E0,-1E0,-0E0,1.8222222E0,-5E-1],"categories":[],"categories_nodes":[],"categories_segments":[],"categories_sizes":[],"default_left":[1,1,1,1,1,1,1,1,1,1,1,1,1,1,1,1,1,1,1,1,1,1,1,1,1,0,1,1,1,1,1,0,0,1,1,1,1,1,0,0,0,0,0,1,0,1,0,1,1,1,1,0,0,0,1,0,0,1,0,0,0,0,0,0,0,0,0,0,0,0,0,0,0,0,0,0,0,0,0,0,0,0,0,0,0,0,0],"id":0,"left_children":[1,3,5,7,9,11,13,15,17,19,21,23,25,27,29,31,33,35,37,39,41,43,45,47,49,-1,51,53,55,57,59,-1,-1,61,63,65,67,69,-1,-1,-1,-1,-1,71,-1,73,-1,75,77,79,81,-1,-1,-1,83,-1,-1,85,-1,-1,-1,-1,-1,-1,-1,-1,-1,-1,-1,-1,-1,-1,-1,-1,-1,-1,-1,-1,-1,-1,-1,-1,-1,-1,-1,-1,-1],"loss_changes":[9.6533655E2,2.3748358E2,2.0345996E2,7.341324E1,5.3617214E1,1.0968005E2,7.653298E1,3.5261433E1,2.8765686E1,2.4309887E1,2.1116455E1,8.390112E1,1.054324E1,1.9574825E1,3.948546E1,2.989647E0,2.019139E1,2.4924557E1,1.4512817E1,7.7809525E0,8.861539E0,8.472145E0,9.645021E0,3.261438E1,8.562834E1,0E0,6.8796425E0,6.839827E0,3.2190475E0,1.1603661E1,1.1435047E1,0E0,0E0,1.2086561E1,9.524979E0,1.0385714E1,1.322031E1,1.4812439E1,0E0,0E0,0E0,0E0,0E0,4.1656876E0,0E0,4.6792717E0,0E0,1.7266724E1,3.1458351E1,3.5669098E1,1.7574863E1,0E0,0E0,0E0,6.666666E-1,0E0,0E0,7.235733E0,0E0,0E0,0E0,0E0,0E0,0E0,0E0,0E0,0E0,0E0,0E0,0E0,0E0,0E0,0E0,0E0,0E0,0E0,0E0,0E0,0E0,0E0,0E0,0E0,0E0,0E0,0E0,0E0,0E0],"parents":[2147483647,0,0,1,1,2,2,3,3,4,4,5,5,6,6,7,7,8,8,9,9,10,10,11,11,12,12,13,13,14,14,15,15,16,16,17,17,18,18,19,19,20,20,21,21,22,22,23,23,24,24,26,26,27,27,28,28,29,29,30,30,33,33,34,34,35,35,36,36,37,37,43,43,45,45,47,47,48,48,49,49,50,50,54,54,57,57],"right_children":[2,4,6,8,10,12,14,16,18,20,22,24,26,28,30,32,34,36,38,40,42,44,46,48,50,-1,52,54,56,58,60,-1,-1,62,64,66,68,70,-1,-1,-1,-1,-1,72,-1,74,-1,76,78,80,82,-1,-1,-1,84,-1,-1,86,-1,-1,-1,-1,-1,-1,-1,-1,-1,-1,-1,-1,-1,-1,-1,-1,-1,-1,-1,-1,-1,-1,-1,-1,-1,-1,-1,-1,-1],"split_conditions":[1.6500007E-2,5.4327037E-2,9.753178E-2,5.892149E-3,-4.8616227E-2,9.966932E-2,2.5788762E-3,-2.8807025E-3,-8.747367E-3,3.5570197E-2,-3.5163835E-2,1.0647033E-3,-4.1631643E-2,-1.400224E-2,4.018291E-2,-4.7217235E-2,2.399319E-2,-2.0519285E-3,1.145999E-1,-5.8715935E-3,4.2660564E-2,9.920968E-2,-8.579332E-3,-1.3591533E-2,4.2370614E-2,-2.4000001E-1,-6.768466E-2,-2.3517236E-2,-8.321643E-2,9.214613E-2,6.8265945E-2,-0E0,5.4285717E-1,7.625227E-2,-6.0203142E-2,2.8444462E-2,-2.067595E-2,8.057879E-2,-2.4000001E-1,-1.20000005E-1,5.4285717E-1,-4.8000002E-1,2.4000001E-1,3.770225E-2,1.20000005E-1,-2.660144E-3,-3.818182E-1,-9.3117744E-2,1.9449554E-2,-3.531736E-2,-1.3569707E-2,-1.5E-1,5.489362E-1,4.2857146E-1,3.9339088E-2,-0E0,-5.5714285E-1,8.723907E-2,-3E-1,-4.9565217E-1,2.7272728E-1,-3.69863E-1,3.6E-1,-2.7272728E-1,4.0000004E-1,4.928572E-1,-3E-1,3.818182E-1,-4.0000004E-1,5.8076924E-1,-2.4000001E-1,-5.6363636E-1,-5.454546E-2,4.5882356E-1,-1.5E-1,1.0588236E-1,-5.593923E-1,-1.6304348E-1,-5.612903E-1,2.0000002E-1,-4.3E-1,4.6478876E-1,-3.2307696E-1,-3E-1,-0E0,5.466667E-1,-1.5E-1],"split_indices":[102,53,303,180,186,92,4,24,124,311,304,365,36,173,356,40,305,284,145,89,163,33,329,9,191,0,134,49,116,203,279,0,0,80,66,109,361,300,0,0,0,0,0,25,0,97,0,364,335,2,94,0,0,0,1,0,0,65,0,0,0,0,0,0,0,0,0,0,0,0,0,0,0,0,0,0,0,0,0,0,0,0,0,0,0,0,0],"split_type":[0,0,0,0,0,0,0,0,0,0,0,0,0,0,0,0,0,0,0,0,0,0,0,0,0,0,0,0,0,0,0,0,0,0,0,0,0,0,0,0,0,0,0,0,0,0,0,0,0,0,0,0,0,0,0,0,0,0,0,0,0,0,0,0,0,0,0,0,0,0,0,0,0,0,0,0,0,0,0,0,0,0,0,0,0,0,0],"sum_hessian":[8.745E2,2.755E2,5.99E2,2.1775E2,5.775E1,5.3925E2,5.975E1,3.75E1,1.8025E2,1.65E1,4.125E1,5.26E2,1.325E1,1.85E1,4.125E1,1.05E1,2.7E1,2.225E1,1.58E2,1.1E1,5.5E0,3.525E1,6E0,4.3925E2,8.675E1,1.5E0,1.175E1,4.5E0,1.4E1,3.475E1,6.5E0,1E0,9.5E0,1.875E1,8.25E0,1.4E1,8.25E0,1.565E2,1.5E0,1.5E0,9.5E0,4E0,1.5E0,3.375E1,1.5E0,4.25E0,1.75E0,3.6425E2,7.5E1,6.775E1,1.9E1,1E0,1.075E1,2.5E0,2E0,1E0,1.3E1,3.375E1,1E0,4.75E0,1.75E0,1.725E1,1.5E0,1.75E0,6.5E0,1.3E1,1E0,1.75E0,6.5E0,1.55E2,1.5E0,3.2E1,1.75E0,3.25E0,1E0,3.25E0,3.61E2,4.5E1,3E1,8.75E0,5.9E1,1.675E1,2.25E0,1E0,1E0,3.275E1,1E0],"tree_param":{"num_deleted":"0","num_feature":"384","num_nodes":"87","size_leaf_vector":"0"}},{"base_weights":[-4.264649E-1,7.024606E-1,-9.936766E-1,-6.3264894E-1,1.152002E0,-1.2062337E0,-3.792196E-2,1.028974E0,-1.1308751E0,1.2589887E0,-8.3674735E-1,-1.3876443E0,-5.391876E-1,6.7819E-1,-9.8778147E-1,-9.3953705E-1,1.3872954E0,-1.2762197E0,8.3681464E-1,3.6832523E-1,1.3946265E0,9.9752074E-1,-1.2088349E0,-6.8057734E-1,-1.471999E0,5.4770845E-1,-1.0450515E0,1.1023128E0,-5.3216076E-1,-1.2997664E0,3.4182373E-1,1.4053398E-1,1.4857266E0,-1.5859945E-1,-1.4194688E0,-2.3890282E-1,1.3192487E0,8.945717E-1,-1.1403207E0,4.459532E-1,1.4827669E0,2.3987907E-1,-1.437538E0,2.79349E-1,-1.0373417E0,-1.48591E0,5.163955E-1,-8.616478E-1,1.3237319E0,3.8770217E-1,-1.3109058E0,-1.0570099E-1,1.3808553E0,5.2676237E-1,-1.229689E0,-1.4484539E0,2.9042476E-1,1.2230841E0,-7.0829356E-1,-1.1653527E0,9.4003195E-1,-1.5146189E0,-3.971087E-3,1.339751E0,-2.2097957E-1,-1.4124423E0,1.5953913E-1,-5.7513994E-1,1.0022701E0,1.5042226E0,-4.881127E-1,1.0410067E0,-1.1098562E0,6.291975E-1,-1.2117629E0,-1.4998444E0,2.1795091E-1,-1.2711782E0,1.0255303E0,-6.179819E-1,1.502141E0,-5.1299316E-1,1.3923782E0,-1.5079657E0,3.4325588E-1,1.2885348E0,-9.550103E-1,-5.590007E-1,1.5088185E0,-1.0790721E0,1.3479779E0,-1.4593257E0,2.3447005E-1,-1.5346152E0,9.538357E-2,-9.335816E-1,1.1984353E0,1.4761006E0,1.7226033E-1,-1.1620803E0,3.5552493E-1],"categories":[],"categories_nodes":[],"categories_segments":[],"categories_sizes":[],"default_left":[1,1,1,1,1,1,1,1,1,1,1,1,1,1,1,0,1,1,1,1,1,0,1,1,1,1,1,1,1,1,1,0,0,1,1,0,0,1,1,1,1,0,0,1,1,1,0,1,1,1,1,1,1,1,1,1,1,1,1,0,0,0,0,0,0,0,0,0,0,0,0,0,0,0,0,0,0,0,0,0,0,0,0,0,0,0,0,0,0,0,0,0,0,0,0,0,0,0,0,0,0],"id":1,"left_children":[1,3,5,7,9,11,13,15,17,19,21,23,25,27,29,-1,31,33,35,37,39,-1,41,43,45,47,49,51,53,55,57,-1,-1,59,61,-1,-1,63,65,67,69,-1,-1,71,73,75,-1,77,79,81,83,85,87,89,91,93,95,97,99,-1,-1,-1,-1,-1,-1,-1,-1,-1,-1,-1,-1,-1,-1,-1,-1,-1,-1,-1,-1,-1,-1,-1,-1,-1,-1,-1,-1,-1,-1,-1,-1,-1,-1,-1,-1,-1,-1,-1,-1,-1,-1],"loss_changes":[5.2529144E2,1.6551125E2,1.1081268E2,5.895122E1,4.4830566E1,5.326764E1,6.8903275E1,1.3030401E1,1.6562408E1,2.3121674E1,8.784512E0,1.9891663E1,5.394716E1,3.0250654E1,1.8499695E1,0E0,1.5668526E0,7.9153976E0,2.5625787E0,2.2627096E1,1.3505798E1,0E0,3.5532665E0,1.371356E1,9.40033E0,3.557864E1,2.5872139E1,1.4654243E1,1.2221501E1,8.805412E0,9.254322E0,0E0,0E0,8.730089E0,6.047333E0,0E0,0E0,1.059483E1,2.8704157E0,9.570634E0,7.2715454E0,0E0,0E0,1.3226731E1,9.130726E0,7.6915894E0,0E0,1.0413283E1,8.099476E0,1.0843593E1,1.8900627E1,1.1897263E1,9.55864E0,1.0583807E1,3.6191854E0,4.4823914E0,5.414746E0,1.1535192E0,2.7153783E0,0E0,0E0,0E0,0E0,0E0,0E0,0E0,0E0,0E0,0E0,0E0,0E0,0E0,0E0,0E0,0E0,0E0,0E0,0E0,0E0,0E0,0E0,0E0,0E0,0E0,0E0,0E0,0E0,0E0,0E0,0E0,0E0,0E0,0E0,0E0,0E0,0E0,0E0,0E0,0E0,0E0,0E0],"parents":[2147483647,0,0,1,1,2,2,3,3,4,4,5,5,6,6,7,7,8,8,9,9,10,10,11,11,12,12,13,13,14,14,16,16,17,17,18,18,19,19,20,20,22,22,23,23,24,24,25,25,26,26,27,27,28,28,29,29,30,30,33,33,34,34,37,37,38,38,39,39,40,40,43,43,44,44,45,45,47,47,48,48,49,49,50,50,51,51,52,52,53,53,54,54,55,55,56,56,57,57,58,58],"right_children":[2,4,6,8,10,12,14,16,18,20,22,24,26,28,30,-1,32,34,36,38,40,-1,42,44,46,48,50,52,54,56,58,-1,-1,60,62,-1,-1,64,66,68,70,-1,-1,72,74,76,-1,78,80,82,84,86,88,90,92,94,96,98,100,-1,-1,-1,-1,-1,-1,-1,-1,-1,-1,-1,-1,-1,-1,-1,-1,-1,-1,-1,-1,-1,-1,-1,-1,-1,-1,-1,-1,-1,-1,-1,-1,-1,-1,-1,-1,-1,-1,-1,-1,-1,-1],"split_conditions":[1.9431796E-2,1.133516E-2,7.806212E-2,8.257341E-3,8.392065E-2,2.2521224E-2,5.8558933E-2,-4.195052E-2,2.6862264E-2,-8.833908E-3,-5.1667574E-3,-2.2582954E-2,-1.1882264E-2,-1.9763416E-2,-3.406261E-2,-2.8186113E-1,-6.0351282E-2,-8.51281E-2,7.3238844E-3,-4.6179406E-3,-4.888858E-2,2.9925624E-1,-1.4961323E-2,-6.502479E-2,1.6163805E-2,-2.4717074E-2,-3.492413E-2,6.6072047E-3,-1.5762404E-2,7.201059E-2,-6.29672E-2,4.2160198E-2,4.45718E-1,5.933225E-3,4.5706205E-2,-7.167085E-2,3.9577463E-1,-8.505389E-2,2.8585892E-2,-5.7436157E-2,1.343835E-1,7.196373E-2,-4.3126142E-1,9.3796514E-2,-5.896173E-2,8.937434E-2,1.5491866E-1,-5.1724527E-4,-1.5180588E-2,3.235656E-2,4.330091E-2,1.7898194E-2,-4.9031332E-2,1.0622742E-2,2.283538E-2,5.058738E-2,1.2527446E-2,6.7039854E-3,8.751105E-2,-3.4960583E-1,2.820096E-1,-4.5438567E-1,-1.1913261E-3,4.0192533E-1,-6.629387E-2,-4.2373273E-1,4.7861744E-2,-1.7254199E-1,3.0068105E-1,4.512668E-1,-1.4643382E-1,3.1230202E-1,-3.3295688E-1,1.8875925E-1,-3.6352888E-1,-4.4995335E-1,6.5385275E-2,-3.813535E-1,3.0765912E-1,-1.8539459E-1,4.5064232E-1,-1.5389796E-1,4.177135E-1,-4.5238972E-1,1.0297677E-1,3.8656044E-1,-2.865031E-1,-1.677002E-1,4.5264557E-1,-3.2372165E-1,4.0439337E-1,-4.3779773E-1,7.034102E-2,-4.6038458E-1,2.8615072E-2,-2.8007448E-1,3.595306E-1,4.4283018E-1,5.1678102E-2,-3.486241E-1,1.0665748E-1],"split_indices":[102,92,33,53,53,124,102,231,179,124,356,3,136,378,325,0,150,378,57,268,289,0,311,165,346,365,62,80,237,288,295,0,0,222,60,0,0,69,57,254,286,0,0,35,2,214,0,344,209,162,226,287,28,153,157,163,4,64,111,0,0,0,0,0,0,0,0,0,0,0,0,0,0,0,0,0,0,0,0,0,0,0,0,0,0,0,0,0,0,0,0,0,0,0,0,0,0,0,0,0,0],"split_type":[0,0,0,0,0,0,0,0,0,0,0,0,0,0,0,0,0,0,0,0,0,0,0,0,0,0,0,0,0,0,0,0,0,0,0,0,0,0,0,0,0,0,0,0,0,0,0,0,0,0,0,0,0,0,0,0,0,0,0,0,0,0,0,0,0,0,0,0,0,0,0,0,0,0,0,0,0,0,0,0,0,0,0,0,0,0,0,0,0,0,0,0,0,0,0,0,0,0,0,0,0],"sum_hessian":[8.182424E2,2.7355182E2,5.4469055E2,6.880323E1,2.0474858E2,4.453777E2,9.931284E1,1.56255455E1,5.3177685E1,1.9464442E2,1.010415E1,3.4930112E2,9.607657E1,5.678664E1,4.2526207E1,2.1564727E0,1.3469073E1,4.984711E1,3.3305748E0,2.6215597E1,1.6842883E2,1.4205303E0,8.6836195E0,3.8197227E1,3.111039E2,3.0487843E1,6.558873E1,4.2117405E1,1.4669233E1,3.4462257E1,8.063949E0,1.1632104E0,1.2305862E1,5.902595E0,4.3944515E1,1.1875057E0,2.143069E0,1.9737717E1,6.4778814E0,1.4833407E1,1.5359543E2,1.1772835E0,7.5063357E0,1.040854E1,2.778869E1,3.0919345E2,1.9104419E0,1.07869835E1,1.9700857E1,1.0193761E1,5.5394966E1,8.007991E0,3.4109417E1,5.9227204E0,8.746512E0,3.1596981E1,2.8652756E0,4.294926E0,3.769022E0,3.0484002E0,2.8541949E0,4.1110996E1,2.8335185E0,1.3964124E1,5.7735925E0,5.284894E0,1.1929876E0,5.219475E0,9.613933E0,1.5217555E2,1.4198669E0,6.8845835E0,3.5239558E0,2.3857977E0,2.5402891E1,3.068041E2,2.3893416E0,9.131746E0,1.6552373E0,1.4505005E0,1.8250357E1,5.63308E0,4.5606804E0,4.9577225E1,5.8177433E0,2.8357067E0,5.172284E0,1.9023478E0,3.220707E1,1.8977661E0,4.0249543E0,7.563556E0,1.1829565E0,2.9932432E1,1.6645495E0,1.2083063E0,1.6569693E0,3.1353028E0,1.1596236E0,2.5772798E0,1.1917421E0],"tree_param":{"num_deleted":"0","num_feature":"384","num_nodes":"101","size_leaf_vector":"0"}},{"base_weights":[-3.5120082E-1,5.7908136E-1,-8.1824136E-1,-3.2411453E-1,1.04439E0,-1.0776297E0,-2.3548287E-1,2.9618186E-1,-1.0786319E0,-1.8887371E-1,1.1609414E0,-1.1428237E0,2.779177E-1,-8.547477E-1,4.4569966E-1,8.026421E-1,-5.241969E-1,-1.2551496E0,3.1045994E-1,-9.174722E-1,7.2213644E-1,1.2049762E0,-9.201809E-1,7.689335E-1,-1.1776913E0,-6.2967706E-1,1.089325E0,-3.4384888E-1,-1.2468095E0,-9.5695853E-1,7.043737E-1,-5.5686563E-1,1.0819198E0,8.022024E-1,-9.5470077E-1,-1.3454823E0,6.867344E-1,-9.133809E-1,1.0350997E0,4.8654827E-1,-1.237797E0,-5.533046E-1,1.1756902E0,1.2433995E0,-7.141568E-1,-8.879566E-1,1.2997246E0,-1.1970379E0,1.2021277E0,-1.1122879E0,7.5953674E-1,1.3729292E0,-3.4139693E-1,3.1839842E-1,-9.0930873E-1,-1.3514298E0,-3.504998E-2,-1.3614447E0,1.5172176E-1,9.929837E-1,-6.4638305E-1,8.373049E-1,-1.1574047E0,1.2220484E0,-5.617811E-1,-2.1249057E-1,1.1213843E0,-1.1852174E0,6.250068E-1,-1.4245498E-1,-1.3806075E0,3.2389683E-1,1.295678E0,1.2862743E0,-3.0462083E-1,1.5357359E-1,-1.160358E0,-1.237456E0,-3.200291E-2,-2.851705E-1,-1.2173648E0,1.4105756E0,-2.1931867E-1,7.036528E-1,-1.1665468E0,8.209944E-2,-1.3930576E0,-8.8381594E-1,1.0152915E0,-6.549494E-1,9.735473E-1,1.1710595E0,-5.511861E-1,1.0689821E0,-1.0272199E0],"categories":[],"categories_nodes":[],"categories_segments":[],"categories_sizes":[],"default_left":[1,1,1,1,1,1,1,1,1,1,1,1,1,1,1,1,1,1,1,1,1,1,0,1,1,1,1,1,1,1,1,1,1,1,1,1,0,0,0,0,0,0,1,1,1,0,0,1,0,1,0,0,0,1,1,1,1,0,1,1,1,0,0,0,0,0,0,0,0,0,0,0,0,0,0,0,0,0,0,0,0,0,0,0,0,0,0,0,0,0,0,0,0,0,0],"id":2,"left_children":[1,3,5,7,9,11,13,15,17,19,21,23,25,27,29,31,33,35,37,39,41,43,-1,45,47,49,51,53,55,57,59,61,63,65,67,69,-1,-1,-1,-1,-1,-1,71,73,75,-1,-1,77,-1,79,-1,-1,-1,81,83,85,87,-1,89,91,93,-1,-1,-1,-1,-1,-1,-1,-1,-1,-1,-1,-1,-1,-1,-1,-1,-1,-1,-1,-1,-1,-1,-1,-1,-1,-1,-1,-1,-1,-1,-1,-1,-1,-1],"loss_changes":[3.1247882E2,1.01457184E2,7.207745E1,3.8965454E1,2.307869E1,2.9555267E1,6.3091938E1,1.9575447E1,9.577534E0,1.0348205E1,1.4437408E1,2.1960052E1,1.2458342E1,1.5237755E1,2.659827E1,1.1575039E1,1.1159625E1,6.790695E0,5.4031086E0,4.446735E0,4.725285E0,1.1422501E1,0E0,6.6617866E0,1.5739136E1,6.328671E0,4.042013E0,1.3523733E1,5.51458E0,5.385621E0,2.4383558E1,5.6453047E0,6.2868233E0,1.8587956E0,5.911149E0,1.1680336E0,0E0,0E0,0E0,0E0,0E0,0E0,1.4411116E-1,9.7118225E0,1.5098343E0,0E0,0E0,1.4491425E1,0E0,2.157011E-1,0E0,0E0,0E0,1.0303726E1,8.838165E0,2.522789E0,4.921039E0,0E0,3.280701E0,1.4552158E1,8.497908E0,0E0,0E0,0E0,0E0,0E0,0E0,0E0,0E0,0E0,0E0,0E0,0E0,0E0,0E0,0E0,0E0,0E0,0E0,0E0,0E0,0E0,0E0,0E0,0E0,0E0,0E0,0E0,0E0,0E0,0E0,0E0,0E0,0E0,0E0],"parents":[2147483647,0,0,1,1,2,2,3,3,4,4,5,5,6,6,7,7,8,8,9,9,10,10,11,11,12,12,13,13,14,14,15,15,16,16,17,17,18,18,19,19,20,20,21,21,23,23,24,24,25,25,26,26,27,27,28,28,29,29,30,30,31,31,32,32,33,33,34,34,35,35,42,42,43,43,44,44,47,47,49,49,53,53,54,54,55,55,56,56,58,58,59,59,60,60],"right_children":[2,4,6,8,10,12,14,16,18,20,22,24,26,28,30,32,34,36,38,40,42,44,-1,46,48,50,52,54,56,58,60,62,64,66,68,70,-1,-1,-1,-1,-1,-1,72,74,76,-1,-1,78,-1,80,-1,-1,-1,82,84,86,88,-1,90,92,94,-1,-1,-1,-1,-1,-1,-1,-1,-1,-1,-1,-1,-1,-1,-1,-1,-1,-1,-1,-1,-1,-1,-1,-1,-1,-1,-1,-1,-1,-1,-1,-1,-1,-1],"split_conditions":[1.9431796E-2,7.6561803E-3,-2.4462964E-2,3.1022276E-4,-2.9583544E-2,5.7392158E-2,1.3953025E-2,1.5152532E-3,2.0929161E-2,-7.3182546E-3,3.375907E-2,-1.07281715E-1,7.733133E-2,-2.304726E-3,9.221707E-3,-5.8630597E-2,-7.6133083E-3,1.0618282E-2,1.0456306E-2,-4.3757394E-2,-7.2314695E-2,7.696207E-2,-2.760543E-1,4.205707E-2,4.6097644E-2,3.4894325E-2,-1.8920025E-3,-4.4321477E-2,5.0960146E-2,-1.888176E-2,4.4937935E-2,4.287202E-3,4.9031354E-3,3.855877E-3,1.0558089E-2,-1.6834594E-1,2.0602033E-1,-2.740143E-1,3.1052995E-1,1.4596449E-1,-3.713391E-1,-1.659914E-1,-1.0430028E-1,8.331372E-2,6.565932E-3,-2.66387E-1,3.899174E-1,8.920047E-2,3.6063832E-1,-7.1289055E-2,2.2786103E-1,4.118788E-1,-1.02419086E-1,8.265759E-3,-1.8962827E-3,-1.04797155E-1,3.921123E-2,-4.0843344E-1,2.0476991E-2,3.6949016E-2,-7.99728E-2,2.5119147E-1,-3.472214E-1,3.6661452E-1,-1.6853434E-1,-6.3747175E-2,3.364153E-1,-3.5556522E-1,1.8750204E-1,-4.2736497E-2,-4.1418228E-1,9.716905E-2,3.8870344E-1,3.8588232E-1,-9.138625E-2,4.6072077E-2,-3.481074E-1,-3.712368E-1,-9.600874E-3,-8.555115E-2,-3.6520946E-1,4.231727E-1,-6.579561E-2,2.1109585E-1,-3.4996405E-1,2.4629833E-2,-4.1791728E-1,-2.651448E-1,3.0458745E-1,-1.9648483E-1,2.920642E-1,3.5131785E-1,-1.6535583E-1,3.2069466E-1,-3.0816597E-1],"split_indices":[102,57,9,335,216,226,191,178,193,142,97,97,67,13,67,344,24,9,210,296,110,361,0,156,308,246,269,378,92,289,128,24,366,76,325,69,0,0,0,0,0,0,93,53,17,0,0,80,0,150,0,0,0,198,233,317,367,0,52,136,181,0,0,0,0,0,0,0,0,0,0,0,0,0,0,0,0,0,0,0,0,0,0,0,0,0,0,0,0,0,0,0,0,0,0],"split_type":[0,0,0,0,0,0,0,0,0,0,0,0,0,0,0,0,0,0,0,0,0,0,0,0,0,0,0,0,0,0,0,0,0,0,0,0,0,0,0,0,0,0,0,0,0,0,0,0,0,0,0,0,0,0,0,0,0,0,0,0,0,0,0,0,0,0,0,0,0,0,0,0,0,0,0,0,0,0,0,0,0,0,0,0,0,0,0,0,0,0,0,0,0,0,0],"sum_hessian":[7.171122E2,2.3960707E2,4.775051E2,8.157257E1,1.580345E2,3.2984183E2,1.4766327E2,4.510157E1,3.6471004E1,1.3592105E1,1.444424E2,3.1485602E2,1.4985818E1,7.7213486E1,7.044978E1,2.789947E1,1.7202099E1,3.244456E1,4.0264416E0,7.548194E0,6.0439115E0,1.4186172E2,2.5806785E0,5.2625623E0,3.0959348E2,7.1793585E0,7.806459E0,3.434078E1,4.2872707E1,1.054891E1,5.990087E1,4.58517E0,2.33143E1,4.0035625E0,1.3198536E1,3.1295862E1,1.1486994E0,1.4005675E0,2.625874E0,1.3058002E0,6.2423935E0,1.5277594E0,4.516152E0,1.3942242E2,2.4392946E0,1.1135788E0,4.1489835E0,3.0758994E2,2.003528E0,5.4762554E0,1.7031031E0,6.548733E0,1.2577258E0,1.6017982E1,1.8322796E1,3.935926E1,3.5134435E0,7.562026E0,2.986884E0,4.9573578E1,1.0327291E1,1.2617413E0,3.3234286E0,2.1719221E1,1.5950791E0,1.0379953E0,2.9655669E0,1.1735739E1,1.4627972E0,1.031255E0,3.0264606E1,1.0143926E0,3.5017593E0,1.358295E2,3.5929265E0,1.0510772E0,1.3882172E0,2.9721658E2,1.037335E1,1.0359163E0,4.440339E0,4.748949E0,1.1269034E1,2.2815244E0,1.6041271E1,1.0832504E0,3.8276012E1,2.0308702E0,1.482573E0,1.609812E0,1.377072E0,4.466444E1,4.909139E0,1.5479747E0,8.779316E0],"tree_param":{"num_deleted":"0","num_feature":"384","num_nodes":"95","size_leaf_vector":"0"}},{"base_weights":[-2.976681E-1,-6.8846166E-1,5.5619353E-1,-8.3855367E-1,3.9609066E-1,-3.138164E-1,9.3495625E-1,-1.0484502E0,-3.8636544E-1,8.818431E-1,-5.5323684E-1,2.4073002E-1,-1.0432274E0,1.0630721E0,-2.9574227E-1,-1.1566597E0,-3.2372615E-1,-1.0341806E0,-5.502528E-3,1.1320505E0,-4.0580157E-2,7.3127633E-1,-9.1968524E-1,-8.9829755E-1,5.767148E-1,2.0401765E-1,-1.2464769E0,1.1470351E0,-3.7568787E-1,-7.5570506E-1,1.0580478E0,-1.1765668E0,2.437335E-1,-1.0465819E0,3.5998505E-1,-1.2034147E0,-3.1505544E-2,4.4365546E-1,-5.9856695E-1,1.2221766E0,-4.183449E-1,-8.0981237E-1,8.3572704E-1,1.1912493E0,-4.5007208E-1,-1.1201217E0,5.418733E-1,8.716856E-1,-1.330784E0,9.188117E-1,-6.563615E-1,-7.04624E-1,7.2388613E-1,-5.4120445E-1,1.185246E0,4.8653677E-1,-8.629946E-1,6.4427274E-1,-1.0587019E0,1.2077824E0,3.1759185E-1,7.2948135E-2,-1.1896333E0,8.8427395E-1,-7.921995E-1,-1.1926132E0,5.8225036E-1,1.1705121E0,-4.5973432E-1,-1.099686E-1,-1.2591689E0,-9.650891E-1,1.0454289E0,-6.65383E-1,6.968748E-1,1.4705244E0,-7.624013E-1,2.0942475E-1,1.2995877E0,2.0781672E-1,-1.1183015E0,9.613011E-1,2.0471588E-1,-1.2378035E0,1.5771137E-1,-5.853642E-1,1.1250043E0,3.5457775E-1,-1.0755283E0,3.8024592E-1,-1.1408117E0,1.221656E0,-1.7805982E-1,8.8762385E-1,-2.2587408E-1,5.1843908E-2,-1.1171488E0,-1.1585966E0,-1.3412452E-1],"categories":[],"categories_nodes":[],"categories_segments":[],"categories_sizes":[],"default_left":[1,1,1,1,1,1,1,1,1,1,1,1,1,1,1,1,1,1,1,1,1,1,1,1,1,1,0,1,1,1,1,1,1,1,1,1,1,1,1,1,0,1,1,0,0,1,0,0,0,1,1,0,0,1,1,1,1,0,1,0,0,0,0,0,0,0,0,0,0,0,0,0,0,0,0,0,0,0,0,0,0,0,0,0,0,0,0,0,0,0,0,0,0,0,0,0,0,0,0],"id":3,"left_children":[1,3,5,7,9,11,13,15,17,19,21,23,25,27,29,31,33,35,37,39,41,43,45,47,49,51,-1,53,55,57,59,61,63,65,67,69,71,73,75,77,-1,79,81,-1,-1,83,-1,-1,-1,85,87,-1,-1,89,91,93,95,-1,97,-1,-1,-1,-1,-1,-1,-1,-1,-1,-1,-1,-1,-1,-1,-1,-1,-1,-1,-1,-1,-1,-1,-1,-1,-1,-1,-1,-1,-1,-1,-1,-1,-1,-1,-1,-1,-1,-1,-1,-1],"loss_changes":[2.0591992E2,6.919116E1,6.4205826E1,3.489377E1,2.451477E1,2.43491E1,2.1659386E1,1.9499329E1,2.9475283E1,8.089859E0,9.263298E0,1.3781269E1,6.8246994E0,1.52690735E1,9.234748E0,6.422943E0,1.7334347E1,7.468052E0,2.0577835E1,4.347004E0,6.34045E0,3.0400817E0,4.8965406E0,7.502433E0,1.214941E1,2.631575E0,0E0,8.144089E0,3.5821075E0,5.218508E0,4.3491364E-2,3.632843E0,3.2973402E0,4.722391E0,1.2748068E1,2.1671677E0,8.463733E0,1.2810451E1,1.240532E1,1.7816887E0,0E0,1.7964659E0,1.5342355E-1,0E0,0E0,2.1806297E0,0E0,0E0,0E0,7.433441E0,3.1475933E0,0E0,0E0,2.23531E0,5.8783875E0,1.1597462E0,1.2597618E0,0E0,6.915388E-1,0E0,0E0,0E0,0E0,0E0,0E0,0E0,0E0,0E0,0E0,0E0,0E0,0E0,0E0,0E0,0E0,0E0,0E0,0E0,0E0,0E0,0E0,0E0,0E0,0E0,0E0,0E0,0E0,0E0,0E0,0E0,0E0,0E0,0E0,0E0,0E0,0E0,0E0,0E0,0E0],"parents":[2147483647,0,0,1,1,2,2,3,3,4,4,5,5,6,6,7,7,8,8,9,9,10,10,11,11,12,12,13,13,14,14,15,15,16,16,17,17,18,18,19,19,20,20,21,21,22,22,23,23,24,24,25,25,27,27,28,28,29,29,30,30,31,31,32,32,33,33,34,34,35,35,36,36,37,37,38,38,39,39,41,41,42,42,45,45,49,49,50,50,53,53,54,54,55,55,56,56,58,58],"right_children":[2,4,6,8,10,12,14,16,18,20,22,24,26,28,30,32,34,36,38,40,42,44,46,48,50,52,-1,54,56,58,60,62,64,66,68,70,72,74,76,78,-1,80,82,-1,-1,84,-1,-1,-1,86,88,-1,-1,90,92,94,96,-1,98,-1,-1,-1,-1,-1,-1,-1,-1,-1,-1,-1,-1,-1,-1,-1,-1,-1,-1,-1,-1,-1,-1,-1,-1,-1,-1,-1,-1,-1,-1,-1,-1,-1,-1,-1,-1,-1,-1,-1,-1],"split_conditions":[2.060306E-2,9.5963225E-2,5.8569703E-3,-3.5795905E-2,1.5929915E-2,8.753605E-3,5.2807674E-2,3.2054693E-2,-4.476204E-3,5.4728523E-2,-4.7595955E-2,-2.5268111E-2,5.4866737E-3,5.305761E-2,3.5527155E-2,1.2561762E-1,2.5878422E-2,2.0156927E-2,4.4025183E-2,8.2935125E-2,5.032648E-2,-1.7239142E-2,6.46617E-3,-4.822898E-2,-4.0915634E-2,-3.0308962E-2,-3.739431E-1,-4.9770407E-2,8.780882E-3,-1.9190062E-2,2.845505E-3,-6.487997E-2,2.1756046E-2,3.1884834E-2,8.75248E-2,-4.6262115E-2,3.2566782E-2,-5.7237357E-2,-2.8158382E-3,-1.3855806E-2,-1.2550347E-1,-1.6274836E-2,1.0692428E-2,3.573748E-1,-1.3502163E-1,2.7884081E-2,1.6256198E-1,2.615057E-1,-3.9923522E-1,-5.0984368E-2,1.5209867E-2,-2.113872E-1,2.1716584E-1,2.7956076E-2,9.993345E-3,-7.379559E-2,-4.1283116E-2,1.9328183E-1,5.2603535E-2,3.6233473E-1,9.5277555E-2,2.1884441E-2,-3.5689E-1,2.6528218E-1,-2.3765986E-1,-3.5778397E-1,1.746751E-1,3.5115364E-1,-1.379203E-1,-3.2990582E-2,-3.7775066E-1,-2.8952673E-1,3.1362867E-1,-1.996149E-1,2.0906244E-1,4.4115734E-1,-2.287204E-1,6.282743E-2,3.8987634E-1,6.2345017E-2,-3.3549047E-1,2.8839034E-1,6.1414767E-2,-3.7134105E-1,4.7313415E-2,-1.7560928E-1,3.375013E-1,1.0637333E-1,-3.2265848E-1,1.1407378E-1,-3.4224352E-1,3.664968E-1,-5.3417947E-2,2.6628718E-1,-6.7762226E-2,1.5553173E-2,-3.3514464E-1,-3.47579E-1,-4.0237356E-2],"split_indices":[57,303,4,325,335,13,102,193,92,78,202,124,102,136,207,232,80,214,102,316,80,41,292,116,251,179,0,108,347,198,59,311,351,305,35,91,106,344,286,156,0,61,225,0,0,234,0,0,0,142,102,0,0,53,378,51,253,0,95,0,0,0,0,0,0,0,0,0,0,0,0,0,0,0,0,0,0,0,0,0,0,0,0,0,0,0,0,0,0,0,0,0,0,0,0,0,0,0,0],"split_type":[0,0,0,0,0,0,0,0,0,0,0,0,0,0,0,0,0,0,0,0,0,0,0,0,0,0,0,0,0,0,0,0,0,0,0,0,0,0,0,0,0,0,0,0,0,0,0,0,0,0,0,0,0,0,0,0,0,0,0,0,0,0,0,0,0,0,0,0,0,0,0,0,0,0,0,0,0,0,0,0,0,0,0,0,0,0,0,0,0,0,0,0,0,0,0,0,0,0,0],"sum_hessian":[6.1496375E2,4.2201193E2,1.929518E2,3.7090845E2,5.110348E1,5.8575832E1,1.3437598E2,2.524211E2,1.18487366E2,3.3852764E1,1.7250717E1,3.36573E1,2.4918531E1,1.2182969E2,1.2546282E1,2.1910957E2,3.3311516E1,4.323425E1,7.525312E1,2.6450739E1,7.4020243E0,3.608E0,1.3642716E1,7.285382E0,2.6371918E1,3.49116E0,2.1427372E1,1.1530358E2,6.5261083E0,9.694329E0,2.851953E0,2.1619609E2,2.9134834E0,1.5934249E1,1.7377268E1,3.681955E1,6.4147005E0,4.296526E1,3.2287857E1,2.5197674E1,1.2530646E0,3.9822457E0,3.4197786E0,2.590842E0,1.0171583E0,1.2202844E1,1.4398725E0,1.231177E0,6.0542045E0,2.0843964E1,5.5279546E0,1.1411809E0,2.349979E0,2.260623E0,1.1304296E2,2.3571045E0,4.1690035E0,1.5244355E0,8.169893E0,1.8472664E0,1.0046867E0,2.1899657E0,2.1400613E2,1.890774E0,1.0227093E0,1.4868994E1,1.0652552E0,8.522449E0,8.85482E0,1.9305301E0,3.488902E1,3.491666E0,2.9230344E0,7.6839128E0,3.5281345E1,1.7838343E0,3.0504025E1,2.0523696E0,2.3145306E1,1.0022877E0,2.9799578E0,2.4156282E0,1.0041503E0,1.1202479E1,1.0003645E0,2.2911432E0,1.855282E1,1.6654177E0,3.8625367E0,1.0353632E0,1.2252597E0,1.10203636E2,2.8393238E0,1.350711E0,1.0063936E0,1.079459E0,3.0895445E0,7.1448298E0,1.0250633E0],"tree_param":{"num_deleted":"0","num_feature":"384","num_nodes":"99","size_leaf_vector":"0"}},{"base_weights":[-2.586259E-1,2.6729554E-1,-7.395889E-1,-4.2819494E-1,6.62473E-1,2.1296299E-1,-8.6733645E-1,5.3001244E-2,-9.013594E-1,-5.6655234E-1,8.645245E-1,-8.5166454E-1,1.0703298E0,3.0074604E-2,-9.65306E-1,3.3131114E-1,-1.0338911E0,-1.0931635E0,3.807971E-1,-9.606703E-1,5.148727E-1,-6.3771904E-1,9.294337E-1,7.077354E-1,-1.0813832E0,-1.1635826E-1,1.2555354E0,-5.03456E-1,8.1744546E-1,-1.0534835E0,-3.3091724E-1,-3.0391046E-1,7.6374084E-1,8.1029125E-2,-1.1739542E0,-1.1721312E0,1.4517027E-1,1.1073422E0,-5.008304E-1,-1.0805413E0,4.2452028E-1,-5.614403E-1,1.1459041E0,-1.0194479E0,4.254516E-1,1.004658E0,-3.792036E-1,-8.9703724E-2,-1.1700879E0,-8.442791E-1,7.284186E-1,1.1652956E-1,1.3351141E0,-8.1541854E-1,9.697855E-1,1.3581704E0,1.7918235E-1,9.5838934E-1,-1.069899E0,5.995998E-1,-7.696147E-1,-6.042451E-1,9.8379993E-1,-8.907519E-1,9.4686663E-1,-2.1683252E-1,-1.2181923E0,8.618224E-1,-5.443966E-1,-8.0964285E-1,1.6121428E-1,-1.1501704E0,-7.1551405E-2,-1.319157E-1,-7.0628405E-1,1.3989072E-1,1.3969892E0,1.9630975E-1,1.0968165E0,5.311274E-1,-9.3837464E-1,5.667453E-1,-9.9659866E-1,-9.372078E-2,-1.1058915E0,1.0511197E0,-5.971618E-1,-1.1180432E0,8.550848E-2],"categories":[],"categories_nodes":[],"categories_segments":[],"categories_sizes":[],"default_left":[1,1,1,1,1,1,1,1,1,1,1,1,1,1,1,1,1,1,1,1,1,1,1,0,1,1,1,1,1,1,1,1,1,0,0,1,1,0,1,1,0,1,1,0,0,1,1,0,0,0,0,0,0,1,0,0,0,0,1,1,1,0,0,0,0,0,0,0,0,0,0,0,0,0,0,0,0,0,0,0,0,0,0,0,0,0,0,0,0],"id":4,"left_children":[1,3,5,7,9,11,13,15,17,19,21,23,25,27,29,31,33,35,37,39,41,43,45,-1,47,49,51,53,55,57,59,61,63,-1,-1,65,67,-1,69,71,-1,73,75,-1,-1,77,79,-1,-1,-1,-1,-1,-1,81,-1,-1,-1,-1,83,85,87,-1,-1,-1,-1,-1,-1,-1,-1,-1,-1,-1,-1,-1,-1,-1,-1,-1,-1,-1,-1,-1,-1,-1,-1,-1,-1,-1,-1],"loss_changes":[1.3201262E2,6.889995E1,3.3338867E1,2.0781822E1,4.012079E1,3.1052675E1,2.11678E1,1.4285526E1,1.1721611E1,1.0355694E1,1.3995934E1,6.2415333E0,4.263525E0,1.07601185E1,1.1778961E1,1.0520377E1,1.6003933E0,4.105877E0,4.8614616E0,3.3322382E0,5.2828045E0,2.9849694E0,1.3391899E1,0E0,1.1019287E0,2.732998E0,1.3209515E0,7.824011E0,3.3222342E0,7.2964783E0,1.1856781E1,6.7380476E0,7.681348E0,0E0,0E0,1.4055061E0,2.1011927E0,0E0,8.9235234E-1,1.0565109E0,0E0,1.0565615E-1,9.753618E-1,0E0,0E0,9.11599E0,4.525074E0,0E0,0E0,0E0,0E0,0E0,0E0,3.8633842E0,0E0,0E0,0E0,0E0,6.530594E0,5.7644005E0,5.8784714E0,0E0,0E0,0E0,0E0,0E0,0E0,0E0,0E0,0E0,0E0,0E0,0E0,0E0,0E0,0E0,0E0,0E0,0E0,0E0,0E0,0E0,0E0,0E0,0E0,0E0,0E0,0E0,0E0],"parents":[2147483647,0,0,1,1,2,2,3,3,4,4,5,5,6,6,7,7,8,8,9,9,10,10,11,11,12,12,13,13,14,14,15,15,16,16,17,17,18,18,19,19,20,20,21,21,22,22,24,24,25,25,26,26,27,27,28,28,29,29,30,30,31,31,32,32,35,35,36,36,38,38,39,39,41,41,42,42,45,45,46,46,53,53,58,58,59,59,60,60],"right_children":[2,4,6,8,10,12,14,16,18,20,22,24,26,28,30,32,34,36,38,40,42,44,46,-1,48,50,52,54,56,58,60,62,64,-1,-1,66,68,-1,70,72,-1,74,76,-1,-1,78,80,-1,-1,-1,-1,-1,-1,82,-1,-1,-1,-1,84,86,88,-1,-1,-1,-1,-1,-1,-1,-1,-1,-1,-1,-1,-1,-1,-1,-1,-1,-1,-1,-1,-1,-1,-1,-1,-1,-1,-1,-1],"split_conditions":[-4.3176825E-4,5.0736345E-2,-3.284339E-2,-2.6293743E-2,-2.4702221E-2,4.5635104E-2,3.0158595E-3,-1.07957255E-2,2.151446E-3,5.8831222E-2,-6.969884E-2,-7.5444624E-2,-3.900574E-2,3.766511E-2,4.8432775E-2,-2.8481318E-2,-3.2987338E-2,1.3390233E-2,-1.1159249E-2,5.85773E-2,6.0340893E-3,-2.262465E-2,5.1900506E-2,2.1232064E-1,-1.055248E-1,4.2905E-2,-5.7108603E-2,2.3050299E-2,8.419723E-2,-5.8018718E-2,8.533464E-3,1.1129668E-2,-5.2155934E-2,2.430874E-2,-3.521863E-1,-4.392925E-2,-2.808693E-3,3.3220267E-1,-1.8139027E-2,2.745691E-3,1.273561E-1,3.1802602E-2,-2.9942155E-2,-3.0583438E-1,1.276355E-1,1.1094084E-2,-7.6133083E-3,-2.6911119E-2,-3.510264E-1,-2.5328374E-1,2.1852559E-1,3.495887E-2,4.0053424E-1,-4.5502223E-2,2.9093567E-1,4.0745112E-1,5.3754706E-2,2.875168E-1,-4.170706E-2,4.265181E-2,1.5371591E-2,-1.8127355E-1,2.9514E-1,-2.672256E-1,2.8406E-1,-6.504976E-2,-3.654577E-1,2.5854674E-1,-1.6331898E-1,-2.4289286E-1,4.8364285E-2,-3.4505114E-1,-2.1465423E-2,-3.9574713E-2,-2.1188523E-1,4.1967217E-2,4.190968E-1,5.8892924E-2,3.2904497E-1,1.5933822E-1,-2.815124E-1,1.7002359E-1,-2.989796E-1,-2.8116236E-2,-3.3176744E-1,3.1533593E-1,-1.7914855E-1,-3.3541298E-1,2.5652545E-2],"split_indices":[335,303,27,48,57,33,188,378,142,67,9,266,235,1,191,344,382,292,202,236,115,301,136,0,251,89,289,142,16,137,356,150,134,0,0,53,352,0,152,308,0,114,34,0,0,92,24,0,0,0,0,0,0,235,0,0,0,0,164,357,193,0,0,0,0,0,0,0,0,0,0,0,0,0,0,0,0,0,0,0,0,0,0,0,0,0,0,0,0],"split_type":[0,0,0,0,0,0,0,0,0,0,0,0,0,0,0,0,0,0,0,0,0,0,0,0,0,0,0,0,0,0,0,0,0,0,0,0,0,0,0,0,0,0,0,0,0,0,0,0,0,0,0,0,0,0,0,0,0,0,0,0,0,0,0,0,0,0,0,0,0,0,0,0,0,0,0,0,0,0,0,0,0,0,0,0,0,0,0,0,0],"sum_hessian":[5.201132E2,2.4865701E2,2.7145618E2,9.006466E1,1.5859236E2,3.2021355E1,2.3943483E2,4.50936E1,4.4971058E1,2.21367E1,1.3645566E2,1.4287112E1,1.7734241E1,2.3634384E1,2.1580045E2,3.645429E1,8.639317E0,3.924727E1,5.72379E0,1.6305819E1,5.830882E0,5.286283E0,1.3116937E2,1.5672522E0,1.271986E1,2.4443057E0,1.5289936E1,1.4303066E1,9.331319E0,1.8888548E2,2.6914967E1,1.4885417E1,2.1568869E1,1.0112357E0,7.628081E0,3.6944786E1,2.3024833E0,2.9975238E0,2.7262661E0,1.5209555E1,1.096263E0,2.1958432E0,3.6350389E0,3.9199567E0,1.3663263E0,1.24258896E2,6.910479E0,1.209495E0,1.1510365E1,1.3132788E0,1.131027E0,1.1594286E0,1.4130507E1,1.2172107E1,2.1309595E0,4.4410367E0,4.8902817E0,1.0642751E0,1.878212E2,8.506063E0,1.8408903E1,1.2500635E1,2.384782E0,1.7643436E0,1.9804525E1,1.9619415E0,3.4982845E1,1.006572E0,1.2959113E0,1.7070605E0,1.0192057E0,1.4096826E1,1.1127295E0,1.0355963E0,1.1602468E0,1.0370548E0,2.597984E0,1.3037084E1,1.1122181E2,2.648641E0,4.261838E0,1.1640296E0,1.1008077E1,6.807022E0,1.8101418E2,6.2643256E0,2.2417376E0,1.2861068E1,5.5478363E0],"tree_param":{"num_deleted":"0","num_feature":"384","num_nodes":"89","size_leaf_vector":"0"}},{"base_weights":[-2.2499914E-1,4.9141425E-1,-5.156763E-1,6.89959E-1,-6.2249666E-1,-6.954085E-1,8.765449E-2,8.225112E-1,-3.8695937E-1,-9.4626075E-1,5.165498E-1,-8.699995E-1,-1.4891589E-1,-8.3417577E-1,3.9612082E-1,-7.891482E-2,9.3061715E-1,-8.941144E-1,4.2184782E-1,2.2910151E-1,-1.0994852E0,-4.225263E-1,8.9579946E-1,9.8589355E-1,-8.971087E-1,1.4989622E-1,-8.7019914E-1,-9.590575E-1,6.4743227E-1,-7.263918E-1,6.709304E-1,7.9147196E-1,-6.4951676E-1,9.866379E-1,-4.180107E-1,-1.1017342E0,1.1353307E-1,-5.2428293E-1,8.4626055E-1,-2.9762658E-1,-1.1397927E0,-9.709745E-1,-3.8588172E-1,6.5900546E-1,-3.1812784E-1,-1.0345083E0,6.2985575E-1,-1.0767314E0,3.8822167E-2,-9.808727E-1,7.492719E-1,2.2971481E-1,1.0877898E0,4.8225686E-2,9.773794E-1,-9.611607E-1,5.295561E-1,1.0335245E0,-1.3944863E-1,5.3114235E-1,-9.8671E-1,-1.199412E0,-2.9218367E-1,5.1548755E-1,-9.9443287E-1,-8.8294375E-1,1.317763E-1,1.036456E0,-3.9174846E-1,-5.3188497E-1,8.255747E-1,-1.1106597E0,5.8061887E-2,-3.2179847E-1,-1.107547E0,1.5300238E-1,-1.1357567E0,5.0399745E-1,-8.5502654E-1,1.1619059E0,-2.2091064E-1],"categories":[],"categories_nodes":[],"categories_segments":[],"categories_sizes":[],"default_left":[1,1,1,1,1,1,1,1,1,1,1,1,1,1,1,1,1,1,1,0,1,0,0,0,1,1,1,1,0,1,1,1,1,1,1,1,0,0,0,0,0,1,1,1,1,1,0,1,0,1,0,1,1,0,0,0,0,0,0,0,0,0,0,0,0,0,0,0,0,0,0,0,0,0,0,0,0,0,0,0,0],"id":5,"left_children":[1,3,5,7,9,11,13,15,17,19,21,23,25,27,29,31,33,35,37,-1,39,-1,-1,-1,41,43,45,47,-1,49,51,53,55,57,59,61,-1,-1,-1,-1,-1,63,65,67,69,71,-1,73,-1,75,-1,77,79,-1,-1,-1,-1,-1,-1,-1,-1,-1,-1,-1,-1,-1,-1,-1,-1,-1,-1,-1,-1,-1,-1,-1,-1,-1,-1,-1,-1],"loss_changes":[9.1955826E1,2.8652517E1,3.4082863E1,1.5846718E1,7.801981E0,2.2945526E1,2.1059902E1,9.54361E0,5.546435E0,3.0964146E0,2.1720405E0,1.0095642E1,1.3011003E1,4.0623903E0,1.7546274E1,6.140259E0,6.9741745E0,1.8125429E0,2.666708E0,0E0,1.179657E-1,0E0,0E0,0E0,6.459152E0,1.04816475E1,5.002576E0,2.103426E0,0E0,4.9994435E0,8.016508E0,6.3497376E-1,3.2251272E0,4.562584E0,2.7729614E0,1.8578911E-1,0E0,0E0,0E0,0E0,0E0,6.003357E0,6.4220304E0,8.72454E0,6.0951853E0,1.4197178E0,0E0,9.759903E-3,0E0,1.9508238E0,0E0,7.304382E0,2.472292E0,0E0,0E0,0E0,0E0,0E0,0E0,0E0,0E0,0E0,0E0,0E0,0E0,0E0,0E0,0E0,0E0,0E0,0E0,0E0,0E0,0E0,0E0,0E0,0E0,0E0,0E0,0E0,0E0],"parents":[2147483647,0,0,1,1,2,2,3,3,4,4,5,5,6,6,7,7,8,8,9,9,10,10,11,11,12,12,13,13,14,14,15,15,16,16,17,17,18,18,20,20,24,24,25,25,26,26,27,27,29,29,30,30,31,31,32,32,33,33,34,34,35,35,41,41,42,42,43,43,44,44,45,45,47,47,49,49,51,51,52,52],"right_children":[2,4,6,8,10,12,14,16,18,20,22,24,26,28,30,32,34,36,38,-1,40,-1,-1,-1,42,44,46,48,-1,50,52,54,56,58,60,62,-1,-1,-1,-1,-1,64,66,68,70,72,-1,74,-1,76,-1,78,80,-1,-1,-1,-1,-1,-1,-1,-1,-1,-1,-1,-1,-1,-1,-1,-1,-1,-1,-1,-1,-1,-1,-1,-1,-1,-1,-1,-1],"split_conditions":[1.4477852E-2,3.741406E-2,8.05217E-2,2.3389193E-3,6.0079586E-2,-1.3855047E-2,-2.5091438E-2,-5.9181236E-2,8.659508E-5,-4.2260803E-2,-3.818983E-2,-3.606287E-2,2.67589E-2,8.8614985E-2,-6.852248E-2,-2.5543693E-2,2.9810023E-2,3.1565543E-2,3.2175598E-3,6.873046E-2,-8.1718534E-2,-1.2675789E-1,2.6873985E-1,2.9576808E-1,7.77221E-2,-5.085346E-2,4.009915E-2,2.6089795E-2,1.9422969E-1,8.341578E-2,1.7142244E-2,-5.3271595E-2,5.7535067E-2,8.331372E-2,-2.1311369E-2,-1.790959E-2,3.4059923E-2,-1.5728489E-1,2.5387818E-1,-8.928798E-2,-3.419378E-1,-1.19099885E-1,-1.9146172E-2,5.1231325E-2,2.931638E-2,6.6044465E-2,1.8895674E-1,-7.185984E-2,1.1646651E-2,-5.5928E-2,2.2478159E-1,1.5708093E-2,-4.8636054E-3,1.4467706E-2,2.932138E-1,-2.8834823E-1,1.5886684E-1,3.1005737E-1,-4.183459E-2,1.593427E-1,-2.9601303E-1,-3.598236E-1,-8.7655105E-2,1.5464628E-1,-2.9832986E-1,-2.6488313E-1,3.9532892E-2,3.109368E-1,-1.1752454E-1,-1.595655E-1,2.4767242E-1,-3.3319792E-1,1.7418567E-2,-9.653955E-2,-3.3226413E-1,4.5900717E-2,-3.4072703E-1,1.5119924E-1,-2.5650796E-1,3.4857178E-1,-6.62732E-2],"split_indices":[102,3,303,21,33,142,57,344,189,173,9,160,13,80,325,296,123,38,115,0,49,0,0,0,33,378,103,191,0,80,305,135,1,53,26,96,0,0,0,0,0,195,157,24,273,22,0,136,0,263,0,364,326,0,0,0,0,0,0,0,0,0,0,0,0,0,0,0,0,0,0,0,0,0,0,0,0,0,0,0,0],"split_type":[0,0,0,0,0,0,0,0,0,0,0,0,0,0,0,0,0,0,0,0,0,0,0,0,0,0,0,0,0,0,0,0,0,0,0,0,0,0,0,0,0,0,0,0,0,0,0,0,0,0,0,0,0,0,0,0,0,0,0,0,0,0,0,0,0,0,0,0,0,0,0,0,0,0,0,0,0,0,0,0,0],"sum_hessian":[4.3935825E2,1.2661292E2,3.1274533E2,1.0778229E2,1.883064E1,2.4084502E2,7.190032E1,9.618021E1,1.1602079E1,1.4794642E1,4.0359974E0,1.8208223E2,5.876278E1,1.7599918E1,5.4300404E1,1.0328396E1,8.585181E1,7.065962E0,4.536118E0,1.6491377E0,1.3145505E1,1.1282295E0,2.907768E0,2.1122184E0,1.7997002E2,4.2109783E1,1.6652994E1,1.6557049E1,1.0428687E0,1.0356014E1,4.394439E1,3.9365559E0,6.39184E0,8.268555E1,3.1662657E0,5.781372E0,1.2845899E0,1.3318192E0,3.204299E0,1.0304358E0,1.2115068E1,1.5646368E2,2.3506336E1,1.9974154E1,2.213563E1,1.5288693E1,1.3643014E0,1.4739848E1,1.8172009E0,9.118767E0,1.2372473E0,2.2102037E1,2.1842352E1,1.0396215E0,2.8969345E0,5.201764E0,1.190076E0,7.945931E1,3.2262325E0,1.2110598E0,1.9552059E0,4.729185E0,1.0521866E0,2.1049774E0,1.543587E2,1.1631738E1,1.1874598E1,1.4705331E1,5.2688227E0,1.9100674E1,3.0349572E0,1.4277038E1,1.0116557E0,1.0268308E0,1.3713017E1,1.0973606E0,8.021406E0,1.8068657E1,4.0333805E0,2.0777802E1,1.0645493E0],"tree_param":{"num_deleted":"0","num_feature":"384","num_nodes":"81","size_leaf_vector":"0"}},{"base_weights":[-1.9506182E-1,-4.6833503E-1,4.350621E-1,-6.871262E-1,6.297341E-2,7.888669E-1,-1.0631055E-1,-1.7486715E-1,-8.7702775E-1,5.701456E-1,-4.7599694E-1,8.992137E-1,-1.4183202E-1,5.2015054E-1,-5.2613497E-1,-6.2809277E-1,4.8967427E-1,5.766814E-1,-9.262816E-1,5.5963304E-3,9.002128E-1,-8.7797356E-1,9.673381E-2,1.533691E-1,1.0158595E0,6.379613E-1,-7.672863E-1,9.2725265E-1,-3.5732865E-1,1.5210058E-1,-8.3199024E-1,-7.648485E-1,5.361371E-1,-3.5276994E-1,9.567436E-1,-3.6790788E-1,9.1624105E-1,2.2299579E-1,-9.795527E-1,5.7797897E-1,-7.3275757E-1,-5.9207356E-1,1.0159346E0,-9.837969E-1,6.555165E-1,-8.119963E-1,3.3977714E-1,-7.702061E-1,6.255597E-1,1.0784391E0,-2.4527465E-1,-1.4784653E-1,9.824622E-1,-5.5626888E-2,-9.439129E-1,-1.6093042E-1,1.0780011E0,-9.358946E-1,4.555874E-1,6.3834035E-1,-7.5769246E-1,2.0386982E-1,-9.7465754E-1,4.0377387E-1,-8.64197E-1,1.180604E0,-4.9123615E-1,-7.054307E-1,5.2570057E-1,-3.9253686E-2,1.2168357E0,7.289175E-1,-5.225932E-1,4.147378E-1,-1.0033457E0,1.026841E0,-2.2325496E-1,4.26139E-1,-1.0192195E0,-4.6392918E-1,1.1185313E0,-1.0446465E0,1.236232E-1,7.101476E-1,-1.17944784E-1,-1.4205866E-1,-9.6011597E-1,9.3898475E-1,-5.7325053E-1,-8.927758E-2,1.1047114E0,-7.507893E-1,3.6527786E-1,1.1205899E0,3.2218897E-1,7.046275E-1,-7.8509346E-2,9.686229E-1,-2.3048106E-1,6.2441224E-1,-3.272734E-1,-1.1039954E0,-2.8026187E-1],"categories":[],"categories_nodes":[],"categories_segments":[],"categories_sizes":[],"default_left":[1,1,1,1,1,1,1,1,1,1,1,1,1,1,1,1,1,1,1,1,1,1,1,1,1,1,1,1,1,1,1,1,1,1,1,0,0,1,1,1,1,0,1,1,0,0,1,1,1,1,1,0,0,0,0,0,1,0,1,1,0,1,1,0,0,0,0,0,0,0,0,0,0,0,0,0,0,0,0,0,0,0,0,0,0,0,0,0,0,0,0,0,0,0,0,0,0,0,0,0,0,0,0],"id":6,"left_children":[1,3,5,7,9,11,13,15,17,19,21,23,25,27,29,31,33,35,37,39,41,43,45,47,49,51,53,55,57,59,61,63,65,67,69,-1,-1,71,73,75,77,-1,79,81,-1,-1,83,85,87,89,91,-1,-1,-1,-1,-1,93,-1,95,97,-1,99,101,-1,-1,-1,-1,-1,-1,-1,-1,-1,-1,-1,-1,-1,-1,-1,-1,-1,-1,-1,-1,-1,-1,-1,-1,-1,-1,-1,-1,-1,-1,-1,-1,-1,-1,-1,-1,-1,-1,-1,-1],"loss_changes":[6.462121E1,3.043148E1,2.1858149E1,1.7867325E1,2.1364767E1,7.200306E0,1.2322248E1,1.5773495E1,1.0192963E1,7.4877987E0,8.823149E0,5.2125053E0,4.4710684E0,7.0774336E0,5.9197025E0,5.3404646E0,8.75128E0,1.9527035E0,8.230171E0,7.1186523E0,4.9824486E0,4.280184E0,3.931978E0,4.6348186E0,4.4617043E0,1.2766892E0,5.739801E-1,2.335246E0,3.5807126E0,4.6973286E0,3.065938E0,3.614149E0,3.1244693E0,2.9599729E0,3.6811152E0,0E0,0E0,2.8748507E0,4.5711975E0,3.6397464E0,2.8773477E0,0E0,4.1493587E0,1.5681858E0,0E0,0E0,2.4174035E0,3.013866E-1,3.11326E0,1.6587219E0,1.3016971E0,0E0,0E0,0E0,0E0,0E0,1.5717506E-2,0E0,5.156957E-1,2.1602643E0,0E0,9.137008E-1,1.2376785E0,0E0,0E0,0E0,0E0,0E0,0E0,0E0,0E0,0E0,0E0,0E0,0E0,0E0,0E0,0E0,0E0,0E0,0E0,0E0,0E0,0E0,0E0,0E0,0E0,0E0,0E0,0E0,0E0,0E0,0E0,0E0,0E0,0E0,0E0,0E0,0E0,0E0,0E0,0E0,0E0],"parents":[2147483647,0,0,1,1,2,2,3,3,4,4,5,5,6,6,7,7,8,8,9,9,10,10,11,11,12,12,13,13,14,14,15,15,16,16,17,17,18,18,19,19,20,20,21,21,22,22,23,23,24,24,25,25,26,26,27,27,28,28,29,29,30,30,31,31,32,32,33,33,34,34,37,37,38,38,39,39,40,40,42,42,43,43,46,46,47,47,48,48,49,49,50,50,56,56,58,58,59,59,61,61,62,62],"right_children":[2,4,6,8,10,12,14,16,18,20,22,24,26,28,30,32,34,36,38,40,42,44,46,48,50,52,54,56,58,60,62,64,66,68,70,-1,-1,72,74,76,78,-1,80,82,-1,-1,84,86,88,90,92,-1,-1,-1,-1,-1,94,-1,96,98,-1,100,102,-1,-1,-1,-1,-1,-1,-1,-1,-1,-1,-1,-1,-1,-1,-1,-1,-1,-1,-1,-1,-1,-1,-1,-1,-1,-1,-1,-1,-1,-1,-1,-1,-1,-1,-1,-1,-1,-1,-1,-1],"split_conditions":[4.8560597E-2,1.9894984E-2,-3.7363097E-2,-3.348686E-2,1.0049255E-2,7.385394E-2,-3.8304955E-2,8.997218E-3,-6.375957E-2,1.4076092E-2,-3.8695127E-2,-1.8812647E-2,1.1332208E-2,-5.766037E-3,-1.2975541E-2,4.874394E-2,-2.7060265E-2,-5.79487E-3,-1.495032E-2,1.0027392E-1,-5.1400002E-2,6.606369E-2,2.6704252E-2,-2.529846E-2,1.4760434E-2,6.6107534E-2,-3.4764536E-2,-2.486365E-3,-2.3019284E-2,-1.4194701E-2,-6.163095E-3,-1.00282714E-1,4.421383E-2,4.7261238E-2,3.5092045E-2,-1.1037237E-1,2.7487233E-1,1.3964992E-2,-5.5803224E-2,2.252358E-2,-8.381071E-2,-1.7762208E-1,1.4420658E-2,5.0878122E-2,1.9665496E-1,-2.435989E-1,5.6975454E-2,6.1952792E-2,5.4543704E-2,2.0005542E-3,-2.753122E-3,-4.4353962E-2,2.9473868E-1,-1.6688067E-2,-2.831739E-1,-4.827913E-2,5.7350144E-2,-2.807684E-1,2.056701E-2,1.2235124E-2,-2.2730775E-1,4.7781754E-2,5.1630765E-2,1.21132165E-1,-2.592591E-1,3.541812E-1,-1.4737085E-1,-2.1162921E-1,1.5771018E-1,-1.1776106E-2,3.6505073E-1,2.1867526E-1,-1.5677796E-1,1.2442134E-1,-3.0100372E-1,3.0805233E-1,-6.6976495E-2,1.2784171E-1,-3.0576587E-1,-1.3917875E-1,3.3555943E-1,-3.1339395E-1,3.708696E-2,2.130443E-1,-3.5383437E-2,-4.2617597E-2,-2.880348E-1,2.8169543E-1,-1.7197517E-1,-2.6783274E-2,3.3141345E-1,-2.2523679E-1,1.0958336E-1,3.3617696E-1,9.6656695E-2,2.1138826E-1,-2.3552805E-2,2.905869E-1,-6.914432E-2,1.8732367E-1,-9.818202E-2,-3.3119863E-1,-8.4078565E-2],"split_indices":[92,214,378,62,136,53,13,92,192,191,325,124,356,364,178,73,0,28,53,35,4,320,303,216,21,303,277,363,9,55,361,327,53,89,247,0,0,55,211,27,190,0,67,56,0,0,102,212,102,33,39,0,0,0,0,0,56,0,18,3,0,233,382,0,0,0,0,0,0,0,0,0,0,0,0,0,0,0,0,0,0,0,0,0,0,0,0,0,0,0,0,0,0,0,0,0,0,0,0,0,0,0,0],"split_type":[0,0,0,0,0,0,0,0,0,0,0,0,0,0,0,0,0,0,0,0,0,0,0,0,0,0,0,0,0,0,0,0,0,0,0,0,0,0,0,0,0,0,0,0,0,0,0,0,0,0,0,0,0,0,0,0,0,0,0,0,0,0,0,0,0,0,0,0,0,0,0,0,0,0,0,0,0,0,0,0,0,0,0,0,0,0,0,0,0,0,0,0,0,0,0,0,0,0,0,0,0,0,0],"sum_hessian":[3.7309378E2,2.6041382E2,1.12679955E2,1.8424785E2,7.616597E1,6.786851E1,4.481145E1,5.0349903E1,1.3389795E2,3.921074E1,3.695523E1,6.0704952E1,7.1635528E0,1.7884808E1,2.6926643E1,2.9966928E1,2.0382975E1,4.0370674E0,1.2986089E2,1.4841937E1,2.4368803E1,2.1401453E1,1.5553778E1,8.522989E0,5.2181965E1,3.1794877E0,3.984065E0,1.2178111E1,5.7066965E0,8.525037E0,1.8401606E1,2.7123878E1,2.8430493E0,7.35736E0,1.3025615E1,1.0454217E0,2.9916458E0,5.611505E0,1.24249374E2,8.483E0,6.3589377E0,1.4574864E0,2.2911316E1,2.0355234E1,1.0462186E0,2.7881258E0,1.2765652E1,2.6698315E0,5.8531575E0,4.985304E1,2.3289254E0,1.1430423E0,2.0364456E0,1.0536532E0,2.9304118E0,1.473568E0,1.0704543E1,3.245523E0,2.4611738E0,5.750203E0,2.7748342E0,2.1756852E0,1.6225922E1,1.8851321E0,2.5238747E1,1.6554466E0,1.1876026E0,5.390378E0,1.9669814E0,2.8729625E0,1.0152653E1,3.356382E0,2.2551231E0,1.8090078E0,1.2244037E2,5.256604E0,3.2263951E0,1.1636674E0,5.1952705E0,1.2570901E0,2.1654226E1,1.934876E1,1.0064743E0,6.7512913E0,6.0143604E0,1.0255954E0,1.6442361E0,4.8118505E0,1.041307E0,1.0441873E0,4.880885E1,1.1484027E0,1.1805228E0,9.67665E0,1.0278931E0,1.4607588E0,1.000415E0,4.083131E0,1.6670727E0,1.1162629E0,1.0594223E0,1.3180973E1,3.0449483E0],"tree_param":{"num_deleted":"0","num_feature":"384","num_nodes":"103","size_leaf_vector":"0"}},{"base_weights":[-1.6836858E-1,-6.327613E-1,1.4955285E-1,1.6683113E-2,-7.8921896E-1,5.6746525E-1,-2.8065193E-1,8.99702E-1,-4.4158632E-1,-9.409166E-1,-3.2754418E-1,7.4252516E-1,-3.0144617E-1,2.2872533E-1,-5.5144644E-1,-1.577167E-1,1.0504072E0,3.0218944E-1,-8.3549964E-1,5.807949E-1,-9.7094995E-1,-7.0349354E-1,5.454256E-1,9.198506E-1,9.228657E-2,-6.1608446E-1,5.3031564E-1,4.2512035E-1,-7.0597273E-1,-7.5934577E-1,5.146224E-2,1.1528319E0,3.633096E-1,-3.9501497E-1,9.084914E-1,-9.8332566E-1,2.5674078E-1,-9.938831E-1,3.4247237E-1,4.4708475E-1,-8.998696E-1,1.0871844E0,-5.118824E-1,-4.267785E-1,9.642275E-1,9.2704296E-1,-2.6156178E-1,6.43691E-2,-9.4043267E-1,9.101299E-1,-3.039064E-1,6.5107274E-1,-4.317202E-1,-9.5200896E-1,2.549692E-1,-8.620174E-1,4.217167E-1,-3.680882E-1,8.5315204E-1,-7.7686447E-1,2.50234E-1,1.0412728E0,2.7385756E-1,-1.0446521E0,-2.4075127E-1,-1.0150331E0,2.1362914E-1,8.3349824E-1,-1.6840865E-1,8.411396E-2,-1.0162377E0,2.2551519E-1,1.2366728E0,1.3990827E-2,-7.178767E-1,4.3173987E-2,1.0312189E0,1.0487764E0,2.2240914E-1,3.736479E-1,-7.557439E-1,6.006308E-1,-5.981184E-1,-1.0237333E0,-1.5432975E-1,9.27105E-1,7.823119E-2,2.4895196E-1,-9.090608E-1,-1.0584313E0,-2.602798E-1,-1.7116378E-1,-9.7902864E-1,-6.28843E-1,1.0507871E0,3.5332242E-1,-8.5256845E-1,1.1580958E0,-8.791189E-2],"categories":[],"categories_nodes":[],"categories_segments":[],"categories_sizes":[],"default_left":[1,1,1,1,1,1,1,1,1,1,1,1,1,1,1,0,1,1,1,0,1,1,1,1,1,1,1,1,1,1,1,0,0,1,1,1,0,1,0,1,1,1,1,0,1,1,1,1,1,0,0,1,1,1,0,1,1,1,1,0,0,0,0,0,0,0,0,0,0,0,0,0,0,0,0,0,0,0,0,0,0,0,0,0,0,0,0,0,0,0,0,0,0,0,0,0,0,0,0],"id":7,"left_children":[1,3,5,7,9,11,13,15,17,19,21,23,25,27,29,-1,31,33,35,-1,37,39,41,43,45,47,49,51,53,55,57,-1,-1,59,61,63,-1,65,-1,67,69,71,73,-1,75,77,79,81,83,-1,-1,85,87,89,-1,91,93,95,97,-1,-1,-1,-1,-1,-1,-1,-1,-1,-1,-1,-1,-1,-1,-1,-1,-1,-1,-1,-1,-1,-1,-1,-1,-1,-1,-1,-1,-1,-1,-1,-1,-1,-1,-1,-1,-1,-1,-1,-1],"loss_changes":[4.6724815E1,1.3074448E1,3.4012184E1,1.0891974E1,6.9479904E0,1.4802547E1,1.3016492E1,1.6301866E0,5.451295E0,4.103554E0,9.296772E0,9.146286E0,4.7188225E0,6.384263E0,7.7236824E0,0E0,1.5643597E-1,3.2663987E0,2.168395E0,0E0,2.6393585E0,4.7901144E0,5.5619154E0,4.163994E0,5.6378965E0,2.8500457E0,1.9063255E0,5.704501E0,1.6921792E0,5.899292E0,5.91644E0,0E0,0E0,1.1543825E0,5.0391197E-2,2.3389053E-1,0E0,2.1391983E0,0E0,9.7262937E-1,2.022932E0,5.06587E-1,4.043997E-1,0E0,3.7253227E0,2.5206423E-1,4.554148E0,2.1412077E0,4.0668678E-1,0E0,0E0,3.495656E0,2.3209815E0,9.937477E-2,0E0,3.2541866E0,3.5175116E0,4.3670197E0,1.8304286E0,0E0,0E0,0E0,0E0,0E0,0E0,0E0,0E0,0E0,0E0,0E0,0E0,0E0,0E0,0E0,0E0,0E0,0E0,0E0,0E0,0E0,0E0,0E0,0E0,0E0,0E0,0E0,0E0,0E0,0E0,0E0,0E0,0E0,0E0,0E0,0E0,0E0,0E0,0E0,0E0],"parents":[2147483647,0,0,1,1,2,2,3,3,4,4,5,5,6,6,7,7,8,8,9,9,10,10,11,11,12,12,13,13,14,14,16,16,17,17,18,18,20,20,21,21,22,22,23,23,24,24,25,25,26,26,27,27,28,28,29,29,30,30,33,33,34,34,35,35,37,37,39,39,40,40,41,41,42,42,44,44,45,45,46,46,47,47,48,48,51,51,52,52,53,53,55,55,56,56,57,57,58,58],"right_children":[2,4,6,8,10,12,14,16,18,20,22,24,26,28,30,-1,32,34,36,-1,38,40,42,44,46,48,50,52,54,56,58,-1,-1,60,62,64,-1,66,-1,68,70,72,74,-1,76,78,80,82,84,-1,-1,86,88,90,-1,92,94,96,98,-1,-1,-1,-1,-1,-1,-1,-1,-1,-1,-1,-1,-1,-1,-1,-1,-1,-1,-1,-1,-1,-1,-1,-1,-1,-1,-1,-1,-1,-1,-1,-1,-1,-1,-1,-1,-1,-1,-1,-1],"split_conditions":[-3.9340064E-2,7.538004E-3,2.7082395E-2,-6.40378E-2,5.6274075E-2,3.605278E-2,-8.698325E-3,-5.1529504E-2,6.734782E-2,-4.0622624E-3,2.1922104E-2,-6.7239804E-3,4.3014012E-2,-1.12262685E-2,2.4107661E-2,-4.7315013E-2,2.878435E-2,-4.91176E-2,6.6665724E-2,1.7423847E-1,7.996476E-2,-4.0417347E-2,-2.390973E-2,-5.5609845E-2,-4.2475045E-2,1.4091544E-2,-2.8602855E-2,1.01219565E-1,-2.4946716E-2,5.510296E-2,4.01403E-2,3.4584957E-1,1.0899288E-1,5.8244965E-3,3.041986E-2,-6.006037E-3,7.702224E-2,1.306597E-1,1.0274172E-1,4.965041E-2,-4.7606196E-2,-3.472919E-2,-6.295645E-2,-1.2803355E-1,3.6802508E-2,5.88883E-4,-1.3875996E-2,9.527501E-3,5.9933163E-2,2.7303898E-1,-9.117193E-2,2.9720434E-3,-1.409874E-2,1.0726078E-2,7.649077E-2,-1.5595898E-2,-1.30744595E-2,-2.086145E-2,-1.5618021E-3,-2.3305935E-1,7.50702E-2,3.1238183E-1,8.215727E-2,-3.1339565E-1,-7.2225384E-2,-3.0450994E-1,6.408875E-2,2.5004947E-1,-5.0522596E-2,2.523419E-2,-3.0487132E-1,6.765456E-2,3.7100184E-1,4.1972483E-3,-2.1536301E-1,1.2952196E-2,3.093657E-1,3.1463292E-1,6.672274E-2,1.1209437E-1,-2.2672318E-1,1.8018925E-1,-1.7943554E-1,-3.0712E-1,-4.6298925E-2,2.781315E-1,2.3469359E-2,7.468559E-2,-2.7271825E-1,-3.1752938E-1,-7.808395E-2,-5.1349137E-2,-2.937086E-1,-1.8865292E-1,3.1523615E-1,1.0599673E-1,-2.5577053E-1,3.4742877E-1,-2.6373567E-2],"split_indices":[9,53,24,378,80,136,128,7,35,264,362,333,1,239,214,0,59,66,226,0,4,184,186,214,68,102,268,35,29,124,382,0,0,106,188,135,0,247,0,37,62,44,301,0,232,256,136,213,80,0,0,266,204,191,0,59,355,320,55,0,0,0,0,0,0,0,0,0,0,0,0,0,0,0,0,0,0,0,0,0,0,0,0,0,0,0,0,0,0,0,0,0,0,0,0,0,0,0,0],"split_type":[0,0,0,0,0,0,0,0,0,0,0,0,0,0,0,0,0,0,0,0,0,0,0,0,0,0,0,0,0,0,0,0,0,0,0,0,0,0,0,0,0,0,0,0,0,0,0,0,0,0,0,0,0,0,0,0,0,0,0,0,0,0,0,0,0,0,0,0,0,0,0,0,0,0,0,0,0,0,0,0,0,0,0,0,0,0,0,0,0,0,0,0,0,0,0,0,0,0,0],"sum_hessian":[3.1483618E2,1.2754254E2,1.8729366E2,2.4934523E1,1.0260802E2,9.484228E1,9.245138E1,8.190108E0,1.6744415E1,7.644996E1,2.6158058E1,7.905957E1,1.5782707E1,3.2143425E1,6.0307953E1,1.0158556E0,7.1742525E0,5.878207E0,1.0866207E1,1.1247281E0,7.5325226E1,1.8419664E1,7.7383943E0,6.1793373E1,1.7266197E1,1.1639156E1,4.14355E0,2.7012785E1,5.1306396E0,4.4651443E1,1.56565075E1,5.6536427E0,1.5206101E0,2.896231E0,2.9819763E0,9.658697E0,1.2075105E0,7.427169E1,1.0535392E0,2.499322E0,1.59203415E1,5.0979667E0,2.6404276E0,1.6964674E0,6.009691E1,4.6579156E0,1.2608281E1,4.015836E0,7.623321E0,2.784705E0,1.3588452E0,2.1565912E1,5.446873E0,4.0921865E0,1.0384532E0,4.13288E1,3.3226438E0,1.063285E1,5.023658E0,1.6913418E0,1.2048892E0,1.936141E0,1.0458354E0,8.546107E0,1.1125892E0,7.314984E1,1.121847E0,1.3177984E0,1.1815234E0,1.7129748E0,1.4207367E1,1.1245426E0,3.9734242E0,1.005532E0,1.6348957E0,4.1861887E0,5.5910717E1,3.5552988E0,1.102617E0,5.623666E0,6.984616E0,2.2709484E0,1.7448871E0,6.6195784E0,1.0037429E0,1.413589E1,7.430022E0,2.442462E0,3.0044112E0,3.0871117E0,1.0050747E0,6.3427787E0,3.4986023E1,1.2445623E0,2.0780814E0,4.3806314E0,6.2522182E0,3.6200025E0,1.403655E0],"tree_param":{"num_deleted":"0","num_feature":"384","num_nodes":"99","size_leaf_vector":"0"}},{"base_weights":[-1.4522003E-1,2.2126545E-1,-4.9055845E-1,5.8744055E-1,-1.8602394E-1,-8.2487845E-1,-2.0638177E-1,7.3154896E-1,-2.6439574E-1,-6.9199455E-1,2.3897164E-1,-9.152942E-1,1.2839384E-2,9.028332E-2,-6.783924E-1,8.079387E-3,8.566955E-1,4.2076182E-1,-8.85459E-1,-9.5234865E-1,1.3515031E-1,5.896001E-1,-2.937198E-1,-9.638468E-1,2.1554758E-1,-6.237511E-1,6.3646066E-1,6.685718E-1,-1.652319E-1,-8.47213E-1,5.233111E-1,4.4850165E-1,-6.408888E-1,-2.660211E-2,9.303105E-1,-4.1951406E-1,7.674738E-1,-2.2464504E-2,-1.0618584E0,-7.983702E-2,-1.0218508E0,-6.3435495E-1,6.652165E-1,-4.6725214E-1,7.6938593E-1,-6.4386064E-1,5.73735E-1,-9.9608225E-1,3.4626788E-1,6.425566E-1,-3.123648E-1,-1.0112915E-1,-7.6230717E-1,8.931114E-2,8.0163926E-1,-2.0845988E-1,9.6602243E-1,2.0159958E-1,-7.724523E-1,-9.7108495E-1,4.3150443E-1,-5.1338136E-1,1.0430353E0,8.71903E-1,-3.0086178E-1,-8.6384434E-1,3.7822418E-2,4.9483112E-1,-7.51234E-1,9.6948063E-1,-3.7342986E-1,8.992275E-1,1.5681796E-1,-1.0540928E0,-2.0222698E-1,-7.3800063E-1,-1.831997E-1,-1.072073E-1,9.462933E-1,6.8196654E-2,-6.9312376E-1,-3.715317E-1,9.0038776E-1,4.079135E-1,-8.32574E-1,8.807466E-1,-2.6154646E-1,1.7954323E-1,-1.0217959E0,6.7024547E-1,-7.00425E-1,1.144956E0,-2.1071081E-1,4.2951167E-1,-6.218834E-1,-9.7448516E-1,-1.4196019E-1,-1.0341314E0,2.3486687E-1,-7.452967E-2,7.228688E-1],"categories":[],"categories_nodes":[],"categories_segments":[],"categories_sizes":[],"default_left":[1,1,1,1,1,1,1,1,1,1,1,1,1,1,1,1,1,1,1,1,1,1,1,1,1,1,1,1,1,1,1,1,1,1,1,0,1,0,0,0,1,1,1,1,1,1,1,1,0,0,0,0,0,0,0,1,1,1,1,1,1,0,0,0,0,0,0,0,0,0,0,0,0,0,0,0,0,0,0,0,0,0,0,0,0,0,0,0,0,0,0,0,0,0,0,0,0,0,0,0,0],"id":8,"left_children":[1,3,5,7,9,11,13,15,17,19,21,23,25,27,29,31,33,35,37,39,41,43,45,47,49,51,53,55,57,59,61,63,65,67,69,-1,71,-1,-1,-1,73,75,77,79,81,83,85,87,-1,-1,-1,-1,-1,-1,-1,89,91,93,95,97,99,-1,-1,-1,-1,-1,-1,-1,-1,-1,-1,-1,-1,-1,-1,-1,-1,-1,-1,-1,-1,-1,-1,-1,-1,-1,-1,-1,-1,-1,-1,-1,-1,-1,-1,-1,-1,-1,-1,-1,-1],"loss_changes":[3.4099422E1,1.9644392E1,1.2996281E1,8.689991E0,1.3663351E1,4.8094254E0,1.0737709E1,5.377035E0,4.9467883E0,6.35499E0,6.683977E0,3.347515E0,3.238141E0,7.1588516E0,6.4369173E0,3.0824525E0,3.320568E0,2.0084763E0,8.835435E-1,1.2594929E0,3.6025007E0,4.416962E0,4.7748575E0,2.668251E0,9.156184E-1,2.1593034E-1,2.9986787E-1,4.0664644E0,7.7035584E0,4.582691E0,2.829297E0,2.2972925E0,6.9321835E-1,2.2124078E0,2.752758E0,0E0,2.1713114E-1,0E0,0E0,0E0,3.2588768E-1,3.7451744E-2,1.2098432E0,4.979862E-1,3.1186419E0,2.4841642E0,1.4355782E0,1.814354E0,0E0,0E0,0E0,0E0,0E0,0E0,0E0,2.4471116E0,2.6081524E0,4.3805084E0,1.5135574E0,2.0883331E0,4.9823976E-1,0E0,0E0,0E0,0E0,0E0,0E0,0E0,0E0,0E0,0E0,0E0,0E0,0E0,0E0,0E0,0E0,0E0,0E0,0E0,0E0,0E0,0E0,0E0,0E0,0E0,0E0,0E0,0E0,0E0,0E0,0E0,0E0,0E0,0E0,0E0,0E0,0E0,0E0,0E0,0E0],"parents":[2147483647,0,0,1,1,2,2,3,3,4,4,5,5,6,6,7,7,8,8,9,9,10,10,11,11,12,12,13,13,14,14,15,15,16,16,17,17,18,18,19,19,20,20,21,21,22,22,23,23,24,24,25,25,26,26,27,27,28,28,29,29,30,30,31,31,32,32,33,33,34,34,36,36,40,40,41,41,42,42,43,43,44,44,45,45,46,46,47,47,55,55,56,56,57,57,58,58,59,59,60,60],"right_children":[2,4,6,8,10,12,14,16,18,20,22,24,26,28,30,32,34,36,38,40,42,44,46,48,50,52,54,56,58,60,62,64,66,68,70,-1,72,-1,-1,-1,74,76,78,80,82,84,86,88,-1,-1,-1,-1,-1,-1,-1,90,92,94,96,98,100,-1,-1,-1,-1,-1,-1,-1,-1,-1,-1,-1,-1,-1,-1,-1,-1,-1,-1,-1,-1,-1,-1,-1,-1,-1,-1,-1,-1,-1,-1,-1,-1,-1,-1,-1,-1,-1,-1,-1,-1],"split_conditions":[3.6435902E-2,-9.272996E-3,2.6611466E-2,4.2440314E-3,-1.1064008E-2,9.7811595E-2,2.2222763E-2,1.4547367E-2,1.6324298E-2,4.1332144E-2,-4.933147E-2,9.826763E-2,-5.7577975E-3,2.2738133E-2,1.8950172E-2,-2.3792285E-2,-6.2390063E-2,-1.3559917E-3,-2.4009675E-2,2.9409793E-4,-1.6440248E-2,2.2950074E-2,-1.0525376E-2,4.9241245E-2,1.4560718E-2,-5.5088677E-2,-2.2315509E-3,2.3763534E-2,5.7316817E-2,6.1899044E-2,6.928358E-3,-2.1755428E-3,-3.0916322E-2,-5.289861E-3,1.2531679E-2,-1.2585422E-1,3.6555752E-2,-6.7393514E-3,-3.1855753E-1,-2.3951106E-2,6.2198713E-3,-7.383326E-2,-2.6650328E-2,-1.4560621E-2,-4.6835907E-2,-1.0607187E-1,-7.6370407E-3,-1.20787255E-1,1.0388037E-1,1.92767E-1,-9.370944E-2,-3.0338747E-2,-2.2869216E-1,2.6793342E-2,2.404918E-1,-1.0414977E-2,-3.4413673E-2,-1.40681835E-2,-3.8302153E-2,6.0263455E-2,6.0762733E-2,-1.5401441E-1,3.129106E-1,2.615709E-1,-9.025854E-2,-2.591533E-1,1.1346726E-2,1.4844935E-1,-2.2537021E-1,2.908442E-1,-1.12028964E-1,2.6976827E-1,4.704539E-2,-3.1622785E-1,-6.0668096E-2,-2.214002E-1,-5.495991E-2,-3.216219E-2,2.83888E-1,2.0458996E-2,-2.0793714E-1,-1.11459516E-1,2.7011633E-1,1.2237406E-1,-2.497722E-1,2.64224E-1,-7.846394E-2,5.386297E-2,-3.0653876E-1,2.0107365E-1,-2.1012752E-1,3.4348682E-1,-6.3213244E-2,1.288535E-1,-1.8656503E-1,-2.9234555E-1,-4.258806E-2,-3.1023943E-1,7.0460066E-2,-2.2358902E-2,2.1686065E-1],"split_indices":[102,13,80,326,214,303,13,67,175,124,378,92,57,24,182,55,142,80,311,53,7,303,282,157,76,59,324,89,188,368,231,54,281,2,168,0,120,0,0,0,344,322,9,355,312,218,335,71,0,0,0,0,0,0,0,184,378,30,12,95,303,0,0,0,0,0,0,0,0,0,0,0,0,0,0,0,0,0,0,0,0,0,0,0,0,0,0,0,0,0,0,0,0,0,0,0,0,0,0,0,0],"split_type":[0,0,0,0,0,0,0,0,0,0,0,0,0,0,0,0,0,0,0,0,0,0,0,0,0,0,0,0,0,0,0,0,0,0,0,0,0,0,0,0,0,0,0,0,0,0,0,0,0,0,0,0,0,0,0,0,0,0,0,0,0,0,0,0,0,0,0,0,0,0,0,0,0,0,0,0,0,0,0,0,0,0,0,0,0,0,0,0,0,0,0,0,0,0,0,0,0,0,0,0,0],"sum_hessian":[2.67572E2,1.2998575E2,1.3758624E2,6.821472E1,6.1771027E1,6.234164E1,7.5244606E1,5.8465157E1,9.749564E0,2.7912308E1,3.385872E1,5.618494E1,6.1567E0,4.6701073E1,2.854353E1,8.778924E0,4.9686234E1,4.788928E0,4.960636E0,2.1114796E1,6.797512E0,2.035428E1,1.3504438E1,5.4013546E1,2.1713946E0,3.046567E0,3.1101332E0,1.3815936E1,3.288514E1,2.5286205E1,3.2573256E0,5.4137697E0,3.3651543E0,3.8714776E0,4.5814754E1,1.3374834E0,3.4514446E0,1.0332146E0,3.9274213E0,1.7163913E0,1.9398403E1,2.6923048E0,4.105207E0,2.7267036E0,1.7627577E1,9.804638E0,3.6998007E0,5.2950397E1,1.0631489E0,1.080363E0,1.0910316E0,1.0009493E0,2.0456178E0,1.0784597E0,2.0316734E0,3.5748086E0,1.0241127E1,2.0916903E1,1.1968236E1,2.3272343E1,2.0138614E0,1.0917732E0,2.1655524E0,3.3547575E0,2.0590122E0,2.327728E0,1.0374264E0,2.4358253E0,1.4356523E0,4.4727333E1,1.0874231E0,2.4502287E0,1.0012159E0,1.8388962E1,1.0094422E0,1.6723152E0,1.0199896E0,1.2603202E0,2.844887E0,1.0160766E0,1.710627E0,1.6264509E0,1.6001127E1,1.3148589E0,8.4897785E0,2.6656117E0,1.034189E0,1.0053091E0,5.1945087E1,1.153013E0,2.4217956E0,8.912848E0,1.3282789E0,1.6757435E1,4.1594677E0,8.650655E0,3.317582E0,2.2251524E1,1.0208193E0,1.0077798E0,1.0060816E0],"tree_param":{"num_deleted":"0","num_feature":"384","num_nodes":"101","size_leaf_vector":"0"}},{"base_weights":[-1.3125372E-1,-3.8326403E-1,3.0389112E-1,-1.345046E-1,-6.8526715E-1,4.686469E-1,-4.972417E-1,-4.1792598E-1,2.2593786E-1,3.444998E-1,-7.634281E-1,6.39559E-1,-1.5069354E-1,2.0460193E-1,-7.793535E-1,1.3609059E-1,-6.361825E-1,7.465841E-1,-3.1640742E-2,-5.8093446E-1,9.469171E-1,1.271548E-1,-8.545298E-1,7.493277E-1,-1.4257981E-1,3.849356E-1,-7.180109E-1,-5.934879E-1,7.272674E-1,1.8371323E-2,-9.0774775E-1,7.527939E-1,-3.7385136E-1,-1.3290124E-1,-8.628366E-1,9.7656286E-1,-1.5396243E-1,-8.549124E-1,3.04092E-1,2.1213195E-1,1.1839446E0,6.5124613E-1,-7.088219E-1,-9.3334585E-1,-9.812806E-2,8.084253E-1,-2.3416422E-1,5.497085E-1,-5.6837606E-1,6.837977E-1,-3.5273975E-1,-9.5684206E-1,2.3610818E-1,-9.666613E-1,-2.3431446E-1,1.0162313E0,1.0833932E-2,-6.5023196E-1,5.8897316E-1,5.685752E-1,-5.135256E-1,3.3506688E-1,-9.3557537E-1,6.1797455E-2,1.1039758E0,-5.802003E-1,3.5899302E-1,-9.5077306E-1,-1.4238398E-1,-9.8729454E-2,6.867208E-1,9.9670285E-1,-2.4271078E-1,3.0656034E-1,-9.665009E-1,6.1224526E-1,-6.1540097E-1,9.0393585E-1,1.7438833E-1,3.073532E-1,-6.1658454E-1,8.230052E-2,7.105731E-1,1.5545335E-1,-8.0228454E-1,8.885688E-1,-3.4337607E-3,1.4196905E-1,-6.418731E-1,-2.5794446E-1,-1.0462153E0],"categories":[],"categories_nodes":[],"categories_segments":[],"categories_sizes":[],"default_left":[1,1,1,1,1,1,1,1,1,1,1,1,1,1,1,1,1,1,1,0,1,1,1,1,1,1,1,0,0,0,1,1,1,1,1,1,1,1,1,0,0,1,0,1,1,1,1,1,1,1,1,1,0,0,0,0,0,0,0,0,0,0,0,0,0,0,0,0,0,0,0,0,0,0,0,0,0,0,0,0,0,0,0,0,0,0,0,0,0,0,0],"id":9,"left_children":[1,3,5,7,9,11,13,15,17,19,21,23,25,27,29,31,33,35,37,-1,39,41,43,45,47,49,51,-1,-1,-1,53,55,57,59,61,63,65,67,69,-1,-1,71,-1,73,75,77,79,81,83,85,87,89,-1,-1,-1,-1,-1,-1,-1,-1,-1,-1,-1,-1,-1,-1,-1,-1,-1,-1,-1,-1,-1,-1,-1,-1,-1,-1,-1,-1,-1,-1,-1,-1,-1,-1,-1,-1,-1,-1,-1],"loss_changes":[2.514273E1,1.0798149E1,1.1353855E1,8.341704E0,5.513138E0,7.5481405E0,3.1010811E0,5.593806E0,4.876442E0,3.4996946E0,5.0528145E0,4.859991E0,5.14883E0,2.5388546E0,1.1233726E0,4.588459E0,3.632513E0,2.6392794E0,7.2165194E0,0E0,3.732102E-1,3.3206859E0,3.211937E0,3.0203762E0,2.5685687E0,2.2030172E0,2.0798807E0,0E0,0E0,0E0,1.4353848E-1,1.2654846E0,2.5556886E0,3.3310428E0,2.2711525E0,1.0634012E0,9.3166465E-1,3.8052225E-1,2.9370215E0,0E0,0E0,1.6415619E0,0E0,2.3544655E0,2.708865E0,2.6384563E0,9.2185336E-1,1.9890046E-1,1.0103196E0,9.4213796E-1,5.524777E-1,1.4894867E-1,0E0,0E0,0E0,0E0,0E0,0E0,0E0,0E0,0E0,0E0,0E0,0E0,0E0,0E0,0E0,0E0,0E0,0E0,0E0,0E0,0E0,0E0,0E0,0E0,0E0,0E0,0E0,0E0,0E0,0E0,0E0,0E0,0E0,0E0,0E0,0E0,0E0,0E0,0E0],"parents":[2147483647,0,0,1,1,2,2,3,3,4,4,5,5,6,6,7,7,8,8,9,9,10,10,11,11,12,12,13,13,14,14,15,15,16,16,17,17,18,18,20,20,21,21,22,22,23,23,24,24,25,25,26,26,30,30,31,31,32,32,33,33,34,34,35,35,36,36,37,37,38,38,41,41,43,43,44,44,45,45,46,46,47,47,48,48,49,49,50,50,51,51],"right_children":[2,4,6,8,10,12,14,16,18,20,22,24,26,28,30,32,34,36,38,-1,40,42,44,46,48,50,52,-1,-1,-1,54,56,58,60,62,64,66,68,70,-1,-1,72,-1,74,76,78,80,82,84,86,88,90,-1,-1,-1,-1,-1,-1,-1,-1,-1,-1,-1,-1,-1,-1,-1,-1,-1,-1,-1,-1,-1,-1,-1,-1,-1,-1,-1,-1,-1,-1,-1,-1,-1,-1,-1,-1,-1,-1,-1],"split_conditions":[1.5019702E-2,8.9851655E-3,2.0885391E-2,3.685078E-2,-4.5265093E-2,1.8319815E-2,-1.8298522E-2,-4.8820093E-2,-4.6887774E-2,2.205451E-2,-1.6040333E-2,-1.0622936E-2,-1.4339812E-2,-2.5874201E-2,-8.178798E-2,-5.4394007E-2,3.7256394E-2,-9.426322E-3,4.419048E-2,-1.7428035E-1,-5.863507E-2,-7.1706297E-3,1.8655099E-2,7.618921E-2,2.4689224E-2,4.391048E-2,-5.4575764E-3,-1.7804638E-1,2.1818022E-1,5.511397E-3,2.3128133E-2,2.362303E-2,1.367059E-2,-4.3959976E-3,-1.07388064E-1,-4.4923037E-2,2.8407548E-2,2.5929403E-2,-5.737634E-2,6.363959E-2,3.551834E-1,1.2077967E-3,-2.1264657E-1,-8.256385E-2,-4.442715E-2,3.7259176E-2,5.8354095E-2,5.8572948E-2,-3.0292347E-2,5.340085E-2,-5.5658195E-2,2.5529088E-3,7.083246E-2,-2.8999838E-1,-7.029434E-2,3.048694E-1,3.2501798E-3,-1.950696E-1,1.7669195E-1,1.7057256E-1,-1.5405768E-1,1.0052007E-1,-2.806726E-1,1.8539237E-2,3.3119273E-1,-1.740601E-1,1.0769791E-1,-2.8523192E-1,-4.2715196E-2,-2.9618837E-2,2.0601624E-1,2.9901087E-1,-7.2813235E-2,9.1968104E-2,-2.8995028E-1,1.8367359E-1,-1.8462029E-1,2.7118078E-1,5.23165E-2,9.2205964E-2,-1.8497537E-1,2.4690157E-2,2.1317193E-1,4.6636008E-2,-2.4068537E-1,2.6657066E-1,-1.0301282E-3,4.259072E-2,-1.9256194E-1,-7.738334E-2,-3.138646E-1],"split_indices":[57,335,13,290,178,296,136,333,123,44,149,378,173,4,299,378,188,202,303,0,8,329,110,24,131,243,301,0,0,0,216,361,358,178,239,9,194,163,46,0,0,21,0,332,43,324,32,247,237,131,238,24,0,0,0,0,0,0,0,0,0,0,0,0,0,0,0,0,0,0,0,0,0,0,0,0,0,0,0,0,0,0,0,0,0,0,0,0,0,0,0],"split_type":[0,0,0,0,0,0,0,0,0,0,0,0,0,0,0,0,0,0,0,0,0,0,0,0,0,0,0,0,0,0,0,0,0,0,0,0,0,0,0,0,0,0,0,0,0,0,0,0,0,0,0,0,0,0,0,0,0,0,0,0,0,0,0,0,0,0,0,0,0,0,0,0,0,0,0,0,0,0,0,0,0,0,0,0,0,0,0,0,0,0,0],"sum_hessian":[2.2721478E2,1.4396053E2,8.325426E1,7.973134E1,6.4229195E1,6.9397446E1,1.385681E1,4.454525E1,3.5186085E1,4.290781E0,5.9938416E1,5.436291E1,1.5034536E1,4.051687E0,9.805122E0,1.2695581E1,3.1849669E1,1.101761E1,2.4168476E1,1.7058748E0,2.584906E0,5.5256443E0,5.4412773E1,4.770915E1,6.65376E0,7.898602E0,7.135934E0,1.5497603E0,2.5019262E0,1.4781517E0,8.326971E0,5.5307183E0,7.164863E0,1.0382308E1,2.146736E1,8.709097E0,2.308513E0,6.5530114E0,1.7615465E1,1.0926522E0,1.4922539E0,3.532206E0,1.9934384E0,4.9066208E1,5.3465643E0,4.5172745E1,2.5364041E0,2.4231029E0,4.230657E0,5.6731973E0,2.2254047E0,5.7050223E0,1.4309115E0,7.256714E0,1.0702572E0,3.808743E0,1.7219752E0,5.8191323E0,1.3457309E0,3.478242E0,6.904066E0,1.0224603E0,2.04449E1,1.2462957E0,7.462801E0,1.1892327E0,1.1192802E0,5.4812245E0,1.0717868E0,8.942748E0,8.672717E0,2.4647899E0,1.0674163E0,1.0630946E0,4.8003113E1,2.1754315E0,3.1711326E0,3.888889E1,6.283857E0,1.1310714E0,1.4053327E0,1.0074553E0,1.4156474E0,1.1151713E0,3.115486E0,4.1451254E0,1.528072E0,1.0086253E0,1.2167795E0,1.0874362E0,4.617586E0],"tree_param":{"num_deleted":"0","num_feature":"384","num_nodes":"91","size_leaf_vector":"0"}},{"base_weights":[-1.1302881E-1,-3.4100035E-1,3.0491102E-1,-7.691421E-1,-1.1461448E-1,-1.4785594E-1,6.524999E-1,-3.0023697E-1,-9.685955E-1,-4.310646E-1,2.4198411E-1,1.4808494E-1,-7.343679E-1,-2.5702786E-1,7.928619E-1,4.5263034E-1,-6.8168163E-1,-1.0126749E-1,-1.0053358E0,1.1037549E-1,-6.300457E-1,5.051903E-1,-4.4403994E-1,-4.417933E-1,4.4658247E-1,-9.0640146E-1,1.5532053E-1,-7.493732E-1,5.284486E-1,8.726202E-1,-3.18291E-1,9.622787E-1,-3.188281E-1,3.5963875E-1,-8.885736E-1,-2.4550593E-1,-1.0246822E0,-2.0001669E-1,6.7882025E-1,-7.1300715E-1,4.4592765E-1,7.273445E-1,-1.5680407E-1,-7.744419E-1,1.5022331E-1,5.2004194E-1,-6.8284726E-1,-5.630047E-1,6.3813704E-1,-9.680585E-1,-2.088493E-1,9.1077155E-1,-1.6548195E-1,1.1991088E-1,-5.944077E-1,-2.6634863E-1,-9.3515944E-1,-8.273796E-1,8.102929E-2,2.0694751E-2,9.121297E-1,-8.6079574E-1,-2.1849135E-1,6.2421256E-1,4.5283385E-2,8.395719E-1,-4.1959983E-1,2.885879E-1,-7.469879E-1,-9.308017E-1,-5.4861076E-2,-4.9029595E-1,6.2797314E-1,-8.346689E-1,7.506435E-2,-3.3980814E-1,7.803674E-1,-4.327125E-2,9.4895923E-1],"categories":[],"categories_nodes":[],"categories_segments":[],"categories_sizes":[],"default_left":[1,1,1,1,1,1,1,1,1,1,1,1,1,1,1,1,1,0,1,1,1,1,1,1,1,1,0,0,0,1,1,0,0,0,1,0,0,1,1,1,1,1,1,1,1,0,1,0,1,0,0,1,0,0,0,0,0,0,0,0,0,0,0,0,0,0,0,0,0,0,0,0,0,0,0,0,0,0,0],"id":10,"left_children":[1,3,5,7,9,11,13,15,17,19,21,23,25,27,29,31,33,-1,35,37,39,41,43,45,47,49,-1,-1,-1,51,53,-1,-1,-1,55,-1,-1,57,59,61,63,65,67,69,71,-1,73,-1,75,-1,-1,77,-1,-1,-1,-1,-1,-1,-1,-1,-1,-1,-1,-1,-1,-1,-1,-1,-1,-1,-1,-1,-1,-1,-1,-1,-1,-1,-1],"loss_changes":[1.8935652E1,1.2353336E1,1.1158056E1,3.8450642E0,9.711935E0,5.5486126E0,5.3035145E0,4.5145864E0,8.725281E-1,4.9681664E0,7.5680904E0,4.0115347E0,1.7751513E0,2.7533884E0,3.3663712E0,2.4795299E0,2.499825E0,0E0,1.7798615E-1,2.4418902E0,3.2992392E0,4.505594E0,2.4351006E0,2.1592383E0,3.2371247E0,1.8895817E-1,0E0,0E0,0E0,1.4491329E0,4.4234198E-1,0E0,0E0,0E0,3.997326E-3,0E0,0E0,1.6938208E0,7.248726E-1,2.1062012E0,1.864506E-1,3.2530308E0,2.4040904E0,8.21167E-1,1.8554807E0,0E0,8.28346E-1,0E0,2.0701275E0,0E0,0E0,1.19874E0,0E0,0E0,0E0,0E0,0E0,0E0,0E0,0E0,0E0,0E0,0E0,0E0,0E0,0E0,0E0,0E0,0E0,0E0,0E0,0E0,0E0,0E0,0E0,0E0,0E0,0E0,0E0],"parents":[2147483647,0,0,1,1,2,2,3,3,4,4,5,5,6,6,7,7,8,8,9,9,10,10,11,11,12,12,13,13,14,14,15,15,16,16,18,18,19,19,20,20,21,21,22,22,23,23,24,24,25,25,29,29,30,30,34,34,37,37,38,38,39,39,40,40,41,41,42,42,43,43,44,44,46,46,48,48,51,51],"right_children":[2,4,6,8,10,12,14,16,18,20,22,24,26,28,30,32,34,-1,36,38,40,42,44,46,48,50,-1,-1,-1,52,54,-1,-1,-1,56,-1,-1,58,60,62,64,66,68,70,72,-1,74,-1,76,-1,-1,78,-1,-1,-1,-1,-1,-1,-1,-1,-1,-1,-1,-1,-1,-1,-1,-1,-1,-1,-1,-1,-1,-1,-1,-1,-1,-1,-1],"split_conditions":[1.8618923E-2,-1.1625806E-2,6.0403597E-2,1.1046508E-2,-1.7511211E-2,3.6389664E-2,-8.244106E-2,-2.116687E-2,-4.7803216E-2,-5.2153017E-2,-2.9339258E-2,1.9086E-2,2.8441688E-2,3.68197E-2,5.251445E-2,-4.3312043E-2,-1.3853323E-1,-3.0380247E-2,-2.5782645E-2,-3.4637168E-2,1.2931064E-2,7.386005E-2,5.3336263E-2,-5.7210695E-2,-9.332061E-3,7.127115E-2,4.659616E-2,-2.2481197E-1,1.5853459E-1,2.6454793E-2,1.4197079E-3,2.8868362E-1,-9.564844E-2,1.0789163E-1,-3.214767E-2,-7.365178E-2,-3.0740467E-1,-5.1566295E-2,-1.410364E-2,8.416735E-2,-1.5220873E-3,6.0001284E-2,-1.8568832E-2,2.210538E-2,6.833338E-2,1.560126E-1,3.6412854E-2,-1.6890141E-1,-5.4630436E-2,-2.9041758E-1,-6.265479E-2,-6.2004797E-2,-4.964459E-2,3.5973266E-2,-1.7832232E-1,-7.990459E-2,-2.8054786E-1,-2.4821389E-1,2.4308788E-2,6.208426E-3,2.7363893E-1,-2.5823873E-1,-6.554741E-2,1.8726377E-1,1.3585016E-2,2.518716E-1,-1.2587996E-1,8.657637E-2,-2.2409637E-1,-2.7924052E-1,-1.6458323E-2,-1.470888E-1,1.8839195E-1,-2.5040066E-1,2.2519307E-2,-1.0194244E-1,2.3411022E-1,-1.2981376E-2,2.846878E-1],"split_indices":[124,214,303,361,124,357,325,2,329,263,378,67,214,290,230,21,51,0,356,258,304,160,67,109,382,124,0,0,0,345,3,0,0,0,306,0,0,292,142,33,300,192,379,365,232,0,234,0,142,0,0,214,0,0,0,0,0,0,0,0,0,0,0,0,0,0,0,0,0,0,0,0,0,0,0,0,0,0,0],"split_type":[0,0,0,0,0,0,0,0,0,0,0,0,0,0,0,0,0,0,0,0,0,0,0,0,0,0,0,0,0,0,0,0,0,0,0,0,0,0,0,0,0,0,0,0,0,0,0,0,0,0,0,0,0,0,0,0,0,0,0,0,0,0,0,0,0,0,0,0,0,0,0,0,0,0,0,0,0,0,0],"sum_hessian":[1.9664899E2,1.2736172E2,6.928726E1,4.322222E1,8.4139496E1,3.0340523E1,3.894674E1,1.3646136E1,2.9576086E1,4.446864E1,3.967086E1,2.0662302E1,9.678222E0,5.095751E0,3.385099E1,4.526145E0,9.119991E0,1.3545916E0,2.8221495E1,1.2070189E1,3.239845E1,2.8861277E1,1.0809582E1,6.781308E0,1.3880993E1,8.094294E0,1.5839285E0,3.1606095E0,1.9351414E0,3.1784197E1,2.0667925E0,2.5766098E0,1.9495351E0,1.3892715E0,7.7307196E0,1.0406289E0,2.7180866E1,8.2264E0,3.8437896E0,3.039242E1,2.006028E0,2.1535582E1,7.3256965E0,6.752237E0,4.057345E0,1.1270143E0,5.654294E0,1.9044524E0,1.1976541E1,7.0806375E0,1.0136558E0,3.0775812E1,1.008384E0,1.0175874E0,1.049205E0,1.0063779E0,6.724342E0,1.9436876E0,6.282713E0,1.2909484E0,2.5528412E0,2.2829134E1,7.5632863E0,1.0020832E0,1.0039446E0,1.9860266E1,1.6753148E0,4.466214E0,2.859482E0,5.305793E0,1.4464442E0,1.7221704E0,2.3351748E0,4.626299E0,1.0279951E0,1.3442982E0,1.0632242E1,1.1793373E0,2.9596476E1],"tree_param":{"num_deleted":"0","num_feature":"384","num_nodes":"79","size_leaf_vector":"0"}},{"base_weights":[-1.04816504E-1,-4.0522256E-1,1.7574587E-1,-7.770655E-1,-1.4710173E-1,6.542456E-1,-6.1929937E-2,-8.866578E-1,2.14686E-1,3.3169597E-2,-7.654522E-1,-6.0656637E-1,7.308105E-1,-3.5935742E-1,2.3264934E-1,-9.5473737E-1,4.692639E-2,8.743653E-1,-5.812257E-1,4.4315246E-1,-1.8405771E-1,-9.2432827E-1,1.3933004E-1,-8.226093E-2,8.617989E-1,3.6446604E-1,-5.8431953E-1,5.080539E-1,-3.0888686E-1,-8.2598545E-2,-9.9394554E-1,-4.0530366E-1,4.6996787E-1,6.9770515E-1,-3.2928565E-1,7.795551E-2,-5.971602E-1,4.3327466E-1,-5.989892E-1,9.313679E-1,-1.1190935E-1,-3.4439722E-1,6.8666524E-1,-5.402412E-2,-8.2837737E-1,-1.7502715E-1,6.770412E-1,-6.523008E-1,4.154626E-1,-2.8378046E-1,-1.0110261E0,9.719769E-1,-4.860623E-2,2.2812802E-1,-6.9225425E-1,-6.381487E-1,2.7478585E-1,-7.9809266E-1,1.3402946E-1,1.1842632E-2,6.374022E-1,-1.1602447E-1,9.91285E-1,-6.156784E-1,1.06114306E-1,8.395619E-1,-4.4633523E-3,-5.795091E-1,3.8655856E-1,8.687888E-2,-9.389313E-1,-6.6731644E-1,3.422067E-1,-4.252854E-1,7.766227E-1,-8.2946444E-1,2.0346813E-1,7.5739795E-1,-3.107505E-1],"categories":[],"categories_nodes":[],"categories_segments":[],"categories_sizes":[],"default_left":[1,1,1,1,1,1,1,1,1,1,1,0,1,1,1,1,1,0,0,1,1,0,0,1,1,1,1,1,1,0,1,0,0,1,1,1,1,1,0,1,0,1,1,1,1,1,1,1,1,0,0,0,0,0,0,0,0,0,0,0,0,0,0,0,0,0,0,0,0,0,0,0,0,0,0,0,0,0,0],"id":11,"left_children":[1,3,5,7,9,11,13,15,17,19,21,-1,23,25,27,29,31,-1,-1,33,35,-1,-1,37,39,41,43,45,47,-1,49,-1,-1,51,53,55,57,59,-1,61,-1,63,65,67,69,71,73,75,77,-1,-1,-1,-1,-1,-1,-1,-1,-1,-1,-1,-1,-1,-1,-1,-1,-1,-1,-1,-1,-1,-1,-1,-1,-1,-1,-1,-1,-1,-1],"loss_changes":[1.4513968E1,7.857486E0,1.0196921E1,3.8637962E0,5.627745E0,3.3126383E0,5.391442E0,1.9915695E0,2.696718E0,3.6325626E0,1.7655449E0,0E0,3.103632E0,5.1854906E0,4.786746E0,8.9570236E-1,7.711022E-1,0E0,0E0,3.0027149E0,2.9440317E0,0E0,0E0,1.55522E0,1.7714291E0,2.0308695E0,3.0201235E0,2.5374985E0,3.0289297E0,0E0,4.392433E-2,0E0,0E0,2.2840858E0,1.0026066E0,2.608835E0,1.6503198E0,2.5182027E-1,0E0,1.5633049E0,0E0,4.4677505E-1,6.098161E-1,2.1996849E0,1.7154732E0,1.4889536E0,2.1969857E0,1.3680642E0,1.2725163E0,0E0,0E0,0E0,0E0,0E0,0E0,0E0,0E0,0E0,0E0,0E0,0E0,0E0,0E0,0E0,0E0,0E0,0E0,0E0,0E0,0E0,0E0,0E0,0E0,0E0,0E0,0E0,0E0,0E0,0E0],"parents":[2147483647,0,0,1,1,2,2,3,3,4,4,5,5,6,6,7,7,8,8,9,9,10,10,12,12,13,13,14,14,15,15,16,16,19,19,20,20,23,23,24,24,25,25,26,26,27,27,28,28,30,30,33,33,34,34,35,35,36,36,37,37,39,39,41,41,42,42,43,43,44,44,45,45,46,46,47,47,48,48],"right_children":[2,4,6,8,10,12,14,16,18,20,22,-1,24,26,28,30,32,-1,-1,34,36,-1,-1,38,40,42,44,46,48,-1,50,-1,-1,52,54,56,58,60,-1,62,-1,64,66,68,70,72,74,76,78,-1,-1,-1,-1,-1,-1,-1,-1,-1,-1,-1,-1,-1,-1,-1,-1,-1,-1,-1,-1,-1,-1,-1,-1,-1,-1,-1,-1,-1,-1],"split_conditions":[2.6807636E-3,-3.9389E-2,2.6587392E-3,9.450205E-2,2.705329E-2,-4.523411E-2,6.90971E-2,2.1157745E-2,-6.972317E-2,-4.788698E-2,4.650053E-3,-1.8196991E-1,8.319285E-3,-2.7848713E-2,8.942967E-3,-2.9946961E-3,-2.174566E-2,2.623096E-1,-1.7436771E-1,9.762423E-2,-4.489627E-2,-2.7729848E-1,4.1799016E-2,1.7234176E-2,-7.0224022E-3,-7.991412E-2,2.6555664E-3,8.390596E-3,-2.7799144E-2,-2.4779564E-2,-5.78653E-2,-1.215911E-1,1.4099036E-1,4.758307E-2,-3.5552725E-2,-2.174376E-2,9.338248E-2,-1.0308406E-2,-1.7969677E-1,-5.132992E-2,-3.3572808E-2,2.1550305E-2,3.95948E-2,4.019361E-2,-8.301311E-3,3.4340615E-3,-5.413138E-2,3.9638877E-2,-2.5256802E-3,-8.513414E-2,-3.0330786E-1,2.9159307E-1,-1.458187E-2,6.843841E-2,-2.0767628E-1,-1.9144462E-1,8.243576E-2,-2.394278E-1,4.020884E-2,3.5527896E-3,1.9122066E-1,-3.4807343E-2,2.973855E-1,-1.8470353E-1,3.1834293E-2,2.5186858E-1,-1.3390058E-3,-1.7385273E-1,1.1596757E-1,2.6063666E-2,-2.816794E-1,-2.0019494E-1,1.0266201E-1,-1.2758562E-1,2.3298682E-1,-2.4883933E-1,6.1040442E-2,2.2721939E-1,-9.322516E-2],"split_indices":[226,9,24,99,13,4,232,142,298,113,142,0,67,347,55,188,231,0,0,35,378,0,0,324,195,346,361,80,304,0,200,0,0,117,41,214,33,304,0,118,0,363,117,85,119,189,216,252,349,0,0,0,0,0,0,0,0,0,0,0,0,0,0,0,0,0,0,0,0,0,0,0,0,0,0,0,0,0,0],"split_type":[0,0,0,0,0,0,0,0,0,0,0,0,0,0,0,0,0,0,0,0,0,0,0,0,0,0,0,0,0,0,0,0,0,0,0,0,0,0,0,0,0,0,0,0,0,0,0,0,0,0,0,0,0,0,0,0,0,0,0,0,0,0,0,0,0,0,0,0,0,0,0,0,0,0,0,0,0,0,0],"sum_hessian":[1.7036095E2,8.205646E1,8.830449E1,3.2797974E1,4.925848E1,2.8723783E1,5.9580704E1,2.9629745E1,3.16823E0,3.88722E1,1.0386281E1,1.2481388E0,2.7475645E1,2.9537605E1,3.0043097E1,2.7594795E1,2.0349495E0,1.6784781E0,1.4897518E0,1.3102751E1,2.576945E1,8.816531E0,1.5697502E0,3.8638632E0,2.361178E1,6.8564897E0,2.2681116E1,1.9956045E1,1.0087051E1,1.3208454E0,2.627395E1,1.0038096E0,1.0311401E0,9.927836E0,3.1749144E0,1.6264723E1,9.504725E0,2.015009E0,1.8488542E0,2.2077858E1,1.5339233E0,2.1210716E0,4.735418E0,7.5334935E0,1.5147622E1,3.9507132E0,1.6005333E1,6.9103317E0,3.17672E0,1.0307877E0,2.5243162E1,7.0387135E0,2.889123E0,1.3985871E0,1.7763274E0,3.023297E0,1.3241426E1,7.384069E0,2.1206565E0,1.0027646E0,1.0122443E0,1.1439761E0,2.0933882E1,1.0950516E0,1.02602E0,3.7017252E0,1.0336928E0,3.2919023E0,4.241591E0,1.6555734E0,1.3492049E1,1.8754994E0,2.075214E0,1.0550988E0,1.4950233E1,5.7505703E0,1.1597611E0,2.1305943E0,1.0461257E0],"tree_param":{"num_deleted":"0","num_feature":"384","num_nodes":"79","size_leaf_vector":"0"}},{"base_weights":[-9.6410684E-2,-4.2577678E-1,1.2190414E-1,-5.721077E-1,2.1845275E-1,-3.4271553E-1,3.077595E-1,-7.0705175E-1,3.844026E-2,6.270227E-1,-2.3368828E-1,-6.4923865E-1,1.1579152E-1,6.673842E-1,2.7549004E-2,6.0247684E-1,-7.662431E-1,5.4895014E-1,-3.8446486E-1,7.7459586E-1,-7.509163E-2,-5.889577E-1,3.5620365E-1,2.888668E-1,-7.565605E-1,4.538001E-1,-5.236174E-1,1.9337375E-1,9.026894E-1,2.3074272E-1,-3.7011594E-1,1.2483795E-1,-8.373865E-1,8.152518E-1,-1.1814265E-1,-7.597412E-1,1.4873753E-1,8.7354887E-1,1.9677183E-1,-7.467973E-1,-3.7471216E-2,2.1115212E-1,-8.7455225E-1,-1.21894516E-1,7.5036615E-1,1.5248835E-1,-7.8014475E-1,7.406514E-1,-2.169896E-1,9.4221026E-1,1.1205013E-1,-6.149517E-2,5.275872E-1,-6.9498857E-3,-7.135335E-1,-3.6490026E-1,6.901852E-1,-9.0001076E-1,-7.1733855E-3,-3.6719492E-1,6.028681E-1,-9.4543344E-1,-7.520962E-2,4.301711E-1,-5.186196E-1,7.44434E-2,9.168252E-1,8.8760984E-1,9.554528E-2,4.6321216E-1,-5.0413424E-1,9.821122E-1,2.6563126E-1,4.4310406E-1,-3.645232E-1,6.557769E-1,-4.7586706E-1,-1.1356755E-1,3.3605257E-1,-1.3872838E-1,-8.380329E-1],"categories":[],"categories_nodes":[],"categories_segments":[],"categories_sizes":[],"default_left":[1,1,1,1,1,1,1,1,1,1,1,1,1,1,1,0,1,1,1,1,0,1,0,0,1,1,1,1,1,1,1,1,1,0,0,0,1,0,0,0,0,0,1,1,1,0,0,1,1,1,0,1,1,1,1,0,0,0,0,0,0,0,0,0,0,0,0,0,0,0,0,0,0,0,0,0,0,0,0,0,0],"id":12,"left_children":[1,3,5,7,9,11,13,15,17,19,21,23,25,27,29,-1,31,33,35,37,-1,39,-1,-1,41,43,45,47,49,51,53,55,57,-1,-1,-1,59,-1,-1,-1,-1,-1,61,63,65,-1,-1,67,69,71,-1,73,75,77,79,-1,-1,-1,-1,-1,-1,-1,-1,-1,-1,-1,-1,-1,-1,-1,-1,-1,-1,-1,-1,-1,-1,-1,-1,-1,-1],"loss_changes":[1.0771406E1,5.747983E0,7.914307E0,4.054656E0,2.319757E0,3.7730143E0,6.543709E0,3.5688381E0,2.326186E0,7.266171E-1,1.5327795E0,1.8214011E0,2.6994298E0,3.0014982E0,3.1271348E0,0E0,2.5637875E0,9.58019E-1,1.3028511E0,1.3797235E-1,0E0,3.4778214E-1,0E0,0E0,1.8474255E0,1.4551445E0,8.8268304E-1,2.5679924E0,4.8050308E-1,2.2471247E0,1.6306016E0,1.2869244E0,1.8680649E0,0E0,0E0,0E0,9.928282E-1,0E0,0E0,0E0,0E0,0E0,6.753254E-1,1.0062835E0,5.4060006E-1,0E0,0E0,3.7212753E-1,1.5810283E0,2.1773434E-1,0E0,2.2655742E0,1.9546249E0,3.081848E-1,3.6539388E-1,0E0,0E0,0E0,0E0,0E0,0E0,0E0,0E0,0E0,0E0,0E0,0E0,0E0,0E0,0E0,0E0,0E0,0E0,0E0,0E0,0E0,0E0,0E0,0E0,0E0,0E0],"parents":[2147483647,0,0,1,1,2,2,3,3,4,4,5,5,6,6,7,7,8,8,9,9,10,10,11,11,12,12,13,13,14,14,16,16,17,17,18,18,19,19,21,21,24,24,25,25,26,26,27,27,28,28,29,29,30,30,31,31,32,32,36,36,42,42,43,43,44,44,47,47,48,48,49,49,51,51,52,52,53,53,54,54],"right_children":[2,4,6,8,10,12,14,16,18,20,22,24,26,28,30,-1,32,34,36,38,-1,40,-1,-1,42,44,46,48,50,52,54,56,58,-1,-1,-1,60,-1,-1,-1,-1,-1,62,64,66,-1,-1,68,70,72,-1,74,76,78,80,-1,-1,-1,-1,-1,-1,-1,-1,-1,-1,-1,-1,-1,-1,-1,-1,-1,-1,-1,-1,-1,-1,-1,-1,-1,-1],"split_conditions":[-4.855484E-2,-4.974029E-3,3.88173E-2,9.356776E-2,-4.482257E-2,2.0445064E-2,6.8596224E-3,-6.208411E-2,1.2749463E-2,-2.9656063E-3,6.5375364E-4,-8.235977E-2,-6.8030865E-3,-1.991151E-3,4.0030412E-2,1.8074305E-1,-5.824878E-2,-6.811133E-2,2.0966748E-2,6.1227E-2,-2.252749E-2,5.3237793E-3,1.068611E-1,8.666004E-2,-4.4671804E-2,3.2165162E-2,-2.5456384E-2,-1.0952227E-2,2.72871E-2,4.842531E-2,8.10276E-3,3.688713E-2,7.1872436E-2,2.4457556E-1,-3.5442796E-2,-2.2792237E-1,3.835065E-2,2.6206467E-1,5.903155E-2,-2.2403921E-1,-1.1241365E-2,6.334564E-2,1.4053788E-2,-4.873917E-2,-2.0601375E-2,4.5746505E-2,-2.3404343E-1,-3.395066E-2,-3.8414255E-2,9.267968E-2,3.361504E-2,-2.365749E-2,7.997994E-2,-9.195197E-3,8.9303665E-3,-1.09470084E-1,2.0705557E-1,-2.7000323E-1,-2.1520157E-3,-1.1015848E-1,1.8086043E-1,-2.8363004E-1,-2.2562886E-2,1.2905134E-1,-1.5558589E-1,2.233302E-2,2.7504757E-1,2.6628298E-1,2.8663585E-2,1.3896365E-1,-1.5124027E-1,2.946337E-1,7.968938E-2,1.3293122E-1,-1.0935696E-1,1.9673309E-1,-1.4276013E-1,-3.407027E-2,1.0081577E-1,-4.1618515E-2,-2.514099E-1],"split_indices":[325,9,303,232,113,214,324,311,65,91,380,87,50,124,356,0,364,251,1,24,0,226,0,0,354,249,9,296,336,155,188,211,310,0,0,0,67,0,0,0,0,0,308,50,44,0,0,48,13,188,0,296,102,116,361,0,0,0,0,0,0,0,0,0,0,0,0,0,0,0,0,0,0,0,0,0,0,0,0,0,0],"split_type":[0,0,0,0,0,0,0,0,0,0,0,0,0,0,0,0,0,0,0,0,0,0,0,0,0,0,0,0,0,0,0,0,0,0,0,0,0,0,0,0,0,0,0,0,0,0,0,0,0,0,0,0,0,0,0,0,0,0,0,0,0,0,0,0,0,0,0,0,0,0,0,0,0,0,0,0,0,0,0,0,0],"sum_hessian":[1.4807764E2,5.8647438E1,8.943021E1,4.7883163E1,1.0764275E1,2.5311073E1,6.411913E1,3.9086216E1,8.7969475E0,5.4514103E0,5.3128643E0,1.49204235E1,1.0390651E1,2.7475323E1,3.6643806E1,1.2933841E0,3.779283E1,3.850623E0,4.946325E0,4.419309E0,1.0321012E0,3.316841E0,1.9960234E0,1.3580503E0,1.3562373E1,6.9872737E0,3.403377E0,9.718896E0,1.7756426E1,2.4529696E1,1.2114112E1,2.7384608E0,3.505437E1,2.5932913E0,1.2573316E0,2.6537259E0,2.292599E0,3.3361921E0,1.083117E0,2.303429E0,1.013412E0,1.3881199E0,1.2174253E1,2.575904E0,4.41137E0,1.047677E0,2.3557E0,3.819793E0,5.8991027E0,1.6728527E1,1.0278988E0,1.2760277E1,1.1769419E1,6.383627E0,5.730485E0,1.6573331E0,1.0811275E0,3.2517456E1,2.5369158E0,1.1628882E0,1.1297108E0,1.1014763E1,1.1594903E0,1.041831E0,1.5340729E0,1.1576872E0,3.2536824E0,2.804908E0,1.014885E0,1.5690639E0,4.3300385E0,1.5370454E1,1.358074E0,4.6143136E0,8.145963E0,1.0743442E1,1.0259773E0,5.380174E0,1.0034527E0,1.3966299E0,4.333855E0],"tree_param":{"num_deleted":"0","num_feature":"384","num_nodes":"81","size_leaf_vector":"0"}},{"base_weights":[-7.599575E-2,-3.7214208E-1,1.5562575E-1,-1.6759978E-1,-7.622934E-1,5.575439E-1,-7.005182E-2,3.255638E-1,-3.8187736E-1,3.1276703E-1,-8.702734E-1,6.803678E-1,-2.905801E-1,-2.3274285E-1,4.8535502E-1,5.823082E-1,-2.122434E-1,-5.3430283E-1,2.325937E-1,-9.197715E-1,-4.8748393E-2,-4.2195338E-1,7.5521284E-1,1.7427774E-1,-5.950166E-1,2.92734E-3,-6.4941716E-1,-2.582903E-1,6.47443E-1,7.42026E-1,-2.58858E-1,-5.497983E-1,2.8195286E-1,-6.596989E-1,1.73953E-1,-5.709188E-1,5.573258E-1,-2.3172697E-1,-9.5821214E-1,-1.3073702E-1,8.286031E-1,2.4954559E-1,-3.2615396E-1,3.093856E-1,-7.5194556E-1,7.9751444E-1,-1.9816193E-1,8.705467E-1,-3.632305E-2,-7.491068E-1,1.7672156E-1,-3.5682437E-1,5.0020355E-1,8.9251554E-1,-1.7190598E-1,8.886124E-1,-1.7938128E-1,5.8878875E-1,-1.3360612E-1,3.3761504E-1,-5.6445134E-1,1.3028535E-1,-8.4164715E-1,8.8433737E-1,8.985697E-2],"categories":[],"categories_nodes":[],"categories_segments":[],"categories_sizes":[],"default_left":[1,1,1,1,1,1,1,1,1,0,1,1,1,1,1,1,1,1,1,1,0,0,1,0,0,1,1,0,1,1,0,0,0,1,1,0,1,0,0,0,1,1,1,0,1,1,0,0,0,0,0,0,0,0,0,0,0,0,0,0,0,0,0,0,0],"id":13,"left_children":[1,3,5,7,9,11,13,15,17,-1,19,21,23,25,27,29,31,33,35,37,-1,-1,39,-1,-1,41,43,-1,45,47,-1,-1,-1,49,51,-1,53,-1,-1,-1,55,57,59,-1,61,63,-1,-1,-1,-1,-1,-1,-1,-1,-1,-1,-1,-1,-1,-1,-1,-1,-1,-1,-1],"loss_changes":[9.050086E0,4.487028E0,6.7752113E0,4.2688456E0,2.5483599E0,2.9911985E0,4.4907627E0,1.838416E0,2.7281218E0,0E0,6.904659E-1,2.2759476E0,6.829405E-1,3.747952E0,1.5293493E0,1.3573256E0,9.4671947E-1,2.1200075E0,1.9417439E0,2.2755814E-1,0E0,0E0,1.5760803E0,0E0,0E0,2.1397011E0,1.5878763E0,0E0,1.3716426E0,7.866616E-1,0E0,0E0,0E0,1.5824871E0,9.03626E-1,0E0,1.3602831E0,0E0,0E0,0E0,1.4286394E0,2.0366988E0,1.9776248E0,0E0,1.1183257E0,4.317851E-1,0E0,0E0,0E0,0E0,0E0,0E0,0E0,0E0,0E0,0E0,0E0,0E0,0E0,0E0,0E0,0E0,0E0,0E0,0E0],"parents":[2147483647,0,0,1,1,2,2,3,3,4,4,5,5,6,6,7,7,8,8,10,10,11,11,12,12,13,13,14,14,15,15,16,16,17,17,18,18,19,19,22,22,25,25,26,26,28,28,29,29,33,33,34,34,36,36,40,40,41,41,42,42,44,44,45,45],"right_children":[2,4,6,8,10,12,14,16,18,-1,20,22,24,26,28,30,32,34,36,38,-1,-1,40,-1,-1,42,44,-1,46,48,-1,-1,-1,50,52,-1,54,-1,-1,-1,56,58,60,-1,62,64,-1,-1,-1,-1,-1,-1,-1,-1,-1,-1,-1,-1,-1,-1,-1,-1,-1,-1,-1],"split_conditions":[1.8248506E-2,2.2959385E-2,-3.1937055E-2,-8.063832E-2,-2.2497213E-2,-2.4409994E-2,-4.4404E-3,1.092096E-2,2.0051572E-2,9.3830116E-2,5.5936344E-2,-4.525245E-2,-2.2521692E-3,2.3087147E-3,-6.2357776E-2,5.4647416E-2,-1.6091334E-2,4.723803E-2,1.0282138E-2,1.6202517E-2,-1.4624518E-2,-1.2658602E-1,-3.0691043E-2,5.2283324E-2,-1.7850499E-1,2.3297828E-2,-4.0286522E-2,-7.748709E-2,1.0130734E-1,1.1301158E-1,-7.76574E-2,-1.649395E-1,8.458586E-2,5.5437498E-2,-3.062711E-2,-1.7127565E-1,-4.2670973E-2,-6.95181E-2,-2.8746367E-1,-3.9221108E-2,2.9709596E-2,-9.104841E-3,-8.869074E-2,9.281568E-2,-7.360059E-2,7.664507E-2,-5.944858E-2,2.61164E-1,-1.0896915E-2,-2.2473206E-1,5.301647E-2,-1.0704731E-1,1.5006107E-1,2.6775467E-1,-5.1571798E-2,2.6658374E-1,-5.3814385E-2,1.7663664E-1,-4.0081836E-2,1.0128452E-1,-1.6933541E-1,3.9085608E-2,-2.5249416E-1,2.6530123E-1,2.6957091E-2],"split_indices":[92,13,62,378,300,261,142,375,154,0,54,368,178,347,377,59,308,214,267,53,0,0,124,0,0,361,174,0,35,264,0,0,0,234,241,0,23,0,0,0,39,268,165,0,314,16,0,0,0,0,0,0,0,0,0,0,0,0,0,0,0,0,0,0,0],"split_type":[0,0,0,0,0,0,0,0,0,0,0,0,0,0,0,0,0,0,0,0,0,0,0,0,0,0,0,0,0,0,0,0,0,0,0,0,0,0,0,0,0,0,0,0,0,0,0,0,0,0,0,0,0,0,0,0,0,0,0,0,0,0,0,0,0],"sum_hessian":[1.3009296E2,5.6827652E1,7.326531E1,3.8219906E1,1.8607746E1,2.5816732E1,4.7448578E1,1.1419159E1,2.6800745E1,1.5252885E0,1.7082458E1,2.2723717E1,3.0930154E0,3.714804E1,1.0300538E1,7.6732645E0,3.7458944E0,2.1578466E1,5.2222786E0,1.599891E1,1.0835482E0,1.149921E0,2.1573797E1,1.3932061E0,1.6998093E0,2.4361946E1,1.2786095E1,1.7371458E0,8.563392E0,6.547843E0,1.1254216E0,2.1588247E0,1.5870697E0,1.8390926E1,3.1875398E0,1.2848762E0,3.9374025E0,1.2184366E0,1.4780473E1,1.5906352E0,1.9983162E1,1.4063928E1,1.0298018E1,1.0402789E0,1.1745816E1,7.32099E0,1.2424017E0,5.518223E0,1.0296199E0,1.6709211E1,1.6817162E0,1.177748E0,2.0097919E0,2.5441003E0,1.3933021E0,1.8972103E1,1.0110576E0,7.17472E0,6.8892074E0,2.6103103E0,7.6877084E0,1.042289E0,1.07035265E1,6.2985487E0,1.0224416E0],"tree_param":{"num_deleted":"0","num_feature":"384","num_nodes":"65","size_leaf_vector":"0"}},{"base_weights":[-6.4821154E-2,1.9178674E-1,-3.0932587E-1,4.3243212E-1,-1.3449393E-1,-5.1893663E-1,3.7130054E-2,6.655469E-1,3.031957E-2,4.5286518E-1,-3.3927596E-1,-3.2105945E-2,-6.9772255E-1,-1.6503298E-1,4.3791085E-1,1.706554E-2,8.0280566E-1,-3.122454E-1,6.8842995E-1,6.609261E-1,-2.7112636E-1,-6.225454E-1,2.7300403E-2,-4.4522294E-1,3.2439515E-1,-8.1173974E-1,-8.814318E-2,-7.1550286E-1,6.6903345E-2,-1.9303547E-1,6.7088413E-1,3.463363E-1,-4.1285732E-1,8.762662E-1,-4.8707914E-2,3.397835E-1,-6.073906E-1,4.375176E-2,8.449964E-1,4.9494267E-2,7.871393E-1,-7.6228803E-1,1.1048306E-1,4.7417787E-1,-4.2925727E-1,3.377446E-1,-7.609902E-1,-3.8698918E-1,5.356452E-1,-8.944042E-1,-1.6419392E-2,-4.8179597E-1,3.8356957E-1,-1.6506553E-1,6.840903E-1,6.362657E-3,8.306577E-1,-5.1661294E-2,5.74518E-1,9.2560667E-1,1.3223429E-1,6.5346986E-1,-2.2711958E-1,1.2600787E-1,-7.628884E-1,-1.530185E-1,-8.7418705E-1,7.4106425E-1,-1.3124947E-2,-7.3854315E-1,8.710934E-2,7.4894506E-1,-2.0805381E-1,-9.769949E-1,-1.2843549E-1,-4.578946E-1,4.3622017E-1,-7.0992935E-1,2.3977162E-2,2.6242591E-2,5.482272E-1,-6.4917666E-1,8.817788E-2,8.2166266E-1,1.6904248E-1],"categories":[],"categories_nodes":[],"categories_segments":[],"categories_sizes":[],"default_left":[1,1,1,1,1,1,1,1,1,1,1,1,1,1,1,1,1,1,1,1,0,1,1,1,1,1,1,0,1,0,1,1,0,1,0,1,1,0,0,0,0,1,0,1,1,0,0,0,1,1,1,1,1,1,1,0,0,0,0,0,0,0,0,0,0,0,0,0,0,0,0,0,0,0,0,0,0,0,0,0,0,0,0,0,0],"id":14,"left_children":[1,3,5,7,9,11,13,15,17,19,21,23,25,27,29,31,33,35,37,39,-1,41,43,45,47,49,51,-1,53,-1,55,57,-1,59,-1,61,63,-1,-1,-1,-1,65,-1,67,69,-1,-1,-1,71,73,75,77,79,81,83,-1,-1,-1,-1,-1,-1,-1,-1,-1,-1,-1,-1,-1,-1,-1,-1,-1,-1,-1,-1,-1,-1,-1,-1,-1,-1,-1,-1,-1,-1],"loss_changes":[7.3707194E0,4.5710335E0,4.3805676E0,3.102809E0,3.1798716E0,3.2401772E0,1.9820952E0,1.8592443E0,3.2075205E0,1.2234699E0,2.0135455E0,1.7816433E0,1.8305769E0,2.141E0,1.331477E0,8.079691E-1,1.1276264E0,2.0187762E0,4.5318723E-1,3.9905238E-1,0E0,1.1995378E0,2.1089723E0,1.6343472E0,1.1909741E0,1.4930744E0,1.1938751E0,0E0,1.8952053E0,0E0,6.5249634E-1,3.206493E-1,0E0,4.6570015E-1,0E0,7.8432E-1,8.763931E-1,0E0,0E0,0E0,0E0,4.9831867E-1,0E0,6.8532825E-1,8.8592213E-1,0E0,0E0,0E0,1.0229608E0,1.187561E0,8.3479065E-1,4.0995133E-1,1.6381368E-1,1.265295E0,1.1584163E-1,0E0,0E0,0E0,0E0,0E0,0E0,0E0,0E0,0E0,0E0,0E0,0E0,0E0,0E0,0E0,0E0,0E0,0E0,0E0,0E0,0E0,0E0,0E0,0E0,0E0,0E0,0E0,0E0,0E0,0E0],"parents":[2147483647,0,0,1,1,2,2,3,3,4,4,5,5,6,6,7,7,8,8,9,9,10,10,11,11,12,12,13,13,14,14,15,15,16,16,17,17,18,18,19,19,21,21,22,22,23,23,24,24,25,25,26,26,28,28,30,30,31,31,33,33,35,35,36,36,41,41,43,43,44,44,48,48,49,49,50,50,51,51,52,52,53,53,54,54],"right_children":[2,4,6,8,10,12,14,16,18,20,22,24,26,28,30,32,34,36,38,40,-1,42,44,46,48,50,52,-1,54,-1,56,58,-1,60,-1,62,64,-1,-1,-1,-1,66,-1,68,70,-1,-1,-1,72,74,76,78,80,82,84,-1,-1,-1,-1,-1,-1,-1,-1,-1,-1,-1,-1,-1,-1,-1,-1,-1,-1,-1,-1,-1,-1,-1,-1,-1,-1,-1,-1,-1,-1],"split_conditions":[3.6435902E-2,1.0749187E-2,5.1730465E-2,-1.977069E-2,8.257341E-3,-1.028543E-2,-2.8866151E-2,4.441803E-2,4.7039375E-2,7.068838E-3,-1.6189305E-2,7.701182E-3,7.365966E-2,-4.290749E-2,-8.6462766E-2,-1.3357302E-2,1.1434048E-2,-1.7450098E-2,-7.0921004E-2,-1.7918508E-2,-8.1337914E-2,-5.333717E-3,-9.9222865E-3,-2.9136252E-2,-3.5405092E-2,-9.00008E-3,-2.2976201E-2,-2.1465087E-1,-1.903363E-2,-5.7910644E-2,-1.3143036E-2,1.639209E-2,-1.238572E-1,1.7709497E-2,-1.4612375E-2,-1.026853E-3,-4.6070404E-2,1.3125529E-2,2.5349894E-1,1.4848281E-2,2.361418E-1,-8.477898E-2,3.3144917E-2,-1.4632085E-2,-4.746919E-2,1.0132338E-1,-2.2829707E-1,-1.1609676E-1,2.531784E-2,1.0206978E-1,2.473357E-2,-4.163117E-2,-3.678223E-2,6.0234495E-2,-4.3055326E-2,1.9087972E-3,2.4919732E-1,-1.5498389E-2,1.7235541E-1,2.77682E-1,3.967029E-2,1.9604097E-1,-6.813588E-2,3.780236E-2,-2.2886652E-1,-4.5905553E-2,-2.6225612E-1,2.2231929E-1,-3.937484E-3,-2.2156295E-1,2.6132803E-2,2.2468352E-1,-6.2416147E-2,-2.9309848E-1,-3.8530648E-2,-1.3736838E-1,1.3086605E-1,-2.1297881E-1,7.193149E-3,7.872778E-3,1.6446817E-1,-1.94753E-1,2.6453367E-2,2.4649881E-1,5.0712746E-2],"split_indices":[102,230,80,333,53,27,304,303,191,79,9,4,92,142,276,266,345,136,96,305,0,15,174,230,365,72,229,0,103,0,60,220,0,332,0,61,293,0,0,0,0,378,0,260,281,0,0,0,245,303,224,190,377,151,202,0,0,0,0,0,0,0,0,0,0,0,0,0,0,0,0,0,0,0,0,0,0,0,0,0,0,0,0,0,0],"split_type":[0,0,0,0,0,0,0,0,0,0,0,0,0,0,0,0,0,0,0,0,0,0,0,0,0,0,0,0,0,0,0,0,0,0,0,0,0,0,0,0,0,0,0,0,0,0,0,0,0,0,0,0,0,0,0,0,0,0,0,0,0,0,0,0,0,0,0,0,0,0,0,0,0,0,0,0,0,0,0,0,0,0,0,0,0],"sum_hessian":[1.1553142E2,5.6475716E1,5.9055702E1,3.2316E1,2.4159714E1,3.648432E1,2.257138E1,2.0042015E1,1.2273988E1,5.9325185E0,1.8227196E1,1.0116595E1,2.6367725E1,1.5394342E1,7.1770377E0,3.6974907E0,1.6344524E1,8.417819E0,3.856169E0,4.675873E0,1.2566456E0,9.888021E0,8.339173E0,4.570911E0,5.545685E0,2.1933577E1,4.434149E0,3.945445E0,1.1448897E1,1.9816611E0,5.195377E0,2.2039468E0,1.4935439E0,1.5019699E1,1.3248259E0,2.5759156E0,5.841903E0,1.0035198E0,2.8526492E0,1.0382559E0,3.6376166E0,8.271289E0,1.6167324E0,4.19476E0,4.1444135E0,1.2936394E0,3.2772713E0,1.0792866E0,4.4663982E0,1.9755623E1,2.1779537E0,2.4054127E0,2.028736E0,8.853771E0,2.595126E0,1.2085725E0,3.9868042E0,1.085026E0,1.1189208E0,1.3856746E1,1.1629527E0,1.5600092E0,1.0159063E0,1.0551207E0,4.7867827E0,1.650747E0,6.620542E0,2.3738828E0,1.8208772E0,2.3228421E0,1.8215717E0,3.465427E0,1.0009713E0,1.758411E1,2.1715126E0,1.096697E0,1.0812566E0,1.3795176E0,1.0258951E0,1.0056754E0,1.0230606E0,2.503851E0,6.3499203E0,1.5782518E0,1.0168741E0],"tree_param":{"num_deleted":"0","num_feature":"384","num_nodes":"85","size_leaf_vector":"0"}},{"base_weights":[-5.445732E-2,1.6496873E-1,-3.0620906E-1,-2.104943E-1,3.8932413E-1,-6.159357E-1,2.1326173E-2,1.16625324E-1,-5.086106E-1,6.308818E-1,-1.9337477E-2,2.0343861E-1,-7.0511967E-1,-3.2623923E-1,2.808135E-1,6.1544424E-1,-9.58955E-2,-6.9803536E-1,2.8711003E-1,7.54535E-1,-6.427248E-2,3.5767886E-1,-3.8208959E-1,-1.5720406E-1,4.493176E-1,-1.8455995E-2,-7.901707E-1,-5.959173E-1,2.2488438E-1,4.5571828E-1,-3.6118144E-1,-5.9295654E-1,1.120159E-1,-8.314246E-1,7.890136E-2,8.116283E-1,-9.231711E-2,3.6234483E-1,-4.5249248E-1,-2.887966E-1,5.972415E-1,2.2128136E-1,-5.6649363E-1,-5.220594E-1,3.9604533E-1,1.8350631E-2,-8.359753E-1,-7.842211E-1,-4.739554E-2,6.387544E-1,-1.868899E-1,-2.2264321E-1,5.981639E-1,-5.898382E-1,1.19719975E-1,-8.9263225E-1,-2.1906486E-1,1.0931139E-1,9.054961E-1,2.413957E-2,7.242042E-1,3.2448597E-2,-7.3212945E-1,-8.816991E-1,-1.0549345E-1,7.18565E-1,-1.1695996E-1],"categories":[],"categories_nodes":[],"categories_segments":[],"categories_sizes":[],"default_left":[1,1,1,1,1,1,1,1,1,1,1,1,1,1,1,0,1,1,0,1,1,1,1,0,0,1,1,1,1,1,1,0,0,1,0,1,0,0,0,0,1,0,1,0,0,0,1,0,0,0,0,0,1,0,0,0,0,0,0,0,0,0,0,0,0,0,0],"id":15,"left_children":[1,3,5,7,9,11,13,15,17,19,21,23,25,27,29,-1,31,33,-1,35,37,39,41,-1,-1,43,45,47,49,51,53,-1,-1,55,-1,57,-1,-1,-1,-1,59,-1,61,-1,-1,-1,63,-1,-1,-1,-1,-1,65,-1,-1,-1,-1,-1,-1,-1,-1,-1,-1,-1,-1,-1,-1],"loss_changes":[5.7075453E0,4.745828E0,4.886675E0,2.1421537E0,3.468017E0,1.9502296E0,2.2846026E0,1.2248197E0,1.9128418E0,1.942337E0,2.0480392E0,3.5466683E-1,1.3007288E0,1.747551E0,1.7881888E0,0E0,9.527887E-1,1.0468073E0,0E0,9.8309803E-1,8.676367E-1,1.3138278E0,9.716426E-1,0E0,0E0,9.3863034E-1,7.5660706E-1,7.440498E-1,8.509821E-1,1.2739372E0,4.7238004E-1,0E0,0E0,1.1057377E-1,0E0,1.0678387E0,0E0,0E0,0E0,0E0,3.9748383E-1,0E0,6.2956583E-1,0E0,0E0,0E0,5.4039764E-1,0E0,0E0,0E0,0E0,0E0,9.474683E-1,0E0,0E0,0E0,0E0,0E0,0E0,0E0,0E0,0E0,0E0,0E0,0E0,0E0,0E0],"parents":[2147483647,0,0,1,1,2,2,3,3,4,4,5,5,6,6,7,7,8,8,9,9,10,10,11,11,12,12,13,13,14,14,16,16,17,17,19,19,20,20,21,21,22,22,25,25,26,26,27,27,28,28,29,29,30,30,33,33,35,35,40,40,42,42,46,46,52,52],"right_children":[2,4,6,8,10,12,14,16,18,20,22,24,26,28,30,-1,32,34,-1,36,38,40,42,-1,-1,44,46,48,50,52,54,-1,-1,56,-1,58,-1,-1,-1,-1,60,-1,62,-1,-1,-1,64,-1,-1,-1,-1,-1,66,-1,-1,-1,-1,-1,-1,-1,-1,-1,-1,-1,-1,-1,-1],"split_conditions":[-5.4331375E-3,-1.74966E-2,3.1588394E-2,-5.915726E-2,9.980572E-3,-5.128026E-2,3.3453956E-2,-1.7088085E-2,-6.7219674E-3,-1.1028597E-2,-1.1729626E-2,3.1564303E-3,-7.6166674E-2,2.0341065E-2,4.0091634E-2,1.8463328E-1,-9.540008E-3,3.4329064E-2,8.613301E-2,7.228401E-2,-1.0175528E-2,1.883347E-2,2.172131E-3,-4.716122E-2,1.347953E-1,1.2386062E-2,-1.07686676E-1,4.0144563E-2,-4.2360023E-2,-4.099676E-2,3.0528534E-2,-1.7788696E-1,3.360477E-2,6.1005972E-2,2.3670409E-2,-2.7965784E-2,-2.7695134E-2,1.0870346E-1,-1.3574775E-1,-8.663899E-2,-1.9608915E-2,6.638441E-2,-7.47007E-2,-1.5661782E-1,1.18813604E-1,5.5051893E-3,1.1280373E-1,-2.3526634E-1,-1.4218662E-2,1.9162634E-1,-5.606697E-2,-6.6792965E-2,4.5570366E-2,-1.7695147E-1,3.5915993E-2,-2.677897E-1,-6.571946E-2,3.2793418E-2,2.7164885E-1,7.241871E-3,2.1726127E-1,9.734579E-3,-2.1963884E-1,-2.6450974E-1,-3.1648036E-2,2.1556951E-1,-3.5087988E-2],"split_indices":[13,124,290,378,136,2,151,240,187,378,173,222,100,4,230,0,107,4,0,316,54,17,102,0,0,4,195,82,229,277,257,0,0,106,0,207,0,0,0,0,315,0,378,0,0,0,139,0,0,0,0,0,357,0,0,0,0,0,0,0,0,0,0,0,0,0,0],"split_type":[0,0,0,0,0,0,0,0,0,0,0,0,0,0,0,0,0,0,0,0,0,0,0,0,0,0,0,0,0,0,0,0,0,0,0,0,0,0,0,0,0,0,0,0,0,0,0,0,0,0,0,0,0,0,0,0,0,0,0,0,0,0,0,0,0,0,0],"sum_hessian":[1.0140658E2,5.4366028E1,4.7040546E1,2.0358116E1,3.400791E1,2.3724998E1,2.3315548E1,9.997149E0,1.0360967E1,2.1032148E1,1.2975763E1,2.2030895E0,2.152191E1,9.856372E0,1.3459176E1,2.420333E0,7.5768166E0,8.467908E0,1.8930587E0,1.7783432E1,3.248717E0,6.3696404E0,6.606123E0,1.0393173E0,1.1637723E0,2.5060663E0,1.9015842E1,6.563443E0,3.2929282E0,1.0805488E1,2.653689E0,1.6883801E0,5.8884363E0,7.1672573E0,1.3006502E0,1.6699196E1,1.0842359E0,1.5795695E0,1.6691476E0,1.6666257E0,4.7030144E0,1.4995635E0,5.1065598E0,1.014274E0,1.4917923E0,1.0516676E0,1.7964176E1,4.566199E0,1.9972445E0,1.367372E0,1.9255563E0,1.777515E0,9.027972E0,1.6450038E0,1.0086851E0,6.0998607E0,1.0673965E0,2.2239778E0,1.4475218E1,1.0687723E0,3.634242E0,1.2804664E0,3.8260932E0,1.6711147E1,1.2530273E0,7.722902E0,1.3050703E0],"tree_param":{"num_deleted":"0","num_feature":"384","num_nodes":"67","size_leaf_vector":"0"}},{"base_weights":[-4.93304E-2,-3.5709062E-1,1.1055993E-1,-5.450519E-1,3.774574E-2,-2.580795E-1,2.6560888E-1,-6.340067E-1,3.3084536E-1,-5.217592E-1,3.9154485E-1,1.016821E-1,-6.128795E-1,4.8205605E-1,-2.2999527E-2,2.4965996E-2,-7.4117005E-1,-7.087149E-1,5.5419672E-2,-1.0489345E-1,6.0458994E-1,4.2053837E-1,-3.685757E-1,8.09065E-2,-7.107653E-1,6.9197756E-1,1.24495275E-1,1.630362E-1,-4.667186E-1,4.108851E-1,-4.828306E-1,-8.0708313E-1,6.439384E-2,3.452894E-1,-5.1391387E-1,4.9296815E-2,7.4825656E-1,7.4348366E-1,-1.0072021E-1,-6.467722E-1,1.8153843E-1,-1.6286906E-2,-8.045989E-1,7.6672304E-1,-6.7069106E-2,5.452421E-1,-1.9363563E-1,5.837429E-1,-7.268634E-2,1.494419E-1,-6.7833966E-1,-2.1991451E-1,-9.032712E-1,-4.8726055E-1,3.7753642E-1,8.2840925E-1,1.2066151E-2,1.2668703E-2,7.146933E-1,-5.093902E-1,3.436974E-1,7.8573865E-1,1.6215E-2,-2.2404541E-1,3.1576508E-1,-7.542494E-1,-2.0222874E-1],"categories":[],"categories_nodes":[],"categories_segments":[],"categories_sizes":[],"default_left":[1,1,1,1,1,1,1,1,0,1,1,1,1,1,1,1,1,0,0,1,1,1,1,0,1,1,1,1,1,0,0,1,0,0,0,0,0,0,1,0,0,0,0,1,0,1,1,1,1,0,1,0,0,0,0,0,0,0,0,0,0,0,0,0,0,0,0],"id":16,"left_children":[1,3,5,7,9,11,13,15,-1,17,19,21,23,25,27,29,31,-1,-1,33,35,37,39,-1,41,43,45,47,49,-1,-1,51,-1,-1,-1,-1,-1,-1,53,-1,-1,-1,-1,55,-1,57,59,61,63,-1,65,-1,-1,-1,-1,-1,-1,-1,-1,-1,-1,-1,-1,-1,-1,-1,-1],"loss_changes":[4.538728E0,2.3581371E0,3.5514674E0,1.8774514E0,2.4003177E0,2.429916E0,2.7214265E0,1.4148631E0,0E0,5.4927015E-1,8.426292E-1,1.6645777E0,7.0137453E-1,1.7782402E0,1.6897802E0,9.2998356E-1,9.567604E-1,0E0,0E0,7.4172294E-1,3.8617134E-1,1.1634674E0,8.21537E-1,0E0,5.349946E-1,9.269104E-1,1.4986701E0,1.4818685E0,8.881258E-1,0E0,0E0,6.951504E-1,0E0,0E0,0E0,0E0,0E0,0E0,8.040848E-1,0E0,0E0,0E0,0E0,6.476984E-1,0E0,4.189955E-1,1.3058065E0,5.974766E-1,6.699829E-1,0E0,1.6312838E-2,0E0,0E0,0E0,0E0,0E0,0E0,0E0,0E0,0E0,0E0,0E0,0E0,0E0,0E0,0E0,0E0],"parents":[2147483647,0,0,1,1,2,2,3,3,4,4,5,5,6,6,7,7,9,9,10,10,11,11,12,12,13,13,14,14,15,15,16,16,19,19,20,20,21,21,22,22,24,24,25,25,26,26,27,27,28,28,31,31,38,38,43,43,45,45,46,46,47,47,48,48,50,50],"right_children":[2,4,6,8,10,12,14,16,-1,18,20,22,24,26,28,30,32,-1,-1,34,36,38,40,-1,42,44,46,48,50,-1,-1,52,-1,-1,-1,-1,-1,-1,54,-1,-1,-1,-1,56,-1,58,60,62,64,-1,66,-1,-1,-1,-1,-1,-1,-1,-1,-1,-1,-1,-1,-1,-1,-1,-1],"split_conditions":[-3.9340064E-2,1.3044363E-2,4.143327E-2,5.0908394E-2,-3.4493417E-2,-1.1114599E-2,3.796985E-2,-5.7936903E-2,9.925361E-2,6.8986624E-2,1.5270967E-3,3.572662E-3,-2.2315405E-2,-4.3656677E-2,5.983843E-3,3.4710668E-2,9.008689E-2,-2.1261448E-1,1.6625902E-2,8.170547E-3,-6.512925E-2,-6.396121E-2,2.89439E-2,2.4271952E-2,-5.7971008E-2,3.5414003E-2,-3.223762E-2,1.5835645E-2,-4.6944227E-2,1.23265535E-1,-1.448492E-1,-1.2909986E-2,1.9318152E-2,1.0358683E-1,-1.5417416E-1,1.4789045E-2,2.2447698E-1,2.2304511E-1,6.5046474E-2,-1.9403167E-1,5.446153E-2,-4.886072E-3,-2.413797E-1,9.186611E-2,-2.0120732E-2,-1.2528664E-3,4.6416325E-4,-8.07291E-2,-1.9538349E-2,4.4832572E-2,5.411623E-2,-6.5974355E-2,-2.7098137E-1,-1.4617817E-1,1.1326093E-1,2.4852279E-1,3.6198455E-3,3.800611E-3,2.14408E-1,-1.5281706E-1,1.03109226E-1,2.357216E-1,4.8645004E-3,-6.7213625E-2,9.472953E-2,-2.2627483E-1,-6.0668625E-2],"split_indices":[9,255,303,342,344,10,102,332,0,279,191,178,209,378,335,300,80,0,0,311,110,165,90,0,364,61,13,356,293,0,0,24,0,0,0,0,0,0,232,0,0,0,0,53,0,348,0,218,138,0,67,0,0,0,0,0,0,0,0,0,0,0,0,0,0,0,0],"split_type":[0,0,0,0,0,0,0,0,0,0,0,0,0,0,0,0,0,0,0,0,0,0,0,0,0,0,0,0,0,0,0,0,0,0,0,0,0,0,0,0,0,0,0,0,0,0,0,0,0,0,0,0,0,0,0,0,0,0,0,0,0,0,0,0,0,0,0],"sum_hessian":[9.043348E1,3.049764E1,5.993584E1,2.0403933E1,1.009371E1,1.7548525E1,4.2387318E1,1.8773487E1,1.6304438E0,3.7262347E0,6.3674746E0,9.067566E0,8.480958E0,2.3838737E1,1.8548578E1,2.7332323E0,1.6040257E1,2.6424243E0,1.0838103E0,2.0644753E0,4.3029995E0,5.466653E0,3.6009126E0,1.0700707E0,7.4108877E0,1.4431078E1,9.40766E0,1.3514849E1,5.0337296E0,1.6614205E0,1.0718119E0,1.4825327E1,1.2149286E0,1.05696E0,1.0075153E0,1.160526E0,3.1424735E0,3.1121802E0,2.3544724E0,2.2748165E0,1.3260962E0,1.0218172E0,6.3890705E0,1.3128195E1,1.3028836E0,3.743185E0,5.6644745E0,4.322985E0,9.191863E0,1.3619806E0,3.6717489E0,2.54936E0,1.2275967E1,1.2916769E0,1.0627956E0,1.204583E1,1.0823652E0,1.1629326E0,2.5802524E0,3.600629E0,2.0638454E0,2.9046595E0,1.4183258E0,6.9190917E0,2.2727716E0,2.6629825E0,1.0087664E0],"tree_param":{"num_deleted":"0","num_feature":"384","num_nodes":"67","size_leaf_vector":"0"}},{"base_weights":[-4.1234214E-2,-5.3612965E-1,4.862866E-2,5.8923263E-2,-6.712564E-1,4.4600114E-1,-6.040733E-2,-3.4619376E-1,3.9909926E-1,6.719357E-2,-7.589991E-1,6.816743E-1,1.5382919E-3,-2.3822732E-1,1.977756E-1,-9.737479E-2,-8.298667E-1,-7.358853E-3,7.597181E-1,-3.218428E-1,4.4752416E-1,1.8483472E-1,-3.4664392E-1,-4.5310967E-2,4.640938E-1,2.0380868E-1,8.341368E-1,1.1514462E-1,-4.9979445E-1,5.378239E-1,1.312351E-1,4.1969648E-1,-4.5097697E-1,-4.6834695E-1,2.065048E-1,-4.830037E-1,9.3703166E-2,-2.2884153E-2,6.779502E-1,-1.4113012E-1,-6.025853E-1,6.577007E-1,-2.0299792E-2,8.131942E-3,-6.7867374E-1,-2.8999144E-1,4.6994746E-1,-6.3244414E-1,-6.901116E-2,-9.997828E-2,4.179402E-1,2.9908094E-1,-4.7541288E-1,-2.6475757E-2,7.8580534E-1],"categories":[],"categories_nodes":[],"categories_segments":[],"categories_sizes":[],"default_left":[1,1,1,1,1,1,1,0,0,0,1,1,1,1,1,0,0,0,1,1,1,1,1,1,1,0,0,0,1,0,0,1,0,1,1,1,1,1,1,0,0,0,0,0,0,0,0,0,0,0,0,0,0,0,0],"id":17,"left_children":[1,3,5,7,9,11,13,-1,-1,-1,15,17,19,21,23,-1,-1,-1,25,27,29,31,33,35,37,-1,-1,-1,39,-1,-1,41,-1,43,45,47,49,51,53,-1,-1,-1,-1,-1,-1,-1,-1,-1,-1,-1,-1,-1,-1,-1,-1],"loss_changes":[3.6644907E0,1.0571663E0,3.0666835E0,5.876174E-1,7.2448635E-1,1.5937266E0,2.614949E0,0E0,0E0,0E0,3.58613E-1,5.404916E-1,1.0494407E0,1.6040136E0,1.5331671E0,0E0,0E0,0E0,2.000351E-1,3.8576898E-1,1.6729653E-2,1.3093853E0,1.9192729E0,8.437045E-1,1.1855826E0,0E0,0E0,0E0,3.243971E-2,0E0,0E0,6.412171E-1,0E0,2.2600555E0,8.656605E-1,1.6210222E-1,7.198146E-1,7.826348E-1,6.164155E-1,0E0,0E0,0E0,0E0,0E0,0E0,0E0,0E0,0E0,0E0,0E0,0E0,0E0,0E0,0E0,0E0],"parents":[2147483647,0,0,1,1,2,2,3,3,4,4,5,5,6,6,10,10,11,11,12,12,13,13,14,14,18,18,19,19,20,20,21,21,22,22,23,23,24,24,28,28,31,31,33,33,34,34,35,35,36,36,37,37,38,38],"right_children":[2,4,6,8,10,12,14,-1,-1,-1,16,18,20,22,24,-1,-1,-1,26,28,30,32,34,36,38,-1,-1,-1,40,-1,-1,42,-1,44,46,48,50,52,54,-1,-1,-1,-1,-1,-1,-1,-1,-1,-1,-1,-1,-1,-1,-1,-1],"split_conditions":[-6.3488916E-2,-1.3884522E-2,6.574411E-3,-3.1078415E-2,-7.372847E-2,-9.027479E-3,6.09536E-2,-1.03858136E-1,1.1972978E-1,2.0158071E-2,-2.3456953E-2,-2.902788E-2,1.983896E-2,-2.5730727E-2,6.8296835E-2,-2.9212438E-2,-2.4896002E-1,-2.207656E-3,-1.128535E-2,1.7004812E-2,1.3004627E-2,2.5247842E-2,1.6363394E-2,1.4939411E-2,-6.357751E-3,6.1142605E-2,2.5024104E-1,3.4543388E-2,1.8478561E-2,1.6134718E-1,3.937053E-2,-2.1927793E-2,-1.352931E-1,-1.7027743E-2,2.995168E-3,2.8323097E-2,9.401154E-3,2.3307156E-2,-6.2102746E-2,-4.2339038E-2,-1.807756E-1,1.9731022E-1,-6.089938E-3,2.4395827E-3,-2.0360214E-1,-8.6997434E-2,1.4098424E-1,-1.8973325E-1,-2.070335E-2,-2.9993486E-2,1.2538207E-1,8.972429E-2,-1.4262387E-1,-7.942728E-3,2.3574162E-1],"split_indices":[142,132,102,86,364,2,67,0,0,0,164,92,226,27,232,0,0,0,57,188,119,136,150,217,252,0,0,0,34,0,0,173,0,335,368,52,117,361,64,0,0,0,0,0,0,0,0,0,0,0,0,0,0,0,0],"split_type":[0,0,0,0,0,0,0,0,0,0,0,0,0,0,0,0,0,0,0,0,0,0,0,0,0,0,0,0,0,0,0,0,0,0,0,0,0,0,0,0,0,0,0,0,0,0,0,0,0,0,0,0,0,0,0],"sum_hessian":[8.081237E1,1.1655696E1,6.915668E1,2.2613611E0,9.394336E0,1.4224883E1,5.4931793E1,1.0240844E0,1.2372767E0,1.0225623E0,8.371773E0,8.947065E0,5.277818E0,3.257411E1,2.2357685E1,1.0396428E0,