{"learner":{"attributes":{"best_iteration":"99","best_ntree_limit":"100","scikit_learn":"{\"use_label_encoder\": false, \"n_estimators\": 100, \"objective\": \"binary:logistic\", \"max_depth\": null, \"max_leaves\": null, \"max_bin\": null, \"grow_policy\": null, \"learning_rate\": null, \"verbosity\": null, \"booster\": null, \"tree_method\": null, \"gamma\": null, \"min_child_weight\": null, \"max_delta_step\": null, \"subsample\": null, \"sampling_method\": null, \"colsample_bytree\": null, \"colsample_bylevel\": null, \"colsample_bynode\": null, \"reg_alpha\": null, \"reg_lambda\": null, \"scale_pos_weight\": null, \"base_score\": null, \"missing\": NaN, \"num_parallel_tree\": null, \"random_state\": null, \"n_jobs\": null, \"monotone_constraints\": null, \"interaction_constraints\": null, \"importance_type\": null, \"gpu_id\": null, \"validate_parameters\": null, \"predictor\": null, \"enable_categorical\": false, \"max_cat_to_onehot\": null, \"eval_metric\": null, \"early_stopping_rounds\": null, \"callbacks\": null, \"classes_\": [0, 1], \"n_classes_\": 2, \"_estimator_type\": \"classifier\"}"},"feature_names":[],"feature_types":[],"gradient_booster":{"model":{"gbtree_model_param":{"num_parallel_tree":"1","num_trees":"100","size_leaf_vector":"0"},"tree_info":[0,0,0,0,0,0,0,0,0,0,0,0,0,0,0,0,0,0,0,0,0,0,0,0,0,0,0,0,0,0,0,0,0,0,0,0,0,0,0,0,0,0,0,0,0,0,0,0,0,0,0,0,0,0,0,0,0,0,0,0,0,0,0,0,0,0,0,0,0,0,0,0,0,0,0,0,0,0,0,0,0,0,0,0,0,0,0,0,0,0,0,0,0,0,0,0,0,0,0,0],"trees":[{"base_weights":[-6.9674474E-1,7.7119416E-1,-1.3640515E0,-9.937107E-1,1.4840357E0,-1.5335753E0,4.4976076E-1,1.1304348E0,-1.5573123E0,-6.909091E-1,1.6393442E0,-1.761194E0,-6.695279E-1,-1.5918367E0,1.0487804E0,1.483871E0,-1.2727273E0,-1.7699115E0,1.9354838E-1,1.4285715E0,-1.2888889E0,1.7268847E0,-4.2424244E-1,-1.8039674E0,7.5E-1,7.96748E-1,-1.1815562E0,2.2222222E-1,-1.8181819E0,-5.365854E-1,1.527559E0,1.8431373E0,-1.3333334E-1,6.666667E-1,-1.8371041E0,1.3333334E0,-1.0588236E0,6.666667E-1,-1.6E0,9.3670887E-1,1.9417123E0,-1.3043479E0,1.1428572E0,-5.060241E-1,-1.8654435E0,1.6521739E0,-1.0769231E0,1.5555556E0,-6.086956E-1,-1.4630872E0,4.9056605E-1,-1.5714285E0,1.2941177E0,1.6721312E0,-1.1111112E0,1.1111112E0,-1.2E0,-1.889401E0,5E-1,-1.3846154E0,-0E0,-0E0,-1.7777778E0,-7.058824E-1,1.34375E0,-6.666667E-1,1.9705882E0,-1.5789474E0,-0E0,-1.36E0,7.027027E-1,-1.8793846E0,2.857143E-1,1.7333333E0,-4E-1,-1.375E0,8.888889E-1,-1.6996047E0,-1.2244898E-1,1.5384616E0,-4.516129E-1,-6.666667E-1,1.7948718E0],"categories":[],"categories_nodes":[],"categories_segments":[],"categories_sizes":[],"default_left":[1,1,1,1,1,1,1,1,1,1,1,1,1,1,1,1,0,1,1,0,1,1,1,1,1,1,1,0,0,1,1,0,1,0,1,0,1,0,1,1,1,1,0,1,1,0,0,1,1,1,1,0,0,1,0,0,0,0,0,0,0,0,0,0,0,0,0,0,0,0,0,0,0,0,0,0,0,0,0,0,0,0,0],"id":0,"left_children":[1,3,5,7,9,11,13,15,17,19,21,23,25,27,29,31,-1,33,35,-1,37,39,41,43,45,47,49,-1,-1,51,53,-1,55,-1,57,-1,59,-1,61,63,65,67,-1,69,71,-1,-1,73,75,77,79,-1,-1,81,-1,-1,-1,-1,-1,-1,-1,-1,-1,-1,-1,-1,-1,-1,-1,-1,-1,-1,-1,-1,-1,-1,-1,-1,-1,-1,-1,-1,-1],"loss_changes":[8.586615E2,3.46508E2,1.858722E2,9.693559E1,6.725452E1,1.0718787E2,6.5569E1,1.6540098E1,2.3886215E1,1.9268108E1,3.3791138E1,4.813098E1,8.840666E1,5.4339294E0,3.1940273E1,9.251358E0,0E0,1.0474915E1,1.2474383E1,0E0,7.911112E0,2.8014954E1,1.286919E1,3.324707E1,1.4964882E1,3.3740543E1,4.155568E1,0E0,0E0,2.1452143E1,1.3969849E1,0E0,6.311111E0,0E0,7.697525E0,0E0,1.4660635E0,0E0,2.8444443E0,2.7358318E1,1.1651367E1,2.059496E0,0E0,2.2374315E1,1.2795288E1,0E0,0E0,7.7333336E0,1.4419685E1,2.3414658E1,1.3776581E1,0E0,0E0,9.95208E0,0E0,0E0,0E0,0E0,0E0,0E0,0E0,0E0,0E0,0E0,0E0,0E0,0E0,0E0,0E0,0E0,0E0,0E0,0E0,0E0,0E0,0E0,0E0,0E0,0E0,0E0,0E0,0E0,0E0],"parents":[2147483647,0,0,1,1,2,2,3,3,4,4,5,5,6,6,7,7,8,8,9,9,10,10,11,11,12,12,13,13,14,14,15,15,17,17,18,18,20,20,21,21,22,22,23,23,24,24,25,25,26,26,29,29,30,30,32,32,34,34,36,36,38,38,39,39,40,40,41,41,43,43,44,44,47,47,48,48,49,49,50,50,53,53],"right_children":[2,4,6,8,10,12,14,16,18,20,22,24,26,28,30,32,-1,34,36,-1,38,40,42,44,46,48,50,-1,-1,52,54,-1,56,-1,58,-1,60,-1,62,64,66,68,-1,70,72,-1,-1,74,76,78,80,-1,-1,82,-1,-1,-1,-1,-1,-1,-1,-1,-1,-1,-1,-1,-1,-1,-1,-1,-1,-1,-1,-1,-1,-1,-1,-1,-1,-1,-1,-1,-1],"split_conditions":[1.8588122E-2,1.1504382E-2,9.958599E-2,1.2951515E-2,-3.399957E-2,-1.3579231E-2,-2.859226E-2,-9.920789E-3,5.1116785E-3,-2.862519E-2,5.019784E-2,1.3262698E-1,6.868285E-3,-5.4126587E-2,1.6458124E-4,7.8560665E-2,-3.818182E-1,-1.0753686E-1,-2.744867E-2,4.2857146E-1,2.1339575E-2,1.2237117E-2,-1.4485228E-2,-1.7363004E-2,-2.611111E-3,2.3471192E-2,5.0239198E-2,6.666667E-2,-5.4545456E-1,1.8827163E-2,8.32438E-2,5.529412E-1,-1.9570438E-2,2.0000002E-1,-2.29734E-2,4.0000004E-1,-1.3325584E-2,2.0000002E-1,-1.0683048E-2,3.6496207E-2,-1.0998908E-1,-5.7787606E-3,3.4285718E-1,-2.014679E-2,4.7415856E-2,4.9565217E-1,-3.2307696E-1,2.5347121E-2,7.274252E-2,5.6780986E-2,-3.1389843E-4,-4.7142857E-1,3.8823533E-1,-9.837061E-2,-3.3333337E-1,3.3333337E-1,-3.6E-1,-5.668203E-1,1.5E-1,-4.1538465E-1,-0E0,-0E0,-5.3333336E-1,-2.1176472E-1,4.0312502E-1,-2.0000002E-1,5.911765E-1,-4.7368425E-1,-0E0,-4.0800002E-1,2.1081083E-1,-5.638154E-1,8.5714296E-2,5.2000004E-1,-1.20000005E-1,-4.1250002E-1,2.6666668E-1,-5.0988144E-1,-3.6734696E-2,4.615385E-1,-1.3548388E-1,-2.0000002E-1,5.3846157E-1],"split_indices":[102,92,303,53,226,9,57,165,142,53,136,232,300,289,226,264,0,94,202,0,176,4,179,53,10,24,92,0,0,124,102,0,68,0,146,0,11,0,27,303,281,9,0,325,308,0,0,27,33,290,329,0,0,15,0,0,0,0,0,0,0,0,0,0,0,0,0,0,0,0,0,0,0,0,0,0,0,0,0,0,0,0,0],"split_type":[0,0,0,0,0,0,0,0,0,0,0,0,0,0,0,0,0,0,0,0,0,0,0,0,0,0,0,0,0,0,0,0,0,0,0,0,0,0,0,0,0,0,0,0,0,0,0,0,0,0,0,0,0,0,0,0,0,0,0,0,0,0,0,0,0,0,0,0,0,0,0,0,0,0,0,0,0,0,0,0,0,0,0],"sum_hessian":[8.745E2,2.7325E2,6.0125E2,7.85E1,1.9475E2,5.5E2,5.125E1,1.625E1,6.225E1,1.275E1,1.82E2,4.345E2,1.155E2,1.125E1,4E1,1.45E1,1.75E0,5.55E1,6.75E0,2.5E0,1.025E1,1.7475E2,7.25E0,4.275E2,7E0,2.975E1,8.575E1,1.25E0,1E1,9.25E0,3.075E1,1.175E1,2.75E0,1.25E0,5.425E1,3.5E0,3.25E0,1.25E0,9E0,3.85E1,1.3625E2,4.75E0,2.5E0,1.975E1,4.0775E2,4.75E0,2.25E0,1.925E1,1.05E1,7.35E1,1.225E1,6E0,3.25E0,2.95E1,1.25E0,1.25E0,1.5E0,5.325E1,1E0,2.25E0,1E0,1E0,8E0,7.5E0,3.1E1,1.25E0,1.35E2,3.75E0,1E0,1.15E1,8.25E0,4.0525E2,2.5E0,1.775E1,1.5E0,7E0,3.5E0,6.225E1,1.125E1,5.5E0,6.75E0,1.25E0,2.825E1],"tree_param":{"num_deleted":"0","num_feature":"384","num_nodes":"83","size_leaf_vector":"0"}},{"base_weights":[-5.291686E-1,4.386464E-1,-1.1202093E0,-6.442495E-1,1.0939091E0,-1.3504425E0,-4.2469472E-1,-9.825987E-1,1.1821455E0,1.3002092E0,-8.829576E-1,-1.3957214E0,6.197739E-1,-9.164617E-1,8.0863506E-1,-1.272096E0,4.1220674E-1,1.4359593E0,-6.9923145E-1,1.3800403E0,-2.5424716E-1,7.047969E-1,-1.3324362E0,-1.4367353E0,-2.3963213E-1,-8.068341E-1,1.304336E0,2.4088089E-1,-1.3186711E0,-1.0019444E0,1.1837808E0,-1.4095008E0,3.2740632E-1,-6.658521E-1,1.0367805E0,1.5271415E0,1.1230477E-1,9.8368935E-2,1.4535146E0,-1.1922503E0,9.416419E-1,-5.303116E-1,1.244025E0,-1.3150644E-1,-1.4968884E0,-1.8967433E-1,-1.465391E0,6.295094E-1,-1.0038387E0,-1.0409306E0,-1.6818501E-1,8.7432003E-1,-1.0109735E0,5.7522154E-1,-1.4031113E0,-1.3235811E0,2.8550136E-1,1.048613E-1,1.4862397E0,-1.4477836E0,5.5788106E-1,1.2431706E0,-7.287567E-1,-1.4343636E0,5.047569E-1,1.2920707E0,-6.6820705E-1,-9.013955E-1,1.3345555E0,-8.1967664E-1,1.482379E0,1.1492006E0,1.6053608E-1,2.8252494E-1,-1.1104932E0,-1.180638E-2,-1.4821202E0,-6.1664563E-1,1.4678009E0,2.2720912E-1,-1.3747526E0,1.4488264E0,-3.487995E-1,-1.3906595E0,5.525895E-1,1.3321334E0,-5.365798E-1,4.2641035E-1,-1.48555E0,-9.750113E-1,8.9978826E-1,1.6379223E0,-3.6877805E-1],"categories":[],"categories_nodes":[],"categories_segments":[],"categories_sizes":[],"default_left":[1,1,1,1,1,1,1,1,1,1,1,1,1,1,1,1,1,1,0,1,1,1,1,1,1,1,0,1,1,1,1,1,1,1,1,0,0,1,1,0,1,0,0,0,0,1,1,1,1,0,0,1,1,1,1,0,0,1,1,0,0,0,0,0,0,0,0,0,0,0,0,0,0,0,0,0,0,0,0,0,0,0,0,0,0,0,0,0,0,0,0,0,0],"id":1,"left_children":[1,3,5,7,9,11,13,15,17,19,21,23,25,27,29,31,33,35,-1,37,39,41,43,45,47,49,-1,51,53,55,57,59,61,63,65,-1,-1,67,69,-1,71,-1,-1,-1,-1,73,75,77,79,-1,-1,81,83,85,87,-1,-1,89,91,-1,-1,-1,-1,-1,-1,-1,-1,-1,-1,-1,-1,-1,-1,-1,-1,-1,-1,-1,-1,-1,-1,-1,-1,-1,-1,-1,-1,-1,-1,-1,-1,-1,-1],"loss_changes":[4.6752686E2,2.208761E2,8.064252E1,7.3834885E1,8.01367E1,3.481726E1,7.812933E1,4.0809532E1,9.998196E0,2.216455E1,1.4425619E1,1.7310852E1,1.0078734E1,4.299939E1,2.6252783E1,1.8673218E1,1.2745043E1,1.871067E0,0E0,1.5616608E1,1.1701924E1,3.8721735E0,2.7802315E0,1.2565002E1,9.902328E0,3.6536527E-1,0E0,2.0306046E1,1.1713455E1,3.2250338E0,9.969753E0,6.5691986E0,8.031075E0,7.180013E0,5.967682E0,0E0,0E0,1.3742661E1,1.1595673E1,0E0,5.782075E-1,0E0,0E0,0E0,0E0,4.3233337E0,8.521912E0,8.368898E0,3.8795695E0,0E0,0E0,1.2310333E1,5.929224E0,3.7612576E0,1.0524216E1,0E0,0E0,7.632905E0,7.4017525E0,0E0,0E0,0E0,0E0,0E0,0E0,0E0,0E0,0E0,0E0,0E0,0E0,0E0,0E0,0E0,0E0,0E0,0E0,0E0,0E0,0E0,0E0,0E0,0E0,0E0,0E0,0E0,0E0,0E0,0E0,0E0,0E0,0E0,0E0],"parents":[2147483647,0,0,1,1,2,2,3,3,4,4,5,5,6,6,7,7,8,8,9,9,10,10,11,11,12,12,13,13,14,14,15,15,16,16,17,17,19,19,20,20,21,21,22,22,23,23,24,24,25,25,27,27,28,28,29,29,30,30,31,31,32,32,33,33,34,34,37,37,38,38,40,40,45,45,46,46,47,47,48,48,51,51,52,52,53,53,54,54,57,57,58,58],"right_children":[2,4,6,8,10,12,14,16,18,20,22,24,26,28,30,32,34,36,-1,38,40,42,44,46,48,50,-1,52,54,56,58,60,62,64,66,-1,-1,68,70,-1,72,-1,-1,-1,-1,74,76,78,80,-1,-1,82,84,86,88,-1,-1,90,92,-1,-1,-1,-1,-1,-1,-1,-1,-1,-1,-1,-1,-1,-1,-1,-1,-1,-1,-1,-1,-1,-1,-1,-1,-1,-1,-1,-1,-1,-1,-1,-1,-1,-1],"split_conditions":[2.6764657E-2,4.4243187E-2,3.0948244E-2,1.6780775E-2,4.6466134E-2,1.1451401E-1,6.945813E-2,4.9564734E-2,1.3997557E-3,3.865471E-3,-1.7773995E-2,1.5333736E-2,-3.341126E-3,-3.874565E-2,-2.5306255E-2,7.303081E-2,2.237974E-4,6.477442E-2,-2.0976944E-1,-3.5362747E-2,5.4012004E-2,3.0599814E-2,-6.313288E-2,-1.2168385E-1,4.71278E-2,-3.9524734E-2,3.913008E-1,-5.9899494E-2,-4.9785372E-2,9.345213E-2,4.7959067E-2,1.06233165E-1,-1.4310155E-2,-5.307471E-4,7.5677824E-3,4.5814246E-1,3.3691432E-2,-1.2799686E-2,-4.1118734E-2,-3.5767508E-1,-1.8070046E-2,-1.5909348E-1,3.732075E-1,-3.9451934E-2,-4.4906655E-1,2.0984516E-3,-8.203486E-2,2.7229555E-2,2.2283211E-2,-3.122792E-1,-5.0455507E-2,6.531917E-3,-8.244555E-3,-2.2232477E-2,-3.6881894E-2,-3.9707434E-1,8.5650414E-2,4.311951E-2,6.226693E-2,-4.3433508E-1,1.6736433E-1,3.729512E-1,-2.1862702E-1,-4.303091E-1,1.5142709E-1,3.8762125E-1,-2.0046212E-1,-2.7041867E-1,4.0036666E-1,-2.45903E-1,4.447137E-1,3.4476018E-1,4.8160825E-2,8.4757484E-2,-3.3314797E-1,-3.541914E-3,-4.4463608E-1,-1.849937E-1,4.4034028E-1,6.816274E-2,-4.1242582E-1,4.3464795E-1,-1.0463985E-1,-4.1719785E-1,1.6577685E-1,3.9964005E-1,-1.6097394E-1,1.2792312E-1,-4.4566503E-1,-2.925034E-1,2.699365E-1,4.913767E-1,-1.1063342E-1],"split_indices":[102,33,191,142,136,303,33,92,21,378,335,142,207,345,57,331,57,17,0,216,303,90,268,190,102,50,0,190,198,303,303,307,246,349,321,0,0,9,163,0,13,0,0,0,0,204,364,288,201,0,0,164,229,183,13,0,0,92,158,0,0,0,0,0,0,0,0,0,0,0,0,0,0,0,0,0,0,0,0,0,0,0,0,0,0,0,0,0,0,0,0,0,0],"split_type":[0,0,0,0,0,0,0,0,0,0,0,0,0,0,0,0,0,0,0,0,0,0,0,0,0,0,0,0,0,0,0,0,0,0,0,0,0,0,0,0,0,0,0,0,0,0,0,0,0,0,0,0,0,0,0,0,0,0,0,0,0,0,0,0,0,0,0,0,0,0,0,0,0,0,0,0,0,0,0,0,0,0,0,0,0,0,0,0,0,0,0,0,0],"sum_hessian":[8.154698E2,3.0928345E2,5.061863E2,1.1660209E2,1.9268137E2,3.795905E2,1.2659581E2,9.876699E1,1.78351E1,1.7478372E2,1.789764E1,3.713479E2,8.242613E0,9.069129E1,3.590452E1,8.186381E1,1.6903181E1,1.5923618E1,1.9114816E0,1.6635268E2,8.431044E0,3.8234646E0,1.4074175E1,3.5839072E2,1.2957167E1,2.6148098E0,5.6278033E0,2.3492785E1,6.719851E1,5.8756833E0,3.0028837E1,7.549705E1,6.366762E0,6.17632E0,1.072686E1,1.4753565E1,1.1700537E0,9.146247E0,1.5720644E2,4.7266827E0,3.7043607E0,1.1669917E0,2.656473E0,1.9119096E0,1.2162266E1,8.221479E0,3.5016925E2,6.1448317E0,6.8123355E0,1.4525014E0,1.1623082E0,1.5799705E1,7.6930814E0,2.6201227E0,6.4578384E1,4.678746E0,1.1969371E0,6.86981E0,2.3159027E1,7.431508E1,1.1819701E0,3.315199E0,3.0515633E0,3.592506E0,2.5838141E0,9.540525E0,1.186335E0,5.206402E0,3.9398456E0,1.6276151E0,1.5557883E2,2.554358E0,1.1500027E0,5.8928075E0,2.3286724E0,4.0036097E0,3.4616565E2,2.5775695E0,3.5672622E0,1.6670156E0,5.14532E0,1.0624691E1,5.175013E0,6.278928E0,1.4141533E0,1.4409509E0,1.1791718E0,2.6045465E0,6.197384E1,2.8167882E0,4.053022E0,2.1516665E1,1.6423616E0],"tree_param":{"num_deleted":"0","num_feature":"384","num_nodes":"93","size_leaf_vector":"0"}},{"base_weights":[-4.382087E-1,4.296997E-1,-8.975366E-1,8.471432E-1,-6.47697E-1,-1.0782927E0,2.3521653E-1,-4.2374644E-1,1.0203092E0,-9.399698E-1,4.9785346E-1,-1.1515676E0,7.4385144E-2,7.636464E-1,-7.7279705E-1,6.632E-1,-9.6056634E-1,1.1158209E0,-8.1571406E-1,-1.0832074E0,7.899637E-1,-5.586752E-1,1.2436483E0,-1.2648022E0,-6.312857E-1,1.1564592E0,-5.570689E-1,-3.5836798E-1,1.0722439E0,-1.19816E0,2.8539088E-1,1.2755498E0,-9.754242E-1,7.3060876E-1,-1.253679E0,1.173583E0,-8.056683E-1,7.5972784E-1,-1.1482807E0,-1.1494882E0,1.0152297E0,1.3005008E0,-3.8501963E-1,8.793153E-1,-1.0504372E0,1.4338948E0,1.5548185E-1,-1.2889488E0,-4.3362696E-2,-1.1693445E0,5.6604166E-2,1.2615592E0,1.3128191E-1,8.6853385E-1,-9.415812E-1,-1.1704981E0,7.9745275E-1,1.183278E0,-9.6327823E-1,-1.4222763E-1,-1.3057117E0,-9.4011617E-1,9.266985E-1,1.3847843E0,3.572781E-1,-1.6134349E-1,-1.3293031E0,4.015753E-2,1.2454491E0,-1.245233E0,4.518912E-1,-1.7266393E-1,-1.2760649E0,3.3866543E-1,-1.2381176E0,3.442822E-1,-1.3018211E0,1.2834243E0,-9.799079E-1,1.6473609E-1,-1.325307E0,1.1051786E0,-3.9784712E-1,7.3828764E-2,1.1098404E0,9.10311E-1,-1.2166808E0,-1.3491243E0,-1.1413227E-1,-2.089818E-1,1.1282676E0,-6.483241E-1,1.3109162E0,-1.9310258E-1,1.2396173E0],"categories":[],"categories_nodes":[],"categories_segments":[],"categories_sizes":[],"default_left":[1,1,1,1,1,1,1,1,1,1,1,1,1,1,1,1,1,1,1,1,1,1,1,1,1,1,1,1,1,1,1,1,0,0,1,1,1,0,1,1,0,0,0,0,0,0,0,1,1,1,1,0,0,1,1,1,1,1,0,0,0,0,1,0,0,0,0,0,0,0,0,0,0,0,0,0,0,0,0,0,0,0,0,0,0,0,0,0,0,0,0,0,0,0,0],"id":2,"left_children":[1,3,5,7,9,11,13,15,17,19,21,23,25,27,29,31,33,35,37,39,41,43,45,47,49,51,53,55,57,59,61,63,-1,-1,65,67,69,-1,71,73,-1,-1,-1,-1,-1,-1,-1,75,77,79,81,-1,-1,83,85,87,89,91,-1,-1,-1,-1,93,-1,-1,-1,-1,-1,-1,-1,-1,-1,-1,-1,-1,-1,-1,-1,-1,-1,-1,-1,-1,-1,-1,-1,-1,-1,-1,-1,-1,-1,-1,-1,-1],"loss_changes":[2.843216E2,1.11711975E2,9.56824E1,3.973253E1,2.3767374E1,3.404898E1,3.5191113E1,1.3544417E1,2.852185E1,1.4679928E1,1.2356091E1,2.1479156E1,1.7708094E1,1.5314632E1,1.0621719E1,9.175908E0,8.458627E0,1.760411E1,5.2544203E0,8.39188E0,3.4067442E0,5.7421722E0,1.637227E0,9.073944E0,2.582128E1,8.6099625E-1,9.832515E0,1.036801E1,8.839878E0,1.6861515E0,6.652307E0,1.2591648E-1,0E0,0E0,8.872185E-1,1.1852066E1,3.3117888E0,0E0,6.902523E-1,7.1226807E0,0E0,0E0,0E0,0E0,0E0,0E0,0E0,6.829193E0,1.0000212E1,8.35181E0,1.5447413E1,0E0,0E0,6.877346E-1,7.950449E0,1.036375E0,1.8148005E0,8.507591E0,0E0,0E0,0E0,0E0,2.1078954E0,0E0,0E0,0E0,0E0,0E0,0E0,0E0,0E0,0E0,0E0,0E0,0E0,0E0,0E0,0E0,0E0,0E0,0E0,0E0,0E0,0E0,0E0,0E0,0E0,0E0,0E0,0E0,0E0,0E0,0E0,0E0,0E0],"parents":[2147483647,0,0,1,1,2,2,3,3,4,4,5,5,6,6,7,7,8,8,9,9,10,10,11,11,12,12,13,13,14,14,15,15,16,16,17,17,18,18,19,19,20,20,21,21,22,22,23,23,24,24,25,25,26,26,27,27,28,28,29,29,30,30,31,31,34,34,35,35,36,36,38,38,39,39,47,47,48,48,49,49,50,50,53,53,54,54,55,55,56,56,57,57,62,62],"right_children":[2,4,6,8,10,12,14,16,18,20,22,24,26,28,30,32,34,36,38,40,42,44,46,48,50,52,54,56,58,60,62,64,-1,-1,66,68,70,-1,72,74,-1,-1,-1,-1,-1,-1,-1,76,78,80,82,-1,-1,84,86,88,90,92,-1,-1,-1,-1,94,-1,-1,-1,-1,-1,-1,-1,-1,-1,-1,-1,-1,-1,-1,-1,-1,-1,-1,-1,-1,-1,-1,-1,-1,-1,-1,-1,-1,-1,-1,-1,-1],"split_conditions":[-1.0887281E-2,4.0419277E-2,3.219998E-2,-2.8537344E-2,7.836653E-2,1.0273408E-1,4.205411E-2,1.2671551E-2,2.657397E-2,1.0923532E-1,-8.282605E-2,-1.3700098E-2,-4.869119E-2,2.0790458E-2,4.405705E-2,9.3568034E-2,-5.5140734E-2,2.0994835E-2,-1.0725482E-1,6.32404E-2,2.7621314E-3,-1.2546363E-3,4.6956427E-2,1.7841954E-2,3.7680186E-2,2.7118626E-3,3.7852168E-2,-5.290851E-2,2.3468679E-2,-5.2920364E-2,-2.781178E-2,3.6233693E-2,-2.9262727E-1,2.1918264E-1,-3.940264E-2,-2.7595736E-2,6.9781795E-2,2.2791836E-1,-4.179859E-2,-2.3276728E-2,3.0456892E-1,3.9015025E-1,-1.155059E-1,2.637946E-1,-3.151312E-1,4.3016845E-1,4.6644554E-2,-5.0283637E-2,-1.0254417E-2,-3.9616108E-2,-1.3864748E-2,3.784678E-1,3.9384574E-2,-1.8443405E-3,-6.2547974E-2,6.1750575E-3,-5.876045E-2,-3.441316E-2,-2.889835E-1,-4.266829E-2,-3.9171353E-1,-2.8203487E-1,-8.66057E-3,4.154353E-1,1.07183434E-1,-4.8403047E-2,-3.9879096E-1,1.204726E-2,3.7363473E-1,-3.7356994E-1,1.3556737E-1,-5.179918E-2,-3.8281947E-1,1.0159963E-1,-3.7143528E-1,1.03284664E-1,-3.9054635E-1,3.850273E-1,-2.9397237E-1,4.942083E-2,-3.9759213E-1,3.3155358E-1,-1.1935414E-1,2.214863E-2,3.3295214E-1,2.730933E-1,-3.6500424E-1,-4.0473732E-1,-3.4239683E-2,-6.269454E-2,3.384803E-1,-1.9449723E-1,3.9327487E-1,-5.793078E-2,3.718852E-1],"split_indices":[335,102,57,216,303,303,53,53,123,33,265,9,227,209,33,32,2,21,261,342,266,18,24,72,33,364,196,265,266,314,9,34,0,0,164,60,67,0,314,149,0,0,0,0,0,0,0,147,138,174,174,0,0,5,202,110,133,6,0,0,0,0,124,0,0,0,0,0,0,0,0,0,0,0,0,0,0,0,0,0,0,0,0,0,0,0,0,0,0,0,0,0,0,0,0],"split_type":[0,0,0,0,0,0,0,0,0,0,0,0,0,0,0,0,0,0,0,0,0,0,0,0,0,0,0,0,0,0,0,0,0,0,0,0,0,0,0,0,0,0,0,0,0,0,0,0,0,0,0,0,0,0,0,0,0,0,0,0,0,0,0,0,0,0,0,0,0,0,0,0,0,0,0,0,0,0,0,0,0,0,0,0,0,0,0,0,0,0,0,0,0,0,0],"sum_hessian":[7.112356E2,2.4616562E2,4.6506995E2,1.7757635E2,6.8589264E1,4.0111166E2,6.3958275E1,2.1120808E1,1.5645555E2,5.4789795E1,1.3799467E1,3.771382E2,2.397346E1,4.2120117E1,2.1838158E1,6.9047427E0,1.4216064E1,1.4909192E2,7.363639E0,5.094539E1,3.8444061E0,5.81399E0,7.985477E0,3.085534E2,6.85848E1,8.528095E0,1.5445363E1,9.050948E0,3.3069168E1,1.5482383E1,6.3557754E0,5.1876893E0,1.7170535E0,1.8794719E0,1.2336593E1,1.4511871E2,3.9731977E0,1.0596071E0,6.304032E0,4.9823875E1,1.1215112E0,2.6054838E0,1.2389224E0,1.2807579E0,4.533232E0,6.526686E0,1.4587905E0,3.0251767E2,6.035734E0,3.8090775E1,3.0494026E1,7.525965E0,1.0021304E0,3.0135713E0,1.2431791E1,5.308362E0,3.742586E0,3.1755642E1,1.313527E0,1.6458634E0,1.383652E1,2.0233388E0,4.3324366E0,4.1821594E0,1.0055296E0,1.0016704E0,1.1334922E1,8.745718E0,1.36373E2,2.95138E0,1.0218176E0,1.0023586E0,5.301673E0,2.6419756E0,4.71819E1,2.1643128E0,3.0035336E2,2.3442686E0,3.6914654E0,3.9810648E0,3.410971E1,8.787156E0,2.170687E1,1.0060987E0,2.0074725E0,1.3092526E0,1.1122539E1,4.3035207E0,1.0048411E0,1.0169654E0,2.7256207E0,1.8030195E0,2.9952623E1,1.0298712E0,3.302565E0],"tree_param":{"num_deleted":"0","num_feature":"384","num_nodes":"95","size_leaf_vector":"0"}},{"base_weights":[-3.745891E-1,3.2942176E-1,-8.1227106E-1,7.145605E-1,-7.094501E-1,-1.0055431E0,-2.6334286E-1,-8.03687E-2,1.0087316E0,-1.0311292E0,3.7487054E-1,-1.064286E0,7.699621E-2,-5.82183E-1,7.3186135E-1,4.286197E-1,-7.895791E-1,1.0812654E0,-3.9908502E-1,-1.1234378E0,4.1670087E-1,-4.3052426E-1,9.741326E-1,-1.100114E0,-2.2713069E-2,9.861696E-1,-5.3431624E-1,1.990315E-1,-9.23284E-1,-5.833923E-1,9.673664E-1,1.2201661E0,-3.4790608E-1,-1.1245792E0,1.3299055E-1,-7.718434E-1,1.1234083E0,8.5865766E-1,-1.0041974E0,-1.2153937E0,-5.825012E-2,-6.8313885E-1,1.1047101E0,7.4254054E-1,-9.7715485E-1,-3.1536376E-1,1.1877062E0,3.7598747E-1,-1.1248264E0,5.217677E-1,-1.062947E0,1.1652647E0,2.0363556E-2,7.3803765E-1,-8.929666E-1,-4.682819E-1,8.98275E-1,2.661121E-1,-1.0766317E0,3.5318074E-1,-9.8088115E-1,1.1494458E0,-1.7195411E-1,2.3163275E-1,1.2810742E0,7.663863E-1,-8.037618E-1,2.771598E-1,-1.2484725E0,8.2111496E-1,-9.8918164E-1,1.1777925E0,1.3703656E-1,-2.4297887E-1,-1.1331381E0,-1.2641568E0,1.6385841E-1,8.7542933E-1,-7.983533E-1,2.2991712E-1,-1.3321553E0,-8.4322685E-1,1.4789449E0,-6.148311E-1,-1.1768359E0,1.1845025E0,1.0326524E-1,-1.1600802E0,3.7476844E-1,-1.1429459E0,7.098066E-1,1.1975803E0,-5.848859E-1,1.0731477E0,-7.9879093E-1,-1.1433387E0,3.1355146E-1,1.3560312E0,-2.656524E-1,-9.417314E-1,7.857829E-1],"categories":[],"categories_nodes":[],"categories_segments":[],"categories_sizes":[],"default_left":[1,1,1,1,1,1,1,1,1,1,1,1,1,1,1,1,1,1,1,1,1,1,1,1,1,1,1,1,1,1,1,1,1,1,1,0,1,0,1,1,1,0,0,0,1,0,0,1,1,1,0,0,0,0,1,1,1,1,1,0,0,1,1,0,0,0,0,0,0,0,0,0,0,0,0,0,0,0,0,0,0,0,0,0,0,0,0,0,0,0,0,0,0,0,0,0,0,0,0,0,0],"id":3,"left_children":[1,3,5,7,9,11,13,15,17,19,21,23,25,27,29,31,33,35,37,39,41,43,45,47,49,51,53,55,57,59,61,63,65,67,69,-1,71,-1,73,75,77,-1,-1,-1,79,-1,-1,81,83,85,-1,-1,-1,-1,87,89,91,93,95,-1,-1,97,99,-1,-1,-1,-1,-1,-1,-1,-1,-1,-1,-1,-1,-1,-1,-1,-1,-1,-1,-1,-1,-1,-1,-1,-1,-1,-1,-1,-1,-1,-1,-1,-1,-1,-1,-1,-1,-1,-1],"loss_changes":[1.8722295E2,9.385707E1,3.9458862E1,4.0000305E1,2.2571579E1,1.7669342E1,3.1794384E1,1.7317198E1,1.3162384E1,7.059353E0,7.796672E0,9.767151E0,8.957007E0,2.028302E1,8.131412E0,1.7653988E1,6.332052E0,1.0147446E1,6.0673323E0,4.496895E0,3.5433586E0,5.3517866E0,2.8726358E0,9.67572E0,6.075169E0,1.0918698E0,5.0937276E0,1.1501291E1,9.894882E0,1.9598024E0,4.573921E0,5.524082E-1,8.198733E0,2.9129906E0,5.6176605E0,0E0,6.093292E0,0E0,2.23135E-1,3.0908775E0,3.9854946E0,0E0,0E0,0E0,2.600142E0,0E0,0E0,7.871484E0,5.90036E0,1.838264E0,0E0,0E0,0E0,0E0,3.155198E0,1.0991407E1,6.000247E0,6.716819E0,4.7042465E0,0E0,0E0,5.715622E0,3.5243664E0,0E0,0E0,0E0,0E0,0E0,0E0,0E0,0E0,0E0,0E0,0E0,0E0,0E0,0E0,0E0,0E0,0E0,0E0,0E0,0E0,0E0,0E0,0E0,0E0,0E0,0E0,0E0,0E0,0E0,0E0,0E0,0E0,0E0,0E0,0E0,0E0,0E0,0E0],"parents":[2147483647,0,0,1,1,2,2,3,3,4,4,5,5,6,6,7,7,8,8,9,9,10,10,11,11,12,12,13,13,14,14,15,15,16,16,17,17,18,18,19,19,20,20,21,21,22,22,23,23,24,24,25,25,26,26,27,27,28,28,29,29,30,30,31,31,32,32,33,33,34,34,36,36,38,38,39,39,40,40,44,44,47,47,48,48,49,49,54,54,55,55,56,56,57,57,58,58,61,61,62,62],"right_children":[2,4,6,8,10,12,14,16,18,20,22,24,26,28,30,32,34,36,38,40,42,44,46,48,50,52,54,56,58,60,62,64,66,68,70,-1,72,-1,74,76,78,-1,-1,-1,80,-1,-1,82,84,86,-1,-1,-1,-1,88,90,92,94,96,-1,-1,98,100,-1,-1,-1,-1,-1,-1,-1,-1,-1,-1,-1,-1,-1,-1,-1,-1,-1,-1,-1,-1,-1,-1,-1,-1,-1,-1,-1,-1,-1,-1,-1,-1,-1,-1,-1,-1,-1,-1],"split_conditions":[2.6764657E-2,5.264107E-2,3.0948244E-2,4.9262896E-2,3.9389998E-2,1.0373333E-1,7.946117E-2,1.2324821E-2,7.105793E-2,-3.686774E-3,4.610096E-2,4.2276576E-2,-1.377794E-2,-3.874565E-2,-2.5306255E-2,-5.162228E-2,4.824889E-3,-3.199096E-2,-2.6513483E-2,9.896217E-2,-7.0625655E-2,2.0501524E-2,-4.8028775E-2,-4.6349853E-2,2.0342472E-3,1.843509E-2,-5.353155E-2,-9.474288E-3,-2.0171765E-2,5.9464253E-2,1.067034E-1,-2.7732769E-2,-5.022562E-2,-4.7812283E-2,4.4817805E-2,-2.3155302E-1,4.0431716E-2,2.575973E-1,-6.422904E-2,3.6888383E-2,3.501044E-4,-2.0494166E-1,3.3141303E-1,2.2276217E-1,-1.2670595E-2,-9.4609134E-2,3.563119E-1,-2.660643E-2,-2.6336413E-2,4.160633E-2,-3.1888413E-1,3.4957942E-1,6.1090672E-3,2.214113E-1,-7.6829502E-3,-6.631301E-2,2.1575147E-2,-7.066918E-2,9.0307325E-2,1.0595422E-1,-2.9426435E-1,7.422665E-2,-5.322817E-2,6.948983E-2,3.8432226E-1,2.2991589E-1,-2.4112855E-1,8.314794E-2,-3.7454176E-1,2.463345E-1,-2.967545E-1,3.5333776E-1,4.111097E-2,-7.2893664E-2,-3.3994144E-1,-3.7924707E-1,4.9157526E-2,2.6262882E-1,-2.39506E-1,6.897514E-2,-3.996466E-1,-2.5296807E-1,4.4368348E-1,-1.8444933E-1,-3.5305077E-1,3.5535076E-1,3.0979574E-2,-3.4802407E-1,1.12430535E-1,-3.4288377E-1,2.1294199E-1,3.5927412E-1,-1.7546578E-1,3.219443E-1,-2.3963729E-1,-3.430016E-1,9.406544E-2,4.0680936E-1,-7.969572E-2,-2.8251943E-1,2.3573487E-1],"split_indices":[102,53,191,303,92,303,33,53,361,304,279,107,311,345,57,378,187,92,10,303,96,217,362,213,147,335,182,157,13,264,233,6,171,175,24,0,136,0,122,214,109,0,0,0,328,0,0,46,335,10,0,0,0,0,15,265,61,295,331,0,0,153,293,0,0,0,0,0,0,0,0,0,0,0,0,0,0,0,0,0,0,0,0,0,0,0,0,0,0,0,0,0,0,0,0,0,0,0,0,0,0],"split_type":[0,0,0,0,0,0,0,0,0,0,0,0,0,0,0,0,0,0,0,0,0,0,0,0,0,0,0,0,0,0,0,0,0,0,0,0,0,0,0,0,0,0,0,0,0,0,0,0,0,0,0,0,0,0,0,0,0,0,0,0,0,0,0,0,0,0,0,0,0,0,0,0,0,0,0,0,0,0,0,0,0,0,0,0,0,0,0,0,0,0,0,0,0,0,0,0,0,0,0,0,0],"sum_hessian":[6.057362E2,2.3231123E2,3.7342496E2,1.6970795E2,6.260329E1,2.755683E2,9.785664E1,4.603522E1,1.2367273E2,4.8318096E1,1.4285194E1,2.6140054E2,1.4167773E1,7.442699E1,2.3429655E1,2.7031096E1,1.9004126E1,1.1783363E2,5.8390975E0,4.5632767E1,2.685329E0,6.214552E0,8.070642E0,2.5265356E2,8.746964E0,5.4496264E0,8.718147E0,2.2746893E1,5.1680096E1,3.333797E0,2.0095858E1,1.3103162E1,1.3927934E1,1.378104E1,5.223085E0,2.2351325E0,1.15598495E2,1.7606119E0,4.0784855E0,4.1876614E1,3.7561529E0,1.0361063E0,1.6492226E0,1.8614658E0,4.353086E0,1.0790491E0,6.9915934E0,3.9261494E0,2.4872742E2,6.068825E0,2.6781394E0,4.422935E0,1.0266914E0,1.6844711E0,7.033676E0,1.1808202E1,1.0938691E1,5.8181276E0,4.586197E1,1.0265303E0,2.3072667E0,1.731913E1,2.776727E0,1.0392472E0,1.2063914E1,3.845878E0,1.0082056E1,1.0186669E0,1.2762373E1,3.4040046E0,1.8190802E0,1.0937402E2,6.2244716E0,1.0085859E0,3.0698996E0,4.052723E1,1.3493818E0,1.5800227E0,2.17613E0,1.0693685E0,3.2837174E0,1.9766437E0,1.9495057E0,2.4204428E1,2.24523E2,1.6405445E0,4.42828E0,5.8797283E0,1.1539476E0,7.5273137E0,4.2808876E0,9.262122E0,1.676569E0,3.3053954E0,2.5127323E0,4.3931503E1,1.9304644E0,1.5149279E1,2.1698518E0,1.5486875E0,1.2280395E0],"tree_param":{"num_deleted":"0","num_feature":"384","num_nodes":"101","size_leaf_vector":"0"}},{"base_weights":[-3.2715482E-1,-7.389358E-1,3.1030518E-1,1.4756838E-2,-8.884538E-1,-4.194503E-1,7.9039705E-1,5.943731E-1,-4.717612E-1,2.8125638E-1,-9.4277257E-1,2.7213454E-1,-8.4704256E-1,9.5209587E-1,-5.194759E-1,-1.990135E-1,9.5057845E-1,-6.9741964E-1,7.017562E-1,9.925263E-1,-6.406391E-1,-3.4713224E-1,-1.033146E0,6.837082E-1,-6.8359506E-1,8.0622695E-2,-1.0754676E0,-4.224135E-1,1.0303402E0,5.3716266E-1,-8.8308954E-1,-6.671591E-1,8.1018215E-1,1.1060644E0,-5.307361E-1,7.631367E-1,-9.161374E-1,1.1423177E0,-4.413644E-1,-2.5726253E-1,1.2545091E0,-1.0038917E0,4.0874606E-1,1.9362068E-1,-9.435468E-1,-1.0497861E0,6.7078125E-1,-4.8590326E-1,1.0011861E0,-1.0197783E0,4.510098E-1,8.169663E-1,-6.8644065E-1,2.9157323E-1,-1.1250613E0,5.254402E-1,-9.0602213E-1,-3.8529426E-1,1.0846765E0,-3.487924E-1,9.28454E-1,-1.0738363E0,3.447886E-1,3.974765E-1,-9.9391913E-1,-2.320095E-1,1.2350132E0,-1.0365851E0,7.290444E-1,1.039825E0,-1.8489425E-1,-1.0666455E0,4.692382E-1,1.6872348E-1,-1.0683872E0,3.189842E-1,-9.217158E-1,-3.4071362E-1,1.1120893E0,-4.7896138E-1,1.1887777E0,-9.638789E-1,3.1760985E-1,1.901645E-1,-1.1737716E0,-1.0640272E0,-1.637312E-1,5.8897775E-1,-9.2140675E-1,-2.3845191E-1,1.1339827E0,-2.8856254E-1,-1.1329925E0],"categories":[],"categories_nodes":[],"categories_segments":[],"categories_sizes":[],"default_left":[1,1,1,1,1,1,1,1,1,1,1,1,1,1,1,1,1,1,1,1,1,1,1,1,1,1,1,1,1,1,1,1,0,1,0,0,1,0,0,0,0,0,0,1,1,1,0,1,1,0,0,1,1,0,1,0,1,1,1,0,0,1,0,0,0,0,0,0,0,0,0,0,0,0,0,0,0,0,0,0,0,0,0,0,0,0,0,0,0,0,0,0,0],"id":4,"left_children":[1,3,5,7,9,11,13,15,17,19,21,23,25,27,29,31,33,35,37,39,41,43,45,47,49,51,53,55,57,59,61,63,-1,65,-1,-1,67,-1,-1,-1,-1,-1,-1,69,71,73,-1,75,77,-1,-1,79,81,-1,83,-1,85,87,89,-1,-1,91,-1,-1,-1,-1,-1,-1,-1,-1,-1,-1,-1,-1,-1,-1,-1,-1,-1,-1,-1,-1,-1,-1,-1,-1,-1,-1,-1,-1,-1,-1,-1],"loss_changes":[1.334458E2,3.4792374E1,7.035837E1,1.49648905E1,1.6629333E1,2.3878504E1,2.6103592E1,7.029936E0,8.134081E0,8.635356E0,1.2902557E1,1.2783099E1,1.0609535E1,1.2047775E1,5.8273883E0,4.474678E0,4.474579E0,8.593936E0,3.099947E0,2.7059755E0,2.667325E0,1.113517E1,6.754593E0,8.79861E0,4.245512E0,6.628163E0,3.0342674E0,3.466938E0,8.298477E0,1.775961E0,2.886592E0,2.564721E0,0E0,2.9781246E0,0E0,0E0,5.1051655E0,0E0,0E0,0E0,0E0,0E0,0E0,6.1629133E0,3.3385925E0,4.979004E0,0E0,2.2065408E0,3.047676E0,0E0,0E0,3.430248E0,1.9231064E0,0E0,2.7041512E0,0E0,3.755591E-1,2.9061348E0,6.7241974E0,0E0,0E0,1.1633396E-1,0E0,0E0,0E0,0E0,0E0,0E0,0E0,0E0,0E0,0E0,0E0,0E0,0E0,0E0,0E0,0E0,0E0,0E0,0E0,0E0,0E0,0E0,0E0,0E0,0E0,0E0,0E0,0E0,0E0,0E0,0E0],"parents":[2147483647,0,0,1,1,2,2,3,3,4,4,5,5,6,6,7,7,8,8,9,9,10,10,11,11,12,12,13,13,14,14,15,15,16,16,17,17,18,18,19,19,20,20,21,21,22,22,23,23,24,24,25,25,26,26,27,27,28,28,29,29,30,30,31,31,33,33,36,36,43,43,44,44,45,45,47,47,48,48,51,51,52,52,54,54,56,56,57,57,58,58,61,61],"right_children":[2,4,6,8,10,12,14,16,18,20,22,24,26,28,30,32,34,36,38,40,42,44,46,48,50,52,54,56,58,60,62,64,-1,66,-1,-1,68,-1,-1,-1,-1,-1,-1,70,72,74,-1,76,78,-1,-1,80,82,-1,84,-1,86,88,90,-1,-1,92,-1,-1,-1,-1,-1,-1,-1,-1,-1,-1,-1,-1,-1,-1,-1,-1,-1,-1,-1,-1,-1,-1,-1,-1,-1,-1,-1,-1,-1,-1,-1],"split_conditions":[8.775789E-3,-2.6336413E-2,4.9034014E-2,1.2124523E-2,-3.3871137E-2,2.7174877E-3,5.4717258E-2,-7.89356E-3,5.815406E-2,-5.137488E-3,-8.907339E-2,2.542838E-2,-7.7806145E-4,-5.6667693E-2,-1.806674E-2,7.718073E-2,1.3323487E-2,7.1077254E-3,-3.3919085E-2,-4.907395E-2,-1.2302167E-2,1.6882349E-2,1.2660015E-1,-1.5006362E-2,6.0020216E-2,7.0266984E-2,-8.280921E-2,-6.568389E-2,-1.2189235E-1,2.9520508E-2,1.0840544E-1,-5.249861E-2,2.4305466E-1,-5.497476E-2,-1.5922083E-1,2.2894101E-1,7.400955E-2,3.426953E-1,-1.3240933E-1,-7.717876E-2,3.7635276E-1,-3.0116752E-1,1.2262382E-1,-1.9084003E-2,4.4691674E-2,-9.000395E-2,2.0123439E-1,-3.0226734E-2,-3.7587255E-2,-3.0593348E-1,1.3530295E-1,-4.5842707E-2,1.7435025E-2,8.747197E-2,-1.5818704E-2,1.5763207E-1,1.5378844E-2,-4.6420947E-2,-4.8441775E-2,-1.0463773E-1,2.785362E-1,-5.8650594E-2,1.0343659E-1,1.1924295E-1,-2.9817575E-1,-6.9602855E-2,3.70504E-1,-3.1097555E-1,2.1871333E-1,3.119475E-1,-5.5468276E-2,-3.1999367E-1,1.4077146E-1,5.0617047E-2,-3.2051617E-1,9.5695265E-2,-2.7651474E-1,-1.0221409E-1,3.336268E-1,-1.4368843E-1,3.566333E-1,-2.8916368E-1,9.528296E-2,5.7049353E-2,-3.521315E-1,-3.1920817E-1,-4.9119364E-2,1.7669334E-1,-2.7642202E-1,-7.153558E-2,3.4019482E-1,-8.6568765E-2,-3.3989775E-1],"split_indices":[57,335,33,208,213,128,102,60,382,68,190,136,24,9,296,16,21,24,299,64,142,351,303,191,307,140,14,378,276,191,33,266,0,25,0,0,245,0,0,0,0,0,0,27,294,260,0,183,342,0,0,20,60,0,78,0,4,239,312,0,0,345,0,0,0,0,0,0,0,0,0,0,0,0,0,0,0,0,0,0,0,0,0,0,0,0,0,0,0,0,0,0,0],"split_type":[0,0,0,0,0,0,0,0,0,0,0,0,0,0,0,0,0,0,0,0,0,0,0,0,0,0,0,0,0,0,0,0,0,0,0,0,0,0,0,0,0,0,0,0,0,0,0,0,0,0,0,0,0,0,0,0,0,0,0,0,0,0,0,0,0,0,0,0,0,0,0,0,0,0,0,0,0,0,0,0,0,0,0,0,0,0,0,0,0,0,0,0,0],"sum_hessian":[5.0650317E2,3.0762622E2,1.9887697E2,5.1073803E1,2.565524E2,7.896852E1,1.1990845E2,2.3205772E1,2.786803E1,1.1199639E1,2.4535277E2,3.0309578E1,4.8658943E1,1.0697583E2,1.2932617E1,7.3271317E0,1.587864E1,2.3713757E1,4.1542735E0,6.2787676E0,4.9208717E0,3.295982E1,2.1239296E2,2.1385E1,8.924576E0,9.742078E0,3.8916866E1,5.5247416E0,1.0145109E2,3.1888192E0,9.743798E0,5.236804E0,2.090328E0,1.4599525E1,1.2791151E0,2.7644088E0,2.0949348E1,2.9991112E0,1.1551623E0,1.0912029E0,5.187565E0,3.6876993E0,1.2331722E0,1.764077E1,1.531905E1,2.1071904E2,1.6739157E0,4.4522147E0,1.6932787E1,6.9627256E0,1.9618503E0,4.9373775E0,4.8047004E0,1.1915944E0,3.7725273E1,1.8372687E0,3.6874728E0,3.5249074E0,9.7926186E1,1.010186E0,2.1786332E0,8.542243E0,1.201555E0,1.1790045E0,4.0577993E0,1.2130218E0,1.3386504E1,1.9864916E1,1.0844324E0,4.912134E0,1.2728635E1,1.4316619E1,1.0024307E0,3.0470042E0,2.0767203E2,1.6580634E0,2.794151E0,1.1344196E0,1.5798367E1,1.0365069E0,3.9008708E0,3.7958455E0,1.0088549E0,1.243576E0,3.6481697E1,2.6829414E0,1.0045315E0,1.2161682E0,2.3087392E0,3.3802888E0,9.454589E1,1.0102029E0,7.53204E0],"tree_param":{"num_deleted":"0","num_feature":"384","num_nodes":"93","size_leaf_vector":"0"}},{"base_weights":[-2.8532952E-1,-5.4014707E-1,5.1649976E-1,-7.294138E-1,1.0578235E-1,7.4835306E-1,-5.959655E-1,-9.387855E-2,-8.5500866E-1,-4.7655696E-1,6.700862E-1,8.7441266E-1,-3.8287938E-1,2.96708E-1,-9.9110657E-1,2.5578457E-1,-7.745373E-1,-9.186893E-1,-5.7571106E-2,-8.3026004E-1,2.9056093E-1,8.5485935E-1,-7.930063E-1,9.8463E-1,1.55870635E-2,4.0148562E-1,-7.594915E-1,8.4313697E-1,-5.67251E-1,-1.20889954E-1,-1.0607982E0,-8.190833E-1,5.194609E-1,-9.84657E-1,1.9506268E-1,-4.132332E-1,-9.9959505E-1,4.3381724E-1,-9.1202295E-1,-9.6600485E-1,4.590998E-1,6.110234E-1,-6.652046E-1,-1.606092E-1,1.0222706E0,-1.0345203E0,5.781157E-2,1.0302114E0,-6.974786E-1,-7.004573E-1,6.9764477E-1,7.904976E-1,-2.5609922E-1,2.0273842E-1,-1.00438E0,1.0162194E0,1.3592504E-1,-8.166125E-3,-9.875216E-1,-6.4386463E-1,7.081686E-1,-1.1143519E-2,-1.0889131E0,-4.323166E-1,7.757729E-1,9.150075E-1,-6.537691E-1,-1.0230507E0,8.4498197E-1,8.982533E-1,-4.984792E-1,-1.17936365E-1,-1.0428307E0,-1.0846063E0,4.9654314E-1,8.989299E-1,-2.3563427E-1,1.4871496E-1,9.495832E-1,-7.3928124E-1,9.137486E-1,-2.3949872E-1,1.1223834E0,-2.2005495E-1,1.076688E0,-1.0802057E0,3.254024E-1,-2.0525245E-1,9.699973E-1],"categories":[],"categories_nodes":[],"categories_segments":[],"categories_sizes":[],"default_left":[1,1,1,1,1,1,1,1,1,1,1,1,1,1,1,1,1,1,1,1,1,1,1,1,1,1,1,1,0,0,0,1,1,1,1,1,1,1,1,1,1,1,0,1,1,0,0,1,0,1,1,0,0,0,0,0,0,0,0,0,0,0,0,0,0,0,0,0,0,0,0,0,0,0,0,0,0,0,0,0,0,0,0,0,0,0,0,0,0],"id":5,"left_children":[1,3,5,7,9,11,13,15,17,19,21,23,25,27,29,31,33,35,37,39,41,43,45,47,49,51,53,55,-1,-1,-1,57,59,61,63,65,67,69,71,73,75,77,-1,79,81,-1,-1,83,-1,85,87,-1,-1,-1,-1,-1,-1,-1,-1,-1,-1,-1,-1,-1,-1,-1,-1,-1,-1,-1,-1,-1,-1,-1,-1,-1,-1,-1,-1,-1,-1,-1,-1,-1,-1,-1,-1,-1,-1],"loss_changes":[8.710339E1,3.955922E1,2.7009834E1,1.9866348E1,2.4656347E1,1.2551563E1,6.755802E0,1.027955E1,1.053685E1,1.0289064E1,1.095829E1,7.309719E0,3.0477214E0,3.49516E0,6.558399E-1,8.5695E0,3.1713772E0,7.481491E0,7.318569E0,4.9248924E0,4.2126756E0,5.985832E0,1.0425887E0,5.975807E0,5.2834845E0,1.1402802E0,1.763279E0,3.902712E-1,0E0,0E0,0E0,8.181009E-1,5.655837E0,1.2245169E0,1.5883938E0,9.652954E0,8.033844E0,5.2738175E0,5.358248E-1,4.612751E0,1.1641858E0,1.3970158E0,0E0,4.2259502E0,3.9995213E0,0E0,0E0,4.1395874E0,0E0,2.4117448E0,1.5587587E0,0E0,0E0,0E0,0E0,0E0,0E0,0E0,0E0,0E0,0E0,0E0,0E0,0E0,0E0,0E0,0E0,0E0,0E0,0E0,0E0,0E0,0E0,0E0,0E0,0E0,0E0,0E0,0E0,0E0,0E0,0E0,0E0,0E0,0E0,0E0,0E0,0E0,0E0],"parents":[2147483647,0,0,1,1,2,2,3,3,4,4,5,5,6,6,7,7,8,8,9,9,10,10,11,11,12,12,13,13,14,14,15,15,16,16,17,17,18,18,19,19,20,20,21,21,22,22,23,23,24,24,25,25,26,26,27,27,31,31,32,32,33,33,34,34,35,35,36,36,37,37,38,38,39,39,40,40,41,41,43,43,44,44,47,47,49,49,50,50],"right_children":[2,4,6,8,10,12,14,16,18,20,22,24,26,28,30,32,34,36,38,40,42,44,46,48,50,52,54,56,-1,-1,-1,58,60,62,64,66,68,70,72,74,76,78,-1,80,82,-1,-1,84,-1,86,88,-1,-1,-1,-1,-1,-1,-1,-1,-1,-1,-1,-1,-1,-1,-1,-1,-1,-1,-1,-1,-1,-1,-1,-1,-1,-1,-1,-1,-1,-1,-1,-1,-1,-1,-1,-1,-1,-1],"split_conditions":[2.8121877E-2,8.2912095E-2,1.289062E-2,-2.6336413E-2,-4.0866632E-4,5.656568E-2,3.164056E-2,-2.768029E-3,1.1547143E-2,5.8704857E-3,4.7024637E-2,3.3638373E-2,-7.074091E-2,-2.9519677E-2,-9.500666E-2,-6.741946E-2,-1.1631126E-2,-1.961936E-2,-6.7788206E-2,-1.893529E-2,1.2925231E-2,-5.6461588E-2,4.353753E-2,2.8391626E-2,-1.6830895E-2,-3.1076886E-2,-8.5129045E-2,5.6363523E-2,-1.7017531E-1,-3.6266986E-2,-3.1823945E-1,-3.4750454E-2,-7.334987E-4,-6.106796E-2,-3.406675E-2,-5.385647E-2,8.61167E-2,5.0967773E-3,-3.1232556E-2,8.8441804E-2,2.893847E-2,-3.0179814E-2,-1.9956139E-1,3.1603705E-2,-3.0137425E-2,-3.1035608E-1,1.734347E-2,9.5860363E-4,-2.0924358E-1,-1.1215536E-2,-3.068703E-2,2.3714928E-1,-7.682977E-2,6.082153E-2,-3.01314E-1,3.0486584E-1,4.0777512E-2,-2.4498375E-3,-2.9625648E-1,-1.931594E-1,2.124506E-1,-3.3430557E-3,-3.2667392E-1,-1.2969498E-1,2.327319E-1,2.7450225E-1,-1.9613074E-1,-3.0691522E-1,2.534946E-1,2.69476E-1,-1.4954376E-1,-3.538091E-2,-3.1284922E-1,-3.253819E-1,1.4896294E-1,2.6967898E-1,-7.069028E-2,4.461449E-2,2.8487498E-1,-2.2178438E-1,2.741246E-1,-7.184962E-2,3.36715E-1,-6.601649E-2,3.2300642E-1,-3.2406172E-1,9.7620726E-2,-6.1575737E-2,2.909992E-1],"split_indices":[57,303,13,335,124,102,53,296,9,57,230,136,378,360,165,142,292,27,261,72,376,7,252,195,44,266,113,244,0,0,0,36,257,379,66,379,355,48,104,156,196,157,0,290,226,0,0,303,0,308,9,0,0,0,0,0,0,0,0,0,0,0,0,0,0,0,0,0,0,0,0,0,0,0,0,0,0,0,0,0,0,0,0,0,0,0,0,0,0],"split_type":[0,0,0,0,0,0,0,0,0,0,0,0,0,0,0,0,0,0,0,0,0,0,0,0,0,0,0,0,0,0,0,0,0,0,0,0,0,0,0,0,0,0,0,0,0,0,0,0,0,0,0,0,0,0,0,0,0,0,0,0,0,0,0,0,0,0,0,0,0,0,0,0,0,0,0,0,0,0,0,0,0,0,0,0,0,0,0,0,0],"sum_hessian":[4.2394293E2,3.2195386E2,1.0198907E2,2.4889482E2,7.305905E1,8.466996E1,1.7319101E1,4.135874E1,2.0753607E2,3.6031483E1,3.7027573E1,7.638498E1,8.284983E0,5.390466E0,1.1928636E1,2.7735083E1,1.3623658E1,1.9204774E2,1.5488333E1,2.460451E1,1.1426971E1,3.324482E1,3.7827528E0,6.756726E1,8.817721E0,2.6661603E0,5.618822E0,3.3167922E0,2.073674E0,1.0872419E0,1.0841393E1,5.0485287E0,2.2686554E1,1.1184387E1,2.4392707E0,2.7341307E1,1.6470644E2,1.0145832E1,5.3425E0,2.2487768E1,2.116742E0,8.827769E0,2.5992014E0,4.710839E0,2.853398E1,2.7782137E0,1.0045391E0,6.6161964E1,1.4052979E0,4.2885246E0,4.5291967E0,1.548174E0,1.1179864E0,1.17481E0,4.4440117E0,2.313621E0,1.0031711E0,1.0486183E0,3.9999104E0,2.8297899E0,1.9856766E1,1.188974E0,9.995413E0,1.2953537E0,1.1439171E0,3.762227E0,2.357908E1,1.6307811E2,1.6283222E0,6.7965527E0,3.3492794E0,1.0245328E0,4.3179674E0,2.1039997E1,1.4477706E0,1.1161792E0,1.0005627E0,4.340292E0,4.4874773E0,3.2644317E0,1.446407E0,1.9952035E0,2.6538776E1,2.2374551E0,6.3924507E1,3.0912447E0,1.19728E0,1.1066909E0,3.4225059E0],"tree_param":{"num_deleted":"0","num_feature":"384","num_nodes":"89","size_leaf_vector":"0"}},{"base_weights":[-2.5106928E-1,-5.934799E-1,2.546535E-1,1.9661194E-1,-7.504398E-1,-3.0262324E-1,6.2995154E-1,8.137583E-1,-3.6598694E-1,5.4659754E-1,-8.222588E-1,-6.1120856E-1,2.875082E-1,8.948161E-1,-1.10917196E-1,1.1879049E-2,1.0637218E0,6.8658E-1,-6.8173254E-1,-6.064015E-1,8.6580265E-1,-1.019492E0,-4.715239E-1,-7.5505984E-1,4.9944565E-1,-5.539144E-1,6.77406E-1,-3.9826098E-1,9.492194E-1,4.0781775E-1,-6.2469023E-1,-6.462058E-1,5.292776E-1,-2.8288585E-1,1.2050416E0,-2.2363845E-1,9.751183E-1,3.5275996E-1,-8.4687537E-1,1.0341833E0,-3.329314E-2,3.623076E-1,-1.0413163E0,1.1345569E-1,-7.4772215E-1,5.807641E-1,-8.574973E-1,-2.3948623E-1,9.658829E-1,5.5212915E-1,-8.935431E-1,-3.9294365E-1,9.6012175E-1,8.791685E-2,-6.542927E-1,2.9973972E-1,1.0651257E0,8.91027E-1,-1.0836297E-1,7.016353E-1,-8.0364966E-1,6.954059E-1,6.1982412E-2,3.0210024E-1,1.2590325E0,1.0651408E-1,-9.905837E-1,7.511134E-2,-1.0663788E0,5.683405E-1,-7.0151937E-1,-8.2010996E-1,7.780464E-1,7.8128886E-1,8.169342E-2,-2.551611E-3,-9.5491046E-1,-1.0202008E0,-1.6832891E-1,-7.480078E-1,2.6857862E-1,-3.3605984E-1,1.1106255E0,-5.447889E-1,7.253568E-1,1.0914242E0,2.6597222E-2,-1.4412923E-1,1.1752458E0,-6.864582E-1,1.753947E-1,2.502395E-1,-9.3949765E-1],"categories":[],"categories_nodes":[],"categories_segments":[],"categories_sizes":[],"default_left":[1,1,1,1,1,1,1,1,1,1,1,1,1,1,1,1,1,1,1,0,1,1,1,1,1,1,1,1,1,1,1,0,1,0,1,0,0,0,1,0,0,0,1,1,1,1,1,0,0,0,1,1,1,0,0,1,1,1,1,0,1,0,0,0,0,0,0,0,0,0,0,0,0,0,0,0,0,0,0,0,0,0,0,0,0,0,0,0,0,0,0,0,0],"id":6,"left_children":[1,3,5,7,9,11,13,15,17,19,21,23,25,27,29,31,33,35,37,-1,39,41,43,45,47,49,51,53,55,57,59,-1,61,-1,63,-1,-1,-1,65,-1,-1,-1,67,69,71,73,75,-1,-1,-1,77,79,81,-1,-1,83,85,87,89,-1,91,-1,-1,-1,-1,-1,-1,-1,-1,-1,-1,-1,-1,-1,-1,-1,-1,-1,-1,-1,-1,-1,-1,-1,-1,-1,-1,-1,-1,-1,-1,-1,-1],"loss_changes":[6.197661E1,2.6585907E1,3.0483562E1,1.2840853E1,1.7036537E1,1.0913511E1,1.7147175E1,3.5026636E0,6.977923E0,4.1845202E0,1.1218552E1,6.61421E0,7.2404814E0,4.88789E0,6.5895557E0,2.105449E0,2.8831043E0,1.5360203E0,2.9586287E0,0E0,1.2757015E0,3.615776E0,1.0220707E1,5.281864E0,1.9816303E0,3.1891437E0,4.8406377E0,4.673943E-1,4.3341217E0,3.1975195E0,3.492093E0,0E0,2.246607E-1,0E0,2.183094E-1,0E0,0E0,0E0,1.9853277E0,0E0,0E0,0E0,3.0453796E0,8.179456E0,5.359173E0,2.4502432E-1,2.7353897E0,0E0,0E0,0E0,3.6767578E-1,1.0914537E0,2.706071E0,0E0,0E0,4.260154E0,1.3928947E0,2.0905204E0,1.252722E0,0E0,1.8580828E0,0E0,0E0,0E0,0E0,0E0,0E0,0E0,0E0,0E0,0E0,0E0,0E0,0E0,0E0,0E0,0E0,0E0,0E0,0E0,0E0,0E0,0E0,0E0,0E0,0E0,0E0,0E0,0E0,0E0,0E0,0E0,0E0],"parents":[2147483647,0,0,1,1,2,2,3,3,4,4,5,5,6,6,7,7,8,8,9,9,10,10,11,11,12,12,13,13,14,14,15,15,16,16,17,17,18,18,20,20,21,21,22,22,23,23,24,24,25,25,26,26,27,27,28,28,29,29,30,30,32,32,34,34,38,38,42,42,43,43,44,44,45,45,46,46,50,50,51,51,52,52,55,55,56,56,57,57,58,58,60,60],"right_children":[2,4,6,8,10,12,14,16,18,20,22,24,26,28,30,32,34,36,38,-1,40,42,44,46,48,50,52,54,56,58,60,-1,62,-1,64,-1,-1,-1,66,-1,-1,-1,68,70,72,74,76,-1,-1,-1,78,80,82,-1,-1,84,86,88,90,-1,92,-1,-1,-1,-1,-1,-1,-1,-1,-1,-1,-1,-1,-1,-1,-1,-1,-1,-1,-1,-1,-1,-1,-1,-1,-1,-1,-1,-1,-1,-1,-1,-1],"split_conditions":[3.1053592E-2,1.6149445E-3,1.0057753E-2,-5.620636E-2,-8.395343E-3,-4.32071E-2,2.5471881E-2,-5.8716685E-3,-4.4952624E-2,-1.5239561E-2,-3.0892454E-2,1.1540068E-2,9.426519E-3,-4.2302854E-2,1.8846525E-2,-1.7647633E-2,-4.879763E-2,-1.2216927E-1,-6.6423014E-2,-1.8192045E-1,3.157352E-2,-7.067345E-2,-8.1798956E-2,-1.1009087E-1,7.0213876E-3,-2.2461649E-2,-4.3731205E-2,-3.6917496E-2,-3.513033E-2,5.5254105E-2,-2.4420623E-2,-1.9386174E-1,-3.3377558E-2,-8.486576E-2,-6.9812596E-2,-6.709154E-2,2.9253548E-1,1.05827995E-1,-2.8265001E-2,3.10255E-1,-9.987942E-3,1.0869229E-1,-4.790934E-2,-5.2696615E-3,1.2220107E-1,-2.5567584E-2,-1.2964448E-1,-7.1845874E-2,2.8976488E-1,1.6563874E-1,8.7797344E-2,3.0628916E-2,-5.967303E-2,2.6375057E-2,-1.9628783E-1,9.258514E-3,1.1980875E-1,4.441466E-2,-1.8772434E-2,2.104906E-1,-4.1222245E-2,2.0862179E-1,1.8594725E-2,9.063008E-2,3.7770978E-1,3.1954225E-2,-2.9717514E-1,2.2533402E-2,-3.1991366E-1,1.7050216E-1,-2.1045582E-1,-2.46033E-1,2.3341393E-1,2.3438667E-1,2.4508027E-2,-7.6548336E-4,-2.8647316E-1,-3.0606025E-1,-5.0498676E-2,-2.2440234E-1,8.057359E-2,-1.00817956E-1,3.3318767E-1,-1.6343668E-1,2.1760705E-1,3.2742727E-1,7.979167E-3,-4.323877E-2,3.5257375E-1,-2.0593746E-1,5.261841E-2,7.507185E-2,-2.818493E-1],"split_indices":[92,53,4,378,160,96,136,31,366,152,9,9,226,226,361,312,28,69,266,0,108,311,378,378,306,335,231,342,342,24,311,0,62,0,21,0,0,0,77,0,0,0,324,21,33,353,69,0,0,0,33,191,179,0,0,305,172,176,113,0,27,0,0,0,0,0,0,0,0,0,0,0,0,0,0,0,0,0,0,0,0,0,0,0,0,0,0,0,0,0,0,0,0],"split_type":[0,0,0,0,0,0,0,0,0,0,0,0,0,0,0,0,0,0,0,0,0,0,0,0,0,0,0,0,0,0,0,0,0,0,0,0,0,0,0,0,0,0,0,0,0,0,0,0,0,0,0,0,0,0,0,0,0,0,0,0,0,0,0,0,0,0,0,0,0,0,0,0,0,0,0,0,0,0,0,0,0,0,0,0,0,0,0,0,0,0,0,0,0],"sum_hessian":[3.5603247E2,2.1219066E2,1.4384183E2,3.5125618E1,1.7706503E2,5.7964497E1,8.587733E1,1.653787E1,1.858775E1,8.943118E0,1.6812192E2,3.803823E1,1.9926268E1,6.310806E1,2.2769264E1,4.1790524E0,1.2358818E1,4.0182085E0,1.456954E1,1.7439786E0,7.1991396E0,1.0638842E2,6.17335E1,3.3959927E1,4.078302E0,6.176452E0,1.3749816E1,2.2927458E0,6.0815315E1,1.1432541E1,1.1336723E1,1.7298656E0,2.4491866E0,1.0786688E0,1.1280149E1,1.0213138E0,2.9968948E0,1.8492601E0,1.272028E1,5.93702E0,1.2621198E0,1.411612E0,1.0497681E2,1.9988237E1,4.1745262E1,2.086159E0,3.1873768E1,1.7664489E0,2.311853E0,1.3040301E0,4.872422E0,2.7914848E0,1.0958331E1,1.0174088E0,1.275337E0,9.752629E0,5.1062683E1,5.5297847E0,5.902756E0,1.0005661E0,1.0336158E1,1.4467137E0,1.0024729E0,1.0085521E0,1.0271598E1,1.7001265E0,1.1020153E1,2.2610216E0,1.0271579E2,1.3022342E1,6.965895E0,4.0295975E1,1.4492886E0,1.0848023E0,1.0013567E0,3.3652139E0,2.8508554E1,3.801702E0,1.0707201E0,1.7314258E0,1.0600591E0,1.0117711E0,9.94656E0,3.1742136E0,6.578416E0,4.9751892E1,1.3107902E0,1.2974011E0,4.2323837E0,1.4761821E0,4.426574E0,1.084067E0,9.25209E0],"tree_param":{"num_deleted":"0","num_feature":"384","num_nodes":"93","size_leaf_vector":"0"}},{"base_weights":[-2.1627505E-1,1.6569315E-1,-6.242978E-1,-3.6916015E-1,5.396832E-1,-8.803745E-1,-2.7473873E-1,1.4582337E-2,-8.352246E-1,-1.7983804E-2,7.397776E-1,-9.49049E-1,-5.12341E-2,-5.166987E-1,3.2712153E-1,-4.8208827E-1,5.073607E-1,-9.469183E-1,3.011933E-1,4.15905E-1,-5.829412E-1,-4.0329993E-1,8.3859164E-1,4.8426494E-1,-9.806227E-1,-8.8994354E-1,7.927414E-1,-7.4381584E-1,1.12267196E-1,7.861424E-1,-2.3580891E-1,8.3372504E-1,-6.438778E-1,8.8951176E-1,-2.4715796E-1,-1.0054978E0,1.8513986E-1,-3.9417237E-1,7.7620345E-1,-4.7609428E-1,8.375024E-1,-8.576541E-1,5.2814746E-1,4.421333E-1,-8.31267E-1,2.0210516E-1,9.6050835E-1,-1.0072856E0,2.3831111E-1,1.2203541E0,-2.4460682E-1,-9.324158E-1,1.7554826E-1,-7.9011357E-1,4.004224E-1,1.0382609E0,-7.169124E-1,-7.0289475E-1,6.5405655E-1,5.485418E-1,-7.7997756E-1,-2.1841094E-1,1.0491133E0,5.2135116E-1,-6.51529E-1,-3.56425E-2,-1.0460179E0,-8.1806E-1,3.3342314E-1,-2.49371E-1,1.0195535E0,2.6478785E-1,-1.0322559E0,5.607893E-1,-6.3550043E-1,1.0110426E0,-1.4092684E-1,9.004533E-2,-1.025714E0,-8.706438E-2,-1.0536091E0,1.2374294E0,-5.6956935E-1,1.826223E-2,1.0058311E0,4.9475398E-2,1.1744219E0,-9.22498E-1,2.0022047E-1,-2.6725208E-2,9.628892E-1],"categories":[],"categories_nodes":[],"categories_segments":[],"categories_sizes":[],"default_left":[1,1,1,1,1,1,1,1,1,1,1,1,1,1,1,1,1,1,1,1,1,1,1,0,1,0,1,1,1,1,1,0,1,1,1,1,0,0,0,1,1,1,0,0,0,1,1,1,0,0,0,1,1,0,1,1,0,1,1,0,0,0,0,0,0,0,0,0,0,0,0,0,0,0,0,0,0,0,0,0,0,0,0,0,0,0,0,0,0,0,0],"id":7,"left_children":[1,3,5,7,9,11,13,15,17,19,21,23,25,27,29,31,33,35,37,39,41,43,45,-1,47,-1,49,51,53,55,57,-1,59,61,63,65,-1,-1,-1,67,69,71,-1,-1,-1,73,75,77,-1,-1,-1,79,81,-1,83,85,-1,87,89,-1,-1,-1,-1,-1,-1,-1,-1,-1,-1,-1,-1,-1,-1,-1,-1,-1,-1,-1,-1,-1,-1,-1,-1,-1,-1,-1,-1,-1,-1,-1,-1],"loss_changes":[4.696824E1,3.142379E1,1.27915E1,1.1606754E1,1.0309412E1,4.7107315E0,9.345993E0,9.187055E0,4.0032063E0,6.4543095E0,8.010967E0,3.9655762E0,5.9793253E0,6.5595903E0,5.0127873E0,4.519802E0,5.6486506E0,1.9708118E0,1.4223877E0,6.0084343E0,3.940031E0,2.5674584E0,4.682865E0,0E0,2.7036285E0,0E0,2.1803956E0,5.9617386E0,3.6697218E0,4.73148E0,4.2672577E0,0E0,3.223299E0,2.4775305E0,2.549976E0,9.743862E-1,0E0,0E0,0E0,1.7745796E0,2.3302135E0,2.1431346E0,0E0,0E0,0E0,3.7722669E0,3.0634995E0,1.5962906E0,0E0,0E0,0E0,2.7672024E0,5.8743696E0,0E0,2.3967118E0,1.2099714E0,0E0,1.471714E0,7.9759765E-1,0E0,0E0,0E0,0E0,0E0,0E0,0E0,0E0,0E0,0E0,0E0,0E0,0E0,0E0,0E0,0E0,0E0,0E0,0E0,0E0,0E0,0E0,0E0,0E0,0E0,0E0,0E0,0E0,0E0,0E0,0E0,0E0],"parents":[2147483647,0,0,1,1,2,2,3,3,4,4,5,5,6,6,7,7,8,8,9,9,10,10,11,11,12,12,13,13,14,14,15,15,16,16,17,17,18,18,19,19,20,20,21,21,22,22,24,24,26,26,27,27,28,28,29,29,30,30,32,32,33,33,34,34,35,35,39,39,40,40,41,41,45,45,46,46,47,47,51,51,52,52,54,54,55,55,57,57,58,58],"right_children":[2,4,6,8,10,12,14,16,18,20,22,24,26,28,30,32,34,36,38,40,42,44,46,-1,48,-1,50,52,54,56,58,-1,60,62,64,66,-1,-1,-1,68,70,72,-1,-1,-1,74,76,78,-1,-1,-1,80,82,-1,84,86,-1,88,90,-1,-1,-1,-1,-1,-1,-1,-1,-1,-1,-1,-1,-1,-1,-1,-1,-1,-1,-1,-1,-1,-1,-1,-1,-1,-1,-1,-1,-1,-1,-1,-1],"split_conditions":[3.8462743E-2,4.379456E-2,-3.357453E-2,4.141096E-2,4.7951795E-2,7.900126E-2,3.5164148E-2,-2.8961847E-2,2.2760238E-2,2.3434227E-3,-8.0835134E-2,-1.477851E-1,-1.5991032E-2,8.111818E-2,3.163666E-4,-7.682039E-2,-1.9687694E-3,6.47347E-4,1.5070913E-2,4.7111735E-3,8.20104E-2,3.218552E-2,-8.74004E-3,1.4527948E-1,4.1021714E-3,-2.6698306E-1,2.4513053E-3,3.9401725E-2,-8.231822E-2,2.0484991E-2,3.7805874E-2,2.501175E-1,-6.445021E-2,1.4590833E-2,-2.6846316E-2,-5.1243156E-2,5.5541962E-2,-1.1825172E-1,2.3286104E-1,4.57642E-2,6.067198E-3,-3.7237417E-2,1.5844424E-1,1.3264E-1,-2.4938011E-1,1.815632E-2,4.880994E-2,-8.7968834E-2,7.1493335E-2,3.6610624E-1,-7.338205E-2,-2.588224E-2,-7.168324E-2,-2.3703408E-1,6.6825986E-2,2.162344E-2,-2.1507372E-1,-3.7180126E-2,1.8044494E-3,1.6456254E-1,-2.3399328E-1,-6.552328E-2,3.1473398E-1,1.5640536E-1,-1.9545871E-1,-1.0692751E-2,-3.1380537E-1,-2.45418E-1,1.0002694E-1,-7.48113E-2,3.0586606E-1,7.943636E-2,-3.0967677E-1,1.6823679E-1,-1.9065014E-1,3.0331278E-1,-4.227805E-2,2.7013602E-2,-3.0771422E-1,-2.6119314E-2,-3.1608275E-1,3.712288E-1,-1.7087081E-1,5.478669E-3,3.0174935E-1,1.484262E-2,3.5232657E-1,-2.767494E-1,6.006614E-2,-8.017563E-3,2.8886676E-1],"split_indices":[102,33,142,24,303,288,191,9,63,230,325,261,105,303,329,316,2,23,252,4,257,287,124,0,96,0,347,214,325,219,257,0,62,155,173,192,0,0,0,249,249,220,0,0,0,284,224,371,0,0,0,335,167,0,285,75,0,323,187,0,0,0,0,0,0,0,0,0,0,0,0,0,0,0,0,0,0,0,0,0,0,0,0,0,0,0,0,0,0,0,0],"split_type":[0,0,0,0,0,0,0,0,0,0,0,0,0,0,0,0,0,0,0,0,0,0,0,0,0,0,0,0,0,0,0,0,0,0,0,0,0,0,0,0,0,0,0,0,0,0,0,0,0,0,0,0,0,0,0,0,0,0,0,0,0,0,0,0,0,0,0,0,0,0,0,0,0,0,0,0,0,0,0,0,0,0,0,0,0,0,0,0,0,0,0],"sum_hessian":[2.9970117E2,1.5509953E2,1.4460164E2,6.3828945E1,9.1270584E1,8.25843E1,6.2017345E1,3.553735E1,2.8291595E1,2.4341228E1,6.692935E1,7.6133804E1,6.4504895E0,4.4335197E1,1.7682148E1,1.7709581E1,1.7827768E1,2.5911606E1,2.3799887E0,1.3916866E1,1.0424362E1,5.0802116E0,6.1849144E1,1.3319367E0,7.480187E1,3.2080202E0,3.2424693E0,3.2439E1,1.1896196E1,9.521596E0,8.160553E0,1.4843564E0,1.6225225E1,1.1715268E1,6.1125007E0,2.474305E1,1.1685569E0,1.0350151E0,1.3449737E0,4.425116E0,9.49175E0,8.540778E0,1.8835835E0,1.6962436E0,3.383968E0,1.0369766E1,5.1479378E1,7.33706E1,1.4312681E0,2.1710913E0,1.071378E0,2.6905386E1,5.533614E0,2.4577103E0,9.438486E0,8.418697E0,1.1028981E0,5.489338E0,2.6712146E0,1.3517362E0,1.4873488E1,1.4287425E0,1.0286526E1,2.0076544E0,4.104846E0,1.0676781E0,2.3675371E1,3.103533E0,1.3215829E0,1.3087173E0,8.183033E0,1.0801865E0,7.4605923E0,7.4919906E0,2.8777761E0,4.929956E1,2.1798172E0,1.1476438E0,7.222296E1,3.5890846E0,2.3316301E1,2.0093436E0,3.5242703E0,6.417591E0,3.0208952E0,1.1839973E0,7.2347E0,4.398362E0,1.0909761E0,1.1186838E0,1.5525306E0],"tree_param":{"num_deleted":"0","num_feature":"384","num_nodes":"91","size_leaf_vector":"0"}},{"base_weights":[-1.8979734E-1,-6.452763E-1,1.0284202E-1,2.4971504E-2,-7.458755E-1,-2.6950258E-1,4.7325495E-1,3.8634884E-1,-5.480066E-1,5.6407306E-2,-8.419595E-1,-5.4502726E-1,1.83236E-1,7.319436E-1,-1.2372426E-1,6.628715E-1,-6.828163E-1,-8.8139296E-1,3.4537274E-1,6.1649877E-1,-7.9462373E-1,1.6287073E-1,-8.976354E-1,9.599164E-1,-6.334704E-1,-5.6539565E-1,5.554637E-1,-4.3240595E-1,8.461637E-1,5.844715E-1,-3.9820075E-1,9.457318E-1,-3.263275E-1,-6.1875975E-1,1.0510936E0,-4.8757616E-1,7.805067E-1,-9.3685824E-1,9.730435E-2,-8.500223E-1,-1.0973698E-1,1.7408098E-1,-8.504021E-1,-5.699771E-1,7.003747E-1,-7.202676E-1,3.9895204E-1,9.500635E-1,5.9075154E-2,8.9617896E-1,-2.4897324E-1,2.2836189E-1,-7.4870825E-1,1.0883951E0,1.0055068E-1,-3.325616E-2,1.3323151E0,-9.6171296E-1,3.5287687E-1,7.0544076E-1,-5.603051E-1,-9.408725E-1,-3.1011015E-2,-4.2246357E-1,6.0847175E-1,-3.1891403E-1,5.655236E-1,-1.6337852E-1,-9.3814075E-1,8.223463E-1,-6.886334E-1,-1.6010165E-1,1.0021336E0,5.5726767E-1,-6.19666E-1,2.4336296E-1,1.0122782E0,-3.2760445E-3,7.7855664E-1,1.9498543E-1,-8.9364356E-1],"categories":[],"categories_nodes":[],"categories_segments":[],"categories_sizes":[],"default_left":[1,1,1,1,1,1,1,1,1,1,1,1,1,1,1,1,0,0,0,1,0,1,1,0,1,1,1,1,1,1,1,1,0,0,1,0,0,1,1,1,1,1,1,0,1,0,0,1,1,1,0,1,1,0,0,0,0,0,0,0,0,0,0,0,0,0,0,0,0,0,0,0,0,0,0,0,0,0,0,0,0],"id":8,"left_children":[1,3,5,7,9,11,13,15,17,19,21,23,25,27,29,31,-1,-1,-1,33,-1,35,37,-1,39,41,43,45,47,49,51,53,-1,-1,55,-1,-1,57,59,61,63,65,67,-1,69,-1,-1,71,73,75,-1,77,79,-1,-1,-1,-1,-1,-1,-1,-1,-1,-1,-1,-1,-1,-1,-1,-1,-1,-1,-1,-1,-1,-1,-1,-1,-1,-1,-1,-1],"loss_changes":[3.373015E1,6.6891174E0,2.1454084E1,3.085409E0,6.680916E0,9.798491E0,1.2117413E1,3.142201E0,2.0262866E0,5.323543E0,4.4489594E0,7.0750446E0,8.719529E0,7.6110706E0,4.975646E0,2.4729874E0,0E0,0E0,0E0,4.235854E0,0E0,2.3427277E0,2.940979E0,0E0,5.1796455E0,2.3636472E0,3.7671528E0,1.6104313E0,4.028679E0,2.0989413E0,4.1634245E0,6.467867E-1,0E0,0E0,1.6639194E0,0E0,0E0,2.594532E0,1.8651963E0,2.4071999E0,3.5695772E0,9.049251E-1,3.1437016E-1,0E0,3.7419014E0,0E0,0E0,2.7073135E0,2.6754794E0,1.6841793E-1,0E0,9.313517E-1,1.8007035E0,0E0,0E0,0E0,0E0,0E0,0E0,0E0,0E0,0E0,0E0,0E0,0E0,0E0,0E0,0E0,0E0,0E0,0E0,0E0,0E0,0E0,0E0,0E0,0E0,0E0,0E0,0E0,0E0],"parents":[2147483647,0,0,1,1,2,2,3,3,4,4,5,5,6,6,7,7,8,8,9,9,10,10,11,11,12,12,13,13,14,14,15,15,19,19,21,21,22,22,24,24,25,25,26,26,27,27,28,28,29,29,30,30,31,31,34,34,37,37,38,38,39,39,40,40,41,41,42,42,44,44,47,47,48,48,49,49,51,51,52,52],"right_children":[2,4,6,8,10,12,14,16,18,20,22,24,26,28,30,32,-1,-1,-1,34,-1,36,38,-1,40,42,44,46,48,50,52,54,-1,-1,56,-1,-1,58,60,62,64,66,68,-1,70,-1,-1,72,74,76,-1,78,80,-1,-1,-1,-1,-1,-1,-1,-1,-1,-1,-1,-1,-1,-1,-1,-1,-1,-1,-1,-1,-1,-1,-1,-1,-1,-1,-1,-1],"split_conditions":[-9.045174E-3,-5.414138E-2,1.2605315E-2,-2.072031E-2,-1.2512529E-2,4.283407E-2,2.4735304E-2,1.829261E-2,-6.042946E-2,-1.9053895E-4,2.3169587E-3,-8.290921E-2,-4.102122E-4,-1.166646E-2,7.5868377E-3,5.103045E-2,-2.048449E-1,-2.644179E-1,1.0361183E-1,1.660683E-2,-2.3838712E-1,-2.1875797E-2,2.3193937E-2,2.8797492E-1,4.0412E-2,1.0048462E-3,-6.9477454E-2,8.1722856E-2,-1.0359108E-2,-2.8668543E-2,-1.4064416E-1,-3.9702773E-2,-9.789825E-2,-1.8562794E-1,-4.5401543E-2,-1.4627285E-1,2.34152E-1,8.136247E-3,-9.336474E-3,2.9162895E-2,5.2667654E-4,2.7148485E-2,-7.707995E-2,-1.7099313E-1,7.696837E-2,-2.160803E-1,1.1968561E-1,-1.0263419E-1,1.7619109E-2,-6.990419E-2,-7.469197E-2,-3.4578085E-2,-9.696433E-2,3.2651854E-1,3.0165205E-2,-9.976848E-3,3.9969453E-1,-2.885139E-1,1.05863065E-1,2.1163224E-1,-1.6809154E-1,-2.8226176E-1,-9.303305E-3,-1.2673907E-1,1.8254153E-1,-9.567421E-2,1.696571E-1,-4.901356E-2,-2.8144222E-1,2.4670391E-1,-2.0659003E-1,-4.80305E-2,3.006401E-1,1.671803E-1,-1.858998E-1,7.3008895E-2,3.0368346E-1,-9.828134E-4,2.33567E-1,5.8495633E-2,-2.6809308E-1],"split_indices":[57,237,4,370,149,89,136,205,237,2,102,333,191,92,213,300,0,0,0,290,0,301,359,0,191,316,231,33,378,378,69,96,0,0,318,0,0,72,77,157,157,217,299,0,17,0,0,96,24,112,0,125,251,0,0,0,0,0,0,0,0,0,0,0,0,0,0,0,0,0,0,0,0,0,0,0,0,0,0,0,0],"split_type":[0,0,0,0,0,0,0,0,0,0,0,0,0,0,0,0,0,0,0,0,0,0,0,0,0,0,0,0,0,0,0,0,0,0,0,0,0,0,0,0,0,0,0,0,0,0,0,0,0,0,0,0,0,0,0,0,0,0,0,0,0,0,0,0,0,0,0,0,0,0,0,0,0,0,0,0,0,0,0,0,0],"sum_hessian":[2.5155844E2,9.7930046E1,1.5362839E2,1.2878438E1,8.5051605E1,7.675028E1,7.6878105E1,8.097231E0,4.7812066E0,9.140786E0,7.591082E1,4.7586536E1,2.9163748E1,5.3478302E1,2.3399803E1,6.7352705E0,1.3619606E0,3.4916346E0,1.289572E0,5.6789007E0,3.461885E0,3.8841896E0,7.2026634E1,2.0944266E0,4.549211E1,9.512689E0,1.9651058E1,4.5285845E0,4.894972E1,6.220487E0,1.7179316E1,5.2717586E0,1.463512E0,1.3676983E0,4.3112025E0,1.9944082E0,1.8897814E0,6.935103E1,2.6756048E0,3.1743776E1,1.3748336E1,2.7546608E0,6.7580276E0,1.9070222E0,1.7744038E1,3.4630961E0,1.0654885E0,4.3058685E1,5.8910313E0,4.4725046E0,1.7479827E0,6.2878027E0,1.0891513E1,4.264211E0,1.0075477E0,1.0694196E0,3.241783E0,6.8289345E1,1.0616825E0,1.3523029E0,1.323302E0,2.8440208E1,3.303567E0,9.864751E0,3.883585E0,1.3011887E0,1.4534721E0,1.0894406E0,5.668587E0,1.6686705E1,1.0573319E0,1.8361486E0,4.1222538E1,3.500587E0,2.3904443E0,1.1428E0,3.3297045E0,5.1244144E0,1.1633883E0,1.4040734E0,9.487439E0],"tree_param":{"num_deleted":"0","num_feature":"384","num_nodes":"81","size_leaf_vector":"0"}},{"base_weights":[-1.6376992E-1,1.3663694E-1,-5.672444E-1,4.2794606E-1,-4.0720716E-1,-7.2798175E-1,-6.079018E-2,7.7502996E-1,2.3249576E-2,-7.063736E-1,1.1257964E-1,-9.2598575E-1,-3.5625148E-1,-5.3176045E-1,3.8044575E-1,8.588645E-1,-3.5529947E-1,5.644167E-1,-3.1941107E-1,3.4547144E-1,-8.313115E-1,2.635391E-1,-7.323581E-1,2.7858207E-1,-9.748945E-1,2.4337652E-1,-6.534311E-1,2.2903846E-1,-8.6115664E-1,-5.643814E-1,7.049294E-1,9.3149406E-1,-2.7262056E-1,3.4760693E-1,-7.412689E-1,8.560545E-1,-9.317313E-2,1.6305356E-1,-7.336402E-1,-2.9436564E-1,7.5577724E-1,3.4036946E-1,-8.9709145E-1,7.9843104E-1,3.7246626E-2,1.4745677E-2,-1.0133796E0,6.085408E-1,-5.6670094E-1,7.462841E-2,-9.122666E-1,9.9455243E-1,-5.0362927E-1,-1.326555E-1,-9.5071536E-1,-7.170575E-2,-7.1705127E-1,-1.2628885E-1,9.8435396E-1,-3.649047E-1,9.8220694E-1,-6.4299786E-1,2.8057733E-1,9.6960735E-1,-1.2580001E-1,6.431412E-1,-5.305607E-1,6.101968E-1,-3.1636387E-1,-8.5297215E-1,3.4402677E-1,-9.5428336E-1,2.0968147E-1,9.252107E-1,1.8198735E-1,-5.90028E-1,2.2736692E-1,-2.2471921E-1,-1.0320551E0,9.399922E-1,-4.332011E-1,-4.7174463E-1,5.008386E-1,-9.474052E-2,-9.737342E-1,4.322599E-1,-5.572067E-1,1.0898907E0,1.7019194E-1],"categories":[],"categories_nodes":[],"categories_segments":[],"categories_sizes":[],"default_left":[1,1,1,1,1,1,1,1,1,1,1,1,1,1,1,1,1,1,1,1,1,1,0,0,1,1,1,1,1,1,1,1,1,0,0,1,1,1,1,0,0,0,1,1,1,0,1,1,0,1,1,0,0,0,0,0,0,1,1,0,0,0,0,0,0,0,0,0,0,0,0,0,0,0,0,0,0,0,0,0,0,0,0,0,0,0,0,0,0],"id":9,"left_children":[1,3,5,7,9,11,13,15,17,19,21,23,25,27,29,31,33,35,37,39,41,43,-1,-1,45,47,49,51,53,55,57,59,61,-1,-1,63,65,67,69,-1,-1,-1,71,73,75,-1,77,79,-1,81,83,-1,-1,-1,-1,-1,-1,85,87,-1,-1,-1,-1,-1,-1,-1,-1,-1,-1,-1,-1,-1,-1,-1,-1,-1,-1,-1,-1,-1,-1,-1,-1,-1,-1,-1,-1,-1,-1],"loss_changes":[2.6277395E1,1.993186E1,7.4815636E0,1.1457636E1,6.9236407E0,4.8286247E0,5.0574102E0,4.4697666E0,7.365888E0,3.9763212E0,2.3537982E0,2.9287376E0,4.7890024E0,3.1338027E0,4.274678E0,3.6402912E0,1.2728509E0,3.030202E0,4.988988E0,1.1903752E0,2.261877E0,1.7989728E0,0E0,0E0,1.6741638E0,3.1072955E0,3.3930135E0,2.9296756E0,4.2111397E-1,2.3350382E-1,2.4138126E0,2.9189987E0,8.4817386E-1,0E0,0E0,1.321198E0,2.1539364E0,2.781243E0,2.0027184E0,0E0,0E0,0E0,1.7389507E0,1.7881966E-1,1.5253562E0,0E0,3.8591766E-1,2.7962785E0,0E0,1.5291293E0,5.656357E-1,0E0,0E0,0E0,0E0,0E0,0E0,1.0510857E0,4.5817375E-1,0E0,0E0,0E0,0E0,0E0,0E0,0E0,0E0,0E0,0E0,0E0,0E0,0E0,0E0,0E0,0E0,0E0,0E0,0E0,0E0,0E0,0E0,0E0,0E0,0E0,0E0,0E0,0E0,0E0,0E0],"parents":[2147483647,0,0,1,1,2,2,3,3,4,4,5,5,6,6,7,7,8,8,9,9,10,10,11,11,12,12,13,13,14,14,15,15,16,16,17,17,18,18,19,19,20,20,21,21,24,24,25,25,26,26,27,27,28,28,29,29,30,30,31,31,32,32,35,35,36,36,37,37,38,38,42,42,43,43,44,44,46,46,47,47,49,49,50,50,57,57,58,58],"right_children":[2,4,6,8,10,12,14,16,18,20,22,24,26,28,30,32,34,36,38,40,42,44,-1,-1,46,48,50,52,54,56,58,60,62,-1,-1,64,66,68,70,-1,-1,-1,72,74,76,-1,78,80,-1,82,84,-1,-1,-1,-1,-1,-1,86,88,-1,-1,-1,-1,-1,-1,-1,-1,-1,-1,-1,-1,-1,-1,-1,-1,-1,-1,-1,-1,-1,-1,-1,-1,-1,-1,-1,-1,-1,-1],"split_conditions":[6.8197837E-3,4.9485132E-2,-3.350597E-2,7.9434516E-4,3.024565E-2,2.777914E-4,-2.790017E-2,5.8252484E-2,-4.5655247E-2,-4.4030175E-2,1.4274284E-2,-5.4600544E-2,-7.833955E-2,1.2832922E-2,5.142339E-4,3.4542464E-2,-8.589336E-2,-1.8948551E-2,2.0962998E-2,3.1739637E-2,-8.940028E-2,-5.5059314E-2,-2.1970744E-1,8.357462E-2,-1.8423132E-3,4.1734938E-2,-3.382671E-2,1.3944373E-2,-9.4177864E-2,-9.918686E-3,-3.551393E-2,-7.0861086E-2,-1.8790808E-2,1.0428208E-1,-2.2238067E-1,5.8284402E-2,-7.034391E-2,-4.982272E-3,1.0852996E-1,-8.83097E-2,2.2673318E-1,1.0211084E-1,4.7741883E-2,-3.2159835E-3,-1.7718751E-2,4.423703E-3,-7.239786E-2,4.476975E-2,-1.7001028E-1,-3.152913E-2,-4.0175274E-2,2.9836574E-1,-1.5108879E-1,-3.979665E-2,-2.8521463E-1,-2.1511726E-2,-2.1511538E-1,3.023452E-2,-1.9033644E-2,-1.0947142E-1,2.946621E-1,-1.9289936E-1,8.41732E-2,2.9088223E-1,-3.7740007E-2,1.9294237E-1,-1.5916821E-1,1.8305905E-1,-9.490917E-2,-2.5589165E-1,1.03208035E-1,-2.86285E-1,6.290444E-2,2.775632E-1,5.4596204E-2,-1.770084E-1,6.821008E-2,-6.741577E-2,-3.0961657E-1,2.8199768E-1,-1.2996034E-1,-1.4152339E-1,1.5025158E-1,-2.8422156E-2,-2.9212028E-1,1.2967797E-1,-1.6716202E-1,3.2696724E-1,5.1057585E-2],"split_indices":[335,24,325,136,214,226,142,14,333,329,378,174,378,162,367,43,302,366,213,367,192,100,0,0,102,24,55,217,58,256,289,214,214,0,0,233,295,13,232,0,0,0,25,371,22,0,79,59,0,9,166,0,0,0,0,0,0,42,299,0,0,0,0,0,0,0,0,0,0,0,0,0,0,0,0,0,0,0,0,0,0,0,0,0,0,0,0,0,0],"split_type":[0,0,0,0,0,0,0,0,0,0,0,0,0,0,0,0,0,0,0,0,0,0,0,0,0,0,0,0,0,0,0,0,0,0,0,0,0,0,0,0,0,0,0,0,0,0,0,0,0,0,0,0,0,0,0,0,0,0,0,0,0,0,0,0,0,0,0,0,0,0,0,0,0,0,0,0,0,0,0,0,0,0,0,0,0,0,0,0,0],"sum_hessian":[2.1515909E2,1.2371125E2,9.144784E1,8.06984E1,4.3012848E1,6.908453E1,2.2363302E1,4.294875E1,3.7749657E1,2.7072271E1,1.5940576E1,4.4102238E1,2.4982298E1,1.0717936E1,1.1645366E1,4.0206844E1,2.7419066E0,1.4384664E1,2.3364992E1,2.686834E0,2.4385437E1,1.4108075E1,1.8325006E0,1.5375743E0,4.2564663E1,8.338503E0,1.6643795E1,3.3304174E0,7.3875184E0,2.7879958E0,8.857369E0,3.7947742E1,2.2590995E0,1.0071437E0,1.7347629E0,9.7560835E0,4.62858E0,1.1073609E1,1.2291384E1,1.1601887E0,1.5266455E0,1.0743632E0,2.3311073E1,3.4425466E0,1.0665528E1,1.6163821E0,4.094828E1,5.919097E0,2.4194057E0,4.5518646E0,1.209193E1,1.4538989E0,1.8765186E0,1.0803988E0,6.3071194E0,1.0072409E0,1.7807548E0,2.3662891E0,6.4910808E0,1.1953329E0,3.675241E1,1.2559118E0,1.0031875E0,8.755922E0,1.0001614E0,1.5495669E0,3.079013E0,5.5885186E0,5.4850903E0,1.1253738E1,1.0376451E0,2.2296682E1,1.0143908E0,2.4398708E0,1.0026758E0,1.9914801E0,8.674048E0,1.2487098E0,3.9699574E1,4.5644855E0,1.3546114E0,1.9479223E0,2.6039422E0,1.0232954E0,1.1068635E1,1.029175E0,1.3371142E0,5.446416E0,1.0446647E0],"tree_param":{"num_deleted":"0","num_feature":"384","num_nodes":"89","size_leaf_vector":"0"}},{"base_weights":[-1.4618926E-1,1.5592244E-1,-4.7601116E-1,4.339407E-1,-3.84318E-1,-4.4103567E-2,-7.404243E-1,6.703524E-1,-6.168922E-4,2.1876238E-1,-6.999011E-1,-4.070411E-1,3.8637254E-1,-8.260797E-1,2.5686073E-1,-3.570251E-1,7.514103E-1,6.525698E-1,-3.5535586E-1,7.062675E-1,-1.4857045E-1,-8.1107646E-1,7.3751056E-1,-7.0858335E-1,2.067263E-1,-3.3383608E-1,6.3204825E-1,2.4435118E-1,-8.785971E-1,6.65909E-1,-5.14008E-1,-7.157177E-1,2.2520532E-1,8.5769385E-1,1.2663113E-2,-2.3235059E-1,9.1670084E-1,-6.115131E-1,5.957231E-1,-1.3602105E-1,9.638634E-1,8.84229E-2,-6.328882E-1,3.3817023E-2,-9.1471905E-1,1.3643853E-1,-9.1049635E-1,-3.3317E-1,6.253873E-1,-7.507357E-1,4.9454758E-1,8.4652346E-1,-3.3969763E-1,-3.4397766E-1,7.385063E-1,1.7397319E-1,-9.1645515E-1,1.5139936E-1,8.078838E-1,-2.5841507E-1,9.085143E-1,4.3848914E-1,-5.916892E-1,-7.7522904E-1,3.0882725E-1,7.872956E-1,4.1207507E-2,2.317895E-1,1.122492E0,5.688307E-1,-5.1592225E-1,-9.714667E-1,-4.928872E-2,7.658568E-1,-6.109915E-1,-9.540437E-1,-2.449623E-1,-6.6093785E-1,2.730564E-1,8.540889E-1,1.1492981E-2,1.1390428E-1,9.882077E-1,-9.407413E-1,3.3005748E-2],"categories":[],"categories_nodes":[],"categories_segments":[],"categories_sizes":[],"default_left":[1,1,1,1,1,1,1,1,1,1,1,1,1,1,1,1,1,1,1,1,1,1,0,1,1,1,1,1,1,1,0,0,0,1,1,0,0,1,1,0,1,0,0,1,1,1,1,1,1,0,0,1,0,0,0,0,1,0,0,0,0,0,0,0,0,0,0,0,0,0,0,0,0,0,0,0,0,0,0,0,0,0,0,0,0],"id":10,"left_children":[1,3,5,7,9,11,13,15,17,19,21,23,25,27,29,31,33,35,37,39,41,43,-1,45,47,49,51,53,55,57,-1,-1,-1,59,61,-1,-1,63,65,-1,67,-1,-1,69,71,73,75,77,79,-1,-1,81,-1,-1,-1,-1,83,-1,-1,-1,-1,-1,-1,-1,-1,-1,-1,-1,-1,-1,-1,-1,-1,-1,-1,-1,-1,-1,-1,-1,-1,-1,-1,-1,-1],"loss_changes":[1.8429245E1,1.4720213E1,1.005274E1,6.6209774E0,6.519851E0,5.5627065E0,4.886011E0,3.7441025E0,5.7246695E0,2.2992635E0,4.1456594E0,3.7107823E0,3.1020617E0,3.0605507E0,1.9474081E0,9.4019175E-1,3.0519142E0,2.2454693E0,4.264661E0,1.3112707E0,9.5288765E-1,1.8769703E0,0E0,2.366147E0,1.8174293E0,2.0325446E0,2.8988128E0,1.169796E0,2.0910263E0,1.5244246E-1,0E0,0E0,0E0,2.1682186E0,1.7832652E0,0E0,0E0,2.214169E0,3.8223124E-1,0E0,2.3789883E-1,0E0,0E0,1.2545997E0,8.7607384E-1,2.0692499E0,7.744694E-2,9.2791057E-1,6.019162E-1,0E0,0E0,9.825473E-1,0E0,0E0,0E0,0E0,1.1136627E0,0E0,0E0,0E0,0E0,0E0,0E0,0E0,0E0,0E0,0E0,0E0,0E0,0E0,0E0,0E0,0E0,0E0,0E0,0E0,0E0,0E0,0E0,0E0,0E0,0E0,0E0,0E0,0E0],"parents":[2147483647,0,0,1,1,2,2,3,3,4,4,5,5,6,6,7,7,8,8,9,9,10,10,11,11,12,12,13,13,14,14,15,15,16,16,17,17,18,18,19,19,20,20,21,21,23,23,24,24,25,25,26,26,27,27,28,28,29,29,33,33,34,34,37,37,38,38,40,40,43,43,44,44,45,45,46,46,47,47,48,48,51,51,56,56],"right_children":[2,4,6,8,10,12,14,16,18,20,22,24,26,28,30,32,34,36,38,40,42,44,-1,46,48,50,52,54,56,58,-1,-1,-1,60,62,-1,-1,64,66,-1,68,-1,-1,70,72,74,76,78,80,-1,-1,82,-1,-1,-1,-1,84,-1,-1,-1,-1,-1,-1,-1,-1,-1,-1,-1,-1,-1,-1,-1,-1,-1,-1,-1,-1,-1,-1,-1,-1,-1,-1,-1,-1],"split_conditions":[-2.961283E-3,4.9508285E-2,-2.3070302E-2,-2.9099911E-2,-7.206209E-2,4.9937453E-2,2.074969E-2,-5.4338157E-2,1.4588516E-4,-2.0141818E-2,1.3441936E-3,1.0046743E-2,-1.6324263E-2,-6.448844E-2,-1.3421498E-2,-1.0495037E-2,8.379161E-2,2.5595255E-2,6.936851E-2,-6.228318E-2,-6.853995E-2,-8.038728E-5,2.2125317E-1,-4.5911215E-2,2.5933444E-2,-2.6904162E-2,6.430574E-2,5.493316E-2,-9.775654E-2,5.0769094E-3,-1.542024E-1,-2.1471532E-1,6.75616E-2,-4.817491E-2,-3.4715354E-2,-6.970518E-2,2.7501026E-1,9.0946525E-2,-1.0040395E-2,-4.0806316E-2,8.000593E-3,2.6526872E-2,-1.8986647E-1,5.222404E-2,5.261396E-2,6.4904034E-2,3.2087237E-2,-9.859797E-3,-2.9196094E-3,-2.2522072E-1,1.4836428E-1,-2.224154E-2,-1.01909295E-1,-1.03193305E-1,2.2155191E-1,5.2191958E-2,6.692256E-2,4.541981E-2,2.4236515E-1,-7.752453E-2,2.725543E-1,1.3154675E-1,-1.7750677E-1,-2.3256873E-1,9.264818E-2,2.3618868E-1,1.2362253E-2,6.953685E-2,3.367476E-1,1.7064923E-1,-1.5477668E-1,-2.9144004E-1,-1.4786617E-2,2.2975706E-1,-1.8329746E-1,-2.8621313E-1,-7.34887E-2,-1.9828136E-1,8.191692E-2,2.562267E-1,3.4478942E-3,3.4171287E-2,2.9646233E-1,-2.822224E-1,9.901725E-3],"split_indices":[13,102,345,378,378,80,142,0,24,333,72,57,60,62,100,152,287,67,89,50,168,201,0,314,351,20,130,147,266,92,0,0,0,82,381,0,0,285,381,0,210,0,0,140,191,212,197,105,192,0,0,375,0,0,0,0,124,0,0,0,0,0,0,0,0,0,0,0,0,0,0,0,0,0,0,0,0,0,0,0,0,0,0,0,0],"split_type":[0,0,0,0,0,0,0,0,0,0,0,0,0,0,0,0,0,0,0,0,0,0,0,0,0,0,0,0,0,0,0,0,0,0,0,0,0,0,0,0,0,0,0,0,0,0,0,0,0,0,0,0,0,0,0,0,0,0,0,0,0,0,0,0,0,0,0,0,0,0,0,0,0,0,0,0,0,0,0,0,0,0,0,0,0],"sum_hessian":[1.8320776E2,9.589588E1,8.7311874E1,6.3443424E1,3.2452457E1,3.359791E1,5.3713963E1,4.0738117E1,2.2705307E1,1.1253598E1,2.119886E1,1.825849E1,1.5339424E1,4.9623535E1,4.0904255E0,2.7301366E0,3.800798E1,7.6956334E0,1.5009673E1,4.4392996E0,6.8142986E0,2.0081419E1,1.117441E0,1.21397705E1,6.118718E0,3.8103566E0,1.1529068E1,2.1499324E0,4.7473602E1,2.7613304E0,1.3290949E0,1.5475031E0,1.1826335E0,3.3086777E1,4.9212046E0,1.7966437E0,5.8989897E0,1.2106123E1,2.9035497E0,1.1502302E0,3.2890692E0,5.124253E0,1.6900456E0,2.267828E0,1.7813591E1,2.4038286E0,9.735942E0,2.7616084E0,3.35711E0,2.5970678E0,1.2132888E0,9.550114E0,1.9789538E0,1.1201807E0,1.0297517E0,1.523386E0,4.595022E1,1.0440668E0,1.7172636E0,1.2630512E0,3.1823727E1,3.0480204E0,1.8731842E0,1.0411696E1,1.6944268E0,1.8460066E0,1.0575429E0,1.024089E0,2.2649803E0,1.1317071E0,1.1361208E0,1.6602419E1,1.2111721E0,1.2915488E0,1.1122797E0,8.731144E0,1.0047987E0,1.7338954E0,1.0277128E0,2.1608415E0,1.1962686E0,1.8399665E0,7.7101474E0,4.4813133E1,1.1370859E0],"tree_param":{"num_deleted":"0","num_feature":"384","num_nodes":"85","size_leaf_vector":"0"}},{"base_weights":[-1.2477029E-1,-3.0489263E-1,3.5859287E-1,-2.0173253E-2,-6.064237E-1,-9.3779154E-2,6.12922E-1,-2.486502E-1,5.507283E-1,2.9584163E-1,-6.821119E-1,-3.4233233E-1,6.225076E-1,-4.069001E-1,7.0052975E-1,5.378165E-1,-3.8570172E-1,6.9344264E-1,-3.461438E-1,-3.4839272E-1,6.7367846E-1,-7.293235E-1,3.3824024E-1,-6.8668026E-1,2.2908519E-1,-2.2224367E-2,8.0983657E-1,7.651222E-1,-4.0953222E-1,-2.2091614E-1,7.697387E-1,1.1262566E-1,-5.9696496E-1,8.260806E-1,-2.3531638E-1,-5.5809015E-1,4.5577854E-2,1.21807456E-1,-7.9658437E-1,1.1794464E-1,-8.3839995E-1,5.1216084E-1,-4.0823957E-1,8.974751E-1,2.3408635E-1,8.6084324E-1,1.8117067E-1,7.8211904E-1,-3.242806E-1,-8.443677E-1,3.5158817E-2,9.282709E-1,1.3959367E-2,6.5018415E-1,-2.5386024E-1,-1.8732546E-1,-8.8931847E-1,-9.1366965E-1,-1.9747436E-1,7.290601E-1,-4.4852994E-2,9.6964556E-1,-1.63733E-1,-3.0458954E-1,7.272779E-1],"categories":[],"categories_nodes":[],"categories_segments":[],"categories_sizes":[],"default_left":[1,1,1,1,1,1,1,1,1,1,1,1,1,0,1,1,1,1,1,0,0,1,0,1,1,0,0,1,0,0,1,1,1,1,0,0,0,1,1,0,1,1,0,1,1,0,0,0,0,0,0,0,0,0,0,0,0,0,0,0,0,0,0,0,0],"id":11,"left_children":[1,3,5,7,9,11,13,15,17,19,21,23,25,-1,27,29,31,33,35,-1,-1,37,-1,39,41,-1,-1,43,-1,-1,45,47,49,51,-1,-1,-1,53,55,-1,57,59,-1,61,63,-1,-1,-1,-1,-1,-1,-1,-1,-1,-1,-1,-1,-1,-1,-1,-1,-1,-1,-1,-1],"loss_changes":[1.3841433E1,9.898937E0,5.0366826E0,8.016989E0,4.0283318E0,3.1404166E0,2.7720146E0,4.9321823E0,2.489953E0,1.4600892E0,2.7515965E0,2.686108E0,5.7242775E-1,0E0,2.1776657E0,1.3882177E0,4.058499E0,2.1035504E0,2.8116223E-1,0E0,0E0,2.9603386E0,0E0,1.1083906E0,1.2162107E0,0E0,0E0,1.5413971E0,0E0,0E0,1.4030027E-1,3.801291E0,4.2182674E0,1.1308928E0,0E0,0E0,0E0,1.0643187E0,2.4598026E0,0E0,1.6116858E-1,5.533006E-1,0E0,1.6595278E0,1.9017979E0,0E0,0E0,0E0,0E0,0E0,0E0,0E0,0E0,0E0,0E0,0E0,0E0,0E0,0E0,0E0,0E0,0E0,0E0,0E0,0E0],"parents":[2147483647,0,0,1,1,2,2,3,3,4,4,5,5,6,6,7,7,8,8,9,9,10,10,11,11,12,12,14,14,15,15,16,16,17,17,18,18,21,21,23,23,24,24,27,27,30,30,31,31,32,32,33,33,37,37,38,38,40,40,41,41,43,43,44,44],"right_children":[2,4,6,8,10,12,14,16,18,20,22,24,26,-1,28,30,32,34,36,-1,-1,38,-1,40,42,-1,-1,44,-1,-1,46,48,50,52,-1,-1,-1,54,56,-1,58,60,-1,62,64,-1,-1,-1,-1,-1,-1,-1,-1,-1,-1,-1,-1,-1,-1,-1,-1,-1,-1,-1,-1],"split_conditions":[4.9200714E-2,-5.8762975E-2,3.2886866E-2,4.334409E-3,-7.345323E-2,4.988877E-3,-3.9415002E-2,7.6877903E-3,6.1639734E-2,1.2143124E-2,1.2151933E-1,8.758699E-3,1.1915509E-2,-1.2207004E-1,5.240708E-2,-8.767934E-2,-3.4157995E-2,8.648274E-2,-1.2634515E-3,-1.04517825E-1,2.0210354E-1,-6.827429E-2,1.0147207E-1,-3.0982314E-2,7.314108E-2,-6.6673104E-3,2.4295098E-1,2.1076505E-3,-1.2285967E-1,-6.6274844E-2,5.7952978E-2,-4.14503E-2,6.842363E-2,2.05416E-2,-7.0594914E-2,-1.6742705E-1,1.3673357E-2,-3.0689899E-2,-7.2013575E-4,3.5383396E-2,-2.6091335E-2,-5.0442293E-2,-1.2247188E-1,5.061761E-2,9.616398E-3,2.5825298E-1,5.4351203E-2,2.3463573E-1,-9.728418E-2,-2.5331032E-1,1.0547645E-2,2.7848127E-1,4.1878102E-3,1.9505526E-1,-7.615808E-2,-5.619764E-2,-2.6679555E-1,-2.741009E-1,-5.9242312E-2,2.1871804E-1,-1.34558985E-2,2.9089367E-1,-4.9119905E-2,-9.137686E-2,2.1818337E-1],"split_indices":[92,378,67,216,333,255,124,53,102,226,33,57,180,0,64,242,21,32,105,0,0,56,0,291,374,0,0,13,0,0,162,317,279,373,0,0,0,48,102,0,298,238,0,173,7,0,0,0,0,0,0,0,0,0,0,0,0,0,0,0,0,0,0,0,0],"split_type":[0,0,0,0,0,0,0,0,0,0,0,0,0,0,0,0,0,0,0,0,0,0,0,0,0,0,0,0,0,0,0,0,0,0,0,0,0,0,0,0,0,0,0,0,0,0,0,0,0,0,0,0,0,0,0,0,0,0,0,0,0,0,0,0,0],"sum_hessian":[1.567233E2,1.14445206E2,4.2278084E1,5.94123E1,5.5032906E1,1.5442309E1,2.6835775E1,4.283431E1,1.6577991E1,4.034128E0,5.099878E1,1.1851786E1,3.590524E0,1.8346354E0,2.500114E1,5.922723E0,3.6911587E1,1.44978485E1,2.0801425E0,1.520135E0,2.513993E0,4.9016037E1,1.9827433E0,7.2693887E0,4.5823965E0,1.006794E0,2.58373E0,2.392002E1,1.0811218E0,1.3976779E0,4.5250444E0,1.1128527E1,2.578306E1,1.2782857E1,1.7149917E0,1.0742137E0,1.0059288E0,3.5304267E0,4.5485607E1,1.1885722E0,6.0808167E0,3.3090365E0,1.2733598E0,1.859535E1,5.3246675E0,3.5179017E0,1.0071429E0,4.0825305E0,7.0459967E0,1.8289206E1,7.493855E0,1.1227115E1,1.5557419E0,1.163384E0,2.3670428E0,6.407652E0,3.9077957E1,5.0609202E0,1.0198966E0,2.159329E0,1.1497078E0,1.7492039E1,1.1033133E0,2.7277563E0,2.5969112E0],"tree_param":{"num_deleted":"0","num_feature":"384","num_nodes":"65","size_leaf_vector":"0"}},{"base_weights":[-1.01780005E-1,-4.077804E-1,1.5510403E-1,-7.601801E-2,-7.1815866E-1,-1.1272607E-1,4.768476E-1,-4.6136177E-1,3.268543E-1,-8.7183815E-1,9.628382E-2,-2.3471896E-1,5.77819E-1,7.499688E-1,7.328055E-2,5.357716E-1,-6.0546106E-1,-6.0711956E-1,5.427668E-1,-9.429611E-1,-4.2793855E-2,-5.9853387E-1,5.792409E-1,-6.739388E-1,-2.487432E-2,-2.660488E-1,8.4857506E-1,8.3837825E-1,-2.0735157E-1,-3.6939242E-1,5.2044773E-1,-7.909511E-1,2.9322293E-1,-2.9398927E-1,6.910073E-1,-2.237086E-1,-9.9784946E-1,4.736247E-1,-5.4894644E-1,-7.015732E-2,8.627023E-1,-7.8590417E-1,2.634851E-1,2.2456177E-1,-4.2722133E-1,-2.888405E-2,9.192124E-1,-5.982627E-1,2.8914267E-1,-3.1676614E-1,7.298352E-1,8.169796E-2,-8.7439334E-1,-1.6518602E-1,6.0170907E-1,8.9186555E-1,-6.805118E-2,1.6020368E-1,-5.0827175E-1,6.65349E-2,-8.847787E-1,-6.578729E-2,7.3596007E-1,1.869295E-1,-6.757567E-1,9.915703E-2,9.836821E-1,-7.7178186E-1,1.1741009E-1,8.4957945E-1,5.932509E-2],"categories":[],"categories_nodes":[],"categories_segments":[],"categories_sizes":[],"default_left":[1,1,1,1,1,1,1,1,1,1,1,1,1,1,1,0,1,0,1,1,1,0,1,1,1,0,0,1,0,1,1,1,1,0,1,1,0,0,0,0,0,1,0,1,1,0,1,1,0,0,1,0,0,0,0,0,0,0,0,0,0,0,0,0,0,0,0,0,0,0,0],"id":12,"left_children":[1,3,5,7,9,11,13,15,17,19,21,23,25,27,29,-1,31,-1,33,35,37,-1,39,41,43,-1,-1,45,-1,47,49,51,53,-1,55,57,-1,-1,-1,-1,-1,59,-1,61,63,-1,65,67,-1,-1,69,-1,-1,-1,-1,-1,-1,-1,-1,-1,-1,-1,-1,-1,-1,-1,-1,-1,-1,-1,-1],"loss_changes":[1.092054E1,6.464589E0,6.58663E0,5.0750537E0,4.163128E0,3.689006E0,3.7621298E0,2.713468E0,3.5746489E0,1.5821571E0,2.3849392E0,3.3528056E0,1.7387319E0,1.9126835E0,3.1784537E0,0E0,2.731894E0,0E0,1.8899441E0,7.7539444E-1,1.102097E0,0E0,8.136867E-1,1.4436307E0,2.6829836E0,0E0,0E0,1.3589745E0,0E0,1.4037317E0,1.6195612E0,9.963217E-1,5.654024E-1,0E0,1.8674669E0,4.1817832E-1,0E0,0E0,0E0,0E0,0E0,9.6706676E-1,0E0,2.508513E0,1.6846949E0,0E0,8.232384E-1,8.836005E-1,0E0,0E0,4.8256755E-1,0E0,0E0,0E0,0E0,0E0,0E0,0E0,0E0,0E0,0E0,0E0,0E0,0E0,0E0,0E0,0E0,0E0,0E0,0E0,0E0],"parents":[2147483647,0,0,1,1,2,2,3,3,4,4,5,5,6,6,7,7,8,8,9,9,10,10,11,11,12,12,13,13,14,14,16,16,18,18,19,19,20,20,22,22,23,23,24,24,27,27,29,29,30,30,31,31,32,32,34,34,35,35,41,41,43,43,44,44,46,46,47,47,50,50],"right_children":[2,4,6,8,10,12,14,16,18,20,22,24,26,28,30,-1,32,-1,34,36,38,-1,40,42,44,-1,-1,46,-1,48,50,52,54,-1,56,58,-1,-1,-1,-1,-1,60,-1,62,64,-1,66,68,-1,-1,70,-1,-1,-1,-1,-1,-1,-1,-1,-1,-1,-1,-1,-1,-1,-1,-1,-1,-1,-1,-1],"split_conditions":[-3.0850988E-2,3.460636E-2,2.079947E-2,1.7241156E-2,7.2544724E-2,9.864911E-2,-2.6267024E-3,-1.4784956E-1,-2.3563009E-2,1.7225113E-2,3.864722E-2,-6.273347E-2,4.3381702E-2,1.2832708E-2,-9.241744E-3,1.607315E-1,6.0879793E-2,-1.8213588E-1,-1.619956E-2,-1.663487E-2,3.6295004E-2,-1.7956017E-1,-4.0493608E-3,7.545091E-2,-5.6837946E-2,-7.981464E-2,2.5457254E-1,-1.6672388E-2,-6.220547E-2,9.012215E-3,-2.2842359E-2,-2.2321476E-2,-4.1351646E-2,-8.8196784E-2,4.9560286E-2,-3.7432563E-2,-2.9935485E-1,1.4208741E-1,-1.6468394E-1,-2.1047197E-2,2.588107E-1,-9.065172E-2,7.9045534E-2,-5.873993E-2,-2.3156013E-2,-8.665215E-3,-2.412767E-2,-4.9006045E-3,8.67428E-2,-9.5029846E-2,2.4521545E-2,2.450939E-2,-2.6231802E-1,-4.955581E-2,1.8051273E-1,2.6755968E-1,-2.0415355E-2,4.8061106E-2,-1.5248153E-1,1.996047E-2,-2.654336E-1,-1.973619E-2,2.2078803E-1,5.607885E-2,-2.0272702E-1,2.974711E-2,2.9510465E-1,-2.3153457E-1,3.522303E-2,2.5487384E-1,1.7797528E-2],"split_indices":[9,53,191,226,80,303,13,69,348,142,290,46,16,314,157,0,382,0,158,300,102,0,4,80,190,0,0,106,0,312,352,52,94,0,24,171,0,0,0,0,0,195,0,8,173,0,108,344,0,0,19,0,0,0,0,0,0,0,0,0,0,0,0,0,0,0,0,0,0,0,0],"split_type":[0,0,0,0,0,0,0,0,0,0,0,0,0,0,0,0,0,0,0,0,0,0,0,0,0,0,0,0,0,0,0,0,0,0,0,0,0,0,0,0,0,0,0,0,0,0,0,0,0,0,0,0,0,0,0,0,0,0,0,0,0,0,0,0,0,0,0,0,0,0,0],"sum_hessian":[1.3712186E2,6.2310337E1,7.4811516E1,3.071939E1,3.1590948E1,4.1180843E1,3.3630676E1,1.5627063E1,1.5092327E1,2.651692E1,5.074027E0,3.555902E1,5.621823E0,1.9544935E1,1.4085738E1,1.6299711E0,1.3997092E1,2.4936507E0,1.2598677E1,2.4295246E1,2.2216742E0,1.9825188E0,3.0915082E0,1.0781326E1,2.4777695E1,1.3698343E0,4.2519884E0,1.8006285E1,1.5386521E0,7.165843E0,6.9198956E0,1.1701715E1,2.2953768E0,1.7481133E0,1.0850563E1,2.0824683E0,2.2212778E1,1.1314949E0,1.0901792E0,1.1680506E0,1.9234576E0,9.7753935E0,1.0059334E0,1.5568089E1,9.209607E0,1.5899988E0,1.6416285E1,5.385624E0,1.7802193E0,1.2818258E0,5.6380696E0,1.0230844E0,1.0678631E1,1.1101804E0,1.1851963E0,8.441779E0,2.408784E0,1.07252E0,1.0099481E0,1.049997E0,8.725396E0,1.0485978E1,5.082111E0,2.7246509E0,6.484956E0,1.3815098E0,1.5034776E1,4.271559E0,1.1140652E0,4.5571575E0,1.0809125E0],"tree_param":{"num_deleted":"0","num_feature":"384","num_nodes":"71","size_leaf_vector":"0"}},{"base_weights":[-8.670832E-2,1.4804485E-1,-3.7866557E-1,-2.5741228E-1,3.7782556E-1,-8.218826E-1,-2.1560289E-1,-4.9313882E-1,2.5194734E-1,5.544281E-1,-8.081723E-2,1.8224147E-1,-9.3356806E-1,-5.217486E-1,8.491055E-3,-6.5720075E-1,3.1106502E-1,5.2671313E-1,-2.8650066E-1,6.452736E-1,-3.9143196E-1,-3.7687808E-1,5.4742324E-1,4.228645E-1,-6.109399E-1,-1.5670453E-1,4.879346E-1,-8.112233E-1,-8.3452515E-2,-1.2649909E-1,6.00442E-1,-1.6335334E-1,7.063527E-1,-5.494069E-1,1.8716718E-1,6.293385E-2,8.048412E-1,9.928694E-2,-6.386774E-1,-5.9813386E-1,2.18487E-1,7.5856936E-1,-1.0326391E-1,-7.6887375E-1,-6.65012E-2,-7.376998E-1,8.39834E-2,7.357914E-1,-3.8498908E-1,-8.7357783E-1,-1.0677898E-1,4.691966E-1,-4.8391533E-1,8.396864E-1,8.804933E-2,-3.1696048E-1,5.609096E-1,8.653936E-1,-8.3720066E-2,7.2129995E-2,-7.580309E-1,-2.197606E-1,5.4540795E-1,-8.602018E-1,2.0672923E-2,-5.354702E-1,3.933142E-1,-1.6353154E-1,-8.261203E-1,-6.1608124E-1,2.7772555E-1,1.2873805E-1,8.521465E-1],"categories":[],"categories_nodes":[],"categories_segments":[],"categories_sizes":[],"default_left":[1,1,1,1,1,1,1,1,1,1,1,0,0,1,1,1,1,1,1,1,1,1,1,0,1,1,1,1,1,0,0,0,1,0,0,1,1,0,0,1,1,0,0,1,1,1,1,1,0,0,0,0,0,0,0,0,0,0,0,0,0,0,0,0,0,0,0,0,0,0,0,0,0],"id":13,"left_children":[1,3,5,7,9,11,13,15,17,19,21,-1,-1,23,25,27,29,31,33,35,37,39,41,-1,43,45,47,49,51,-1,-1,-1,53,-1,-1,55,57,-1,-1,59,61,-1,-1,63,65,67,69,71,-1,-1,-1,-1,-1,-1,-1,-1,-1,-1,-1,-1,-1,-1,-1,-1,-1,-1,-1,-1,-1,-1,-1,-1,-1],"loss_changes":[8.342109E0,6.407657E0,3.7373943E0,3.1374288E0,3.5793257E0,1.7639885E0,2.8139818E0,2.512568E0,1.4234529E0,2.970724E0,2.6250727E0,0E0,0E0,1.7178807E0,2.0271053E0,1.2446904E0,5.372221E-1,8.650507E-1,5.453986E-1,2.6662836E0,4.7524905E-1,1.3730319E0,7.06633E-1,0E0,1.3451028E0,2.7292728E0,1.7013954E0,4.1596222E-1,1.1693428E0,0E0,0E0,0E0,3.3713102E-1,0E0,0E0,1.5726756E0,1.3027058E0,0E0,0E0,8.202605E-1,5.9090054E-1,0E0,0E0,9.1856146E-1,1.2340167E0,1.5374684E-1,2.1221433E0,2.751422E-1,0E0,0E0,0E0,0E0,0E0,0E0,0E0,0E0,0E0,0E0,0E0,0E0,0E0,0E0,0E0,0E0,0E0,0E0,0E0,0E0,0E0,0E0,0E0,0E0,0E0],"parents":[2147483647,0,0,1,1,2,2,3,3,4,4,5,5,6,6,7,7,8,8,9,9,10,10,13,13,14,14,15,15,16,16,17,17,18,18,19,19,20,20,21,21,22,22,24,24,25,25,26,26,27,27,28,28,32,32,35,35,36,36,39,39,40,40,43,43,44,44,45,45,46,46,47,47],"right_children":[2,4,6,8,10,12,14,16,18,20,22,-1,-1,24,26,28,30,32,34,36,38,40,42,-1,44,46,48,50,52,-1,-1,-1,54,-1,-1,56,58,-1,-1,60,62,-1,-1,64,66,68,70,72,-1,-1,-1,-1,-1,-1,-1,-1,-1,-1,-1,-1,-1,-1,-1,-1,-1,-1,-1,-1,-1,-1,-1,-1,-1],"split_conditions":[4.0376298E-2,3.7816755E-2,-5.5901706E-2,-2.8197821E-2,-8.416055E-3,-4.6578523E-2,3.1661913E-2,6.001828E-2,2.8143771E-2,4.979361E-2,2.5803605E-2,5.4672442E-2,-2.8007042E-1,-4.481329E-2,2.715849E-2,5.70789E-2,9.837354E-3,-3.6487423E-2,4.0358894E-2,-6.336279E-3,4.3466426E-2,-3.1095007E-3,9.59982E-2,1.2685935E-1,3.4953423E-2,-4.911183E-2,3.0808624E-2,7.135714E-2,-4.4729006E-2,-3.7949726E-2,1.801326E-1,-4.9006004E-2,4.5471683E-2,-1.6482207E-1,5.6150157E-2,5.3180248E-2,2.1648128E-2,2.9786084E-2,-1.9160323E-1,-5.818284E-2,-1.1505162E-2,2.2757082E-1,-3.0979173E-2,3.2627728E-2,-2.3588315E-2,-6.244895E-2,9.844175E-3,-1.8895606E-2,-1.1549673E-1,-2.6207337E-1,-3.2033697E-2,1.4075898E-1,-1.4517461E-1,2.5190592E-1,2.64148E-2,-9.508815E-2,1.682729E-1,2.5961807E-1,-2.511602E-2,2.1638999E-2,-2.2740927E-1,-6.592818E-2,1.636224E-1,-2.5806054E-1,6.2018773E-3,-1.6064106E-1,1.1799427E-1,-4.9059466E-2,-2.478361E-1,-1.8482438E-1,8.331767E-2,3.8621414E-2,2.5564396E-1],"split_indices":[102,33,142,107,266,6,80,82,316,136,207,0,0,53,305,290,61,134,247,4,286,9,35,0,191,318,335,331,240,0,0,0,24,0,0,155,195,0,0,333,187,0,0,57,377,274,108,173,0,0,0,0,0,0,0,0,0,0,0,0,0,0,0,0,0,0,0,0,0,0,0,0,0],"split_type":[0,0,0,0,0,0,0,0,0,0,0,0,0,0,0,0,0,0,0,0,0,0,0,0,0,0,0,0,0,0,0,0,0,0,0,0,0,0,0,0,0,0,0,0,0,0,0,0,0,0,0,0,0,0,0,0,0,0,0,0,0,0,0,0,0,0,0,0,0,0,0,0,0],"sum_hessian":[1.1989734E2,6.6732704E1,5.316464E1,2.4095314E1,4.263739E1,1.3212299E1,3.995234E1,1.6493933E1,7.6013813E0,3.0633118E1,1.20042715E1,1.2592348E0,1.1953064E1,1.6323605E1,2.3628735E1,1.3851039E1,2.6428933E0,5.047484E0,2.5538974E0,2.823871E1,2.3944073E0,8.431159E0,3.5731122E0,1.0855539E0,1.523805E1,1.8074272E1,5.554462E0,1.0593354E1,3.2576852E0,1.2761288E0,1.3667645E0,1.0612943E0,3.9861896E0,1.5395057E0,1.0143917E0,6.373416E0,2.1865295E1,1.0027108E0,1.3916963E0,6.143425E0,2.287734E0,2.5725348E0,1.0005774E0,1.149212E1,3.745931E0,4.689456E0,1.3384815E1,4.448466E0,1.105996E0,9.5113535E0,1.0820007E0,1.2966452E0,1.9610399E0,2.9845407E0,1.0016488E0,3.821547E0,2.5518687E0,2.0494724E1,1.3705709E0,1.2890061E0,4.8544188E0,1.1174905E0,1.1702436E0,1.0220421E1,1.2716992E0,1.773051E0,1.97288E0,1.0060483E0,3.6834078E0,2.4287841E0,1.0956032E1,1.0543076E0,3.3941584E0],"tree_param":{"num_deleted":"0","num_feature":"384","num_nodes":"73","size_leaf_vector":"0"}},{"base_weights":[-7.766655E-2,1.6699108E-1,-3.5373673E-1,6.0114336E-1,-1.2599899E-1,-5.794038E-2,-6.303528E-1,-6.103113E-2,7.3018473E-1,-6.18375E-1,6.0837444E-2,-2.8117007E-1,3.441536E-1,-7.907396E-1,-4.997354E-2,4.770946E-1,-4.365608E-1,5.0147627E-2,8.5601723E-1,1.5271758E-1,-7.768917E-1,6.6225404E-1,-1.1521524E-1,-6.7006916E-1,-4.7611665E-2,-5.5397385E-1,5.486631E-1,-8.771022E-1,-5.3071354E-2,-5.567746E-1,3.3011752E-1,-3.711659E-2,-5.9928894E-1,-4.3838143E-1,4.4691485E-1,-1.6307687E-2,9.204787E-1,-9.1062665E-2,-8.6418766E-1,7.888457E-3,8.681673E-1,2.153438E-1,-4.1901702E-1,-8.0759007E-1,2.4591267E-2,4.4614992E-1,-2.0938821E-1,7.577583E-1,-1.6233163E-1,-9.204646E-1,-1.340483E-1,3.5801178E-1,-4.450482E-1,6.3021016E-1,-1.8836203E-1,1.4964679E-1,9.716611E-1,-3.8778168E-1,4.784226E-1,2.3967059E-1,-6.193093E-1,8.359826E-2,5.8472174E-1,-6.1889154E-1,6.519107E-2,8.9946645E-1,1.15276195E-1,-2.4794865E-1,-9.4988143E-1],"categories":[],"categories_nodes":[],"categories_segments":[],"categories_sizes":[],"default_left":[1,1,1,1,1,1,1,1,1,1,1,1,1,1,1,0,1,1,1,0,1,1,1,1,1,0,1,1,1,0,1,0,0,0,0,0,1,0,0,0,0,1,1,0,0,1,1,1,0,1,0,0,0,0,0,0,0,0,0,0,0,0,0,0,0,0,0,0,0],"id":14,"left_children":[1,3,5,7,9,11,13,15,17,19,21,23,25,27,29,-1,31,33,35,-1,37,39,41,43,45,-1,47,49,51,-1,53,-1,-1,-1,-1,-1,55,-1,-1,-1,-1,57,59,-1,-1,61,63,65,-1,67,-1,-1,-1,-1,-1,-1,-1,-1,-1,-1,-1,-1,-1,-1,-1,-1,-1,-1,-1],"loss_changes":[7.254814E0,7.3467283E0,4.0852985E0,2.0274076E0,3.25331E0,2.380688E0,2.3742275E0,1.1595771E0,1.625515E0,1.3049054E0,2.8557258E0,1.5042168E0,2.054933E0,1.243432E0,1.4709193E0,0E0,1.9192064E-1,9.919329E-1,9.3670464E-1,0E0,4.1310406E-1,8.140609E-1,2.2150145E0,6.1875796E-1,1.0234276E0,0E0,1.3520763E0,4.5858574E-1,6.7280054E-1,0E0,8.104682E-1,0E0,0E0,0E0,0E0,0E0,4.5746136E-1,0E0,0E0,0E0,0E0,1.8980948E0,1.647775E0,0E0,0E0,1.1151552E-1,1.1029218E0,4.9402E-1,0E0,9.8731995E-2,0E0,0E0,0E0,0E0,0E0,0E0,0E0,0E0,0E0,0E0,0E0,0E0,0E0,0E0,0E0,0E0,0E0,0E0,0E0],"parents":[2147483647,0,0,1,1,2,2,3,3,4,4,5,5,6,6,7,7,8,8,9,9,10,10,11,11,12,12,13,13,14,14,16,16,17,17,18,18,20,20,21,21,22,22,23,23,24,24,26,26,27,27,28,28,30,30,36,36,41,41,42,42,45,45,46,46,47,47,49,49],"right_children":[2,4,6,8,10,12,14,16,18,20,22,24,26,28,30,-1,32,34,36,-1,38,40,42,44,46,-1,48,50,52,-1,54,-1,-1,-1,-1,-1,56,-1,-1,-1,-1,58,60,-1,-1,62,64,66,-1,68,-1,-1,-1,-1,-1,-1,-1,-1,-1,-1,-1,-1,-1,-1,-1,-1,-1,-1,-1],"split_conditions":[1.254609E-2,1.8372677E-2,1.8245067E-2,-2.575484E-2,-1.7223513E-2,2.5507804E-2,-2.8619472E-2,-3.2814354E-2,3.7490137E-2,-1.888596E-2,-2.533947E-2,-3.6783576E-2,-5.140444E-2,7.232277E-2,-5.790212E-2,1.4312838E-1,5.750919E-3,4.2259872E-2,-5.774967E-2,4.5815274E-2,-9.183794E-2,-3.719636E-2,-5.985046E-2,7.82757E-2,1.8472932E-2,-1.6619216E-1,-9.800985E-3,7.714836E-2,-6.595965E-2,-1.6703239E-1,1.033926E-2,-1.1134977E-2,-1.7978668E-1,-1.3151443E-1,1.3407446E-1,-4.8923064E-3,-6.1120734E-2,-2.73188E-2,-2.592563E-1,2.3665372E-3,2.6045018E-1,3.7422802E-2,-2.1055922E-2,-2.4227703E-1,7.3773805E-3,-2.6767801E-2,-1.1208806E-32,-8.722102E-3,-4.869949E-2,-8.3274156E-2,-4.021449E-2,1.0740354E-1,-1.3351446E-1,1.8906306E-1,-5.6508612E-2,4.489404E-2,2.9149833E-1,-1.16334505E-1,1.4352679E-1,7.190118E-2,-1.857928E-1,2.507948E-2,1.7541653E-1,-1.8566747E-1,1.9557321E-2,2.6983994E-1,3.458286E-2,-7.43846E-2,-2.8496444E-1],"split_indices":[136,24,361,124,214,305,46,379,232,149,174,7,9,92,325,0,27,247,187,0,94,283,378,89,102,0,379,352,70,0,149,0,0,0,0,0,9,0,0,0,0,33,175,0,0,325,223,266,0,186,0,0,0,0,0,0,0,0,0,0,0,0,0,0,0,0,0,0,0],"split_type":[0,0,0,0,0,0,0,0,0,0,0,0,0,0,0,0,0,0,0,0,0,0,0,0,0,0,0,0,0,0,0,0,0,0,0,0,0,0,0,0,0,0,0,0,0,0,0,0,0,0,0,0,0,0,0,0,0,0,0,0,0,0,0,0,0,0,0,0,0],"sum_hessian":[1.0553625E2,5.6160797E1,4.9375446E1,2.2205284E1,3.3955513E1,2.444496E1,2.4930487E1,3.7074723E0,1.8497812E1,8.705065E0,2.5250448E1,1.5911912E1,8.533048E0,1.9248692E1,5.681796E0,1.4126781E0,2.294794E0,3.1067135E0,1.5391099E1,1.4906235E0,7.2144413E0,5.09243E0,2.0158018E1,5.269195E0,1.0642717E1,1.2657154E0,7.2673326E0,1.7062122E1,2.1865692E0,2.2358034E0,3.4459927E0,1.0197446E0,1.2750496E0,1.3453438E0,1.7613697E0,1.1104839E0,1.4280615E1,1.0453031E0,6.169138E0,1.4674317E0,3.6249983E0,9.793322E0,1.0364696E1,4.2627387E0,1.0064561E0,2.1926546E0,8.450063E0,5.564968E0,1.7023643E0,1.5895737E1,1.1663859E0,1.1095679E0,1.0770013E0,2.0461802E0,1.3998127E0,1.133491E0,1.3147124E1,2.8304093E0,6.9629126E0,2.3709404E0,7.9937553E0,1.049662E0,1.1429926E0,2.8883936E0,5.561669E0,4.2316365E0,1.3333316E0,1.0613105E0,1.4834426E1],"tree_param":{"num_deleted":"0","num_feature":"384","num_nodes":"69","size_leaf_vector":"0"}},{"base_weights":[-6.829759E-2,1.2881814E-1,-3.3916005E-1,3.7862325E-1,-2.0285942E-1,-8.1781775E-1,-1.838488E-1,-6.563896E-2,5.783371E-1,1.9348148E-1,-5.025021E-1,-9.1380143E-1,-6.453009E-2,3.8889205E-1,-2.781701E-1,-3.6756542E-1,3.3727568E-1,7.181093E-1,-4.035223E-2,4.8911145E-1,-2.5816375E-1,2.4295932E-2,-7.2364265E-1,6.802816E-1,-2.2887756E-1,-6.00478E-1,-7.509834E-2,-5.760095E-1,3.5901988E-1,6.858447E-1,-2.1486521E-1,6.6063344E-3,8.085308E-1,3.0397505E-1,-6.090495E-1,-1.2218777E-1,6.431687E-1,-6.3483196E-1,3.2178175E-1,-4.2357418E-1,3.7963617E-1,-8.29008E-1,8.608765E-2,-7.2688925E-1,2.6868194E-1,9.7283766E-2,-4.9388242E-1,-7.129394E-1,-4.1947044E-2,-3.3374655E-1,3.5142848E-1,1.01460114E-1,9.101375E-1,-1.4433403E-1,6.284033E-1,2.7951165E-3,7.769551E-1,-4.0127225E-2,5.75438E-1,-1.19184084E-1,-9.0578514E-1,-7.588321E-2,-8.227003E-1,5.2650625E-1,-1.6890079E-1,-6.904192E-1,1.7105499E-1],"categories":[],"categories_nodes":[],"categories_segments":[],"categories_sizes":[],"default_left":[1,1,1,1,1,1,1,1,1,1,1,0,0,1,1,1,1,1,1,1,1,1,1,0,0,1,1,1,0,0,0,1,1,1,0,0,1,0,0,0,1,1,0,1,0,1,1,0,0,0,0,0,0,0,0,0,0,0,0,0,0,0,0,0,0,0,0],"id":15,"left_children":[1,3,5,7,9,11,13,15,17,19,21,-1,-1,23,25,27,29,31,33,35,37,39,41,-1,-1,43,45,47,-1,-1,-1,49,51,53,-1,-1,55,-1,-1,-1,57,59,-1,61,-1,63,65,-1,-1,-1,-1,-1,-1,-1,-1,-1,-1,-1,-1,-1,-1,-1,-1,-1,-1,-1,-1],"loss_changes":[5.0889535E0,4.668484E0,2.8290572E0,2.873578E0,3.0019786E0,6.2996197E-1,1.8125268E0,1.438959E0,1.9444065E0,1.628679E0,1.6725962E0,0E0,0E0,1.0338024E0,1.7660384E0,1.2151194E0,1.1388905E0,1.1604948E0,1.1698408E0,7.515867E-1,1.3196816E0,9.8326033E-1,9.2783976E-1,0E0,0E0,1.3547428E0,1.3560473E0,3.765062E-1,0E0,0E0,0E0,4.754174E-1,1.0621586E0,6.4328414E-1,0E0,0E0,5.005119E-1,0E0,0E0,0E0,3.0327696E-1,3.8126802E-1,0E0,5.2903795E-1,0E0,1.6508422E0,8.300563E-1,0E0,0E0,0E0,0E0,0E0,0E0,0E0,0E0,0E0,0E0,0E0,0E0,0E0,0E0,0E0,0E0,0E0,0E0,0E0,0E0],"parents":[2147483647,0,0,1,1,2,2,3,3,4,4,5,5,6,6,7,7,8,8,9,9,10,10,13,13,14,14,15,15,16,16,17,17,18,18,19,19,20,20,21,21,22,22,25,25,26,26,27,27,31,31,32,32,33,33,36,36,40,40,41,41,43,43,45,45,46,46],"right_children":[2,4,6,8,10,12,14,16,18,20,22,-1,-1,24,26,28,30,32,34,36,38,40,42,-1,-1,44,46,48,-1,-1,-1,50,52,54,-1,-1,56,-1,-1,-1,58,60,-1,62,-1,64,66,-1,-1,-1,-1,-1,-1,-1,-1,-1,-1,-1,-1,-1,-1,-1,-1,-1,-1,-1,-1],"split_conditions":[4.2949054E-2,1.254609E-2,-2.2530254E-2,-2.2582276E-2,1.8641379E-2,4.757532E-2,-1.2523702E-1,2.8220966E-2,3.554917E-2,3.8246684E-2,7.5502014E-3,-2.7414045E-1,-1.9359028E-2,-1.4487558E-2,-4.7023952E-2,6.0245097E-2,-7.7994284E-4,-1.10535935E-1,3.983602E-2,-1.1787642E-2,3.3212908E-2,-6.624727E-2,5.5629585E-4,2.0408449E-1,-6.866327E-2,3.9612144E-2,-2.4410568E-2,-1.2203246E-2,1.07705966E-1,2.0575343E-1,-6.445956E-2,-4.0548355E-3,3.1597625E-2,-3.2517683E-2,-1.8271485E-1,-3.665633E-2,-1.8251563E-3,-1.904496E-1,9.653453E-2,-1.2707226E-1,-4.4939682E-2,-6.981853E-2,2.5826296E-2,-3.425774E-2,8.060458E-2,-3.0563107E-2,7.494014E-2,-2.1388182E-1,-1.25841135E-2,-1.0012397E-1,1.0542855E-1,3.0438036E-2,2.7304125E-1,-4.330021E-2,1.88521E-1,8.3853496E-4,2.3308654E-1,-1.20381685E-2,1.7263141E-1,-3.575523E-2,-2.7173555E-1,-2.2764964E-2,-2.4681011E-1,1.5795188E-1,-5.067024E-2,-2.0712577E-1,5.13165E-2],"split_indices":[24,136,214,157,361,228,261,226,230,102,213,0,0,371,325,191,164,265,300,4,305,346,308,0,0,358,43,283,0,0,0,124,247,216,0,0,288,0,0,0,275,21,0,335,0,379,151,0,0,0,0,0,0,0,0,0,0,0,0,0,0,0,0,0,0,0,0],"split_type":[0,0,0,0,0,0,0,0,0,0,0,0,0,0,0,0,0,0,0,0,0,0,0,0,0,0,0,0,0,0,0,0,0,0,0,0,0,0,0,0,0,0,0,0,0,0,0,0,0,0,0,0,0,0,0,0,0,0,0,0,0,0,0,0,0,0,0],"sum_hessian":[9.349607E1,5.4418392E1,3.9077682E1,3.0959501E1,2.345889E1,8.52833E0,3.054935E1,9.80955E0,2.1149952E1,1.025232E1,1.3206572E1,7.3754663E0,1.1528637E0,3.8780258E0,2.6671326E1,5.657673E0,4.151877E0,1.7121275E1,4.028675E0,6.146257E0,4.1060634E0,4.167927E0,9.038645E0,2.5663433E0,1.3116825E0,9.552687E0,1.7118639E1,4.557459E0,1.1002141E0,2.396684E0,1.7551929E0,2.051514E0,1.5069762E1,2.7992883E0,1.229387E0,1.2788091E0,4.867448E0,2.4319184E0,1.674145E0,1.7589391E0,2.4089875E0,7.976857E0,1.0617878E0,8.482652E0,1.0700355E0,1.2670741E1,4.447898E0,3.360829E0,1.1966296E0,1.0486124E0,1.0029017E0,2.1445584E0,1.2925203E1,1.4083213E0,1.390967E0,1.0175934E0,3.8498542E0,1.019159E0,1.3898286E0,1.0277148E0,6.9491425E0,1.3181626E0,7.164489E0,4.475701E0,8.19504E0,3.403575E0,1.044323E0],"tree_param":{"num_deleted":"0","num_feature":"384","num_nodes":"67","size_leaf_vector":"0"}},{"base_weights":[-6.0086805E-2,-3.2041594E-1,1.3063827E-1,1.7003156E-1,-4.7827327E-1,3.3998874E-1,-1.4329372E-1,5.718294E-1,-2.4492994E-1,-7.376305E-1,-1.3479827E-1,5.06761E-1,-2.1143727E-1,8.4704444E-2,-4.7370344E-1,1.0869213E-2,7.0727134E-1,-6.15805E-1,4.1531974E-1,1.23252936E-1,-8.1345344E-1,5.185751E-1,-3.4469783E-1,5.734842E-1,-2.3514584E-1,-5.3560823E-1,3.4969896E-1,-1.5754633E-1,5.356304E-1,1.8875796E-1,-6.2516665E-1,-8.737781E-1,-1.2802231E-1,2.3645706E-2,7.048471E-1,-4.9779546E-1,5.2322596E-1,-1.577759E-1,6.6237813E-1,8.497313E-2,-7.212727E-1,5.556238E-1,-1.4453766E-2,-6.7973024E-1,4.957319E-2,-1.10877976E-1,7.266606E-1,-4.6645995E-2,-7.3152864E-1,-9.1907007E-1,-1.717468E-1,-7.33522E-1,-5.2072112E-3,-4.0051374E-1,1.6355723E-1,7.495813E-1,-3.2206133E-2,4.3893334E-1,-1.274178E-1,1.8943153E-1,8.5273236E-1,-8.211279E-1,-1.3235141E-1],"categories":[],"categories_nodes":[],"categories_segments":[],"categories_sizes":[],"default_left":[1,1,1,1,1,1,1,1,1,1,1,1,1,1,1,0,0,0,0,0,1,1,1,1,0,1,1,1,1,0,1,1,0,0,0,1,0,1,1,0,0,0,0,0,1,0,1,0,1,0,0,0,0,0,0,0,0,0,0,0,0,0,0],"id":16,"left_children":[1,3,5,7,9,11,13,15,17,19,21,23,25,27,29,-1,-1,-1,-1,-1,31,33,35,37,-1,39,41,43,45,-1,47,49,-1,-1,-1,51,-1,53,55,-1,-1,-1,-1,-1,57,-1,59,-1,61,-1,-1,-1,-1,-1,-1,-1,-1,-1,-1,-1,-1,-1,-1],"loss_changes":[4.2334423E0,2.8674004E0,2.8836617E0,1.7240157E0,2.3491058E0,2.711214E0,1.7063086E0,3.818102E-1,1.5715932E0,1.1079149E0,1.9683262E0,1.2256675E0,1.5117404E0,1.6066401E0,1.0393467E0,0E0,0E0,0E0,0E0,0E0,4.8020935E-1,3.1264824E-1,1.6526015E0,1.4376321E0,0E0,6.3853097E-1,2.5332102E-1,1.0977123E0,7.101104E-1,0E0,4.4001675E-1,2.5516033E-1,0E0,0E0,0E0,1.0898087E0,0E0,3.0188057E-1,1.1433344E0,0E0,0E0,0E0,0E0,0E0,6.055812E-1,0E0,1.1392999E-1,0E0,2.3709846E-1,0E0,0E0,0E0,0E0,0E0,0E0,0E0,0E0,0E0,0E0,0E0,0E0,0E0,0E0],"parents":[2147483647,0,0,1,1,2,2,3,3,4,4,5,5,6,6,7,7,8,8,9,9,10,10,11,11,12,12,13,13,14,14,20,20,21,21,22,22,23,23,25,25,26,26,27,27,28,28,30,30,31,31,35,35,37,37,38,38,44,44,46,46,48,48],"right_children":[2,4,6,8,10,12,14,16,18,20,22,24,26,28,30,-1,-1,-1,-1,-1,32,34,36,38,-1,40,42,44,46,-1,48,50,-1,-1,-1,52,-1,54,56,-1,-1,-1,-1,-1,58,-1,60,-1,62,-1,-1,-1,-1,-1,-1,-1,-1,-1,-1,-1,-1,-1,-1],"split_conditions":[-3.0850988E-2,-1.4742811E-3,-1.663595E-3,5.423858E-3,3.5117432E-2,-5.495936E-4,-8.317959E-3,1.3068763E-2,-4.657953E-2,-5.829765E-2,-3.0311113E-2,6.739407E-2,7.243425E-2,1.53783355E-2,-8.164195E-2,3.260764E-3,2.121814E-1,-1.847415E-1,1.24595925E-1,3.6975883E-2,9.8625034E-2,2.016726E-2,6.0427498E-2,-5.3913146E-2,-7.054375E-2,7.461077E-3,-8.579873E-3,1.6798355E-2,3.422782E-2,5.662739E-2,-5.3237175E-4,6.526597E-2,-3.8406696E-2,7.093712E-3,2.1145414E-1,6.004967E-2,1.5696779E-1,3.0208737E-2,3.7330307E-2,2.549194E-2,-2.1638182E-1,1.6668716E-1,-4.33613E-3,-2.0391908E-1,-3.191401E-2,-3.3263393E-2,4.89248E-3,-1.3993799E-2,3.160467E-2,-2.7572104E-1,-5.1524043E-2,-2.2005661E-1,-1.5621635E-3,-1.2015413E-1,4.9067173E-2,2.2487439E-1,-9.66184E-3,1.3168001E-1,-3.822534E-2,5.6829464E-2,2.558197E-1,-2.4633838E-1,-3.9705426E-2],"split_indices":[9,53,2,27,290,345,329,288,345,13,175,102,303,191,195,0,0,0,0,0,303,187,220,7,0,53,178,137,85,0,102,343,0,0,0,80,0,155,54,0,0,0,0,0,379,0,60,0,226,0,0,0,0,0,0,0,0,0,0,0,0,0,0],"split_type":[0,0,0,0,0,0,0,0,0,0,0,0,0,0,0,0,0,0,0,0,0,0,0,0,0,0,0,0,0,0,0,0,0,0,0,0,0,0,0,0,0,0,0,0,0,0,0,0,0,0,0,0,0,0,0,0,0,0,0,0,0,0,0],"sum_hessian":[8.342043E1,3.498621E1,4.8434223E1,8.500099E0,2.648611E1,2.7316584E1,2.1117638E1,4.1264863E0,4.3736134E0,1.4437121E1,1.2048989E1,2.1035612E1,6.2809725E0,1.29353075E1,8.18233E0,1.0126483E0,3.1138377E0,2.8436148E0,1.5299984E0,1.117998E0,1.3319123E1,2.5720742E0,9.476915E0,1.9508163E1,1.5274478E0,4.0099177E0,2.2710547E0,8.837928E0,4.09738E0,1.4768287E0,6.705501E0,1.1989173E1,1.3299503E0,1.0114822E0,1.5605919E0,8.418402E0,1.0585138E0,2.0304427E0,1.747772E1,1.0483038E0,2.9616141E0,1.11483E0,1.1562246E0,1.8619088E0,6.976019E0,1.0302516E0,3.0671284E0,1.2647691E0,5.440732E0,1.097214E1,1.017033E0,5.36289E0,3.0555117E0,1.0163046E0,1.0141381E0,1.5457851E1,2.0198698E0,1.7175742E0,5.258445E0,1.0586171E0,2.0085113E0,4.410737E0,1.0299951E0],"tree_param":{"num_deleted":"0","num_feature":"384","num_nodes":"63","size_leaf_vector":"0"}},{"base_weights":[-5.173221E-2,2.6793022E-2,-6.463031E-1,1.958832E-1,-2.336105E-1,-7.9148865E-1,-4.8534576E-2,4.7778547E-1,-8.302377E-2,9.1595285E-2,-5.3693116E-1,-8.511589E-1,-2.3257571E-1,-1.3924524E-1,6.085005E-1,-3.318832E-1,3.0381262E-1,4.772085E-1,-1.6431183E-1,1.8576069E-1,-6.3598466E-1,2.911572E-1,-4.800404E-1,-1.7207292E-1,6.724992E-1,2.579513E-1,-5.228443E-1,4.758457E-1,-4.47613E-1,6.5430367E-1,-1.388673E-1,-4.994247E-1,7.515324E-2,-7.33971E-1,1.144233E-1,-7.5985126E-2,7.3455536E-1,-2.1568501E-1,5.095002E-1,-6.4754117E-1,2.7890325E-1,-1.4524658E-1,6.399886E-1,7.655045E-1,1.4167418E-1,-5.2235506E-2,-6.3810533E-1,-4.892837E-2,-7.979558E-1],"categories":[],"categories_nodes":[],"categories_segments":[],"categories_sizes":[],"default_left":[1,1,1,1,1,1,0,1,1,1,1,0,0,1,1,1,1,1,1,0,1,0,0,0,1,1,1,1,0,1,0,1,0,1,0,0,0,0,0,0,0,0,0,0,0,0,0,0,0],"id":17,"left_children":[1,3,5,7,9,11,-1,13,15,17,19,-1,-1,21,23,25,27,29,31,-1,33,-1,-1,-1,35,37,39,41,-1,43,-1,45,-1,47,-1,-1,-1,-1,-1,-1,-1,-1,-1,-1,-1,-1,-1,-1,-1],"loss_changes":[3.568399E0,3.0463219E0,7.35121E-1,3.3309512E0,2.740591E0,3.9027214E-2,0E0,1.7757993E0,2.2085326E0,1.4620801E0,1.1391692E0,0E0,0E0,7.9674315E-1,9.89326E-1,1.6893544E0,1.3884604E0,7.290602E-1,7.7357936E-1,0E0,1.0229502E0,0E0,0E0,0E0,8.1599617E-1,5.918219E-1,1.2559421E0,8.9669704E-1,0E0,1.605246E-1,0E0,2.118473E-1,0E0,4.6195555E-1,0E0,0E0,0E0,0E0,0E0,0E0,0E0,0E0,0E0,0E0,0E0,0E0,0E0,0E0,0E0],"parents":[2147483647,0,0,1,1,2,2,3,3,4,4,5,5,7,7,8,8,9,9,10,10,13,13,14,14,15,15,16,16,17,17,18,18,20,20,24,24,25,25,26,26,27,27,29,29,31,31,33,33],"right_children":[2,4,6,8,10,12,-1,14,16,18,20,-1,-1,22,24,26,28,30,32,-1,34,-1,-1,-1,36,38,40,42,-1,44,-1,46,-1,48,-1,-1,-1,-1,-1,-1,-1,-1,-1,-1,-1,-1,-1,-1,-1],"split_conditions":[1.2273125E-2,4.75547E-2,4.9568765E-2,-3.2847248E-2,3.6229327E-2,1.3240384E-2,-1.45603735E-2,-5.8713537E-3,7.478946E-2,-2.8378037E-3,-1.6164245E-1,-2.553477E-1,-6.977272E-2,-2.9078522E-3,-1.9306444E-2,-8.1785664E-2,5.5884674E-2,5.8692522E-2,5.2353553E-3,5.572821E-2,4.3417826E-2,8.734716E-2,-1.4401212E-1,-5.1621877E-2,-1.0449533E-1,-7.691011E-2,2.99333E-2,-3.653057E-2,-1.342839E-1,-3.347607E-2,-4.1660193E-2,3.645216E-3,2.2545973E-2,-4.2489327E-2,3.432699E-2,-2.279554E-2,2.2036661E-1,-6.4705506E-2,1.5285006E-1,-1.9426236E-1,8.3670974E-2,-4.3573976E-2,1.9199659E-1,2.2965135E-1,4.2502254E-2,-1.5670653E-2,-1.9143161E-1,-1.4678511E-2,-2.3938675E-1],"split_indices":[21,24,89,266,188,7,0,92,232,296,69,0,0,324,191,378,102,244,345,0,305,0,0,0,107,369,138,25,0,97,0,316,0,220,0,0,0,0,0,0,0,0,0,0,0,0,0,0,0],"split_type":[0,0,0,0,0,0,0,0,0,0,0,0,0,0,0,0,0,0,0,0,0,0,0,0,0,0,0,0,0,0,0,0,0,0,0,0,0,0,0,0,0,0,0,0,0,0,0,0,0],"sum_hessian":[7.505852E1,6.7145515E1,7.912999E0,4.0860783E1,2.6284733E1,6.105925E0,1.807074E0,1.9966646E1,2.0894138E1,1.3021613E1,1.3263121E1,5.0444865E0,1.0614387E0,3.479003E0,1.6487642E1,1.2801039E1,8.093101E0,4.849452E0,8.172161E0,1.4932263E0,1.1769895E1,1.6017494E0,1.8772535E0,1.121412E0,1.536623E1,3.0449846E0,9.756054E0,6.8838406E0,1.2092594E0,3.718495E0,1.130957E0,2.9534502E0,5.2187104E0,1.0429891E1,1.3400042E0,1.1592773E0,1.4206953E1,1.105685E0,1.9392996E0,8.609365E0,1.1466882E0,1.4630393E0,5.4208016E0,2.6502962E0,1.0681987E0,1.024976E0,1.9284742E0,1.0417079E0,9.388183E0],"tree_param":{"num_deleted":"0","num_feature":"384","num_nodes":"49","size_leaf_vector":"0"}},{"base_weights":[-4.784182E-2,1.9623774E-1,-2.1929087E-1,3.3040068E-1,-2.6946506E-1,-6.375172E-2,-6.0527694E-1,-5.3709483E-1,4.2122713E-1,2.9856792E-1,-4.4680947E-1,1.5881646E-1,-3.136599E-1,1.1484518E-1,-7.1692425E-1,-1.9201963E-1,5.253152E-1,2.1490604E-1,-6.5894157E-1,-4.5127444E-2,5.41269E-1,3.855109E-2,-6.298295E-1,-6.4141005E-2,-7.825867E-1,-4.5547062E-1,2.756342E-1,5.9074366E-1,-2.520276E-1,4.8914436E-1,-1.8557268E-1,6.992101E-1,-8.264944E-2,-4.5492572E-1,4.002454E-1,1.3070346E-2,-7.7097166E-1,-8.389144E-1,-1.6137347E-1,7.2875696E-1,9.5557265E-2,2.485879E-3,-5.102759E-1,-6.6324973E-1,6.4866185E-2,6.8476754E-1,-6.7154616E-2],"categories":[],"categories_nodes":[],"categories_segments":[],"categories_sizes":[],"default_left":[1,1,1,1,1,1,1,0,1,0,1,1,1,0,1,1,1,0,0,1,1,1,1,0,1,0,0,1,0,0,1,0,0,1,1,0,0,0,0,0,0,0,0,0,0,0,0],"id":18,"left_children":[1,3,5,7,9,11,13,-1,15,-1,17,19,21,-1,23,25,27,-1,-1,29,31,33,35,-1,37,-1,-1,39,-1,-1,41,-1,-1,43,45,-1,-1,-1,-1,-1,-1,-1,-1,-1,-1,-1,-1],"loss_changes":[2.944428E0,1.9093804E0,2.4347835E0,2.0437968E0,8.4530973E-1,1.745316E0,1.0242491E0,0E0,1.4695556E0,0E0,9.5381176E-1,1.3338091E0,1.6607575E0,0E0,3.904791E-1,5.9909546E-1,1.0948062E0,0E0,0E0,9.815832E-1,6.4070773E-1,1.5910454E0,7.1800375E-1,0E0,1.8836308E-1,0E0,0E0,1.1231813E0,0E0,0E0,6.195699E-1,0E0,0E0,4.5523685E-1,7.225025E-1,0E0,0E0,0E0,0E0,0E0,0E0,0E0,0E0,0E0,0E0,0E0,0E0],"parents":[2147483647,0,0,1,1,2,2,3,3,4,4,5,5,6,6,8,8,10,10,11,11,12,12,14,14,15,15,16,16,19,19,20,20,21,21,22,22,24,24,27,27,30,30,33,33,34,34],"right_children":[2,4,6,8,10,12,14,-1,16,-1,18,20,22,-1,24,26,28,-1,-1,30,32,34,36,-1,38,-1,-1,40,-1,-1,42,-1,-1,44,46,-1,-1,-1,-1,-1,-1,-1,-1,-1,-1,-1,-1],"split_conditions":[2.8543757E-2,3.8717717E-2,-3.4444325E-2,-3.0949991E-2,-2.960723E-2,-2.8047757E-3,-7.93152E-2,-1.6112846E-1,-3.520329E-2,8.957038E-2,-3.1507995E-2,-6.147067E-2,1.0764042E-2,3.4453556E-2,-8.633264E-2,8.192851E-3,2.7115025E-2,6.447181E-2,-1.9768248E-1,-5.890906E-2,3.864125E-2,4.8328467E-2,-1.9068554E-2,-1.9242302E-2,6.45141E-2,-1.3664119E-1,8.269026E-2,4.513298E-2,-7.560828E-2,1.4674331E-1,-1.15604565E-1,2.0976304E-1,-2.4794834E-2,3.1510163E-2,2.5692586E-2,3.921104E-3,-2.312915E-1,-2.5167432E-1,-4.8412044E-2,2.186271E-1,2.866718E-2,7.457637E-4,-1.5308277E-1,-1.9897492E-1,1.9459857E-2,2.0543027E-1,-2.0146385E-2],"split_indices":[102,136,378,92,27,13,299,0,4,0,329,298,335,0,359,294,123,0,0,123,324,172,149,0,257,0,0,361,0,0,69,0,0,82,313,0,0,0,0,0,0,0,0,0,0,0,0],"split_type":[0,0,0,0,0,0,0,0,0,0,0,0,0,0,0,0,0,0,0,0,0,0,0,0,0,0,0,0,0,0,0,0,0,0,0,0,0,0,0,0,0,0,0,0,0,0,0],"sum_hessian":[6.833305E1,2.8134882E1,4.0198174E1,2.2067932E1,6.066951E0,2.9482788E1,1.0715386E1,1.6258456E0,2.0442085E1,1.2808495E0,4.7861013E0,1.5787207E1,1.36955805E1,1.4344678E0,9.280919E0,2.8436465E0,1.759844E1,1.1586822E0,3.6274192E0,1.0871797E1,4.9154105E0,6.893894E0,6.801687E0,1.0289036E0,8.252015E0,1.8356128E0,1.0080338E0,1.6453598E1,1.1448406E0,1.746203E0,9.125593E0,3.8261652E0,1.0892454E0,2.806749E0,4.087145E0,1.3877779E0,5.413909E0,7.24467E0,1.0073456E0,1.2498469E1,3.9551291E0,6.407121E0,2.718472E0,1.8066733E0,1.0000758E0,2.251515E0,1.8356299E0],"tree_param":{"num_deleted":"0","num_feature":"384","num_nodes":"47","size_leaf_vector":"0"}},{"base_weights":[-4.582558E-2,-2.468192E-1,1.523253E-1,-4.7547448E-1,4.7138657E-2,-6.9647618E-3,5.3285056E-1,-5.816501E-1,1.4290684E-1,-2.8074646E-1,3.43332E-1,-2.9642603E-1,1.4174278E-1,-1.18735924E-1,6.8683785E-1,-6.7974377E-1,2.610045E-1,4.649713E-1,-2.5228867E-1,2.536821E-1,-4.307245E-1,4.913966E-1,-2.62782E-1,9.018372E-2,-5.068204E-1,4.7412795E-1,-5.7019975E-2,1.0654687E-1,7.61758E-1,-7.572226E-1,-2.9322954E-3,-6.0619456E-1,7.548281E-2,6.5718883E-1,3.62607E-2,3.629963E-1,-1.6239709E-1,-6.450794E-1,5.3507857E-2,-1.7482851E-1,6.346889E-1,6.458662E-2,-4.7252387E-1,-8.157027E-1,-4.6549574E-2,-1.2551641E-1,-7.0729965E-1,1.9416733E-1,7.293081E-1,