{"learner":{"attributes":{"best_iteration":"99","best_ntree_limit":"100","scikit_learn":"{\"use_label_encoder\": false, \"n_estimators\": 100, \"objective\": \"binary:logistic\", \"max_depth\": null, \"max_leaves\": null, \"max_bin\": null, \"grow_policy\": null, \"learning_rate\": null, \"verbosity\": null, \"booster\": null, \"tree_method\": null, \"gamma\": null, \"min_child_weight\": null, \"max_delta_step\": null, \"subsample\": null, \"sampling_method\": null, \"colsample_bytree\": null, \"colsample_bylevel\": null, \"colsample_bynode\": null, \"reg_alpha\": null, \"reg_lambda\": null, \"scale_pos_weight\": null, \"base_score\": null, \"missing\": NaN, \"num_parallel_tree\": null, \"random_state\": null, \"n_jobs\": null, \"monotone_constraints\": null, \"interaction_constraints\": null, \"importance_type\": null, \"gpu_id\": null, \"validate_parameters\": null, \"predictor\": null, \"enable_categorical\": false, \"max_cat_to_onehot\": null, \"eval_metric\": null, \"early_stopping_rounds\": null, \"callbacks\": null, \"classes_\": [0, 1], \"n_classes_\": 2, \"_estimator_type\": \"classifier\"}"},"feature_names":[],"feature_types":[],"gradient_booster":{"model":{"gbtree_model_param":{"num_parallel_tree":"1","num_trees":"100","size_leaf_vector":"0"},"tree_info":[0,0,0,0,0,0,0,0,0,0,0,0,0,0,0,0,0,0,0,0,0,0,0,0,0,0,0,0,0,0,0,0,0,0,0,0,0,0,0,0,0,0,0,0,0,0,0,0,0,0,0,0,0,0,0,0,0,0,0,0,0,0,0,0,0,0,0,0,0,0,0,0,0,0,0,0,0,0,0,0,0,0,0,0,0,0,0,0,0,0,0,0,0,0,0,0,0,0,0,0],"trees":[{"base_weights":[-6.419189E-1,1.0252427E0,-1.3344103E0,-7.9802954E-1,1.465704E0,-1.5253023E0,4.1295546E-1,-1.5851852E0,7.222222E-1,1.5974523E0,-7.2E-1,-1.7553873E0,-7.5384617E-1,-1.3684211E0,1.1771429E0,2.2222222E-1,-1.8016529E0,1.4074074E0,-1.0909091E0,2.1686748E-1,1.7507082E0,9.3333334E-1,-1.2820513E0,-1.880427E0,-1.1772152E0,-1.3837535E0,6.1077845E-1,1.1111112E0,-1.6056339E0,-6.666667E-1,1.6083916E0,1.3333334E0,-1.2E0,-1.8956522E0,-0E0,1.75E0,-8E-1,-1.5555556E0,5E-1,-5.714286E-1,1.6129032E0,1.8034682E0,-6.666667E-1,-0E0,1.2727273E0,1E0,-1.6571429E0,-1.8912733E0,1.8181819E-1,8E-1,-1.3655173E0,7.586207E-1,-1.5542169E0,1.1317829E0,-1.0476191E0,-1.761194E0,5E-1,-1.3846154E0,8.5714287E-1,-2.5E-1,1.7862595E0,-1.927928E0,-5E-1,1.8181819E0,5E-1,4.827586E-1,-1.483871E0,-3.1578946E-1,1.8522896E0,6.666667E-1,-1.3846154E0,-1.8995696E0,5E-1,1.4782609E0,-9.0909094E-1,-1.4820144E0,1E0,-1.1111112E0,1.3333334E0,-1.7697842E0,-4.1379312E-1,-1E0,1.4690266E0,1.1111112E0,-1.4594594E0,-1.8730159E0,-0E0,-1.6363636E0,-0E0,-0E0,1.2E0,-1.2727273E0,1.1111112E0,1.8730159E0,-2.2222222E-1],"categories":[],"categories_nodes":[],"categories_segments":[],"categories_sizes":[],"default_left":[1,1,1,1,1,1,1,1,1,1,1,1,1,1,1,1,1,1,1,1,1,1,1,1,1,1,1,0,1,1,1,0,0,1,0,1,0,0,0,1,0,1,1,0,0,0,0,1,0,1,1,1,1,1,1,1,0,1,1,1,1,0,0,0,0,0,0,0,0,0,0,0,0,0,0,0,0,0,0,0,0,0,0,0,0,0,0,0,0,0,0,0,0,0,0],"id":0,"left_children":[1,3,5,7,9,11,13,15,17,19,21,23,25,27,29,31,33,35,37,39,41,43,45,47,49,51,53,-1,55,57,59,-1,-1,61,-1,63,-1,-1,-1,65,-1,67,69,-1,-1,-1,-1,71,-1,73,75,77,79,81,83,85,-1,87,89,91,93,-1,-1,-1,-1,-1,-1,-1,-1,-1,-1,-1,-1,-1,-1,-1,-1,-1,-1,-1,-1,-1,-1,-1,-1,-1,-1,-1,-1,-1,-1,-1,-1,-1,-1],"loss_changes":[1.01212854E3,2.0796298E2,2.0710242E2,6.1876106E1,6.0974426E1,9.776636E1,8.567144E1,1.3604897E1,2.3897305E1,4.1143433E1,1.2812307E1,2.8818726E1,1.1259148E2,1.2959393E1,3.5859665E1,8.711111E0,5.1229553E0,1.1609259E1,4.843435E0,2.3756815E1,2.3713257E1,1.1878788E0,1.0002932E1,8.200439E0,3.0505196E1,3.3772827E1,3.7259033E1,0E0,6.69466E0,1.1032967E1,1.2263664E1,0E0,0E0,3.3110046E-1,0E0,1.1363602E-1,0E0,0E0,0E0,1.4182743E1,0E0,1.8484375E1,5.230769E0,0E0,0E0,0E0,0E0,7.883423E0,0E0,1.0037944E1,2.1461273E1,9.272031E0,1.9672241E1,2.4654522E1,1.0956671E1,3.2987442E0,0E0,2.2657347E0,1.0285714E0,6.982323E0,6.122864E0,0E0,0E0,0E0,0E0,0E0,0E0,0E0,0E0,0E0,0E0,0E0,0E0,0E0,0E0,0E0,0E0,0E0,0E0,0E0,0E0,0E0,0E0,0E0,0E0,0E0,0E0,0E0,0E0,0E0,0E0,0E0,0E0,0E0,0E0],"parents":[2147483647,0,0,1,1,2,2,3,3,4,4,5,5,6,6,7,7,8,8,9,9,10,10,11,11,12,12,13,13,14,14,15,15,16,16,17,17,18,18,19,19,20,20,21,21,22,22,23,23,24,24,25,25,26,26,28,28,29,29,30,30,33,33,35,35,39,39,41,41,42,42,47,47,49,49,50,50,51,51,52,52,53,53,54,54,55,55,57,57,58,58,59,59,60,60],"right_children":[2,4,6,8,10,12,14,16,18,20,22,24,26,28,30,32,34,36,38,40,42,44,46,48,50,52,54,-1,56,58,60,-1,-1,62,-1,64,-1,-1,-1,66,-1,68,70,-1,-1,-1,-1,72,-1,74,76,78,80,82,84,86,-1,88,90,92,94,-1,-1,-1,-1,-1,-1,-1,-1,-1,-1,-1,-1,-1,-1,-1,-1,-1,-1,-1,-1,-1,-1,-1,-1,-1,-1,-1,-1,-1,-1,-1,-1,-1,-1],"split_conditions":[1.370877E-2,4.821503E-4,9.576228E-2,1.2137497E-2,7.336497E-2,1.3811868E-2,-2.2571992E-2,-5.2122343E-2,3.2812178E-2,-5.379233E-2,-4.0389217E-2,-1.4866076E-2,5.9880145E-2,-8.053833E-2,-6.9197463E-3,-2.1486457E-2,3.1917956E-2,5.0485223E-3,-2.665174E-3,5.0679296E-2,6.2050976E-2,-8.93525E-2,-4.7000494E-2,4.337076E-2,-1.8262083E-2,-3.845714E-2,6.0426723E-2,3.3333337E-1,5.200233E-2,6.0705315E-2,7.139815E-3,4.0000004E-1,-3.6E-1,2.7449954E-2,-0E0,4.9815197E-2,-2.4000001E-1,-4.666667E-1,1.5E-1,-2.3176411E-2,4.8387098E-1,-7.971359E-2,1.0783345E-3,-0E0,3.818182E-1,3E-1,-4.9714288E-1,8.9142695E-2,5.454546E-2,4.074575E-2,2.248023E-2,8.2147615E-3,2.6048692E-2,-1.1714207E-1,-1.2449406E-1,5.7808E-2,1.5E-1,1.3899846E-2,-7.0689996E-3,2.7148886E-2,6.5032475E-2,-5.7837844E-1,-1.5E-1,5.4545456E-1,1.5E-1,1.4482759E-1,-4.451613E-1,-9.4736844E-2,5.556869E-1,2.0000002E-1,-4.1538465E-1,-5.698709E-1,1.5E-1,4.434783E-1,-2.7272728E-1,-4.4460434E-1,3E-1,-3.3333337E-1,4.0000004E-1,-5.309353E-1,-1.2413794E-1,-3E-1,4.4070798E-1,3.3333337E-1,-4.3783784E-1,-5.619048E-1,-0E0,-4.909091E-1,-0E0,-0E0,3.6E-1,-3.818182E-1,3.3333337E-1,5.619048E-1,-6.666667E-2],"split_indices":[102,92,303,57,53,57,124,345,313,344,171,9,33,110,226,369,380,21,101,89,128,12,320,344,300,3,102,0,76,33,89,0,0,0,0,3,0,0,0,296,0,231,166,0,0,0,0,262,0,73,282,76,4,265,298,4,0,40,7,252,34,0,0,0,0,0,0,0,0,0,0,0,0,0,0,0,0,0,0,0,0,0,0,0,0,0,0,0,0,0,0,0,0,0,0],"split_type":[0,0,0,0,0,0,0,0,0,0,0,0,0,0,0,0,0,0,0,0,0,0,0,0,0,0,0,0,0,0,0,0,0,0,0,0,0,0,0,0,0,0,0,0,0,0,0,0,0,0,0,0,0,0,0,0,0,0,0,0,0,0,0,0,0,0,0,0,0,0,0,0,0,0,0,0,0,0,0,0,0,0,0,0,0,0,0,0,0,0,0,0,0,0,0],"sum_hessian":[8.745E2,2.565E2,6.18E2,4.975E1,2.0675E2,5.5725E2,6.075E1,3.275E1,1.7E1,1.9525E2,1.15E1,4.2825E2,1.29E2,1.8E1,4.275E1,3.5E0,2.925E1,1.25E1,4.5E0,1.975E1,1.755E2,2.75E0,8.75E0,3.5025E2,7.8E1,8.825E1,4.075E1,1.25E0,1.675E1,8E0,3.475E1,2E0,1.5E0,2.775E1,1.5E0,1.1E1,1.5E0,3.5E0,1E0,1.3E1,6.75E0,1.72E2,3.5E0,1E0,1.75E0,1E0,7.75E0,3.485E2,1.75E0,6.5E0,7.15E1,6.25E0,8.2E1,3.125E1,9.5E0,1.575E1,1E0,5.5E0,2.5E0,3E0,3.175E1,2.675E1,1E0,1E1,1E0,6.25E0,6.75E0,3.75E0,1.6825E2,1.25E0,2.25E0,3.475E2,1E0,4.75E0,1.75E0,6.85E1,3E0,1.25E0,5E0,6.85E1,1.35E1,4E0,2.725E1,1.25E0,8.25E0,1.475E1,1E0,4.5E0,1E0,1E0,1.5E0,1.75E0,1.25E0,3.05E1,1.25E0],"tree_param":{"num_deleted":"0","num_feature":"384","num_nodes":"95","size_leaf_vector":"0"}},{"base_weights":[-4.869368E-1,7.503109E-1,-1.0268215E0,1.0842673E0,-7.0438814E-1,-1.2527444E0,-1.2829007E-1,1.1876646E-1,1.3047174E0,1.2349757E0,-1.024647E0,4.1816238E-1,-1.3041488E0,-8.14948E-1,8.388822E-1,1.0979478E0,-7.966819E-1,-1.7320733E-1,1.4140327E0,1.5573572E-1,1.4197636E0,2.4263002E-1,-1.2970406E0,-1.2553476E0,9.7918916E-1,-1.4211898E0,-8.068426E-1,-9.8612845E-1,1.3030927E0,-1.55198E-1,1.4776845E0,1.3231002E0,-6.3688225E-1,-1.4009066E0,9.4279116E-1,-1.1717142E0,6.528016E-1,-4.0836406E-1,1.4714187E0,-9.2736745E-1,9.4864196E-1,3.3118632E-1,-1.4969362E0,-1.0299661E0,1.3203273E0,6.557313E-1,-1.432629E0,3.3197817E-1,-1.172871E0,4.662722E-1,-1.1964693E0,8.3994704E-1,-9.840521E-1,-1.9996747E-1,1.553989E0,-2.886211E-1,1.5107055E0,2.0049693E-1,-1.7026603E0,1.2707162E0,-2.0408976E-1,-1.6194914E-1,-1.3827249E0,1.3886224E0,-7.9188657E-1,9.174569E-1,-1.0843843E0,1.4991246E0,-8.2402605E-1,1.3218188E0,-2.3406728E-1,-7.4799085E-1,1.2164721E0,-1.5669786E0,1.24142416E-1,-2.667019E-1,1.6135589E0,-1.4425238E0,8.265827E-1,-5.9280616E-1,1.2065889E0,-1.4321488E0,-3.6115286E-1,-5.1328385E-1,1.3049207E0,3.067024E-1,-1.3493828E0,1.4534274E0,1.789076E-1,-1.358968E0,5.755613E-1,1.3946405E-1,1.6095192E0],"categories":[],"categories_nodes":[],"categories_segments":[],"categories_sizes":[],"default_left":[1,1,1,1,1,1,1,1,1,1,1,1,1,1,1,1,1,1,1,0,0,1,1,0,1,1,1,1,0,1,1,1,0,1,1,1,1,1,1,0,1,1,1,0,1,0,1,1,1,1,1,1,1,0,1,0,0,0,0,0,0,0,0,0,0,0,0,0,0,0,0,0,0,0,0,0,0,0,0,0,0,0,0,0,0,0,0,0,0,0,0,0,0],"id":1,"left_children":[1,3,5,7,9,11,13,15,17,19,21,23,25,27,29,31,33,35,37,-1,-1,39,41,-1,43,45,47,49,-1,51,53,55,-1,57,59,61,63,65,67,-1,69,71,73,-1,75,-1,77,79,81,83,85,87,89,-1,91,-1,-1,-1,-1,-1,-1,-1,-1,-1,-1,-1,-1,-1,-1,-1,-1,-1,-1,-1,-1,-1,-1,-1,-1,-1,-1,-1,-1,-1,-1,-1,-1,-1,-1,-1,-1,-1,-1],"loss_changes":[5.4697406E2,1.2172604E2,1.15490295E2,4.3030777E1,3.0516157E1,3.9637573E1,7.744192E1,3.5668755E1,2.6915558E1,1.2004957E0,1.4456394E1,1.4693926E1,2.4567932E1,2.597548E1,3.1015461E1,8.332634E0,2.301432E1,1.08768835E1,1.6687592E1,0E0,0E0,7.56246E0,1.1521809E1,0E0,9.1065E0,9.404785E0,3.64379E1,1.9980309E1,0E0,1.721682E1,4.10112E0,5.666273E0,0E0,7.93836E0,2.4854064E0,1.0349712E0,8.914955E0,5.90528E0,1.0733154E1,0E0,2.7544627E0,5.231173E0,3.6410065E0,0E0,5.1305714E0,0E0,9.120911E0,1.83592E1,1.3302902E1,7.8678865E0,1.3242973E1,3.6206293E0,7.39063E0,0E0,2.0090942E0,0E0,0E0,0E0,0E0,0E0,0E0,0E0,0E0,0E0,0E0,0E0,0E0,0E0,0E0,0E0,0E0,0E0,0E0,0E0,0E0,0E0,0E0,0E0,0E0,0E0,0E0,0E0,0E0,0E0,0E0,0E0,0E0,0E0,0E0,0E0,0E0,0E0,0E0],"parents":[2147483647,0,0,1,1,2,2,3,3,4,4,5,5,6,6,7,7,8,8,9,9,10,10,11,11,12,12,13,13,14,14,15,15,16,16,17,17,18,18,21,21,22,22,24,24,25,25,26,26,27,27,29,29,30,30,31,31,33,33,34,34,35,35,36,36,37,37,38,38,40,40,41,41,42,42,44,44,46,46,47,47,48,48,49,49,50,50,51,51,52,52,54,54],"right_children":[2,4,6,8,10,12,14,16,18,20,22,24,26,28,30,32,34,36,38,-1,-1,40,42,-1,44,46,48,50,-1,52,54,56,-1,58,60,62,64,66,68,-1,70,72,74,-1,76,-1,78,80,82,84,86,88,90,-1,92,-1,-1,-1,-1,-1,-1,-1,-1,-1,-1,-1,-1,-1,-1,-1,-1,-1,-1,-1,-1,-1,-1,-1,-1,-1,-1,-1,-1,-1,-1,-1,-1,-1,-1,-1,-1,-1,-1],"split_conditions":[1.5800253E-2,5.4830957E-2,8.050895E-2,4.1894317E-2,-7.949343E-2,-8.981126E-3,-4.111211E-2,-5.5361032E-2,-1.6500948E-2,2.9915556E-2,1.7918278E-3,-1.16526205E-2,-1.3037683E-2,7.627132E-2,-1.5692833E-3,3.9056893E-2,-5.3085588E-2,-3.9117403E-2,-7.39115E-2,4.6720717E-2,4.259291E-1,2.160752E-3,-4.740212E-2,-3.766043E-1,-3.157667E-2,-1.1043394E-1,1.9520009E-2,-6.5042496E-2,3.9092782E-1,1.2626885E-3,-8.0329426E-2,-8.157117E-2,-1.9106469E-1,4.956962E-3,4.8031464E-2,1.17148645E-2,-5.776868E-3,-3.8944222E-2,6.097708E-2,-2.7821025E-1,-2.0333514E-2,-7.562786E-4,3.782025E-2,-3.0898985E-1,-7.7293605E-2,1.9671941E-1,5.190011E-2,-4.1117493E-2,-1.6112566E-2,-2.1327514E-2,-6.278905E-2,7.088384E-2,1.07257664E-1,-5.9990246E-2,-4.3309435E-2,-8.6586334E-2,4.5321167E-1,6.014908E-2,-5.107981E-1,3.812149E-1,-6.122693E-2,-4.8584744E-2,-4.1481748E-1,4.1658673E-1,-2.3756598E-1,2.7523708E-1,-3.253153E-1,4.497374E-1,-2.4720782E-1,3.9654568E-1,-7.022019E-2,-2.2439726E-1,3.6494166E-1,-4.7009358E-1,3.7242725E-2,-8.001058E-2,4.8406768E-1,-4.3275717E-1,2.4797481E-1,-1.7784186E-1,3.6197668E-1,-4.2964467E-1,-1.0834586E-1,-1.5398516E-1,3.914762E-1,9.201072E-2,-4.0481484E-1,4.3602824E-1,5.3672284E-2,-4.0769044E-1,1.726684E-1,4.1839216E-2,4.828558E-1],"split_indices":[102,53,303,303,186,160,325,113,57,16,149,180,9,80,124,132,271,9,9,0,0,305,379,0,31,41,53,333,0,3,86,258,0,153,24,32,333,62,178,0,336,142,7,0,323,0,292,96,142,187,379,213,177,0,291,0,0,0,0,0,0,0,0,0,0,0,0,0,0,0,0,0,0,0,0,0,0,0,0,0,0,0,0,0,0,0,0,0,0,0,0,0,0],"split_type":[0,0,0,0,0,0,0,0,0,0,0,0,0,0,0,0,0,0,0,0,0,0,0,0,0,0,0,0,0,0,0,0,0,0,0,0,0,0,0,0,0,0,0,0,0,0,0,0,0,0,0,0,0,0,0,0,0,0,0,0,0,0,0,0,0,0,0,0,0,0,0,0,0,0,0,0,0,0,0,0,0,0,0,0,0,0,0,0,0,0,0,0,0],"sum_hessian":[8.167056E2,2.47993E2,5.687126E2,2.0189781E2,4.609519E1,4.541331E2,1.1457951E2,3.7815742E1,1.6408206E2,6.128312E0,3.9966877E1,1.3341182E1,4.407919E2,6.7099E1,4.7480515E1,1.817551E1,1.9640234E1,1.1260287E1,1.5282178E2,1.1652921E0,4.96302E0,7.0901446E0,3.287673E1,3.0388577E0,1.0302324E1,3.5531155E2,8.548036E1,6.257601E1,4.5229907E0,1.8871084E1,2.8609428E1,1.6297672E1,1.8778379E0,1.4721277E1,4.9189568E0,4.9083667E0,6.351921E0,4.4786386E0,1.4834314E2,2.5502918E0,4.5398526E0,3.5230815E0,2.9353651E1,1.20227E0,9.100054E0,1.6377425E0,3.536738E2,2.0814236E1,6.466612E1,7.762098E0,5.481391E1,8.569239E0,1.03018465E1,1.1741261E0,2.7435303E1,1.643122E0,1.4654551E1,2.3873262E0,1.2333951E1,3.7412534E0,1.1777035E0,1.1539198E0,3.7544467E0,4.234154E0,2.1177669E0,1.3918254E0,3.0868134E0,1.4691678E2,1.4263643E0,3.3615675E0,1.1782854E0,1.657567E0,1.8655144E0,2.8169882E1,1.1837703E0,1.4332868E0,7.666767E0,3.5249146E2,1.1823341E0,1.02735405E1,1.0540694E1,4.843177E1,1.6234354E1,3.759223E0,4.002875E0,4.968341E0,4.9845573E1,3.822786E0,4.7464523E0,8.409044E0,1.8928019E0,1.1689922E0,2.626631E1],"tree_param":{"num_deleted":"0","num_feature":"384","num_nodes":"93","size_leaf_vector":"0"}},{"base_weights":[-3.9889815E-1,5.932028E-1,-8.564075E-1,-4.5557103E-1,9.724246E-1,-1.0598966E0,-1.2109629E-1,-1.0426689E0,4.3195066E-1,1.0649819E0,-5.014088E-1,-1.1706512E0,-2.6618713E-1,-6.9558585E-1,5.9084857E-1,-1.1810112E0,3.1653032E-1,1.0215104E0,-4.2823815E-1,1.1446261E0,-3.2463136E-1,9.158621E-1,-9.379197E-1,-2.1258539E-1,-1.2253067E0,3.1817088E-1,-1.1218336E0,-9.7288936E-1,4.2961836E-1,-9.9508524E-1,1.0015937E0,-1.2711155E0,6.1411583E-1,9.8795533E-1,-5.826181E-1,-7.079882E-1,1.2117331E0,1.0715865E0,-9.887179E-1,-8.4156483E-1,1.1801854E0,-1.0557932E0,1.0576167E0,-1.1761265E0,3.5076562E-1,3.426136E-1,-1.1448115E0,-1.2529145E0,1.8413137E-1,1.0307058E0,-7.1421987E-1,5.516133E-1,-1.2635219E0,-1.0969206E0,6.601953E-1,1.2643442E0,-9.3404824E-1,5.791479E-1,-1.2782413E0,-4.6825428E-2,1.3559464E0,2.6294538E-1,-1.3411782E0,1.3437827E0,-2.1334434E-1,-1.3019834E0,4.9689493E-1,-6.8842953E-1,1.213175E0,3.8976422E-1,-1.4166505E0,-1.3336093E0,-9.8299995E-2,-1.0023317E0,6.9212335E-1,3.7235716E-1,-1.2689117E0,1.1436908E0,-8.634986E-1,-3.8772085E-1,1.4077202E0,8.992414E-1,-9.95013E-1,-1.3395228E0,1.066234E-3,-1.1896957E0,7.391992E-1,-3.9535993E-1,1.145006E0,-7.4159116E-1,1.664207E0,2.631628E-2,-1.1828088E0,9.4566816E-1,-9.2059064E-1,-5.4138786E-1,1.4685035E0],"categories":[],"categories_nodes":[],"categories_segments":[],"categories_sizes":[],"default_left":[1,1,1,1,1,1,1,1,1,1,1,1,1,1,1,1,1,1,1,1,1,0,1,1,1,1,1,1,1,1,1,1,0,0,0,0,1,0,1,0,1,1,0,1,0,1,0,1,1,1,1,0,1,1,1,1,1,0,0,1,1,0,0,0,0,0,0,0,0,0,0,0,0,0,0,0,0,0,0,0,0,0,0,0,0,0,0,0,0,0,0,0,0,0,0,0,0],"id":2,"left_children":[1,3,5,7,9,11,13,15,17,19,21,23,25,27,29,31,33,35,37,39,41,-1,43,45,47,49,51,53,55,57,59,61,-1,-1,-1,-1,63,-1,65,-1,67,69,-1,71,-1,73,-1,75,77,79,81,-1,83,85,87,89,91,-1,-1,93,95,-1,-1,-1,-1,-1,-1,-1,-1,-1,-1,-1,-1,-1,-1,-1,-1,-1,-1,-1,-1,-1,-1,-1,-1,-1,-1,-1,-1,-1,-1,-1,-1,-1,-1,-1,-1],"loss_changes":[3.2550717E2,9.055532E1,7.325641E1,3.215718E1,2.3277374E1,3.344574E1,4.435278E1,7.315426E0,1.3082159E1,1.7768707E1,7.3743534E0,1.7370087E1,2.4516064E1,1.911345E1,3.2602585E1,6.234394E0,3.110567E0,5.8221807E0,1.0175404E1,1.1509064E1,1.0515594E1,0E0,3.0358434E0,1.0423277E1,1.2616791E1,2.2428982E1,5.398466E0,1.0523022E1,1.5455599E1,5.4129705E0,1.4565849E1,3.8384476E0,0E0,0E0,0E0,0E0,2.9142742E0,0E0,4.5628977E0,0E0,9.877823E0,3.9860864E0,0E0,1.132143E0,0E0,6.765406E0,0E0,8.5928955E0,8.011507E0,1.0095037E1,6.617938E0,0E0,1.7875919E0,8.602489E0,2.519663E0,7.814372E0,1.3060708E0,0E0,0E0,1.0260268E1,7.032799E0,0E0,0E0,0E0,0E0,0E0,0E0,0E0,0E0,0E0,0E0,0E0,0E0,0E0,0E0,0E0,0E0,0E0,0E0,0E0,0E0,0E0,0E0,0E0,0E0,0E0,0E0,0E0,0E0,0E0,0E0,0E0,0E0,0E0,0E0,0E0,0E0],"parents":[2147483647,0,0,1,1,2,2,3,3,4,4,5,5,6,6,7,7,8,8,9,9,10,10,11,11,12,12,13,13,14,14,15,15,16,16,17,17,18,18,19,19,20,20,22,22,23,23,24,24,25,25,26,26,27,27,28,28,29,29,30,30,31,31,36,36,38,38,40,40,41,41,43,43,45,45,47,47,48,48,49,49,50,50,52,52,53,53,54,54,55,55,56,56,59,59,60,60],"right_children":[2,4,6,8,10,12,14,16,18,20,22,24,26,28,30,32,34,36,38,40,42,-1,44,46,48,50,52,54,56,58,60,62,-1,-1,-1,-1,64,-1,66,-1,68,70,-1,72,-1,74,-1,76,78,80,82,-1,84,86,88,90,92,-1,-1,94,96,-1,-1,-1,-1,-1,-1,-1,-1,-1,-1,-1,-1,-1,-1,-1,-1,-1,-1,-1,-1,-1,-1,-1,-1,-1,-1,-1,-1,-1,-1,-1,-1,-1,-1,-1,-1],"split_conditions":[1.787623E-2,1.179675E-2,4.2219855E-2,1.2987763E-2,4.9809605E-2,-5.376946E-3,8.041669E-3,2.3042224E-2,-5.5431314E-3,4.3049887E-2,-3.202853E-2,-3.7733693E-2,2.4949543E-2,6.936085E-2,7.2968565E-4,4.3218523E-2,-1.2365243E-2,-3.0258667E-2,-1.6116863E-2,-1.2170029E-1,-2.4625516E-2,2.7475864E-1,3.111604E-2,1.9227829E-2,3.1517635E-3,-5.0882615E-2,-5.5641256E-2,7.1720764E-2,-1.6506022E-2,-1.0460407E-1,6.006621E-2,-3.6380988E-2,1.8423475E-1,2.963866E-1,-1.7478544E-1,-2.1239647E-1,2.5015632E-2,3.2147595E-1,4.6574123E-2,-2.5246945E-1,3.9992074E-4,2.226901E-2,3.1728503E-1,5.783856E-2,1.0522969E-1,5.653239E-3,-3.4344345E-1,-5.843184E-2,3.0407077E-2,-1.31328E-3,-1.01628564E-1,1.6548398E-1,5.3180203E-2,6.198255E-2,-4.4419616E-2,-3.4306854E-2,-9.763801E-2,1.7374437E-1,-3.834724E-1,-3.265784E-2,-4.8796654E-2,7.888362E-2,-4.0235347E-1,4.0313482E-1,-6.40033E-2,-3.9059502E-1,1.4906849E-1,-2.0652887E-1,3.6395252E-1,1.1692927E-1,-4.2499518E-1,-4.0008283E-1,-2.949E-2,-3.0069953E-1,2.0763701E-1,1.1170715E-1,-3.8067353E-1,3.4310725E-1,-2.590496E-1,-1.1631626E-1,4.2231607E-1,2.6977244E-1,-2.985039E-1,-4.0185687E-1,3.198702E-4,-3.5690874E-1,2.2175978E-1,-1.1860798E-1,3.435018E-1,-2.2247736E-1,4.9926212E-1,7.894884E-3,-3.5484263E-1,2.8370047E-1,-2.761772E-1,-1.6241637E-1,4.4055107E-1],"split_indices":[102,92,92,57,136,142,124,283,13,130,266,3,13,67,67,355,126,363,147,66,98,0,368,65,96,378,174,288,91,8,303,356,0,0,0,0,154,0,89,0,232,363,0,114,0,85,0,357,287,191,293,0,148,4,45,124,271,0,0,79,250,0,0,0,0,0,0,0,0,0,0,0,0,0,0,0,0,0,0,0,0,0,0,0,0,0,0,0,0,0,0,0,0,0,0,0,0],"split_type":[0,0,0,0,0,0,0,0,0,0,0,0,0,0,0,0,0,0,0,0,0,0,0,0,0,0,0,0,0,0,0,0,0,0,0,0,0,0,0,0,0,0,0,0,0,0,0,0,0,0,0,0,0,0,0,0,0,0,0,0,0,0,0,0,0,0,0,0,0,0,0,0,0,0,0,0,0,0,0,0,0,0,0,0,0,0,0,0,0,0,0,0,0,0,0,0,0],"sum_hessian":[7.15022E2,2.2557343E2,4.8944855E2,5.985033E1,1.657231E2,3.830127E2,1.0643587E2,3.59166E1,2.3933731E1,1.5619162E2,9.531487E0,3.356948E2,4.731789E1,5.8916977E1,4.751889E1,3.2717625E1,3.1989746E0,1.4089482E1,9.844249E0,1.4789166E2,8.2999525E0,1.9858038E0,7.545684E0,1.8381012E1,3.1731378E2,2.8489399E1,1.8828491E1,4.737653E1,1.154045E1,9.482653E0,3.803624E1,3.1431847E1,1.2857779E0,1.7748588E0,1.4241159E0,1.1264E0,1.2963082E1,2.42993E0,7.414319E0,2.202511E0,1.4568915E2,5.5829434E0,2.717009E0,6.4422174E0,1.1034663E0,1.191648E1,6.464532E0,3.1132663E2,5.987156E0,1.6856808E1,1.1632591E1,1.2439029E0,1.7584589E1,4.4337456E1,3.0390742E0,7.2037406E0,4.3367095E0,1.2862561E0,8.196397E0,9.827521E0,2.8208717E1,1.2525939E0,3.0179253E1,1.1915978E1,1.0471041E0,6.2252336E0,1.1890854E0,2.1827796E0,1.4350636E2,1.0992708E0,4.4836726E0,5.4138746E0,1.0283431E0,2.072704E0,9.843777E0,2.8173158E0,3.085093E2,3.0770705E0,2.9100854E0,3.5337007E0,1.3323106E1,1.3978608E0,1.0234731E1,1.6531782E1,1.0528064E0,4.254006E1,1.7973968E0,1.0145813E0,2.0244927E0,1.0552753E0,6.148465E0,1.0761883E0,3.260521E0,4.5626273E0,5.264894E0,1.3663735E0,2.6842344E1],"tree_param":{"num_deleted":"0","num_feature":"384","num_nodes":"97","size_leaf_vector":"0"}},{"base_weights":[-3.4129807E-1,5.016623E-1,-7.316112E-1,7.7686614E-1,-5.491339E-1,-8.4842306E-1,2.935523E-1,1.1069981E0,2.6024014E-1,8.004488E-1,-8.3044964E-1,-4.0533704E-1,-1.0427723E0,-7.1879864E-1,7.901982E-1,-2.9899213E-1,1.182795E0,-6.195062E-1,7.206497E-1,-5.69639E-1,1.1292464E0,-1.0441949E0,1.3971317E-1,-7.8203064E-1,3.8013187E-1,-1.0749003E0,5.9037113E-1,-1.0069373E0,7.322636E-1,-3.5307693E-1,1.1110778E0,7.287215E-1,-1.0264642E0,1.2065736E0,-3.399281E-1,-1.0044205E0,3.517408E-1,-4.1821557E-1,9.220715E-1,-3.306441E-2,-1.204593E0,-8.832829E-1,7.834587E-1,7.685557E-2,-9.7543687E-1,8.578031E-1,-5.41804E-1,-5.0254697E-1,-1.1490014E0,1.1775607E0,-7.7997184E-1,-1.153942E0,3.0148315E-1,1.029754E0,6.338201E-2,7.8984463E-1,-9.0867E-1,-1.2374929E-1,1.2500803E0,-1.2224636E0,-2.7638513E-1,1.2340559E0,1.8729849E-2,2.0226769E-1,-1.2392584E0,8.546155E-1,-9.7187877E-1,7.7205926E-1,-1.1509901E0,-5.564838E-1,1.0868063E0,7.462691E-1,-1.0138628E0,-1.2524056E0,-7.95665E-2,1.0335808E0,-5.014167E-2,1.2676402E0,-4.6633142E-1,-1.1237345E0,-1.0217533E-1,-6.236209E-1,1.1009831E0,1.0301504E0,-8.7059695E-1,1.1251707E0,-7.486964E-1,6.698851E-2,-1.1757946E0,2.8206806E-3,-1.1204985E0,-7.1669686E-1,5.231554E-1,1.3403313E0,-2.4564321E-1],"categories":[],"categories_nodes":[],"categories_segments":[],"categories_sizes":[],"default_left":[1,1,1,1,1,1,1,1,1,1,1,1,1,1,1,1,1,1,1,0,0,1,1,1,1,1,1,1,1,1,1,0,1,1,0,1,1,1,1,1,1,0,1,1,1,1,1,1,1,0,0,0,0,0,0,0,1,1,1,0,0,0,0,0,0,0,0,0,0,0,0,0,0,0,0,0,0,0,0,0,0,0,0,0,0,0,0,0,0,0,0,0,0,0,0],"id":3,"left_children":[1,3,5,7,9,11,13,15,17,19,21,23,25,27,29,31,33,35,37,-1,-1,39,41,43,45,47,49,51,53,55,57,-1,59,61,-1,63,65,67,69,71,73,-1,75,77,79,81,83,85,87,-1,-1,-1,-1,-1,-1,-1,89,91,93,-1,-1,-1,-1,-1,-1,-1,-1,-1,-1,-1,-1,-1,-1,-1,-1,-1,-1,-1,-1,-1,-1,-1,-1,-1,-1,-1,-1,-1,-1,-1,-1,-1,-1,-1,-1],"loss_changes":[2.0127252E2,5.648353E1,5.0278122E1,2.5982178E1,1.6161446E1,3.1895508E1,2.2427275E1,1.0335907E1,2.529973E1,4.044333E0,7.2518845E0,3.4637672E1,1.42890625E1,6.939081E0,1.12672825E1,4.926981E0,3.635521E0,8.435025E0,9.731472E0,0E0,0E0,4.53356E0,5.3471265E0,1.3159657E1,1.732792E1,1.026181E1,5.4777737E0,2.809227E0,5.3892815E-1,5.3249617E0,4.169182E0,0E0,2.0433044E-1,2.8473206E0,0E0,4.7114067E0,5.407565E0,6.8289843E0,9.112919E0,4.4936376E0,1.2079887E0,0E0,1.066922E0,1.0554986E1,8.220619E0,9.912855E0,7.968136E0,1.3292028E1,7.4255676E0,0E0,0E0,0E0,0E0,0E0,0E0,0E0,1.0356016E0,1.6316833E0,3.1791763E0,0E0,0E0,0E0,0E0,0E0,0E0,0E0,0E0,0E0,0E0,0E0,0E0,0E0,0E0,0E0,0E0,0E0,0E0,0E0,0E0,0E0,0E0,0E0,0E0,0E0,0E0,0E0,0E0,0E0,0E0,0E0,0E0,0E0,0E0,0E0,0E0],"parents":[2147483647,0,0,1,1,2,2,3,3,4,4,5,5,6,6,7,7,8,8,9,9,10,10,11,11,12,12,13,13,14,14,15,15,16,16,17,17,18,18,21,21,22,22,23,23,24,24,25,25,26,26,27,27,28,28,29,29,30,30,32,32,33,33,35,35,36,36,37,37,38,38,39,39,40,40,42,42,43,43,44,44,45,45,46,46,47,47,48,48,56,56,57,57,58,58],"right_children":[2,4,6,8,10,12,14,16,18,20,22,24,26,28,30,32,34,36,38,-1,-1,40,42,44,46,48,50,52,54,56,58,-1,60,62,-1,64,66,68,70,72,74,-1,76,78,80,82,84,86,88,-1,-1,-1,-1,-1,-1,-1,90,92,94,-1,-1,-1,-1,-1,-1,-1,-1,-1,-1,-1,-1,-1,-1,-1,-1,-1,-1,-1,-1,-1,-1,-1,-1,-1,-1,-1,-1,-1,-1,-1,-1,-1,-1,-1,-1],"split_conditions":[1.787623E-2,5.3496815E-2,9.576228E-2,-5.3087562E-2,-6.749344E-2,-1.102598E-2,-1.5905496E-2,-6.0248613E-2,5.2840456E-2,-4.6941973E-2,8.6038865E-2,2.8330985E-2,1.0005965E-1,4.3182947E-2,-6.9197463E-3,-4.6939503E-2,6.07132E-2,-5.3085588E-2,-3.977619E-2,-1.7089172E-1,3.387739E-1,-3.6892787E-2,-9.460476E-2,-1.4247564E-2,7.486982E-3,7.5998586E-3,-2.3386594E-2,6.799055E-2,2.666828E-2,-7.532569E-2,7.139815E-3,2.1861646E-1,-8.6276475E-3,1.3311292E-1,-1.0197843E-1,4.956962E-3,-8.506928E-3,-2.3454495E-2,-8.67391E-2,-4.3731425E-2,1.1349206E-1,-2.6498488E-1,-6.320613E-2,-8.733483E-3,5.949541E-3,-4.2496398E-2,-5.6299582E-2,-2.272499E-2,-2.0325892E-2,3.532682E-1,-2.3399156E-1,-3.461826E-1,9.044495E-2,3.0892622E-1,1.9014603E-2,2.369534E-1,1.23622455E-2,-7.180716E-2,7.8149945E-2,-3.667391E-1,-8.2915545E-2,3.702168E-1,5.618955E-3,6.068031E-2,-3.7177753E-1,2.5638467E-1,-2.9156363E-1,2.316178E-1,-3.4529704E-1,-1.6694514E-1,3.260419E-1,2.2388074E-1,-3.0415887E-1,-3.7572172E-1,-2.3869952E-2,3.1007424E-1,-1.50425015E-2,3.802921E-1,-1.3989943E-1,-3.3712035E-1,-3.0652601E-2,-1.8708628E-1,3.3029497E-1,3.0904514E-1,-2.611791E-1,3.3755124E-1,-2.2460893E-1,2.0096555E-2,-3.5273838E-1,8.4620423E-4,-3.3614957E-1,-2.1500906E-1,1.5694663E-1,4.020994E-1,-7.369297E-2],"split_indices":[102,53,303,113,186,329,124,9,303,315,303,191,92,76,226,378,136,271,362,0,0,166,12,3,136,53,378,170,175,168,89,0,127,177,0,153,378,266,107,86,160,0,51,335,365,0,273,24,196,0,0,0,0,0,0,0,42,12,287,0,0,0,0,0,0,0,0,0,0,0,0,0,0,0,0,0,0,0,0,0,0,0,0,0,0,0,0,0,0,0,0,0,0,0,0],"split_type":[0,0,0,0,0,0,0,0,0,0,0,0,0,0,0,0,0,0,0,0,0,0,0,0,0,0,0,0,0,0,0,0,0,0,0,0,0,0,0,0,0,0,0,0,0,0,0,0,0,0,0,0,0,0,0,0,0,0,0,0,0,0,0,0,0,0,0,0,0,0,0,0,0,0,0,0,0,0,0,0,0,0,0,0,0,0,0,0,0,0,0,0,0,0,0],"sum_hessian":[6.096206E2,1.9284576E2,4.1677484E2,1.5302829E2,3.9817467E1,3.74298E2,4.2476833E1,9.266878E1,6.0359516E1,6.5498543E0,3.3267612E1,1.1506146E2,2.5923654E2,1.3832893E1,2.864394E1,4.5896072E0,8.807917E1,2.0617754E1,3.9741764E1,1.1258762E0,5.4239783E0,2.7198875E1,6.068737E0,7.776936E1,3.72921E1,2.5457034E2,4.6661935E0,1.1796518E1,2.0363755E0,6.255526E0,2.2388414E1,1.9015431E0,2.6880639E0,8.692933E1,1.1498445E0,1.474143E1,5.876323E0,5.810743E0,3.3931023E1,3.8890295E0,2.3309845E1,2.200212E0,3.868525E0,1.44043865E1,6.3364975E1,2.461052E1,1.268158E1,3.0072638E1,2.244977E2,3.364985E0,1.3012085E0,1.0711154E1,1.0853636E0,1.0360621E0,1.0003133E0,1.9082999E0,4.347226E0,2.2763379E0,2.0112076E1,1.6318687E0,1.0561951E0,8.492556E1,2.003769E0,2.4241092E0,1.2317321E1,4.5152183E0,1.3611047E0,2.193745E0,3.616998E0,3.1630874E0,3.0767935E1,2.3003294E0,1.5887E0,2.2250975E1,1.0588702E0,2.7911422E0,1.0773828E0,4.0945435E0,1.0309843E1,5.3921227E1,9.44375E0,3.2496421E0,2.1360876E1,1.8246801E0,1.0856899E1,3.4812188E0,2.659142E1,4.8076243E0,2.1969008E2,1.0058357E0,3.3413904E0,1.1314101E0,1.1449277E0,1.9065563E1,1.0465122E0],"tree_param":{"num_deleted":"0","num_feature":"384","num_nodes":"95","size_leaf_vector":"0"}},{"base_weights":[-2.959886E-1,2.4650326E-1,-7.527858E-1,7.064531E-1,-3.990347E-1,-8.807407E-1,7.8309126E-2,2.3303617E-2,9.6807444E-1,-6.1811507E-1,7.516594E-1,-9.5305896E-1,9.1362E-2,-6.72076E-1,7.3608947E-1,-5.760108E-1,5.770924E-1,-8.153411E-1,1.0293763E0,-7.999479E-1,5.955267E-1,1.1476594E0,-4.2385912E-1,-9.9571574E-1,3.235997E-1,9.3252E-1,-6.3392586E-1,-9.698115E-1,9.180131E-1,-5.158308E-1,1.057575E0,6.928691E-1,-1.041266E0,9.437642E-1,-5.163996E-1,1.1138755E0,-8.7227575E-2,2.007722E-2,-9.5161104E-1,-5.9026563E-1,1.0564426E0,1.2418846E0,2.1379104E-1,-9.9451065E-1,4.598333E-1,-1.0666238E0,-3.6600268E-1,1.0094069E0,-6.928913E-1,-1.9768976E-1,1.1304195E0,-1.002422E0,5.481909E-1,-1.1110107E0,4.96781E-1,4.0904167E-1,-9.209772E-1,1.2165744E0,-3.5334516E-1,1.177591E0,-6.441819E-1,1.4442071E-1,-1.1467625E0,1.0726477E0,-3.7797472E-1,5.622267E-1,-1.1022859E0,1.1591269E0,8.896834E-2,8.6108375E-1,-8.050282E-1,7.116483E-1,-5.698707E-1,-1.0098549E0,6.511585E-1,2.0952725E-3,-7.991403E-1,1.611204E-1,1.189434E0,-1.4397407E-1,-1.1162324E0,-7.7449054E-1,4.03114E-1,1.3003002E0,-9.544221E-2,-1.8275622E-1,-8.0875045E-1,-1.1146568E0,-1.3851319E-1,6.488137E-1,1.7304213E-1,1.3383106E0,-8.3941266E-2],"categories":[],"categories_nodes":[],"categories_segments":[],"categories_sizes":[],"default_left":[1,1,1,1,1,1,1,1,1,1,1,1,1,1,1,1,1,0,1,1,1,1,1,1,1,1,1,1,0,1,1,1,1,1,1,1,1,1,1,1,1,0,0,0,0,1,1,1,1,0,0,1,1,0,0,0,0,1,0,0,0,0,0,0,0,0,0,0,0,0,0,0,0,0,0,0,0,0,0,0,0,0,0,0,0,0,0,0,0,0,0,0,0],"id":4,"left_children":[1,3,5,7,9,11,13,15,17,19,21,23,25,27,29,31,33,-1,35,37,39,41,43,45,47,49,51,53,-1,55,57,59,61,63,65,67,69,71,73,75,77,-1,-1,-1,-1,79,81,83,85,-1,-1,87,89,-1,-1,-1,-1,91,-1,-1,-1,-1,-1,-1,-1,-1,-1,-1,-1,-1,-1,-1,-1,-1,-1,-1,-1,-1,-1,-1,-1,-1,-1,-1,-1,-1,-1,-1,-1,-1,-1,-1,-1],"loss_changes":[1.2759232E2,7.0287094E1,2.9776688E1,2.4648727E1,2.5355354E1,1.711171E1,1.9344803E1,1.335919E1,1.1748947E1,1.8901583E1,8.047629E0,1.2601852E1,1.1377917E1,9.58332E0,8.928244E0,1.2145138E1,8.866978E0,0E0,9.241341E0,9.102951E0,6.882957E0,8.273506E-1,2.8895936E0,9.363449E0,6.307928E0,2.1450458E0,4.944631E0,3.8553562E0,0E0,2.2232153E0,4.2211742E0,4.512409E0,1.9866791E0,3.1318512E0,4.344778E0,4.078804E0,5.965553E0,5.4563203E0,6.4136963E0,4.7767556E-1,8.3300304E-1,0E0,0E0,0E0,0E0,8.801849E0,7.7362776E0,1.7989211E0,7.881117E-2,0E0,0E0,6.256962E-1,2.6431084E-3,0E0,0E0,0E0,0E0,2.5526123E0,0E0,0E0,0E0,0E0,0E0,0E0,0E0,0E0,0E0,0E0,0E0,0E0,0E0,0E0,0E0,0E0,0E0,0E0,0E0,0E0,0E0,0E0,0E0,0E0,0E0,0E0,0E0,0E0,0E0,0E0,0E0,0E0,0E0,0E0,0E0],"parents":[2147483647,0,0,1,1,2,2,3,3,4,4,5,5,6,6,7,7,8,8,9,9,10,10,11,11,12,12,13,13,14,14,15,15,16,16,18,18,19,19,20,20,21,21,22,22,23,23,24,24,25,25,26,26,27,27,29,29,30,30,31,31,32,32,33,33,34,34,35,35,36,36,37,37,38,38,39,39,40,40,45,45,46,46,47,47,48,48,51,51,52,52,57,57],"right_children":[2,4,6,8,10,12,14,16,18,20,22,24,26,28,30,32,34,-1,36,38,40,42,44,46,48,50,52,54,-1,56,58,60,62,64,66,68,70,72,74,76,78,-1,-1,-1,-1,80,82,84,86,-1,-1,88,90,-1,-1,-1,-1,92,-1,-1,-1,-1,-1,-1,-1,-1,-1,-1,-1,-1,-1,-1,-1,-1,-1,-1,-1,-1,-1,-1,-1,-1,-1,-1,-1,-1,-1,-1,-1,-1,-1,-1,-1],"split_conditions":[-4.2155443E-4,3.4687992E-2,4.7538616E-2,5.3213187E-2,2.688115E-2,1.0248877E-1,-6.1508328E-2,2.3310166E-2,-7.815787E-2,7.661073E-2,2.4275117E-2,2.5678322E-2,-5.867882E-2,6.710122E-2,3.8395033E-3,-5.9650633E-3,-3.4665144E-3,-2.4460234E-1,5.723775E-2,-2.3104288E-2,-2.5125176E-2,2.0287413E-2,4.781959E-2,-5.2159308E-3,8.054787E-3,-5.4426152E-2,4.8782587E-2,3.916432E-2,2.7540395E-1,7.531047E-2,9.103349E-2,9.375174E-3,-6.724611E-2,-2.0681933E-2,-1.4574217E-2,4.9809605E-2,-5.7138853E-2,1.9328164E-2,2.232165E-2,-3.749099E-2,-1.3075523E-2,3.725654E-1,6.413732E-2,-2.983532E-1,1.3794999E-1,-4.659945E-2,2.3787905E-2,7.604975E-2,-3.5242982E-2,-5.930693E-2,3.3912587E-1,3.0538227E-2,-4.8549578E-2,-3.333032E-1,1.490343E-1,1.2271251E-1,-2.7629316E-1,1.72848E-2,-1.0600355E-1,3.532773E-1,-1.9325458E-1,4.3326214E-2,-3.4402877E-1,3.2179433E-1,-1.1339242E-1,1.6866802E-1,-3.3068576E-1,3.477381E-1,2.6690502E-2,2.5832513E-1,-2.4150847E-1,2.134945E-1,-1.7096122E-1,-3.029565E-1,1.9534756E-1,6.285818E-4,-2.3974209E-1,4.8336122E-2,3.5683024E-1,-4.3192223E-2,-3.3486974E-1,-2.3234718E-1,1.209342E-1,3.9009008E-1,-2.8632665E-2,-5.4826867E-2,-2.4262515E-1,-3.3439705E-1,-4.155396E-2,1.9464412E-1,5.1912643E-2,4.014932E-1,-2.5182381E-2],"split_indices":[335,24,191,303,105,303,96,191,142,80,361,9,378,33,309,324,2,0,102,178,312,235,303,70,13,214,4,124,0,233,160,164,36,265,260,136,50,89,142,105,40,0,0,0,0,198,4,374,48,0,0,120,39,0,0,0,0,26,0,0,0,0,0,0,0,0,0,0,0,0,0,0,0,0,0,0,0,0,0,0,0,0,0,0,0,0,0,0,0,0,0,0,0],"split_type":[0,0,0,0,0,0,0,0,0,0,0,0,0,0,0,0,0,0,0,0,0,0,0,0,0,0,0,0,0,0,0,0,0,0,0,0,0,0,0,0,0,0,0,0,0,0,0,0,0,0,0,0,0,0,0,0,0,0,0,0,0,0,0,0,0,0,0,0,0,0,0,0,0,0,0,0,0,0,0,0,0,0,0,0,0,0,0,0,0,0,0,0,0],"sum_hessian":[5.131335E2,2.3477515E2,2.7835834E2,1.3703937E2,9.773577E1,2.4116843E2,3.7189896E1,3.8249855E1,9.878951E1,8.249282E1,1.5242954E1,2.2448756E2,1.6680859E1,1.736194E1,1.9827953E1,1.8350586E1,1.9899271E1,2.874122E0,9.591539E1,7.2040306E1,1.0452508E1,1.1419676E1,3.823278E0,2.1744226E2,7.045306E0,7.5911927E0,9.089666E0,1.4952295E1,2.4096458E0,3.9278197E0,1.5900134E1,4.7920666E0,1.3558519E1,1.500477E1,4.8945007E0,8.916988E1,6.745509E0,1.1379621E1,6.066069E1,2.847121E0,7.6053867E0,1.007346E1,1.3462167E0,2.2469125E0,1.5763655E0,1.9481189E2,2.2630377E1,4.2111154E0,2.8341906E0,1.1313096E0,6.459883E0,7.0454345E0,2.0442314E0,1.3860318E1,1.0919764E0,1.193552E0,2.7342677E0,1.4413581E1,1.4865528E0,3.6045642E0,1.1875023E0,1.0776559E0,1.2480864E1,1.3843354E1,1.1614158E0,1.737013E0,3.1574879E0,8.527394E1,3.8959408E0,2.8201272E0,3.9253821E0,5.143648E0,6.2359724E0,5.8890564E1,1.7701252E0,1.0002936E0,1.8468274E0,1.2696152E0,6.3357716E0,1.0139198E1,1.8467268E2,1.477578E1,7.8545957E0,3.193423E0,1.0176926E0,1.0015785E0,1.8326122E0,5.97849E0,1.0669445E0,1.0366864E0,1.007545E0,1.3153293E1,1.2602888E0],"tree_param":{"num_deleted":"0","num_feature":"384","num_nodes":"93","size_leaf_vector":"0"}},{"base_weights":[-2.5659645E-1,-6.4760643E-1,2.792623E-1,-8.81835E-1,-2.0564371E-1,-3.8297778E-1,6.806571E-1,-3.2605357E-2,-9.587451E-1,-7.21067E-1,2.4082826E-1,-7.6835316E-1,2.1082014E-1,8.5449874E-1,-3.2847184E-1,-8.8967186E-1,6.498322E-1,-1.0133785E0,-1.3419214E-1,3.0127388E-1,-9.825937E-1,-9.0625966E-1,4.948981E-1,1.0105473E-1,-9.7515357E-1,6.04183E-1,-5.650753E-1,9.715725E-1,-5.5743005E-2,2.4391578E-1,-8.4652764E-1,-9.824434E-1,-1.8072201E-1,-5.988834E-1,1.0277641E0,5.301874E-1,-1.0315237E0,-5.9626865E-1,1.0704881E0,6.9661856E-1,-8.310551E-1,-1.0595903E0,3.2160974E-1,5.4985188E-2,-1.0757556E0,-2.2003543E-1,8.347952E-1,1.1957897E0,-3.2105595E-1,4.2804E-2,-1.0437944E0,-7.3664886E-1,8.317616E-1,-9.720034E-1,2.9481488E-1,-7.038723E-1,1.0145483E0,-8.2580775E-1,6.993602E-1,1.0509248E0,-1.4907472E-1,6.142718E-1,-1.0984832E0,1.2646773E0,-3.4177963E-2,-1.0523586E0,3.9809987E-1,7.275251E-1,-8.984994E-1,2.908688E-1,1.3036377E0,-5.4881185E-1,1.0269864E0,3.4488118E-1,-1.1183466E0,8.298834E-1,-6.8697876E-1,-1.4695682E-1,1.0299463E0,-7.559315E-1,6.3359034E-1,7.318258E-1,-6.2647504E-1,-1.0835449E0,9.235337E-2,-8.8789463E-1,-2.0463352E-1,1.0317346E0,-3.821421E-1,-5.4619586E-1,8.484023E-1,-1.0949205E-1,1.0670545E0,1.1338925E-1,-1.1569118E0,-2.9634184E-1,9.5254505E-1,-6.96406E-1,1.2800753E-1],"categories":[],"categories_nodes":[],"categories_segments":[],"categories_sizes":[],"default_left":[1,1,1,1,1,1,1,1,1,1,1,1,1,1,1,1,1,1,1,1,1,1,1,1,1,1,1,1,1,1,1,0,0,0,1,0,1,1,1,1,0,1,0,0,0,1,1,0,1,1,1,1,1,0,1,0,1,1,1,0,1,0,0,0,0,0,0,0,0,0,0,0,0,0,0,0,0,0,0,0,0,0,0,0,0,0,0,0,0,0,0,0,0,0,0,0,0,0,0],"id":5,"left_children":[1,3,5,7,9,11,13,15,17,19,21,23,25,27,29,31,33,35,37,39,41,43,45,47,49,51,53,55,57,59,61,-1,-1,-1,63,-1,65,67,69,71,-1,73,-1,-1,-1,75,77,-1,79,81,83,85,87,-1,89,-1,91,93,95,-1,97,-1,-1,-1,-1,-1,-1,-1,-1,-1,-1,-1,-1,-1,-1,-1,-1,-1,-1,-1,-1,-1,-1,-1,-1,-1,-1,-1,-1,-1,-1,-1,-1,-1,-1,-1,-1,-1,-1],"loss_changes":[9.069122E1,2.5703255E1,4.888784E1,1.0623207E1,2.0405468E1,1.6106113E1,2.0324745E1,9.106949E0,6.6006927E0,1.1273722E1,1.4396729E1,7.7340794E0,8.950396E0,1.0470375E1,5.399558E0,2.7534437E-1,4.7193213E0,4.470825E0,6.4527946E0,4.6656075E0,3.6474972E0,1.5306292E0,9.86206E0,4.5736103E0,2.4484367E0,6.4717355E0,3.7878366E0,6.9539413E0,7.6045976E0,3.0415833E0,4.1405463E0,0E0,0E0,0E0,1.8153138E0,0E0,4.5535583E0,3.9311852E0,2.122016E-1,3.571528E0,0E0,2.9707909E0,0E0,0E0,0E0,7.2498865E0,5.363165E0,0E0,3.52281E0,1.9036014E0,1.5573654E0,8.5160255E-2,4.4929256E0,0E0,2.3170493E0,0E0,5.127701E0,2.1343641E0,1.9569917E0,0E0,1.1497071E0,0E0,0E0,0E0,0E0,0E0,0E0,0E0,0E0,0E0,0E0,0E0,0E0,0E0,0E0,0E0,0E0,0E0,0E0,0E0,0E0,0E0,0E0,0E0,0E0,0E0,0E0,0E0,0E0,0E0,0E0,0E0,0E0,0E0,0E0,0E0,0E0,0E0,0E0],"parents":[2147483647,0,0,1,1,2,2,3,3,4,4,5,5,6,6,7,7,8,8,9,9,10,10,11,11,12,12,13,13,14,14,15,15,16,16,17,17,18,18,19,19,20,20,21,21,22,22,23,23,24,24,25,25,26,26,27,27,28,28,29,29,30,30,34,34,36,36,37,37,38,38,39,39,41,41,45,45,46,46,48,48,49,49,50,50,51,51,52,52,54,54,56,56,57,57,58,58,60,60],"right_children":[2,4,6,8,10,12,14,16,18,20,22,24,26,28,30,32,34,36,38,40,42,44,46,48,50,52,54,56,58,60,62,-1,-1,-1,64,-1,66,68,70,72,-1,74,-1,-1,-1,76,78,-1,80,82,84,86,88,-1,90,-1,92,94,96,-1,98,-1,-1,-1,-1,-1,-1,-1,-1,-1,-1,-1,-1,-1,-1,-1,-1,-1,-1,-1,-1,-1,-1,-1,-1,-1,-1,-1,-1,-1,-1,-1,-1,-1,-1,-1,-1,-1,-1],"split_conditions":[7.788838E-3,2.498046E-2,4.2597406E-2,-4.1235898E-2,-1.9748923E-3,-9.76303E-3,6.1152678E-2,2.1448962E-3,8.638988E-2,1.4096017E-3,-4.6938725E-2,-4.575877E-3,1.4772533E-2,-9.936304E-3,-6.1711814E-2,2.4520386E-2,-5.9354298E-2,-8.6829826E-2,3.3144116E-2,7.88196E-2,1.0954413E-1,-4.5275323E-2,5.362274E-2,-1.6812883E-2,-3.0402986E-2,-8.923118E-2,4.211375E-2,-7.572134E-2,-1.6130954E-2,1.1172337E-2,-5.3354338E-2,-2.9473302E-1,-5.4216605E-2,-1.7966503E-1,3.2013E-2,1.5905623E-1,5.2134596E-2,-4.5877166E-2,6.1574012E-2,-3.902804E-2,-2.4931654E-1,-9.5413595E-2,9.6482925E-2,1.6495558E-2,-3.227267E-1,-6.545482E-2,-2.2456858E-2,3.5873693E-1,-3.799901E-2,-3.5219397E-2,6.0322635E-2,2.19126E-2,6.506051E-2,-2.9160103E-1,1.3702752E-31,-2.111617E-1,-1.8963736E-2,-5.416689E-2,1.1041561E-2,3.1527746E-1,1.0643375E-1,1.8428156E-1,-3.2954496E-1,3.794032E-1,-1.0253389E-2,-3.157076E-1,1.1942997E-1,2.1825755E-1,-2.6954985E-1,8.726064E-2,3.9109135E-1,-1.6464356E-1,3.0809593E-1,1.0346436E-1,-3.35504E-1,2.4896502E-1,-2.0609364E-1,-4.4087045E-2,3.0898392E-1,-2.2677946E-1,1.9007711E-1,2.1954776E-1,-1.8794252E-1,-3.2506347E-1,2.770601E-2,-2.663684E-1,-6.1390057E-2,3.095204E-1,-1.14642635E-1,-1.6385877E-1,2.545207E-1,-3.2847617E-2,3.2011637E-1,3.4016777E-2,-3.4707355E-1,-8.8902555E-2,2.8576353E-1,-2.089218E-1,3.840226E-2],"split_indices":[57,92,33,329,124,193,102,191,131,361,231,300,335,378,378,292,308,332,95,170,303,326,303,192,361,304,234,235,142,136,166,0,0,0,335,0,239,268,172,362,0,253,0,0,0,378,226,0,46,266,312,155,102,0,319,0,1,369,367,0,280,0,0,0,0,0,0,0,0,0,0,0,0,0,0,0,0,0,0,0,0,0,0,0,0,0,0,0,0,0,0,0,0,0,0,0,0,0,0],"split_type":[0,0,0,0,0,0,0,0,0,0,0,0,0,0,0,0,0,0,0,0,0,0,0,0,0,0,0,0,0,0,0,0,0,0,0,0,0,0,0,0,0,0,0,0,0,0,0,0,0,0,0,0,0,0,0,0,0,0,0,0,0,0,0,0,0,0,0,0,0,0,0,0,0,0,0,0,0,0,0,0,0,0,0,0,0,0,0,0,0,0,0,0,0,0,0,0,0,0,0],"sum_hessian":[4.3097656E2,2.4904369E2,1.8193286E2,1.6212595E2,8.691775E1,6.8675186E1,1.1325768E2,1.3581798E1,1.4854414E2,4.0058144E1,4.68596E1,4.1468273E1,2.7206911E1,9.674478E1,1.6512897E1,5.885983E0,7.695815E0,1.3909872E2,9.445432E0,8.128974E0,3.192917E1,8.031517E0,3.8828083E1,8.066655E0,3.340162E1,1.8200794E1,9.006116E0,8.5659966E1,1.1084819E1,8.09647E0,8.416428E0,4.863751E0,1.022232E0,1.6521969E0,6.0436177E0,1.2882829E0,1.3781044E2,7.191893E0,2.2535386E0,6.310499E0,1.818475E0,3.0326344E1,1.6028267E0,1.3051802E0,6.7263365E0,1.2625168E1,2.6202915E1,1.7347462E0,6.3319087E0,2.133769E0,3.1267849E1,2.3163843E0,1.5884411E1,6.0246663E0,2.98145E0,1.757666E0,8.39023E1,5.4416814E0,5.6431375E0,2.103252E0,5.9932175E0,1.0265625E0,7.389865E0,4.785165E0,1.2584531E0,1.3609097E2,1.7194604E0,1.0752095E0,6.1166835E0,1.036199E0,1.2173398E0,1.1843786E0,5.1261206E0,1.0222172E0,2.9304127E1,3.6471987E0,8.977969E0,4.3858514E0,2.1817064E1,4.4932346E0,1.8386738E0,1.0053297E0,1.1284394E0,3.0255592E1,1.012257E0,1.2827785E0,1.0336059E0,1.3766628E1,2.1177828E0,1.1887903E0,1.7926598E0,3.69591E0,8.020639E1,1.5897634E0,3.8519177E0,1.109468E0,4.5336695E0,1.5056648E0,4.4875526E0],"tree_param":{"num_deleted":"0","num_feature":"384","num_nodes":"99","size_leaf_vector":"0"}},{"base_weights":[-2.2649829E-1,3.7779987E-1,-5.0572616E-1,6.053581E-1,-3.5726485E-1,-7.93395E-1,-1.7589697E-1,2.3906444E-1,9.590708E-1,4.160541E-1,-6.539289E-1,-8.87365E-2,-8.9675885E-1,-6.5936816E-1,2.4099483E-1,-6.3298064E-1,4.7350392E-1,-8.805591E-2,1.0315442E0,8.883455E-1,-3.8034576E-1,-8.9518845E-1,2.0197095E-1,4.9953687E-1,-5.160637E-1,-9.732626E-1,-2.0788006E-1,-7.927914E-1,6.849206E-1,5.2842635E-1,-5.3534967E-1,4.1129026E-1,-9.6731204E-1,-1.8934909E-1,7.482466E-1,-7.738288E-1,5.510059E-1,1.0657419E0,-9.5983595E-2,3.090905E-1,-8.2724667E-1,2.9978806E-1,-1.0446508E0,-5.269655E-1,5.883652E-1,1.2532423E0,-2.3143557E-3,-8.2735217E-1,6.5497285E-1,-9.992201E-1,3.6668252E-2,-7.3794293E-1,8.9014006E-1,9.362802E-2,-9.2297995E-1,-4.9258178E-1,1.0827379E0,-2.0325767E-2,1.0341258E0,-7.9294235E-1,5.3649455E-1,-1.8092204E-2,6.2370026E-1,-1.4039914E-1,-1.0709463E0,6.418783E-1,-8.6582255E-1,9.1415644E-1,-2.338149E-1,1.0914046E0,1.2928721E-1,-1.7257373E-1,-1.1027129E0,8.174344E-1,-3.336686E-2,2.976563E-1,-1.0058228E0,3.5172042E-1,-1.0173523E0,8.8852507E-1,-6.7852885E-1,-9.538433E-1,4.254063E-1,-2.0346771E-1,1.2844436E0,-7.171329E-1,7.3104674E-1,3.8240817E-1,-9.8297554E-1,1.246533E0,3.117816E-1,-8.277136E-1,4.0530503E-1,-2.859737E-1,1.1692578E0,-9.6643883E-1,2.3135114E-1,-3.1759343E-1,9.5715517E-1],"categories":[],"categories_nodes":[],"categories_segments":[],"categories_sizes":[],"default_left":[1,1,1,1,1,1,1,1,1,1,1,1,1,1,1,1,1,1,1,0,1,1,1,1,1,1,1,1,1,1,1,1,1,1,1,0,0,1,0,0,0,0,1,0,1,0,0,1,0,1,1,1,1,1,1,0,1,1,1,1,1,0,0,0,0,0,0,0,0,0,0,0,0,0,0,0,0,0,0,0,0,0,0,0,0,0,0,0,0,0,0,0,0,0,0,0,0,0,0],"id":6,"left_children":[1,3,5,7,9,11,13,15,17,19,21,23,25,27,29,31,33,35,37,-1,39,41,43,45,47,49,51,53,55,57,59,61,63,65,67,-1,-1,69,-1,-1,-1,-1,71,-1,73,-1,-1,75,-1,77,79,81,83,85,87,-1,89,91,93,95,97,-1,-1,-1,-1,-1,-1,-1,-1,-1,-1,-1,-1,-1,-1,-1,-1,-1,-1,-1,-1,-1,-1,-1,-1,-1,-1,-1,-1,-1,-1,-1,-1,-1,-1,-1,-1,-1,-1],"loss_changes":[6.152184E1,1.9526379E1,2.3488537E1,1.1240116E1,6.6770916E0,9.587975E0,2.3800745E1,9.462915E0,3.4833183E0,3.479319E0,4.427739E0,4.8050785E0,5.892174E0,1.0332319E1,1.4501259E1,3.8627832E0,6.678872E0,2.098341E0,1.7174568E0,0E0,1.4293938E0,3.2116327E0,1.8136628E0,3.0740032E0,4.540655E0,2.7580566E0,8.124474E0,5.869749E0,3.093074E0,1.3064953E1,5.3160243E0,2.9479337E-1,5.194397E-1,6.9191484E0,4.381502E0,0E0,0E0,8.379059E-1,0E0,0E0,0E0,0E0,5.5136013E-1,0E0,5.9146845E-1,0E0,0E0,2.1280751E0,0E0,2.8378754E0,2.7754016E0,2.7164993E0,2.2580957E0,4.3101325E0,3.805355E0,0E0,1.6663074E-1,8.419277E0,4.7015057E0,2.8332186E0,1.7513802E0,0E0,0E0,0E0,0E0,0E0,0E0,0E0,0E0,0E0,0E0,0E0,0E0,0E0,0E0,0E0,0E0,0E0,0E0,0E0,0E0,0E0,0E0,0E0,0E0,0E0,0E0,0E0,0E0,0E0,0E0,0E0,0E0,0E0,0E0,0E0,0E0,0E0,0E0],"parents":[2147483647,0,0,1,1,2,2,3,3,4,4,5,5,6,6,7,7,8,8,9,9,10,10,11,11,12,12,13,13,14,14,15,15,16,16,17,17,18,18,20,20,21,21,22,22,23,23,24,24,25,25,26,26,27,27,28,28,29,29,30,30,31,31,32,32,33,33,34,34,37,37,42,42,44,44,47,47,49,49,50,50,51,51,52,52,53,53,54,54,56,56,57,57,58,58,59,59,60,60],"right_children":[2,4,6,8,10,12,14,16,18,20,22,24,26,28,30,32,34,36,38,-1,40,42,44,46,48,50,52,54,56,58,60,62,64,66,68,-1,-1,70,-1,-1,-1,-1,72,-1,74,-1,-1,76,-1,78,80,82,84,86,88,-1,90,92,94,96,98,-1,-1,-1,-1,-1,-1,-1,-1,-1,-1,-1,-1,-1,-1,-1,-1,-1,-1,-1,-1,-1,-1,-1,-1,-1,-1,-1,-1,-1,-1,-1,-1,-1,-1,-1,-1,-1,-1],"split_conditions":[1.787623E-2,2.6421148E-2,-1.3490728E-3,7.497178E-2,-1.8675704E-2,-2.6375838E-2,-4.0130578E-2,-1.2028166E-2,-6.0248613E-2,2.444567E-2,1.811617E-2,-9.1056086E-2,8.830219E-2,3.8941465E-2,-1.545988E-2,-5.273577E-2,-1.1141596E-2,1.6093252E-2,5.4324415E-2,2.6650366E-1,-1.2764057E-2,-8.876813E-2,-2.3926988E-2,7.099044E-2,3.975518E-3,1.17051646E-1,-6.5064594E-2,-7.12942E-2,-1.0913443E-2,-2.1429133E-2,1.1632011E-2,2.3505384E-2,-3.286515E-2,-3.0972272E-2,-1.0671363E-32,-2.3214865E-1,1.6530177E-1,1.827364E-2,-2.879508E-2,9.2727154E-2,-2.4817401E-1,8.993642E-2,-8.210095E-2,-1.5808965E-1,5.0124235E-2,3.759727E-1,-6.9430674E-4,-3.0193023E-2,1.9649187E-1,-9.6700475E-2,-3.095918E-3,3.7928656E-2,-5.2649617E-2,2.8715357E-2,-1.3612527E-2,-1.4777455E-1,3.5342783E-2,-1.1373855E-2,-3.5922702E-2,1.35676395E-2,1.8050494E-2,-5.4276614E-3,1.8711008E-1,-4.2119745E-2,-3.212839E-1,1.925635E-1,-2.597468E-1,2.7424693E-1,-7.0144475E-2,3.2742137E-1,3.8786165E-2,-5.177212E-2,-3.3081388E-1,2.4523032E-1,-1.0010058E-2,8.929689E-2,-3.0174685E-1,1.0551613E-1,-3.052057E-1,2.6655754E-1,-2.0355867E-1,-2.86153E-1,1.276219E-1,-6.1040316E-2,3.853331E-1,-2.1513988E-1,2.1931402E-1,1.1472245E-1,-2.9489267E-1,3.7395993E-1,9.353448E-2,-2.483141E-1,1.21591516E-1,-8.579211E-2,3.5077733E-1,-2.8993165E-1,6.940535E-2,-9.527803E-2,2.8714657E-1],"split_indices":[102,136,226,303,335,3,9,163,9,357,226,378,33,127,326,113,4,226,59,0,266,299,214,233,289,287,298,326,294,222,107,199,18,171,223,0,0,43,0,0,0,0,378,0,286,0,0,59,0,336,311,355,94,82,196,0,24,4,4,167,363,0,0,0,0,0,0,0,0,0,0,0,0,0,0,0,0,0,0,0,0,0,0,0,0,0,0,0,0,0,0,0,0,0,0,0,0,0,0],"split_type":[0,0,0,0,0,0,0,0,0,0,0,0,0,0,0,0,0,0,0,0,0,0,0,0,0,0,0,0,0,0,0,0,0,0,0,0,0,0,0,0,0,0,0,0,0,0,0,0,0,0,0,0,0,0,0,0,0,0,0,0,0,0,0,0,0,0,0,0,0,0,0,0,0,0,0,0,0,0,0,0,0,0,0,0,0,0,0,0,0,0,0,0,0,0,0,0,0,0,0],"sum_hessian":[3.6246985E2,1.1444271E2,2.4802715E2,8.752389E1,2.6918821E1,1.3173003E2,1.1629713E2,4.3820568E1,4.3703323E1,7.351945E0,1.9566877E1,1.7088915E1,1.14641106E2,5.3579327E1,6.2717796E1,8.9244175E0,3.4896152E1,2.8150644E0,4.0888256E1,4.5425887E0,2.8093565E0,1.5228415E1,4.3384624E0,7.1192837E0,9.969632E0,1.0281061E2,1.1830496E1,4.9114834E1,4.4644923E0,4.6004547E1,1.6713251E1,2.1084793E0,6.8159385E0,1.0316661E1,2.457949E1,1.2561817E0,1.5588827E0,3.9737816E1,1.1504402E0,1.2261451E0,1.5832112E0,1.581142E0,1.3647273E1,1.3769777E0,2.9614844E0,2.2471547E0,4.8721285E0,8.107862E0,1.8617693E0,1.00244705E2,2.5659053E0,8.199951E0,3.6305456E0,6.3256907E0,4.2789143E1,1.0672679E0,3.3972244E0,2.2523413E1,2.3481134E1,1.3684668E1,3.0285828E0,1.0006037E0,1.1078757E0,1.0213333E0,5.7946053E0,4.651813E0,5.6648474E0,2.108631E1,3.4931831E0,3.851683E1,1.220986E0,1.0998621E0,1.2547411E1,1.9341152E0,1.0273694E0,1.0186809E0,7.089182E0,1.084003E0,9.91607E1,1.0604613E0,1.505444E0,7.0682726E0,1.131678E0,1.0903693E0,2.5401762E0,2.7292192E0,3.5964718E0,1.6440406E0,4.1145103E1,2.2931604E0,1.104064E0,7.4488535E0,1.5074559E1,2.0767882E0,2.1404345E1,1.1750784E1,1.933884E0,1.08027E0,1.9483129E0],"tree_param":{"num_deleted":"0","num_feature":"384","num_nodes":"99","size_leaf_vector":"0"}},{"base_weights":[-1.9649588E-1,-4.4192556E-1,3.6274365E-1,-7.073138E-1,-3.5871625E-2,7.688031E-1,-1.3011357E-1,-1.4619887E-1,-8.1912005E-1,-5.535314E-1,3.4783572E-1,-2.3901653E-1,9.145912E-1,3.6308163E-1,-6.4352536E-1,5.1413125E-1,-5.6417835E-1,-8.454408E-1,6.950471E-1,-9.9760073E-1,-1.9256087E-1,-3.378216E-1,7.59144E-1,-8.7172824E-1,7.123383E-1,-1.4602453E-1,1.003259E0,-3.043187E-1,8.5630596E-1,-1.5159471E-2,-9.27339E-1,9.019843E-1,-7.186762E-1,2.7189633E-1,-8.271336E-1,-8.736501E-1,4.8243198E-1,-1.0371613E-1,-1.0753397E0,5.316649E-1,-3.8498878E-1,5.3538793E-1,-7.150085E-1,-7.973016E-2,9.253835E-1,-6.187013E-1,6.4228624E-1,1.0476687E0,-1.1672747E-1,6.219801E-1,-7.9907554E-1,1.0477805E0,-3.2734845E-2,5.029096E-1,-5.333899E-1,-1.0053123E0,6.679462E-2,1.2749314E0,-1.8533683E-1,-4.5817837E-1,7.2055304E-1,1.3256769E-1,-9.6578515E-1,-9.0347713E-1,3.716783E-1,8.953684E-1,-3.5231784E-1,1.5594444E-1,-7.688988E-1,9.6985924E-1,-2.773027E-1,9.2430055E-2,-9.5693594E-1,7.220787E-1,-5.404646E-1,1.1163968E0,2.2374533E-1,4.8766464E-2,1.0956054E0,8.550969E-1,-5.612388E-2,-1.0242981E0,1.9778666E-1,2.4499494E-1,1.105709E0,4.8534197E-1,-5.399512E-1,-1.7924656E-1,7.678765E-1,-8.67123E-1,1.72547E-1],"categories":[],"categories_nodes":[],"categories_segments":[],"categories_sizes":[],"default_left":[1,1,1,1,1,1,1,1,1,1,1,1,1,1,1,1,1,1,0,1,1,1,1,0,0,1,1,1,1,1,1,1,0,1,1,1,0,0,0,1,1,1,1,1,1,0,0,1,0,1,1,1,1,1,1,0,0,0,0,0,0,0,0,0,0,0,0,0,0,0,0,0,0,0,0,0,0,0,0,0,0,0,0,0,0,0,0,0,0,0,0],"id":7,"left_children":[1,3,5,7,9,11,13,15,17,19,21,23,25,27,29,31,33,35,-1,37,39,41,43,-1,-1,45,47,49,51,53,55,57,-1,59,61,63,-1,-1,-1,65,67,69,71,73,75,-1,-1,77,-1,79,81,83,85,87,89,-1,-1,-1,-1,-1,-1,-1,-1,-1,-1,-1,-1,-1,-1,-1,-1,-1,-1,-1,-1,-1,-1,-1,-1,-1,-1,-1,-1,-1,-1,-1,-1,-1,-1,-1,-1],"loss_changes":[4.224666E1,2.298798E1,1.892697E1,7.9791794E0,1.7167881E1,7.8182316E0,1.1210499E1,6.5461183E0,4.8690796E0,5.701456E0,1.4271404E1,5.0327764E0,4.41547E0,7.74933E0,3.8381605E0,5.0994616E0,3.3813286E0,4.3937225E0,0E0,1.0174389E0,3.2037594E0,6.7478843E0,4.4484634E0,0E0,0E0,2.0276234E0,2.2122421E0,5.2658477E0,2.3058567E0,2.3455708E0,1.2192831E0,3.287726E0,0E0,1.7018434E0,1.6142879E0,4.2060394E0,0E0,0E0,0E0,1.9029288E0,3.7712667E0,2.5292225E0,2.8083858E0,2.647083E0,3.2697659E0,0E0,0E0,1.8866692E0,0E0,7.09571E-1,1.8237095E0,2.4110699E-1,1.1382588E0,9.300413E-1,1.1752517E0,0E0,0E0,0E0,0E0,0E0,0E0,0E0,0E0,0E0,0E0,0E0,0E0,0E0,0E0,0E0,0E0,0E0,0E0,0E0,0E0,0E0,0E0,0E0,0E0,0E0,0E0,0E0,0E0,0E0,0E0,0E0,0E0,0E0,0E0,0E0,0E0],"parents":[2147483647,0,0,1,1,2,2,3,3,4,4,5,5,6,6,7,7,8,8,9,9,10,10,11,11,12,12,13,13,14,14,15,15,16,16,17,17,19,19,20,20,21,21,22,22,25,25,26,26,27,27,28,28,29,29,30,30,31,31,33,33,34,34,35,35,39,39,40,40,41,41,42,42,43,43,44,44,47,47,49,49,50,50,51,51,52,52,53,53,54,54],"right_children":[2,4,6,8,10,12,14,16,18,20,22,24,26,28,30,32,34,36,-1,38,40,42,44,-1,-1,46,48,50,52,54,56,58,-1,60,62,64,-1,-1,-1,66,68,70,72,74,76,-1,-1,78,-1,80,82,84,86,88,90,-1,-1,-1,-1,-1,-1,-1,-1,-1,-1,-1,-1,-1,-1,-1,-1,-1,-1,-1,-1,-1,-1,-1,-1,-1,-1,-1,-1,-1,-1,-1,-1,-1,-1,-1,-1],"split_conditions":[-1.2441259E-2,2.5577672E-2,-9.860324E-3,-4.5883324E-2,-2.247551E-3,-4.4761047E-2,2.287395E-4,-8.768721E-3,1.03367195E-1,-5.141689E-2,-2.2197884E-2,3.201534E-2,2.0080507E-2,-5.805628E-4,2.0752579E-2,6.7082485E-3,-8.298216E-3,5.134532E-2,2.0851414E-1,-4.2393856E-2,-6.270224E-2,-2.4360828E-2,-9.157149E-3,-2.6151848E-1,2.137015E-1,-3.4251648E-3,5.305502E-2,-4.9854264E-2,-1.9953452E-2,-1.5006499E-2,1.003153E-1,1.0508997E-2,-2.1560287E-1,-2.2844028E-2,-8.9443274E-2,6.002538E-2,1.447296E-1,-3.1114839E-2,-3.226019E-1,2.5500327E-2,-6.312166E-2,-3.2019097E-2,-1.7919853E-2,-6.407143E-2,2.6898397E-4,-1.8561038E-1,1.9268589E-1,-6.9457695E-2,-3.5018243E-2,-7.7612353E-3,4.174452E-2,-3.8325816E-2,-1.9651257E-2,-1.576785E-2,-4.4265598E-2,-3.0159372E-1,2.0038387E-2,3.8247946E-1,-5.560105E-2,-1.3745351E-1,2.1616592E-1,3.977031E-2,-2.8973556E-1,-2.7104315E-1,1.1150349E-1,2.6861054E-1,-1.0569536E-1,4.678333E-2,-2.3066965E-1,2.9095778E-1,-8.319081E-2,2.7729018E-2,-2.870808E-1,2.1662362E-1,-1.6213939E-1,3.3491904E-1,6.71236E-2,1.462994E-2,3.2868162E-1,2.5652906E-1,-1.6837165E-2,-3.0728942E-1,5.9336E-2,7.349849E-2,3.317127E-1,1.456026E-1,-1.6198537E-1,-5.377397E-2,2.3036297E-1,-2.601369E-1,5.17641E-2],"split_indices":[142,92,13,21,124,157,136,204,367,338,157,4,303,157,102,2,194,308,0,219,380,10,368,0,0,9,2,326,269,379,232,215,0,179,21,377,0,0,0,351,41,333,300,327,91,0,0,9,0,332,152,300,110,1,339,0,0,0,0,0,0,0,0,0,0,0,0,0,0,0,0,0,0,0,0,0,0,0,0,0,0,0,0,0,0,0,0,0,0,0,0],"split_type":[0,0,0,0,0,0,0,0,0,0,0,0,0,0,0,0,0,0,0,0,0,0,0,0,0,0,0,0,0,0,0,0,0,0,0,0,0,0,0,0,0,0,0,0,0,0,0,0,0,0,0,0,0,0,0,0,0,0,0,0,0,0,0,0,0,0,0,0,0,0,0,0,0,0,0,0,0,0,0,0,0,0,0,0,0,0,0,0,0,0,0],"sum_hessian":[3.056312E2,2.1255736E2,9.3073845E1,1.2809517E2,8.44622E1,5.0723465E1,4.235038E1,2.1666508E1,1.0642866E2,3.5766712E1,4.869548E1,6.329401E0,4.4394062E1,2.1749813E1,2.0600567E1,8.309305E0,1.3357203E1,1.0504432E2,1.384338E0,1.52465725E1,2.0520142E1,1.8325407E1,3.0370071E1,3.8515635E0,2.4778376E0,3.3751187E0,4.1018944E1,9.405662E0,1.2344152E1,6.737375E0,1.3863193E1,6.524868E0,1.7844366E0,3.1877253E0,1.01694765E1,1.0319414E2,1.8501834E0,1.4066213E0,1.38399515E1,3.937595E0,1.6582546E1,5.4014087E0,1.2923998E1,5.1090884E0,2.5260984E1,2.2444727E0,1.1306461E0,3.95166E1,1.5023428E0,3.1851618E0,6.2205E0,1.0009774E1,2.3343775E0,3.383996E0,3.3533788E0,1.2844509E1,1.0186834E0,4.7299643E0,1.7949039E0,1.2052556E0,1.9824697E0,1.2892922E0,8.880185E0,1.01048416E2,2.145721E0,2.7806513E0,1.1569436E0,7.130041E0,9.452504E0,3.3937097E0,2.007699E0,3.1220446E0,9.801953E0,1.6574392E0,3.4516492E0,1.9390896E1,5.8700886E0,1.9019146E0,3.761469E1,2.1760676E0,1.0090942E0,5.0516505E0,1.1688495E0,1.0256296E0,8.984145E0,1.1761601E0,1.1582174E0,1.0372118E0,2.3467844E0,2.1219113E0,1.2314674E0],"tree_param":{"num_deleted":"0","num_feature":"384","num_nodes":"91","size_leaf_vector":"0"}},{"base_weights":[-1.6698404E-1,1.0301617E-1,-6.195529E-1,-2.2092795E-1,5.248955E-1,6.410312E-1,-6.7553204E-1,1.7516312E-1,-5.0113E-1,1.31426845E-2,8.610989E-1,-1.541397E-1,9.051165E-1,-7.863402E-1,3.526871E-2,-3.6909288E-1,4.285935E-1,2.8915846E-1,-6.865833E-1,5.5458856E-1,-3.5375044E-1,-3.6278182E-1,9.310753E-1,-8.3619004E-1,4.3442422E-1,7.229838E-1,-4.5980132E-1,-7.181183E-1,4.6341252E-1,6.5850747E-1,-3.666098E-1,8.5880244E-1,-4.9234134E-1,1.4463766E-1,-7.98212E-1,9.1809857E-1,-2.035034E-1,-6.250115E-1,2.0809536E-1,3.9618723E-2,-5.796456E-1,9.6555704E-1,-2.215727E-1,4.6540746E-1,-8.7873447E-1,-3.824912E-1,8.5638005E-1,1.0246836E0,-1.9947855E-1,2.3549604E-1,-8.6455333E-1,1.00612536E-1,-1.0074693E0,8.1290114E-1,-2.3788348E-1,8.090408E-1,-3.0130655E-1,-7.3077834E-1,5.508614E-1,-4.3189034E-1,1.159921E0,-8.0178565E-1,4.2507276E-1,6.649993E-1,-6.202065E-1,-8.7895715E-1,1.6826586E-1,6.0929347E-2,1.029006E0,6.380819E-1,-6.810521E-1,3.7187168E-1,-8.123718E-1,-2.7831005E-2,6.746272E-1,1.0000708E0,-1.775726E-1,-4.5880127E-1,1.1482587E0,3.8979492E-1,-9.1232175E-1,6.013248E-1,-3.915528E-1],"categories":[],"categories_nodes":[],"categories_segments":[],"categories_sizes":[],"default_left":[1,1,1,1,1,1,1,1,1,1,1,0,0,1,1,1,1,1,1,1,1,1,1,1,1,1,1,1,1,1,1,1,1,1,1,1,1,1,1,0,0,1,0,1,1,0,0,0,0,1,0,0,0,0,0,0,0,0,0,0,0,0,0,0,0,0,0,0,0,0,0,0,0,0,0,0,0,0,0,0,0,0,0],"id":8,"left_children":[1,3,5,7,9,11,13,15,17,19,21,-1,-1,23,25,27,29,31,33,35,37,39,41,43,45,47,49,51,53,55,57,59,61,63,65,67,69,71,73,-1,-1,75,-1,77,79,-1,-1,-1,-1,81,-1,-1,-1,-1,-1,-1,-1,-1,-1,-1,-1,-1,-1,-1,-1,-1,-1,-1,-1,-1,-1,-1,-1,-1,-1,-1,-1,-1,-1,-1,-1,-1,-1],"loss_changes":[3.1894014E1,2.2530539E1,7.311775E0,1.0462416E1,1.2296207E1,1.1176242E0,7.4173203E0,5.602408E0,8.260412E0,6.0321107E0,4.03376E0,0E0,0E0,5.3053284E0,4.9663467E0,4.1326175E0,5.2496715E0,5.39031E0,4.276846E0,3.5641363E0,2.8919804E0,2.8944334E-1,1.8475609E0,4.7485695E0,1.6526719E0,1.8980608E0,2.6026983E0,2.3771524E0,1.2891595E0,3.3656445E0,2.669903E0,3.1509514E0,1.8567913E0,2.862663E0,3.24539E0,7.420368E-1,2.3598828E0,2.6314282E0,7.508074E-1,0E0,0E0,1.7594833E0,0E0,2.504797E0,3.6036034E0,0E0,0E0,0E0,0E0,1.1352582E0,0E0,0E0,0E0,0E0,0E0,0E0,0E0,0E0,0E0,0E0,0E0,0E0,0E0,0E0,0E0,0E0,0E0,0E0,0E0,0E0,0E0,0E0,0E0,0E0,0E0,0E0,0E0,0E0,0E0,0E0,0E0,0E0,0E0],"parents":[2147483647,0,0,1,1,2,2,3,3,4,4,5,5,6,6,7,7,8,8,9,9,10,10,13,13,14,14,15,15,16,16,17,17,18,18,19,19,20,20,21,21,22,22,23,23,24,24,25,25,26,26,27,27,28,28,29,29,30,30,31,31,32,32,33,33,34,34,35,35,36,36,37,37,38,38,41,41,43,43,44,44,49,49],"right_children":[2,4,6,8,10,12,14,16,18,20,22,-1,-1,24,26,28,30,32,34,36,38,40,42,44,46,48,50,52,54,56,58,60,62,64,66,68,70,72,74,-1,-1,76,-1,78,80,-1,-1,-1,-1,82,-1,-1,-1,-1,-1,-1,-1,-1,-1,-1,-1,-1,-1,-1,-1,-1,-1,-1,-1,-1,-1,-1,-1,-1,-1,-1,-1,-1,-1,-1,-1,-1,-1],"split_conditions":[1.28596015E-2,6.6124484E-2,-1.2161737E-2,1.8129729E-2,-3.1057248E-2,-4.086964E-2,4.7538616E-2,-1.19674355E-2,-7.341871E-3,-7.169042E-3,-7.77247E-2,-4.624191E-2,2.7153495E-1,2.5678322E-2,1.8552866E-2,1.9445572E-2,2.271671E-2,3.0266326E-2,-4.0308274E-2,1.8521175E-2,6.6417046E-2,-1.9332059E-2,-4.5271646E-3,-4.1706257E-2,-3.2333914E-2,-3.2214243E-3,1.1489883E-2,-5.350761E-2,4.8326075E-2,1.149003E-2,1.8116862E-2,-6.904988E-2,3.1819683E-2,2.8755523E-2,5.3426363E-2,-4.297907E-2,-2.0795234E-2,1.3332456E-2,-6.4680204E-2,1.1885618E-2,-1.7389368E-1,9.380411E-2,-6.6471815E-2,-8.300971E-3,-1.01299584E-1,-1.1474737E-1,2.5691402E-1,3.0740508E-1,-5.9843566E-2,1.6863748E-2,-2.59366E-1,3.0183762E-2,-3.022408E-1,2.4387035E-1,-7.136504E-2,2.4271224E-1,-9.039196E-2,-2.1923351E-1,1.6525844E-1,-1.295671E-1,3.4797633E-1,-2.405357E-1,1.2752183E-1,1.994998E-1,-1.8606195E-1,-2.6368716E-1,5.0479762E-2,1.8278806E-2,3.087018E-1,1.9142458E-1,-2.0431563E-1,1.1156151E-1,-2.4371155E-1,-8.349302E-3,2.0238817E-1,3.0002126E-1,-5.327178E-2,-1.3764039E-1,3.4447762E-1,1.1693848E-1,-2.7369654E-1,1.8039745E-1,-1.17465846E-1],"split_indices":[335,303,233,53,289,277,191,349,357,141,142,0,0,9,361,362,136,217,329,136,80,359,261,137,308,126,198,181,286,195,312,96,105,194,349,214,173,287,15,0,0,149,0,259,123,0,0,0,0,250,0,0,0,0,0,0,0,0,0,0,0,0,0,0,0,0,0,0,0,0,0,0,0,0,0,0,0,0,0,0,0,0,0],"split_type":[0,0,0,0,0,0,0,0,0,0,0,0,0,0,0,0,0,0,0,0,0,0,0,0,0,0,0,0,0,0,0,0,0,0,0,0,0,0,0,0,0,0,0,0,0,0,0,0,0,0,0,0,0,0,0,0,0,0,0,0,0,0,0,0,0,0,0,0,0,0,0,0,0,0,0,0,0,0,0,0,0,0,0],"sum_hessian":[2.5948965E2,1.630107E2,9.647894E1,9.247738E1,7.0533325E1,3.657822E0,9.282112E1,3.847058E1,5.4006794E1,2.8377516E1,4.215581E1,1.0157341E0,2.6420877E0,8.0210655E1,1.261047E1,1.2077368E1,2.6393213E1,1.0158459E1,4.3848335E1,1.1255511E1,1.7122004E1,2.0536325E0,4.0102177E1,7.7366425E1,2.8442285E0,5.085583E0,7.524887E0,8.606514E0,3.4708543E0,2.0607073E1,5.786141E0,5.8184266E0,4.340032E0,5.1564164E0,3.869192E1,7.464953E0,3.7905583E0,1.147123E1,5.6507745E0,1.0053922E0,1.0482402E0,3.9094955E1,1.007222E0,2.1341846E0,7.523224E1,1.0005909E0,1.8436375E0,3.7487173E0,1.3368658E0,2.922568E0,4.6023192E0,2.417729E0,6.1887846E0,2.2102447E0,1.2606096E0,1.7949097E1,2.6579766E0,4.287719E0,1.4984221E0,1.0185032E0,4.7999234E0,3.3396153E0,1.0004166E0,3.146344E0,2.0100722E0,3.579219E1,2.8997293E0,1.0327239E0,6.432229E0,1.25055E0,2.5400083E0,1.6590691E0,9.8121605E0,4.3774376E0,1.2733368E0,3.807066E1,1.0242964E0,1.0462463E0,1.0879383E0,1.6670084E0,7.356523E1,1.8716475E0,1.0509205E0],"tree_param":{"num_deleted":"0","num_feature":"384","num_nodes":"83","size_leaf_vector":"0"}},{"base_weights":[-1.4015073E-1,1.9558226E-1,-4.563606E-1,5.605724E-1,-1.535318E-1,-1.0906326E-1,-6.7423755E-1,8.3681273E-1,2.5684284E-2,3.237508E-1,-4.9795365E-1,-6.781558E-1,1.8064465E-1,1.2994504E-1,-7.625227E-1,-5.6710637E-1,8.9827394E-1,3.4173784E-1,-6.6336775E-1,6.346302E-1,-3.76789E-1,-7.3303896E-1,1.5630795E-1,1.69395E-1,-8.2981133E-1,-3.4821254E-1,5.0290895E-1,6.092953E-1,-7.447352E-1,-8.2486176E-1,2.3118673E-1,9.464688E-1,-3.3210725E-1,5.9273744E-1,-6.1019355E-1,-9.218711E-1,3.497269E-1,-2.8414753E-1,8.7190425E-1,-8.229679E-1,3.408596E-1,-3.2942547E-3,-8.8708574E-1,-5.400714E-1,5.462461E-1,6.872371E-1,-3.9870465E-1,-9.4253886E-1,5.228749E-2,2.0873381E-1,-7.566435E-1,1.0761602E0,1.20032944E-1,9.8173195E-1,-3.5331446E-1,-9.149603E-1,-1.6125168E-1,-3.479452E-1,8.1882334E-1,9.9911666E-1,-9.091738E-2,8.050339E-1,-2.1424848E-1,-7.7491736E-1,6.3356656E-1,9.684005E-1,-1.6911823E-1,2.2624923E-2,-1.0658947E0,-2.4988368E-1,6.445364E-1,6.6119677E-1,-6.317116E-1,1.925425E-2,-9.38301E-1,-1.2812414E-3,-7.335423E-1,-4.0538836E-1,8.481855E-1,-2.5819573E-1,-9.836218E-1,-3.540321E-1,8.0712485E-1,-9.074511E-1,-1.5057961E-4,-8.808448E-2,1.2993189E0,6.0311764E-1,-2.1014954E-1,1.1710445E0,1.830598E-1,3.3663284E-2,-9.6851987E-1,7.6270497E-1,-7.338745E-1],"categories":[],"categories_nodes":[],"categories_segments":[],"categories_sizes":[],"default_left":[1,1,1,1,1,1,1,1,1,1,1,1,1,1,1,0,1,1,1,1,1,1,1,1,1,1,1,1,0,1,1,1,0,1,0,0,0,1,1,1,1,1,1,1,1,0,0,1,0,1,1,1,1,1,0,1,1,0,0,0,0,0,0,0,0,0,0,0,0,0,0,0,0,0,0,0,0,0,0,0,0,0,0,0,0,0,0,0,0,0,0,0,0,0,0],"id":9,"left_children":[1,3,5,7,9,11,13,15,17,19,21,23,25,27,29,-1,31,33,35,37,39,41,43,45,47,49,51,53,-1,55,57,59,-1,61,-1,-1,-1,63,65,67,69,71,73,75,77,-1,-1,79,-1,81,83,85,87,89,-1,91,93,-1,-1,-1,-1,-1,-1,-1,-1,-1,-1,-1,-1,-1,-1,-1,-1,-1,-1,-1,-1,-1,-1,-1,-1,-1,-1,-1,-1,-1,-1,-1,-1,-1,-1,-1,-1,-1,-1],"loss_changes":[2.3775913E1,1.3964767E1,8.643404E0,7.878128E0,9.441628E0,7.6410832E0,5.1112747E0,3.5487766E0,4.416582E0,5.5245843E0,5.21875E0,2.1449585E0,5.460016E0,3.7400699E0,4.140358E0,0E0,2.3383904E0,3.670816E0,1.9958081E0,3.9935107E0,2.8700109E0,2.7612638E0,2.9008446E0,1.214597E0,1.3814144E0,2.963129E0,4.1896033E0,2.3592668E0,0E0,3.452671E0,1.8315868E0,1.8990021E0,0E0,2.1370058E0,0E0,0E0,0E0,2.4189658E0,1.5602407E0,1.1086414E0,8.441054E-1,2.6265342E0,9.6033764E-1,4.1054654E-1,2.2542956E0,0E0,0E0,8.147812E-2,0E0,2.3066618E0,8.3619213E-1,2.1290245E0,2.1880362E0,4.3759155E-1,0E0,2.7153625E0,5.0103073E0,0E0,0E0,0E0,0E0,0E0,0E0,0E0,0E0,0E0,0E0,0E0,0E0,0E0,0E0,0E0,0E0,0E0,0E0,0E0,0E0,0E0,0E0,0E0,0E0,0E0,0E0,0E0,0E0,0E0,0E0,0E0,0E0,0E0,0E0,0E0,0E0,0E0,0E0],"parents":[2147483647,0,0,1,1,2,2,3,3,4,4,5,5,6,6,7,7,8,8,9,9,10,10,11,11,12,12,13,13,14,14,16,16,17,17,18,18,19,19,20,20,21,21,22,22,23,23,24,24,25,25,26,26,27,27,29,29,30,30,31,31,33,33,37,37,38,38,39,39,40,40,41,41,42,42,43,43,44,44,47,47,49,49,50,50,51,51,52,52,53,53,55,55,56,56],"right_children":[2,4,6,8,10,12,14,16,18,20,22,24,26,28,30,-1,32,34,36,38,40,42,44,46,48,50,52,54,-1,56,58,60,-1,62,-1,-1,-1,64,66,68,70,72,74,76,78,-1,-1,80,-1,82,84,86,88,90,-1,92,94,-1,-1,-1,-1,-1,-1,-1,-1,-1,-1,-1,-1,-1,-1,-1,-1,-1,-1,-1,-1,-1,-1,-1,-1,-1,-1,-1,-1,-1,-1,-1,-1,-1,-1,-1,-1,-1,-1],"split_conditions":[3.611727E-2,-1.1342965E-2,-9.89225E-3,-2.0140756E-2,-2.4125222E-4,2.1480756E-2,3.697244E-2,-3.5360556E-2,-1.3796706E-2,-4.898349E-2,5.6101177E-2,-2.4000298E-2,-3.396425E-2,6.551354E-2,8.1514195E-2,-1.7013192E-1,2.6573675E-2,4.616913E-2,2.3375308E-2,-3.7664182E-2,7.182918E-2,-3.1202894E-2,5.390699E-2,-4.7979675E-2,5.0109647E-2,-2.6319506E-2,6.080121E-3,-3.3254206E-2,-2.2342056E-1,6.0562927E-2,2.4769057E-2,3.1867333E-2,-9.963218E-2,4.464916E-2,-1.8305807E-1,-2.7656135E-1,1.0491807E-1,-3.5423126E-2,-7.2630383E-3,-1.2436093E-2,-3.1491697E-2,-2.4084559E-2,-1.3768143E-2,5.249967E-3,-4.8925754E-2,2.0617114E-1,-1.196114E-1,-4.5932762E-2,1.5686247E-2,-4.730907E-2,3.831345E-2,-9.5077306E-2,6.043548E-2,6.487726E-2,-1.05994344E-1,-6.913465E-2,1.4302887E-3,-1.04383565E-1,2.4564701E-1,2.99735E-1,-2.7275214E-2,2.4151018E-1,-6.427455E-2,-2.3247522E-1,1.9006997E-1,2.9052016E-1,-5.073547E-2,6.787477E-3,-3.1976843E-1,-7.4965104E-2,1.9336092E-1,1.9835904E-1,-1.8951349E-1,5.7762754E-3,-2.8149033E-1,-3.8437246E-4,-2.200627E-1,-1.2161651E-1,2.5445566E-1,-7.7458724E-2,-2.9508653E-1,-1.06209636E-1,2.4213746E-1,-2.7223533E-1,-4.5173885E-5,-2.6425345E-2,3.897957E-1,1.809353E-1,-6.304487E-2,3.5131335E-1,5.4917943E-2,1.0098985E-2,-2.9055598E-1,2.288115E-1,-2.2016236E-1],"split_indices":[102,13,329,266,136,80,35,155,240,378,33,204,308,53,92,0,195,136,154,38,303,166,303,165,108,379,158,26,0,288,18,333,0,42,0,0,0,36,50,137,342,14,203,311,308,0,0,60,0,46,294,218,102,196,0,260,306,0,0,0,0,0,0,0,0,0,0,0,0,0,0,0,0,0,0,0,0,0,0,0,0,0,0,0,0,0,0,0,0,0,0,0,0,0,0],"split_type":[0,0,0,0,0,0,0,0,0,0,0,0,0,0,0,0,0,0,0,0,0,0,0,0,0,0,0,0,0,0,0,0,0,0,0,0,0,0,0,0,0,0,0,0,0,0,0,0,0,0,0,0,0,0,0,0,0,0,0,0,0,0,0,0,0,0,0,0,0,0,0,0,0,0,0,0,0,0,0,0,0,0,0,0,0,0,0,0,0,0,0,0,0,0,0],"sum_hessian":[2.2211786E2,1.0791818E2,1.1419968E2,5.246335E1,5.5454838E1,4.4602905E1,6.959677E1,3.4224045E1,1.8239302E1,2.326935E1,3.2185486E1,1.4594039E1,3.0008865E1,6.8380094E0,6.2758762E1,1.0903686E0,3.3133675E1,1.2849538E1,5.3897643E0,1.6182228E1,7.0871234E0,2.3589165E1,8.596322E0,2.1972723E0,1.2396767E1,1.1331917E1,1.8676949E1,4.6132317E0,2.2247777E0,5.9213966E1,3.544796E0,3.2106785E1,1.0268929E0,1.0466995E1,2.382543E0,4.3658175E0,1.023947E0,3.280778E0,1.290145E1,4.279625E0,2.8074985E0,4.289672E0,1.9299494E1,2.9474814E0,5.648841E0,1.0397723E0,1.1574999E0,1.0931288E1,1.4654787E0,5.001156E0,6.330761E0,6.7539873E0,1.1922961E1,3.3119595E0,1.3012722E0,5.1802025E1,7.41194E0,1.9907489E0,1.5540471E0,3.0591156E1,1.515627E0,8.288841E0,2.178154E0,2.2390122E0,1.0417657E0,1.1870857E1,1.030593E0,1.1574781E0,3.1221466E0,1.0133553E0,1.7941432E0,2.0596392E0,2.2300324E0,1.06562E0,1.8233873E1,1.0447147E0,1.9027667E0,1.2780727E0,4.370768E0,1.031625E0,9.899663E0,2.787742E0,2.213414E0,5.1121073E0,1.2186538E0,1.1837115E0,5.570276E0,4.5050607E0,7.417901E0,2.300438E0,1.0115216E0,2.7883022E0,4.901372E1,2.7089531E0,4.7029867E0],"tree_param":{"num_deleted":"0","num_feature":"384","num_nodes":"95","size_leaf_vector":"0"}},{"base_weights":[-1.2457507E-1,-3.9417282E-1,2.0720622E-1,-3.1777457E-3,-5.816731E-1,3.8832432E-1,-4.397955E-1,-2.3946182E-1,5.708714E-1,3.0312896E-1,-7.021414E-1,7.538596E-1,3.352814E-2,-7.2156E-1,8.6551234E-2,-6.379665E-1,1.7706081E-1,-5.6337434E-1,7.9637516E-1,-3.5065365E-1,6.861123E-1,-7.528502E-1,4.7340646E-1,2.105288E-1,9.199534E-1,4.4342846E-1,-4.5405185E-1,-8.6625904E-1,2.4833454E-1,-4.9247715E-1,6.2934923E-1,-8.123035E-1,1.572623E-1,-2.561259E-1,7.9137385E-1,9.711995E-1,-1.2388638E-1,3.478127E-1,-7.4519056E-1,-2.579743E-1,9.378508E-1,-8.260704E-1,-2.5643108E-2,9.4728416E-1,-2.6420125E-1,-4.0053746E-1,5.3358585E-1,2.6073295E-1,1.0107212E0,-9.7263865E-2,7.869596E-1,2.0387694E-1,-7.15503E-1,-9.429383E-1,-6.393817E-2,1.965879E-2,-7.04218E-1,9.877773E-1,-1.9070622E-1,2.19816E-1,-9.435042E-1,-3.6295864E-1,5.83891E-1,-6.3907963E-1,2.9969314E-1,1.0621424E0,-1.6697454E-1,1.06579E0,2.137821E-1,1.0646905E0,2.1885784E-1,-2.5439453E-1,-9.0666133E-1,-6.6182035E-1,3.5147202E-1,-7.2187144E-1,1.8511716E-1,7.729676E-1,-2.93451E-1,6.8786883E-1,-3.1503344E-1,2.858589E-1,1.035182E0,1.9394311E-1,-7.1627516E-1,9.248092E-1,-2.8799292E-1,5.880294E-1,-3.3924097E-1,-9.8558724E-1,2.7559238E-2],"categories":[],"categories_nodes":[],"categories_segments":[],"categories_sizes":[],"default_left":[1,1,1,1,1,1,1,1,1,1,1,1,1,1,1,1,1,0,1,1,1,1,1,1,1,1,1,1,0,1,1,1,1,1,1,1,0,0,0,0,1,1,1,0,0,1,1,1,1,1,1,1,1,0,0,0,0,0,0,0,0,0,0,0,0,0,0,0,0,0,0,0,0,0,0,0,0,0,0,0,0,0,0,0,0,0,0,0,0,0,0],"id":10,"left_children":[1,3,5,7,9,11,13,15,17,19,21,23,25,27,29,31,33,-1,35,37,39,41,43,45,47,49,51,53,-1,55,57,59,61,63,65,67,-1,-1,-1,-1,69,71,73,-1,-1,75,77,79,81,83,85,87,89,-1,-1,-1,-1,-1,-1,-1,-1,-1,-1,-1,-1,-1,-1,-1,-1,-1,-1,-1,-1,-1,-1,-1,-1,-1,-1,-1,-1,-1,-1,-1,-1,-1,-1,-1,-1,-1,-1],"loss_changes":[1.7175652E1,7.7529144E0,1.02870455E1,4.923385E0,7.832796E0,8.790888E0,2.932136E0,4.3795176E0,3.1562235E0,2.5605206E0,4.125143E0,2.8237133E0,7.304836E0,1.9989042E0,2.7110288E0,1.9790468E0,3.7554963E0,0E0,1.6076021E0,1.3847342E0,1.7109208E0,3.2265434E0,1.3787005E0,2.0150697E0,1.2509823E0,3.757134E0,3.0232208E0,6.33852E-1,0E0,4.7552073E-1,1.4764259E0,1.7124829E0,9.3077075E-1,2.0189E0,1.67348E0,3.368368E-1,0E0,0E0,0E0,0E0,2.3167658E-1,2.320938E0,1.81881E0,0E0,0E0,8.350146E-1,1.49348E0,1.3014841E0,9.2386246E-2,1.687081E0,2.078133E0,1.3543234E0,2.4739866E0,0E0,0E0,0E0,0E0,0E0,0E0,0E0,0E0,0E0,0E0,0E0,0E0,0E0,0E0,0E0,0E0,0E0,0E0,0E0,0E0,0E0,0E0,0E0,0E0,0E0,0E0,0E0,0E0,0E0,0E0,0E0,0E0,0E0,0E0,0E0,0E0,0E0,0E0],"parents":[2147483647,0,0,1,1,2,2,3,3,4,4,5,5,6,6,7,7,8,8,9,9,10,10,11,11,12,12,13,13,14,14,15,15,16,16,18,18,19,19,20,20,21,21,22,22,23,23,24,24,25,25,26,26,27,27,29,29,30,30,31,31,32,32,33,33,34,34,35,35,40,40,41,41,42,42,45,45,46,46,47,47,48,48,49,49,50,50,51,51,52,52],"right_children":[2,4,6,8,10,12,14,16,18,20,22,24,26,28,30,32,34,-1,36,38,40,42,44,46,48,50,52,54,-1,56,58,60,62,64,66,68,-1,-1,-1,-1,70,72,74,-1,-1,76,78,80,82,84,86,88,90,-1,-1,-1,-1,-1,-1,-1,-1,-1,-1,-1,-1,-1,-1,-1,-1,-1,-1,-1,-1,-1,-1,-1,-1,-1,-1,-1,-1,-1,-1,-1,-1,-1,-1,-1,-1,-1,-1],"split_conditions":[7.788838E-3,-3.7609585E-2,5.252535E-2,-5.0936295E-3,-4.3357916E-2,1.9609075E-2,2.2488348E-2,4.1082636E-3,-3.24554E-2,6.3426886E-3,2.9057015E-2,3.4329984E-2,-4.889018E-2,5.8091786E-2,-9.613905E-3,6.682244E-2,-6.5995604E-2,-1.6901231E-1,-3.0857967E-3,-1.317334E-2,-6.797668E-2,9.6527144E-2,4.033938E-2,-1.8943867E-2,1.37035735E-2,-2.5972437E-2,-1.9574229E-2,6.385545E-2,7.450037E-2,-8.532896E-3,-2.1518042E-2,-7.2217435E-2,-4.0170036E-2,3.0806236E-2,-2.8351579E-2,2.3050228E-2,-3.7165914E-2,1.0434382E-1,-2.2355717E-1,-7.7392295E-2,6.984172E-2,-3.716062E-2,-1.1852715E-2,2.8418526E-1,-7.926038E-2,-5.618643E-2,3.15369E-2,1.9125925E-2,-3.1860888E-2,-1.1749221E-2,-9.880477E-3,3.5806917E-2,-7.1131554E-3,-2.828815E-1,-1.9181453E-2,5.8976375E-3,-2.112654E-1,2.963332E-1,-5.721187E-2,6.5944806E-2,-2.8305128E-1,-1.088876E-1,1.7516729E-1,-1.917239E-1,8.9907944E-2,3.1864274E-1,-5.0092366E-2,3.1973702E-1,6.4134635E-2,3.1940717E-1,6.5657355E-2,-7.631836E-2,-2.719984E-1,-1.9854611E-1,1.0544161E-1,-2.1656144E-1,5.553515E-2,2.3189028E-1,-8.803531E-2,2.0636065E-1,-9.4510034E-2,8.575767E-2,3.1055462E-1,5.8182936E-2,-2.1488255E-1,2.7744278E-1,-8.639788E-2,1.7640883E-1,-1.0177229E-1,-2.9567617E-1,8.267771E-3],"split_indices":[57,379,53,344,329,24,305,226,157,191,292,33,378,108,294,217,265,0,126,174,45,303,209,214,249,124,347,330,0,296,266,186,9,236,326,136,0,0,0,0,153,262,124,0,0,265,347,287,216,61,258,188,20,0,0,0,0,0,0,0,0,0,0,0,0,0,0,0,0,0,0,0,0,0,0,0,0,0,0,0,0,0,0,0,0,0,0,0,0,0,0],"split_type":[0,0,0,0,0,0,0,0,0,0,0,0,0,0,0,0,0,0,0,0,0,0,0,0,0,0,0,0,0,0,0,0,0,0,0,0,0,0,0,0,0,0,0,0,0,0,0,0,0,0,0,0,0,0,0,0,0,0,0,0,0,0,0,0,0,0,0,0,0,0,0,0,0,0,0,0,0,0,0,0,0,0,0,0,0,0,0,0,0,0,0],"sum_hessian":[1.9010626E2,1.0477802E2,8.532823E1,3.428996E1,7.048806E1,6.697846E1,1.8349771E1,2.4704294E1,9.585667E0,8.265357E0,6.2222706E1,3.2435955E1,3.4542507E1,1.171018E1,6.6395907E0,1.2353517E1,1.2350778E1,1.3412272E0,8.24444E0,3.084422E0,5.180935E0,5.9994347E1,2.2283583E0,8.124944E0,2.4311012E1,1.8815329E1,1.5727179E1,1.0282919E1,1.4272614E0,3.2574358E0,3.382155E0,1.0114629E1,2.238888E0,7.585139E0,4.765639E0,6.881746E0,1.362694E0,1.1561196E0,1.9283024E0,1.0854471E0,4.095488E0,5.4382763E1,5.611583E0,1.1836526E0,1.0447056E0,2.7269847E0,5.3979588E0,3.4109309E0,2.090008E1,7.5884876E0,1.1226841E1,4.5350814E0,1.1192097E1,9.225918E0,1.0570012E0,1.2181827E0,2.0392532E0,2.2111745E0,1.1709803E0,1.0645661E0,9.050062E0,1.0760356E0,1.1628524E0,4.4022408E0,3.1828978E0,3.6313453E0,1.1342934E0,5.755793E0,1.1259527E0,3.0726283E0,1.0228598E0,7.232843E0,4.714992E1,1.807482E0,3.8041012E0,1.6106646E0,1.1163201E0,4.236967E0,1.1609918E0,1.8464379E0,1.564493E0,1.0963924E0,1.9803688E1,5.6276917E0,1.9607961E0,1.00745735E1,1.1522673E0,2.6078398E0,1.9272417E0,7.969133E0,3.2229638E0],"tree_param":{"num_deleted":"0","num_feature":"384","num_nodes":"91","size_leaf_vector":"0"}},{"base_weights":[-1.05118744E-1,-5.0896317E-1,8.6830616E-2,-6.483929E-1,3.687874E-1,5.5627894E-1,-1.1267318E-1,-7.426287E-1,1.0110689E-1,6.2174237E-1,-5.1194257E-1,-6.061597E-1,6.530876E-1,-3.4187987E-1,3.8378453E-1,-7.945034E-1,2.3459318E-1,-6.304718E-1,5.564897E-1,-1.4371179E-1,8.008751E-1,-4.4066286E-1,7.400506E-1,5.837244E-2,-5.775145E-1,-1.9342026E-1,7.382218E-1,1.8671572E-1,-8.3231556E-1,7.9242134E-1,-7.908903E-2,1.7823875E-1,9.032472E-1,-3.3348247E-1,8.0428237E-1,2.816827E-1,-6.2359786E-1,-7.581927E-1,5.5230394E-2,-5.803179E-1,2.999934E-1,8.6400616E-1,-2.0946543E-1,1.1895442E-1,-8.6686534E-1,9.497606E-1,2.099106E-1,5.9978956E-1,-5.3537375E-1,-7.940226E-1,7.024589E-2,-8.430753E-1,2.8227314E-1,2.6760697E-1,-4.5829383E-1,2.3066403E-1,-8.4521186E-1,6.4017755E-1,-2.4489346E-1,1.003209E0,-1.8517897E-1],"categories":[],"categories_nodes":[],"categories_segments":[],"categories_sizes":[],"default_left":[1,1,1,1,1,1,1,1,1,1,0,0,1,1,1,1,0,0,1,0,1,0,1,1,1,1,1,0,1,0,0,0,0,0,1,1,1,1,1,1,1,1,0,0,0,0,0,0,0,0,0,0,0,0,0,0,0,0,0,0,0],"id":11,"left_children":[1,3,5,7,9,11,13,15,17,19,-1,-1,21,23,25,27,-1,-1,29,-1,31,-1,33,35,37,39,41,-1,43,-1,-1,-1,-1,-1,45,47,49,51,53,55,57,59,-1,-1,-1,-1,-1,-1,-1,-1,-1,-1,-1,-1,-1,-1,-1,-1,-1,-1,-1],"loss_changes":[1.2807903E1,6.74918E0,1.0595498E1,3.3427372E0,2.0847418E0,4.1892166E0,9.206489E0,2.2758083E0,2.365532E0,1.0216293E0,0E0,0E0,3.3316069E0,5.2295933E0,5.39278E0,1.6160183E0,0E0,0E0,7.0124006E-1,0E0,1.9019794E-1,0E0,2.3123264E0,3.4229608E0,4.0167427E0,2.189106E0,2.100956E0,0E0,1.3549862E0,0E0,0E0,0E0,0E0,0E0,2.2445488E0,4.675147E0,7.1453905E-1,2.6325932E0,1.066556E0,1.5391192E0,1.1388755E0,2.2909985E0,0E0,0E0,0E0,0E0,0E0,0E0,0E0,0E0,0E0,0E0,0E0,0E0,0E0,0E0,0E0,0E0,0E0,0E0,0E0],"parents":[2147483647,0,0,1,1,2,2,3,3,4,4,5,5,6,6,7,7,8,8,9,9,12,12,13,13,14,14,15,15,18,18,20,20,22,22,23,23,24,24,25,25,26,26,28,28,34,34,35,35,36,36,37,37,38,38,39,39,40,40,41,41],"right_children":[2,4,6,8,10,12,14,16,18,20,-1,-1,22,24,26,28,-1,-1,30,-1,32,-1,34,36,38,40,42,-1,44,-1,-1,-1,-1,-1,46,48,50,52,54,56,58,60,-1,-1,-1,-1,-1,-1,-1,-1,-1,-1,-1,-1,-1,-1,-1,-1,-1,-1,-1],"split_conditions":[-1.5405849E-2,5.3178847E-2,1.0631094E-2,4.9463E-2,4.364057E-2,-3.52469E-2,1.6690474E-2,9.1182336E-2,1.3903023E-3,4.9590938E-2,-1.5358278E-1,-1.8184792E-1,-4.461744E-2,7.778323E-2,1.3858382E-2,-3.0517204E-2,7.037796E-2,-1.8914156E-1,3.663057E-2,-4.3113537E-2,-3.3087842E-2,-1.3219887E-1,-2.5399055E-2,7.7328935E-2,7.3138595E-2,-4.380454E-2,-1.0588322E-2,5.601472E-2,-3.0891007E-2,2.377264E-1,-2.3726711E-2,5.347163E-2,2.7097416E-1,-1.0004475E-1,-4.6724826E-2,1.03818085E-2,4.746359E-2,6.756657E-2,-1.636973E-2,-1.737128E-2,5.8667503E-2,8.2728356E-2,-6.2839635E-2,3.568633E-2,-2.6005962E-1,2.849282E-1,6.297319E-2,1.7993687E-1,-1.6061214E-1,-2.3820679E-1,2.1073768E-2,-2.529226E-1,8.468194E-2,8.028209E-2,-1.3748816E-1,6.919921E-2,-2.5356358E-1,1.9205327E-1,-7.3468044E-2,3.0096272E-1,-5.5553693E-2],"split_indices":[214,124,213,163,192,92,255,80,60,303,0,0,57,35,331,286,0,0,132,0,179,0,156,53,80,112,378,0,24,0,0,0,0,0,261,205,236,1,61,352,32,37,0,0,0,0,0,0,0,0,0,0,0,0,0,0,0,0,0,0,0],"split_type":[0,0,0,0,0,0,0,0,0,0,0,0,0,0,0,0,0,0,0,0,0,0,0,0,0,0,0,0,0,0,0,0,0,0,0,0,0,0,0,0,0,0,0,0,0,0,0,0,0,0,0,0,0,0,0,0,0,0,0,0,0],"sum_hessian":[1.6365546E2,5.2193474E1,1.1146199E2,4.526455E1,6.9289246E0,3.2708344E1,7.875365E1,4.021715E1,5.047398E0,5.611347E0,1.3175777E0,2.1100714E0,3.0598272E1,5.4091717E1,2.466193E1,3.836744E1,1.8497132E0,1.7889454E0,3.2584527E0,1.1016427E0,4.509704E0,1.9540877E0,2.8644184E1,2.0323023E1,3.3768692E1,9.555306E0,1.5106624E1,1.2775394E0,3.70899E1,2.1963716E0,1.062081E0,1.0238205E0,3.4858837E0,1.3804389E0,2.7263746E1,1.5752007E1,4.5710163E0,2.6113743E1,7.6549497E0,5.25702E0,4.2982864E0,1.3414455E1,1.6921684E0,1.2142617E0,3.5875637E1,2.1422466E1,5.841279E0,1.1529219E1,4.2227883E0,3.5537477E0,1.0172685E0,2.4319445E1,1.7942982E0,5.754119E0,1.9008311E0,1.326159E0,3.930861E0,2.5385408E0,1.7597454E0,1.1881829E1,1.532626E0],"tree_param":{"num_deleted":"0","num_feature":"384","num_nodes":"61","size_leaf_vector":"0"}},{"base_weights":[-9.086368E-2,1.7590368E-1,-3.4450132E-1,4.379576E-1,-1.6727689E-1,-7.691296E-1,-1.8066292E-1,8.262223E-1,7.213911E-2,1.2399747E-1,-5.74704E-1,-7.825428E-3,-8.942513E-1,-6.296205E-1,-1.1643799E-2,9.175486E-1,-1.3064648E-1,-6.92468E-1,2.396792E-1,-6.384855E-1,3.4862334E-1,-7.5646716E-1,4.408021E-1,-5.089652E-1,4.6866885E-1,-9.4800985E-1,-1.073504E-2,2.5606927E-1,-8.11266E-1,-2.6323283E-1,3.9923185E-1,9.914103E-1,-1.5397133E-1,-1.6447024E-1,-8.1626165E-1,-2.6023808E-1,5.356444E-1,-8.019333E-1,-4.6250146E-2,7.48658E-1,-4.1873924E-2,2.1759948E-1,-8.680567E-1,-3.6831516E-1,8.0257136E-1,-9.359229E-1,2.6484329E-1,-6.6899496E-1,1.5943615E-1,-8.3840966E-2,1.0148102E0,1.023875E0,2.3764443E-1,5.200825E-1,-5.1388055E-1,7.169884E-1,-3.786653E-1,8.97392E-1,-6.151252E-2,-4.7926798E-1,5.2383244E-1,-1.6867687E-1,-9.231116E-1,-8.3545697E-1,1.1760721E-1,5.489072E-1,-3.5484818E-1,4.3186048E-1,-2.5936452E-1,1.0880723E-1,1.3274858E0],"categories":[],"categories_nodes":[],"categories_segments":[],"categories_sizes":[],"default_left":[1,1,1,1,1,1,1,1,1,1,1,1,1,1,1,1,0,1,1,1,1,1,0,0,0,0,0,1,1,1,1,1,0,0,0,1,1,0,0,1,1,0,1,0,0,0,0,1,1,1,1,0,0,0,0,0,0,0,0,0,0,0,0,0,0,0,0,0,0,0,0],"id":12,"left_children":[1,3,5,7,9,11,13,15,17,19,21,23,25,27,29,31,-1,33,35,37,39,41,-1,-1,-1,-1,-1,43,45,47,49,51,-1,-1,-1,53,55,-1,-1,57,59,-1,61,-1,-1,-1,-1,63,65,67,69,-1,-1,-1,-1,-1,-1,-1,-1,-1,-1,-1,-1,-1,-1,-1,-1,-1,-1,-1,-1],"loss_changes":[9.868987E0,6.486642E0,5.054282E0,5.7230163E0,3.821452E0,1.9434528E0,4.179197E0,1.8374548E0,2.991652E0,3.519558E0,2.7978544E0,1.1695962E0,8.246641E-1,2.632341E0,4.353727E0,1.5825481E0,0E0,1.4169359E-1,2.9263735E0,4.2112422E-1,2.4551563E0,1.4598169E0,0E0,0E0,0E0,0E0,0E0,1.4301496E0,1.9576521E0,4.5818853E0,4.8448925E0,1.7357254E-1,0E0,0E0,0E0,1.7868431E0,2.2874494E0,0E0,0E0,9.851494E-1,2.428171E0,0E0,2.559471E-1,0E0,0E0,0E0,0E0,1.8666954E0,2.916508E0,1.007423E0,1.8709259E0,0E0,0E0,0E0,0E0,0E0,0E0,0E0,0E0,0E0,0E0,0E0,0E0,0E0,0E0,0E0,0E0,0E0,0E0,0E0,0E0],"parents":[2147483647,0,0,1,1,2,2,3,3,4,4,5,5,6,6,7,7,8,8,9,9,10,10,11,11,12,12,13,13,14,14,15,15,17,17,18,18,19,19,20,20,21,21,27,27,28,28,29,29,30,30,31,31,35,35,36,36,39,39,40,40,42,42,47,47,48,48,49,49,50,50],"right_children":[2,4,6,8,10,12,14,16,18,20,22,24,26,28,30,32,-1,34,36,38,40,42,-1,-1,-1,-1,-1,44,46,48,50,52,-1,-1,-1,54,56,-1,-1,58,60,-1,62,-1,-1,-1,-1,64,66,68,70,-1,-1,-1,-1,-1,-1,-1,-1,-1,-1,-1,-1,-1,-1,-1,-1,-1,-1,-1,-1],"split_conditions":[3.611727E-2,9.616507E-3,1.0234315E-2,1.967176E-2,-1.7257206E-2,-7.151162E-2,-2.1556234E-2,2.8869009E-2,-2.9656764E-2,9.833719E-3,-4.497001E-3,-3.1680476E-2,4.7079127E-2,-1.421176E-1,1.5467315E-2,5.127212E-3,-3.9193947E-2,-1.3572523E-2,-5.843385E-2,2.493408E-2,1.3892294E-4,-1.74158E-2,1.3224064E-1,-1.5268956E-1,1.4060067E-1,-2.8440297E-1,-3.220512E-3,1.1313327E-2,7.779078E-2,7.5443974E-3,6.251432E-2,6.9768645E-2,-4.61914E-2,-4.9341075E-2,-2.448785E-1,-9.8369986E-2,2.2566618E-2,-2.4057999E-1,-1.3875044E-2,5.7115674E-2,5.045049E-2,6.527985E-2,-8.742647E-2,-1.10494554E-1,2.4077141E-1,-2.807769E-1,7.945299E-2,-2.673522E-2,-6.1795067E-2,1.7550165E-2,-1.3388272E-2,3.0716252E-1,7.129333E-2,1.5602475E-1,-1.5416417E-1,2.1509652E-1,-1.1359959E-1,2.692176E-1,-1.8453756E-2,-1.437804E-1,1.5714973E-1,-5.0603062E-2,-2.769335E-1,-2.506371E-1,3.5282165E-2,1.6467217E-1,-1.06454454E-1,1.2955815E-1,-7.7809356E-2,3.264217E-2,3.9824575E-1],"split_indices":[102,136,80,24,333,186,226,2,157,151,12,289,171,69,159,345,0,59,96,191,324,147,0,0,0,0,0,328,92,4,160,206,0,0,0,71,347,0,0,42,279,0,299,0,0,0,0,96,251,356,92,0,0,0,0,0,0,0,0,0,0,0,0,0,0,0,0,0,0,0,0],"split_type":[0,0,0,0,0,0,0,0,0,0,0,0,0,0,0,0,0,0,0,0,0,0,0,0,0,0,0,0,0,0,0,0,0,0,0,0,0,0,0,0,0,0,0,0,0,0,0,0,0,0,0,0,0,0,0,0,0,0,0,0,0,0,0,0,0,0,0,0,0,0,0],"sum_hessian":[1.4396103E2,7.031383E1,7.36472E1,3.971281E1,3.0601019E1,1.947595E1,5.417125E1,1.8654808E1,2.1058002E1,1.8249731E1,1.2351287E1,2.899071E0,1.657688E1,1.4070717E1,4.0100533E1,1.7066978E1,1.5878289E0,3.2217355E0,1.7836266E1,3.733633E0,1.4516098E1,1.0692537E1,1.6587499E0,1.3797798E0,1.5192912E0,1.55572815E1,1.0195975E0,2.32491E0,1.1745807E1,2.509413E1,1.5006401E1,1.603633E1,1.0306497E0,1.0541627E0,2.1675727E0,6.6776705E0,1.1158596E1,2.6485856E0,1.0850475E0,6.7174215E0,7.798677E0,1.0013902E0,9.691147E0,1.2373147E0,1.0875952E0,1.0643169E1,1.1026376E0,1.2505789E1,1.2588342E1,8.892134E0,6.114268E0,1.5030616E1,1.0057137E0,1.3804175E0,5.297253E0,9.491807E0,1.6667887E0,5.5845346E0,1.1328868E0,4.4842963E0,3.3143806E0,1.0037673E0,8.68738E0,1.0270269E1,2.2355194E0,7.1251183E0,5.4632235E0,1.8871453E0,7.004988E0,1.9145865E0,4.1996813E0],"tree_param":{"num_deleted":"0","num_feature":"384","num_nodes":"71","size_leaf_vector":"0"}},{"base_weights":[-7.809556E-2,-2.3662142E-1,3.0647838E-1,1.4633968E-1,-4.2566755E-1,5.674149E-2,7.018817E-1,-3.246935E-1,4.5551932E-1,-6.212871E-2,-6.2088394E-1,3.4960565E-1,-2.677094E-1,8.5729665E-1,-9.041151E-2,7.7546716E-1,-5.4076946E-1,-1.5298152E-1,6.896736E-1,3.8715476E-1,-3.579927E-1,1.3156942E-1,-7.057328E-1,6.466364E-1,-2.4802624E-1,-6.8633956E-1,3.9824907E-2,1.02000944E-1,9.1735107E-1,-5.0271034E-1,3.170437E-1,3.9407897E-1,-6.81268E-1,5.8791196E-1,-4.9818993E-1,8.390349E-1,-1.9745551E-1,-1.811084E-1,6.317788E-1,4.3949926E-1,-6.3287747E-1,-2.8048587E-1,6.7029643E-1,-7.844981E-1,1.3730688E-1,-2.8366175E-1,8.055372E-1,-5.414977E-1,3.3540758E-1,-7.984356E-1,-1.24557935E-1,5.2059925E-1,-1.2000211E-1,8.751571E-2,-8.3171827E-1,1.3674447E-1,-7.076912E-1,9.658558E-1,-6.956179E-2,-4.8283654E-1,2.6670644E-1,8.923443E-1,9.956466E-2,-1.6999796E-1,7.29832E-1,-8.138769E-1,2.549589E-1,2.2472122E-1,-6.047172E-1,2.1701181E-1,-8.3342254E-1,5.260052E-1,-4.108352E-1,9.19033E-1,6.578794E-2,-6.268626E-2,-6.9396186E-1,6.0839586E-2,-5.1724285E-1],"categories":[],"categories_nodes":[],"categories_segments":[],"categories_sizes":[],"default_left":[1,1,1,1,1,1,1,1,1,1,1,1,1,1,1,0,1,1,1,1,1,1,1,1,1,1,1,0,0,0,0,0,1,0,1,1,0,1,1,1,1,1,0,1,1,0,1,1,0,0,0,0,1,0,0,0,0,0,0,0,0,0,0,0,0,0,0,0,0,0,0,0,0,0,0,0,0,0,0],"id":13,"left_children":[1,3,5,7,9,11,13,15,17,19,21,23,25,27,29,-1,31,33,35,37,39,41,43,45,47,49,51,-1,-1,-1,-1,-1,53,-1,55,57,-1,59,61,63,65,67,-1,69,71,-1,73,75,-1,-1,-1,-1,77,-1,-1,-1,-1,-1,-1,-1,-1,-1,-1,-1,-1,-1,-1,-1,-1,-1,-1,-1,-1,-1,-1,-1,-1,-1,-1],"loss_changes":[7.8259077E0,6.6229463E0,3.6688807E0,4.617955E0,4.2852936E0,2.3842323E0,1.8569016E0,3.449554E0,2.8050942E0,3.115825E0,2.6165676E0,2.486518E0,1.5726421E0,4.5873833E-1,7.0945776E-1,0E0,1.7452645E0,1.8487744E0,2.0026126E0,1.4174312E0,3.3524754E0,1.2643191E0,2.4769707E0,1.5634458E0,1.0502787E0,2.2411847E-1,6.6681373E-1,0E0,0E0,0E0,0E0,0E0,1.2457409E0,0E0,7.207788E-1,1.4564056E0,0E0,6.1492836E-1,8.50754E-1,8.646307E-1,1.9493194E0,7.013869E-1,0E0,1.7870522E0,1.0470034E0,0E0,6.089859E-1,2.3083234E-1,0E0,0E0,0E0,0E0,5.1387894E-1,0E0,0E0,0E0,0E0,0E0,0E0,0E0,0E0,0E0,0E0,0E0,0E0,0E0,0E0,0E0,0E0,0E0,0E0,0E0,0E0,0E0,0E0,0E0,0E0,0E0,0E0],"parents":[2147483647,0,0,1,1,2,2,3,3,4,4,5,5,6,6,7,7,8,8,9,9,10,10,11,11,12,12,13,13,14,14,16,16,17,17,18,18,19,19,20,20,21,21,22,22,23,23,24,24,25,25,26,26,32,32,34,34,35,35,37,37,38,38,39,39,40,40,41,41,43,43,44,44,46,46,47,47,52,52],"right_children":[2,4,6,8,10,12,14,16,18,20,22,24,26,28,30,-1,32,34,36,38,40,42,44,46,48,50,52,-1,-1,-1,-1,-1,54,-1,56,58,-1,60,62,64,66,68,-1,70,72,-1,74,76,-1,-1,-1,-1,78,-1,-1,-1,-1,-1,-1,-1,-1,-1,-1,-1,-1,-1,-1,-1,-1,-1,-1,-1,-1,-1,-1,-1,-1,-1,-1],"split_conditions":[8.061983E-2,-3.338571E-2,-3.571128E-2,-3.8964894E-2,7.03293E-3,-2.6380993E-2,-1.840045E-2,-1.0917366E-1,-3.274996E-2,-2.1127978E-2,-8.045316E-2,3.1056998E-3,5.5027023E-2,-5.931197E-2,-4.5826025E-2,2.3264016E-1,-1.11235175E-2,-2.2793947E-2,2.126276E-3,-1.5046145E-2,-7.8307614E-2,-2.0142019E-2,6.5688685E-2,-6.1870117E-2,1.9907953E-2,4.1023586E-2,-1.0487879E-2,3.0600285E-2,2.7520534E-1,-1.508131E-1,9.511311E-2,1.182237E-1,9.500356E-3,1.763736E-1,-3.8148303E-2,-2.5433421E-2,-5.9236657E-2,-2.4119567E-2,1.1007708E-2,-3.090112E-3,7.524191E-2,-9.490556E-3,2.0108894E-1,-7.945151E-2,9.923045E-2,-8.509853E-2,9.000628E-2,-2.0028003E-3,1.0062228E-1,-2.395307E-1,-3.736738E-2,1.5617979E-1,-1.0150642E-1,2.6254715E-2,-2.4951549E-1,4.1023344E-2,-2.1230736E-1,2.8975675E-1,-2.0868536E-2,-1.4485097E-1,8.0011934E-2,2.677033E-1,2.9869398E-2,-5.099939E-2,2.189496E-1,-2.4416308E-1,7.6487675E-2,6.741637E-2,-1.8141517E-1,6.5103546E-2,-2.5002676E-1,1.5780157E-1,-1.2325057E-1,2.757099E-1,1.9736383E-2,-1.8805878E-2,-2.0818856E-1,1.8251877E-2,-1.5517285E-1],"split_indices":[303,364,325,308,361,345,378,12,317,2,186,54,33,344,150,0,213,59,326,255,165,292,73,292,4,90,27,0,0,0,0,0,53,0,21,8,0,9,136,234,80,358,0,260,221,0,160,349,0,0,0,0,69,0,0,0,0,0,0,0,0,0,0,0,0,0,0,0,0,0,0,0,0,0,0,0,0,0,0],"split_type":[0,0,0,0,0,0,0,0,0,0,0,0,0,0,0,0,0,0,0,0,0,0,0,0,0,0,0,0,0,0,0,0,0,0,0,0,0,0,0,0,0,0,0,0,0,0,0,0,0,0,0,0,0,0,0,0,0,0,0,0,0,0,0,0,0,0,0,0,0,0,0,0,0,0,0,0,0,0,0],"sum_hessian":[1.2617788E2,8.962013E1,3.6557743E1,2.969376E1,5.9926373E1,2.3106913E1,1.3450832E1,1.1747042E1,1.794672E1,2.1397486E1,3.852889E1,1.2103874E1,1.1003038E1,1.1176435E1,2.2743962E0,1.5034244E0,1.0243617E1,5.0833063E0,1.2863413E1,8.373449E0,1.3024035E1,3.8485649E0,3.4680325E1,8.030576E0,4.0732985E0,4.1381903E0,6.8648486E0,1.0219532E0,1.0154483E1,1.0142791E0,1.260117E0,1.1025579E0,9.141059E0,1.3922235E0,3.6910832E0,1.1056159E1,1.8072541E0,2.5979772E0,5.775472E0,3.184976E0,9.839059E0,2.4522617E0,1.3963033E0,3.178051E1,2.8998141E0,1.0570188E0,6.973557E0,2.7579217E0,1.3153769E0,3.098641E0,1.0395492E0,1.1495699E0,5.7152786E0,1.5645742E0,7.5764847E0,1.001904E0,2.6891792E0,9.646668E0,1.4094899E0,1.5054388E0,1.0925385E0,3.4229658E0,2.3525064E0,1.1613722E0,2.023604E0,8.242084E0,1.5969759E0,1.0785733E0,1.3736883E0,1.3201746E0,3.0460335E1,1.7203006E0,1.1795136E0,5.8358383E0,1.1377186E0,1.006905E0,1.7510167E0,4.509292E0,1.2059864E0],"tree_param":{"num_deleted":"0","num_feature":"384","num_nodes":"79","size_leaf_vector":"0"}},{"base_weights":[-6.0743082E-2,3.2305953E-1,-2.0326495E-1,-2.2876643E-2,7.1684843E-1,-6.365773E-1,-7.889318E-2,3.7640274E-1,-3.7040323E-1,8.2241315E-1,-1.6170602E-1,2.0189504E-1,-7.7656305E-1,-5.653104E-1,5.2493714E-2,-1.522269E-1,6.534911E-1,2.6688004E-1,-5.784085E-1,8.8987416E-1,7.244866E-2,-3.793091E-1,6.635703E-1,2.9861972E-1,-8.7771094E-1,-7.0556253E-1,3.276474E-1,-1.4788483E-1,4.1287228E-1,3.4135583E-1,-4.741791E-1,8.280157E-1,5.1073376E-2,-5.9353873E-2,4.579475E-1,-7.4735737E-1,2.722252E-1,9.588488E-1,2.0484887E-1,-9.172134E-1,-1.7090738E-1,-8.0758667E-1,1.765252E-1,1.0327269E-1,-6.60168E-1,7.822972E-1,-7.903776E-2,-1.4183958E-1,-8.340168E-1,-7.719904E-2,-8.9727074E-1,2.7496806E-1,-3.235234E-1,1.2948313E-1,-8.1007296E-1,8.921755E-1,-1.17691144E-1,-4.837006E-1,3.656362E-1],"categories":[],"categories_nodes":[],"categories_segments":[],"categories_sizes":[],"default_left":[1,1,1,1,1,1,1,1,1,1,0,1,1,1,1,1,1,1,1,1,0,0,0,0,1,1,0,1,1,0,0,0,0,0,0,1,0,0,0,0,0,1,0,1,1,1,1,0,0,0,0,0,0,0,0,0,0,0,0],"id":14,"left_children":[1,3,5,7,9,11,13,15,17,19,-1,21,23,25,27,29,31,33,35,37,-1,-1,-1,-1,39,41,-1,43,45,-1,-1,-1,-1,-1,-1,47,-1,-1,-1,-1,-1,49,-1,51,53,55,57,-1,-1,-1,-1,-1,-1,-1,-1,-1,-1,-1,-1],"loss_changes":[6.1859317E0,4.196329E0,4.3798733E0,2.540452E0,1.4666882E0,2.2919512E0,4.18454E0,1.3515884E0,1.4475114E0,5.933504E-1,0E0,1.1629978E0,1.9798365E0,1.9733772E0,3.8234086E0,7.579034E-1,5.6722546E-1,2.1946603E-1,1.3058019E0,3.630352E-1,0E0,0E0,0E0,0E0,2.5341034E-1,1.2530675E0,0E0,4.471047E0,3.4930317E0,0E0,0E0,0E0,0E0,0E0,0E0,2.3151755E-1,0E0,0E0,0E0,0E0,0E0,6.6698885E-1,0E0,1.8349731E0,1.4535093E0,1.1804175E0,1.7975037E0,0E0,0E0,0E0,0E0,0E0,0E0,0E0,0E0,0E0,0E0,0E0,0E0],"parents":[2147483647,0,0,1,1,2,2,3,3,4,4,5,5,6,6,7,7,8,8,9,9,11,11,12,12,13,13,14,14,15,15,16,16,17,17,18,18,19,19,24,24,25,25,27,27,28,28,35,35,41,41,43,43,44,44,45,45,46,46],"right_children":[2,4,6,8,10,12,14,16,18,20,-1,22,24,26,28,30,32,34,36,38,-1,-1,-1,-1,40,42,-1,44,46,-1,-1,-1,-1,-1,-1,48,-1,-1,-1,-1,-1,50,-1,52,54,56,58,-1,-1,-1,-1,-1,-1,-1,-1,-1,-1,-1,-1],"split_conditions":[-3.6464617E-2,-3.320957E-2,-2.5059007E-2,-2.9228278E-2,6.583117E-2,-1.0667625E-1,-6.2265426E-2,2.4307597E-2,-1.8935852E-2,-3.3480488E-2,-4.8511807E-2,-2.1166932E-2,-1.12629235E-1,6.589454E-2,2.690581E-2,-6.896547E-3,8.589997E-4,6.0266983E-3,9.669136E-2,7.998243E-2,2.1734599E-2,-1.1379273E-1,1.990711E-1,8.9585915E-2,8.007483E-2,8.127383E-2,9.829422E-2,4.7176264E-2,-3.7885483E-2,1.02406755E-1,-1.4225373E-1,2.4840471E-1,1.5322014E-2,-1.7806163E-2,1.3738425E-1,-3.968016E-2,8.1667565E-2,2.8765464E-1,6.1454665E-2,-2.7516404E-1,-5.1272217E-2,8.662334E-3,5.2957565E-2,-3.1022491E-2,-4.0308274E-2,3.1339305E-3,5.4659702E-2,-4.2551875E-2,-2.5020504E-1,-2.3159713E-2,-2.6918122E-1,8.249042E-2,-9.705702E-2,3.8844943E-2,-2.4302189E-1,2.6765266E-1,-3.5307344E-2,-1.4511019E-1,1.0969087E-1],"split_indices":[55,325,226,62,316,165,9,80,61,190,0,105,369,290,82,198,332,163,232,78,0,0,0,0,106,137,0,53,326,0,0,0,0,0,0,245,0,0,0,0,0,287,0,378,329,21,303,0,0,0,0,0,0,0,0,0,0,0,0],"split_type":[0,0,0,0,0,0,0,0,0,0,0,0,0,0,0,0,0,0,0,0,0,0,0,0,0,0,0,0,0,0,0,0,0,0,0,0,0,0,0,0,0,0,0,0,0,0,0,0,0,0,0,0,0,0,0,0,0,0,0],"sum_hessian":[1.1088731E2,2.9683832E1,8.120347E1,1.6303457E1,1.3380376E1,1.7191118E1,6.401235E1,7.5481567E0,8.7553005E0,1.2002133E1,1.3782425E0,2.3962212E0,1.4794897E1,1.2910987E1,5.1101364E1,2.7507982E0,4.7973585E0,2.0848193E0,6.670481E0,1.0840455E1,1.1616782E0,1.1397696E0,1.2564516E0,1.1042824E0,1.3690615E1,1.1339768E1,1.5712185E0,3.3219963E1,1.7881403E1,1.0621518E0,1.6886464E0,3.429361E0,1.3679972E0,1.0246538E0,1.0601656E0,5.6664486E0,1.0040324E0,9.485628E0,1.3548275E0,1.2684028E1,1.0065877E0,1.0239864E1,1.0999041E0,2.2826971E1,1.0392992E1,9.874967E0,8.006435E0,1.0395461E0,4.6269026E0,1.3233424E0,8.916521E0,1.653205E1,6.294922E0,1.6799239E0,8.713068E0,8.80826E0,1.0667068E0,4.1458545E0,3.860581E0],"tree_param":{"num_deleted":"0","num_feature":"384","num_nodes":"59","size_leaf_vector":"0"}},{"base_weights":[-5.073505E-2,-1.9864385E-1,2.9093555E-1,1.692214E-1,-3.4693685E-1,5.861556E-1,-1.8832846E-2,-3.7277794E-1,4.091068E-1,-5.725976E-1,-4.0703494E-2,7.280336E-1,-9.01755E-2,3.3886498E-1,-3.4033507E-1,-6.56946E-1,1.6845165E-1,5.650658E-1,-4.194685E-1,2.982597E-1,-6.835971E-1,-3.2832548E-1,3.841019E-1,8.43904E-1,5.5041466E-2,-4.194283E-1,3.1548256E-1,6.1475694E-1,-2.1385801E-1,3.132163E-1,-5.3393763E-1,-7.4269885E-1,-1.701474E-1,-2.5471887E-1,4.8702726E-1,7.4599135E-1,-2.4798445E-1,5.8456105E-1,-2.5558764E-1,-7.4273944E-1,1.6974488E-1,-5.8392197E-1,-2.1441155E-3,-3.2108575E-1,6.259205E-1,8.87905E-1,2.0810662E-1,-2.8000683E-1,3.6245197E-1,7.858371E-1,7.980007E-3,-5.850719E-1,3.407105E-1,-6.895698E-1,2.0820944E-1,-4.7071017E-2,8.3848256E-1,-5.758774E-1,2.0311807E-1,6.0940992E-2,-8.201847E-1,9.764752E-2,-7.2231203E-1,3.8080317E-1,-1.5901111E-1,-5.163346E-1,3.6306094E-2,-8.241185E-2,9.284021E-1,-1.0586458E-1,-8.6154133E-1],"categories":[],"categories_nodes":[],"categories_segments":[],"categories_sizes":[],"default_left":[1,1,1,1,1,1,1,1,1,1,1,1,1,1,1,1,1,1,0,1,1,1,1,1,1,0,0,1,1,0,1,0,0,0,0,1,1,0,0,1,0,1,1,1,1,0,0,0,0,0,0,0,0,1,0,0,0,0,0,0,0,0,0,0,0,0,0,0,0,0,0],"id":15,"left_children":[1,3,5,7,9,11,13,15,17,19,21,23,25,27,29,31,33,35,-1,37,39,41,43,45,47,-1,-1,49,51,-1,53,-1,-1,-1,-1,55,57,-1,-1,59,-1,61,63,65,67,-1,-1,-1,-1,-1,-1,-1,-1,69,-1,-1,-1,-1,-1,-1,-1,-1,-1,-1,-1,-1,-1,-1,-1,-1,-1],"loss_changes":[5.13547E0,3.9163554E0,2.8241305E0,2.8814142E0,3.482141E0,1.5799894E0,1.9529837E0,1.181522E0,2.1787539E0,3.0196152E0,2.8871722E0,9.793906E-1,6.1666745E-1,1.3613263E0,1.2951788E0,7.2737455E-2,5.5451196E-1,2.1078868E0,0E0,7.819717E-1,1.4453039E0,1.1670791E0,1.8353131E0,1.2723827E-1,4.106919E-1,0E0,0E0,5.7897973E-1,9.0487903E-1,0E0,9.806113E-1,0E0,0E0,0E0,0E0,8.4207773E-1,5.799223E-1,0E0,0E0,1.5830698E0,0E0,8.112707E-1,4.9069053E-1,2.3563963E-1,1.6782556E0,0E0,0E0,0E0,0E0,0E0,0E0,0E0,0E0,5.334208E-1,0E0,0E0,0E0,0E0,0E0,0E0,0E0,0E0,0E0,0E0,0E0,0E0,0E0,0E0,0E0,0E0,0E0],"parents":[2147483647,0,0,1,1,2,2,3,3,4,4,5,5,6,6,7,7,8,8,9,9,10,10,11,11,12,12,13,13,14,14,15,15,16,16,17,17,19,19,20,20,21,21,22,22,23,23,24,24,27,27,28,28,30,30,35,35,36,36,39,39,41,41,42,42,43,43,44,44,53,53],"right_children":[2,4,6,8,10,12,14,16,18,20,22,24,26,28,30,32,34,36,-1,38,40,42,44,46,48,-1,-1,50,52,-1,54,-1,-1,-1,-1,56,58,-1,-1,60,-1,62,64,66,68,-1,-1,-1,-1,-1,-1,-1,-1,70,-1,-1,-1,-1,-1,-1,-1,-1,-1,-1,-1,-1,-1,-1,-1,-1,-1],"split_conditions":[-1.2441259E-2,-1.05926186E-1,2.0636562E-2,-1.4857179E-2,6.84819E-2,5.134332E-2,-1.0624148E-2,2.293339E-3,5.814057E-2,-4.1685015E-2,7.6946905E-3,-2.6677597E-2,7.485173E-2,-2.5754165E-2,-8.012751E-2,2.8769337E-2,-5.9115894E-2,-4.0954323E-3,-1.2584056E-1,7.618304E-2,6.0360163E-2,7.699077E-2,1.0690592E-2,1.3436476E-3,-1.6083714E-2,-1.2582849E-1,9.464477E-2,4.1492663E-2,-1.6138693E-2,9.39649E-2,1.07651845E-1,-2.2280966E-1,-5.1044222E-2,-7.6415665E-2,1.4610818E-1,-4.197698E-2,-5.724693E-2,1.7536832E-1,-7.6676294E-2,-2.044726E-2,5.0923467E-2,-8.2141E-2,-5.0746985E-2,3.028259E-2,-2.4227962E-2,2.6637152E-1,6.2431987E-2,-8.400205E-2,1.087356E-1,2.3575114E-1,2.3940022E-3,-1.7552158E-1,1.0221315E-1,-1.111757E-1,6.2462833E-2,-1.4121306E-2,2.5154477E-1,-1.7276323E-1,6.0935423E-2,1.8282298E-2,-2.4605542E-1,2.9294256E-2,-2.1669362E-1,1.1424095E-1,-4.7703337E-2,-1.5490039E-1,1.0891829E-2,-2.4723556E-2,2.7852064E-1,-3.1759374E-2,-2.584624E-1],"split_indices":[142,261,24,214,303,102,13,157,141,3,124,261,232,378,122,216,96,50,0,35,255,244,92,266,120,0,0,310,9,0,232,0,0,0,0,342,135,0,0,213,0,165,261,89,255,0,0,0,0,0,0,0,0,51,0,0,0,0,0,0,0,0,0,0,0,0,0,0,0,0,0],"split_type":[0,0,0,0,0,0,0,0,0,0,0,0,0,0,0,0,0,0,0,0,0,0,0,0,0,0,0,0,0,0,0,0,0,0,0,0,0,0,0,0,0,0,0,0,0,0,0,0,0,0,0,0,0,0,0,0,0,0,0,0,0,0,0,0,0,0,0,0,0,0,0],"sum_hessian":[9.947627E1,6.971523E1,2.9761036E1,1.9988739E1,4.9726498E1,1.47815075E1,1.4979528E1,5.9626617E0,1.4026078E1,2.8128805E1,2.159769E1,1.2155193E1,2.6263137E0,7.06506E0,7.914469E0,3.769641E0,2.193021E0,1.2071871E1,1.9542066E0,2.9892552E0,2.5139551E1,1.3013671E1,8.58402E0,1.0153148E1,2.0020463E0,1.4309424E0,1.1953713E0,4.637844E0,2.4272158E0,1.6675215E0,6.2469473E0,2.7581024E0,1.0115385E0,1.0279794E0,1.1650416E0,9.94199E0,2.1298819E0,1.9340355E0,1.0552197E0,2.363135E1,1.5082016E0,6.8532615E0,6.160409E0,2.1082315E0,6.4757876E0,9.1251135E0,1.028034E0,1.0006146E0,1.0014316E0,3.3876102E0,1.2502339E0,1.4210186E0,1.0061973E0,5.2225876E0,1.0243596E0,1.0896765E0,8.852313E0,1.0732028E0,1.0566789E0,2.0957747E0,2.1535574E1,1.2063589E0,5.6469026E0,1.3753409E0,4.785068E0,1.075784E0,1.0324476E0,2.1555665E0,4.3202214E0,1.5561846E0,3.6664028E0],"tree_param":{"num_deleted":"0","num_feature":"384","num_nodes":"71","size_leaf_vector":"0"}},{"base_weights":[-4.168496E-2,1.4246517E-1,-2.739849E-1,5.870366E-1,-1.1468181E-2,-5.1423526E-1,9.758359E-3,-2.688137E-1,6.8704915E-1,-2.7115405E-1,2.8077886E-1,7.282062E-2,-6.896105E-1,4.6389544E-1,-2.3872912E-1,-1.11198634E-1,7.9225564E-1,-6.365104E-1,1.7173938E-2,-1.4266066E-1,4.915465E-1,-4.1652504E-1,3.3425516E-1,-7.7421594E-1,1.04336925E-1,7.86385E-1,-4.40985E-1,3.914486E-1,-4.1118428E-1,8.5173005E-1,1.15706086E-1,-7.7600485E-1,-5.836865E-2,-1.9527246E-1,5.683581E-1,-3.603392E-1,4.4302642E-1,6.6416687E-1,-2.9426697E-1,-2.0598139E-1,5.981977E-1,1.3409028E-2,-8.4283686E-1,9.645724E-1,-7.987362E-3,-1.4541902E-2,6.1604524E-1,-4.8348103E-2,-7.177718E-1,9.0085256E-1,2.2176161E-1,-8.4347504E-1,-1.742704E-1,-5.539087E-1,3.357106E-2,2.8068305E-3,7.716547E-1,2.5040483E-1,-6.3172317E-1,-2.6438853E-1,7.873376E-1,-9.1633385E-1,-9.8463416E-2,-4.8686466E-1,3.8655594E-1,-1.3946691E-1,-8.093863E-1],"categories":[],"categories_nodes":[],"categories_segments":[],"categories_sizes":[],"default_left":[1,1,1,1,1,1,1,0,1,1,1,1,1,1,1,0,1,1,1,1,1,0,1,1,0,1,0,1,1,1,0,1,0,1,1,1,0,1,0,0,0,0,1,0,0,0,0,1,1,0,0,0,0,0,0,0,0,0,0,0,0,0,0,0,0,0,0],"id":16,"left_children":[1,3,5,7,9,11,13,-1,15,17,19,21,23,25,27,-1,29,31,33,35,37,-1,39,41,-1,43,-1,45,47,49,-1,51,-1,53,55,57,-1,59,-1,-1,-1,-1,61,-1,-1,-1,-1,63,65,-1,-1,-1,-1,-1,-1,-1,-1,-1,-1,-1,-1,-1,-1,-1,-1,-1,-1],"loss_changes":[3.8787382E0,3.478148E0,2.7340114E0,1.3030629E0,3.010169E0,2.2839613E0,2.2927885E0,0E0,1.0941811E0,2.2209446E0,1.7373646E0,8.93396E-1,1.2093525E0,2.4414706E0,1.5909443E0,0E0,3.3230877E-1,7.03104E-1,1.5980546E0,1.049964E0,1.917855E0,0E0,7.502078E-1,8.3833694E-1,0E0,8.076427E-1,0E0,3.1346464E-1,1.1687721E0,9.994936E-2,0E0,1.5322542E-1,0E0,8.319807E-1,4.3344772E-1,1.0934343E0,0E0,1.4339671E0,0E0,0E0,0E0,0E0,6.807003E-1,0E0,0E0,0E0,0E0,1.3376284E0,1.9396305E-1,0E0,0E0,0E0,0E0,0E0,0E0,0E0,0E0,0E0,0E0,0E0,0E0,0E0,0E0,0E0,0E0,0E0,0E0],"parents":[2147483647,0,0,1,1,2,2,3,3,4,4,5,5,6,6,8,8,9,9,10,10,11,11,12,12,13,13,14,14,16,16,17,17,18,18,19,19,20,20,22,22,23,23,25,25,27,27,28,28,29,29,31,31,33,33,34,34,35,35,37,37,42,42,47,47,48,48],"right_children":[2,4,6,8,10,12,14,-1,16,18,20,22,24,26,28,-1,30,32,34,36,38,-1,40,42,-1,44,-1,46,48,50,-1,52,-1,54,56,58,-1,60,-1,-1,-1,-1,62,-1,-1,-1,-1,64,66,-1,-1,-1,-1,-1,-1,-1,-1,-1,-1,-1,-1,-1,-1,-1,-1,-1,-1],"split_conditions":[2.449134E-2,-3.570642E-2,8.252883E-3,-7.948837E-2,6.567506E-3,2.4003185E-2,-2.3037987E-2,-8.0644116E-2,-5.564142E-2,-2.237587E-2,1.2751818E-2,-5.3099852E-2,9.2410843E-4,2.6612934E-2,-3.8078934E-2,-3.335959E-2,4.1194305E-2,2.8980603E-2,-3.707867E-2,-4.703294E-2,1.0346243E-2,-1.2495752E-1,-5.719263E-2,-7.982953E-2,3.1301077E-2,-1.3906797E-2,-1.322955E-1,-1.0269981E-2,2.4668258E-2,2.393942E-2,3.4711827E-2,3.2199085E-2,-1.7510595E-2,1.1765278E-2,-3.1074964E-2,-3.415336E-2,1.3290793E-1,-9.185901E-3,-8.82801E-2,-6.179442E-2,1.7945932E-1,4.0227086E-3,4.1873373E-2,2.8937173E-1,-2.3962087E-3,-4.3625706E-3,1.8481357E-1,-3.5289093E-3,-5.770326E-2,2.7025577E-1,6.6528484E-2,-2.5304252E-1,-5.2281123E-2,-1.6617262E-1,1.0071319E-2,8.420492E-4,2.3149642E-1,7.5121455E-2,-1.8951696E-1,-7.9316564E-2,2.3620129E-1,-2.7490017E-1,-2.9539026E-2,-1.4605941E-1,1.1596679E-1,-4.1840076E-2,-2.428159E-1],"split_indices":[361,55,124,135,191,160,10,0,7,308,236,66,29,3,219,0,296,73,66,265,2,0,45,143,0,366,0,235,24,126,0,216,0,110,344,91,0,162,0,0,0,0,255,0,0,0,0,60,189,0,0,0,0,0,0,0,0,0,0,0,0,0,0,0,0,0,0],"split_type":[0,0,0,0,0,0,0,0,0,0,0,0,0,0,0,0,0,0,0,0,0,0,0,0,0,0,0,0,0,0,0,0,0,0,0,0,0,0,0,0,0,0,0,0,0,0,0,0,0,0,0,0,0,0,0,0,0,0,0,0,0,0,0,0,0,0,0],"sum_hessian":[8.875873E1,4.9726208E1,3.9032524E1,1.2065767E1,3.766044E1,2.0696291E1,1.8336233E1,1.0858535E0,1.0979914E1,1.9979322E1,1.7681118E1,4.8950944E0,1.5801196E1,6.1781445E0,1.2158088E1,1.2719694E0,9.707944E0,8.279861E0,1.1699461E1,5.983399E0,1.169772E1,1.4979835E0,3.397111E0,1.4301986E1,1.4992102E0,4.651391E0,1.5267538E0,2.3394651E0,9.818623E0,8.685485E0,1.022459E0,6.394703E0,1.8851584E0,8.910683E0,2.7887785E0,4.6426525E0,1.3407465E0,9.717804E0,1.9799155E0,1.187053E0,2.210058E0,1.2106655E0,1.3091321E1,3.6241846E0,1.0272063E0,1.1663587E0,1.1731064E0,5.027015E0,4.791608E0,7.6583214E0,1.0271633E0,5.388744E0,1.005959E0,2.9176948E0,5.9929876E0,1.0054688E0,1.7833097E0,1.4520801E0,3.1905723E0,1.0038083E0,8.713996E0,1.170463E1,1.3866907E0,2.4436207E0,2.5833945E0,1.0002129E0,3.7913947E0],"tree_param":{"num_deleted":"0","num_feature":"384","num_nodes":"67","size_leaf_vector":"0"}},{"base_weights":[-3.7054893E-2,-2.0766327E-1,2.1592395E-1,-4.149219E-1,9.59201E-2,3.6544666E-1,-4.0467E-1,2.000321E-1,-5.5363476E-1,4.774413E-1,-1.207588E-1,5.109351E-1,-1.0302852E-1,2.3079813E-1,-6.571483E-1,4.5082214E-1,-2.826073E-1,3.3110417E-2,-6.617565E-1,7.7213675E-1,-1.7928981E-4,1.0869049E-1,-5.121851E-1,8.440492E-1,2.588466E-1,3.006869E-1,-5.487448E-1,-1.3222945E-1,-7.517666E-1,6.1047775E-1,-2.7267916E-2,5.084418E-1,-2.7619478E-1,-7.649976E-1,1.7123739E-4,-4.6176717E-1,4.239348E-1,5.4493684E-1,-1.7032903E-1,1.0578847E-1,-6.855822E-1,9.28211E-1,1.2348386E-1,4.8297957E-1,-2.0824733E-1,-3.055293E-1,6.471125E-1,-6.89085E-2,-7.0772064E-1,-5.351506E-1,1.6484082E-1,-1.8544547E-2,-8.300628E-1,-3.7506318E-1,3.8399518E-1,7.408673E-1,-1.190846E-2,-3.2840376E-3,-5.288046E-1,-2.219349E-1,6.137988E-1,-5.1931155E-1,2.0242307E-1],"categories":[],"categories_nodes":[],"categories_segments":[],"categories_sizes":[],"default_left":[1,1,1,1,1,1,1,1,1,1,1,1,1,0,1,1,0,1,1,0,1,1,1,1,1,1,1,0,0,0,0,0,1,1,1,0,0,1,1,0,0,0,0,1,1,0,0,0,0,0,0,0,0,0,0,0,0,0,0,0,0,0,0],"id":17,"left_children":[1,3,5,7,9,11,13,15,17,19,21,23,25,-1,27,29,-1,31,33,-1,35,37,39,41,43,45,47,-1,-1,-1,-1,-1,49,51,53,-1,-1,55,57,-1,-1,-1,-1,59,61,-1,-1,-1,-1,-1,-1,-1,-1,-1,-1,-1,-1,-1,-1,-1,-1,-1,-1],"loss_changes":[3.5239017E0,3.1009457E0,3.206035E0,2.593051E0,1.756555E0,1.898587E0,1.2544304E0,8.6460656E-1,1.545085E0,1.0763055E0,1.3045274E0,1.5309901E0,1.469592E0,0E0,1.5781212E-1,3.5198033E-1,0E0,8.29711E-1,1.3888597E0,0E0,9.626144E-1,1.2602895E0,6.4192843E-1,4.0280294E-1,1.4931061E0,1.1323097E0,2.410872E-1,0E0,0E0,0E0,0E0,0E0,4.8659137E-1,8.384237E-1,6.829116E-1,0E0,0E0,4.430133E-1,3.941826E-1,0E0,0E0,0E0,0E0,9.9287367E-1,7.4534225E-1,0E0,0E0,0E0,0E0,0E0,0E0,0E0,0E0,0E0,0E0,0E0,0E0,0E0,0E0,0E0,0E0,0E0,0E0],"parents":[2147483647,0,0,1,1,2,2,3,3,4,4,5,5,6,6,7,7,8,8,9,9,10,10,11,11,12,12,14,14,15,15,17,17,18,18,20,20,21,21,22,22,23,23,24,24,25,25,26,26,32,32,33,33,34,34,37,37,38,38,43,43,44,44],"right_children":[2,4,6,8,10,12,14,16,18,20,22,24,26,-1,28,30,-1,32,34,-1,36,38,40,42,44,46,48,-1,-1,-1,-1,-1,50,52,54,-1,-1,56,58,-1,-1,-1,-1,60,62,-1,-1,-1,-1,-1,-1,-1,-1,-1,-1,-1,-1,-1,-1,-1,-1,-1,-1],"split_conditions":[5.611448E-2,1.735996E-2,2.2210998E-2,-1.45368185E-2,-1.5404322E-2,-1.27155E-32,3.9734356E-2,2.6953612E-2,-4.0970407E-2,-3.192281E-2,-1.31207425E-2,-2.542653E-2,-3.5148347E-3,6.923944E-2,-3.1985443E-2,-2.1979632E-2,-8.478219E-2,-5.037626E-2,9.52206E-3,2.3164104E-1,-1.6287293E-2,2.8692296E-2,2.3260627E-2,1.0123166E-2,2.593638E-2,1.1045525E-3,2.6371207E-2,-3.9668836E-2,-2.2553E-1,1.8314333E-1,-8.180375E-3,1.5253255E-1,-6.494471E-3,-7.311997E-2,-6.33522E-2,-1.3853015E-1,1.2718044E-1,-2.6894598E-3,-4.4748005E-3,3.173654E-2,-2.0567468E-1,2.784633E-1,3.704516E-2,-6.1638653E-2,-2.5912669E-2,-9.165879E-2,1.9413376E-1,-2.067255E-2,-2.123162E-1,-1.6054519E-1,4.945225E-2,-5.5633644E-3,-2.4901885E-1,-1.1251896E-1,1.1519856E-1,2.222602E-1,-3.5725383E-3,-9.852113E-4,-1.5864138E-1,-6.6580474E-2,1.8413964E-1,-1.5579347E-1,6.0726922E-2],"split_indices":[33,362,205,213,175,223,160,284,329,364,373,296,54,0,2,293,0,326,365,0,179,313,280,268,361,226,368,0,0,0,0,0,365,56,298,0,0,10,83,0,0,0,0,98,9,0,0,0,0,0,0,0,0,0,0,0,0,0,0,0,0,0,0],"split_type":[0,0,0,0,0,0,0,0,0,0,0,0,0,0,0,0,0,0,0,0,0,0,0,0,0,0,0,0,0,0,0,0,0,0,0,0,0,0,0,0,0,0,0,0,0,0,0,0,0,0,0,0,0,0,0,0,0,0,0,0,0,0,0],"sum_hessian":[7.960791E1,4.7651184E1,3.1956724E1,2.810021E1,1.9550974E1,2.6083447E1,5.8732767E0,5.090499E0,2.300971E1,6.645805E0,1.29051695E1,1.98334E1,6.250046E0,1.6944212E0,4.1788554E0,3.393227E0,1.6972721E0,3.688277E0,1.9321434E1,3.7285993E0,2.9172053E0,8.591349E0,4.3138213E0,7.532113E0,1.2301289E1,3.4502795E0,2.7997665E0,1.0043691E0,3.1744866E0,2.336167E0,1.05706E0,1.2001309E0,2.488146E0,1.6579771E1,2.7416632E0,1.3543775E0,1.5628278E0,2.9796424E0,5.611706E0,1.0306333E0,3.2831879E0,6.4863405E0,1.0457727E0,8.289567E0,4.011721E0,1.2976141E0,2.1526654E0,1.0534858E0,1.7462808E0,1.4332261E0,1.05492E0,1.432348E0,1.5147423E1,1.3978856E0,1.3437777E0,1.9596512E0,1.0199912E0,4.5163198E0,1.0953858E0,1.1885594E0,7.1010075E0,2.1321604E0,1.8795607E0],"tree_param":{"num_deleted":"0","num_feature":"384","num_nodes":"63","size_leaf_vector":"0"}},{"base_weights":[-3.1606678E-2,3.9988944E-1,-1.2839371E-1,5.336697E-1,-1.4023861E-1,1.1031668E-1,-2.8442445E-1,-1.992532E-1,6.3725716E-1,-4.1805646E-1,2.4920902E-1,-1.48209E-1,4.1702875E-1,-3.704245E-2,-5.107164E-1,6.693993E-2,7.28168E-1,-6.243547E-1,1.0174276E-1,-6.822907E-2,6.295534E-1,3.0773526E-1,-3.588033E-1,-6.4742136E-1,1.8982116E-2,1.0320251E-1,7.991535E-1,-7.5232995E-1,-7.914849E-2,-5.19314E-1,2.818003E-1,-4.3975595E-1,3.2911497E-1,2.6470024E-2,7.773095E-1,7.4216366E-1,-4.7116242E-2,-6.91956E-1,2.1924825E-1,1.7708117E-1,-7.189405E-1,-4.332189E-1,3.030681E-1,-2.3959379E-1,4.67924E-1,9.583562E-1,2.122953E-1,-1.07273266E-1,-7.810017E-1,4.3798298E-1,-2.3663685E-1,1.9072672E-2,-7.7800477E-1,-2.3026766E-1,6.121982E-1],"categories":[],"categories_nodes":[],"categories_segments":[],"categories_sizes":[],"default_left":[1,1,1,1,1,1,1,0,1,0,0,1,1,1,1,0,1,1,1,