{"learner":{"attributes":{"best_iteration":"99","best_ntree_limit":"100","scikit_learn":"{\"use_label_encoder\": false, \"n_estimators\": 100, \"objective\": \"binary:logistic\", \"max_depth\": null, \"max_leaves\": null, \"max_bin\": null, \"grow_policy\": null, \"learning_rate\": null, \"verbosity\": null, \"booster\": null, \"tree_method\": null, \"gamma\": null, \"min_child_weight\": null, \"max_delta_step\": null, \"subsample\": null, \"sampling_method\": null, \"colsample_bytree\": null, \"colsample_bylevel\": null, \"colsample_bynode\": null, \"reg_alpha\": null, \"reg_lambda\": null, \"scale_pos_weight\": null, \"base_score\": null, \"missing\": NaN, \"num_parallel_tree\": null, \"random_state\": null, \"n_jobs\": null, \"monotone_constraints\": null, \"interaction_constraints\": null, \"importance_type\": null, \"gpu_id\": null, \"validate_parameters\": null, \"predictor\": null, \"enable_categorical\": false, \"max_cat_to_onehot\": null, \"eval_metric\": null, \"early_stopping_rounds\": null, \"callbacks\": null, \"classes_\": [0, 1], \"n_classes_\": 2, \"_estimator_type\": \"classifier\"}"},"feature_names":[],"feature_types":[],"gradient_booster":{"model":{"gbtree_model_param":{"num_parallel_tree":"1","num_trees":"100","size_leaf_vector":"0"},"tree_info":[0,0,0,0,0,0,0,0,0,0,0,0,0,0,0,0,0,0,0,0,0,0,0,0,0,0,0,0,0,0,0,0,0,0,0,0,0,0,0,0,0,0,0,0,0,0,0,0,0,0,0,0,0,0,0,0,0,0,0,0,0,0,0,0,0,0,0,0,0,0,0,0,0,0,0,0,0,0,0,0,0,0,0,0,0,0,0,0,0,0,0,0,0,0,0,0,0,0,0,0],"trees":[{"base_weights":[-6.2592804E-1,9.724771E-1,-1.2459406E0,1.5306388E0,-1.0091743E0,-1.489323E0,4.0243903E-1,-2.0512821E-1,1.7171717E0,-1.5116279E0,8E-1,-1.5967355E0,3.9344263E-1,-1.1919192E0,1.0729613E0,-1.4594594E0,8.4444445E-1,1.8015038E0,-2.5E-1,-1.7105263E0,-0E0,1.3846154E0,-9.3333334E-1,5.16129E-1,-1.6582716E0,-1.2E0,9.89011E-1,-1.6049383E0,5.4545456E-1,1.352381E0,-1.2592592E0,-1.7575758E0,5E-1,-8.5714287E-1,1.4285715E0,-6.666667E-1,1.8356165E0,-1.4E0,1.25E0,1.3333334E-1,-1.8581561E0,1.3333334E0,-1E0,1.6571429E0,-5E-1,-1.2727273E0,-0E0,1.5897436E0,-1.1111112E0,-1.7215967E0,8E-2,8E-1,-1.7241379E0,-9.0909094E-1,1.5068493E0,6.666667E-1,-1.7894737E0,1.5E0,-1.2E0,1.699422E0,-2.4390244E-1,-1.6521739E0,5E-1,-0E0,-1.2E0,-5E-1,1.7419355E0,-0E0,-1E0,1.8648233E0,-8E-1,-1.1111112E0,1.2E0,-1.9411764E0,2.2222222E-1,-1.3333334E0,-0E0,1.7714286E0,-0E0,-1.6521739E0,1E0,-1.7795613E0,-4.2696628E-1,1.3939394E0,-8.695652E-1,1E0,-1.5555556E0,-1E0,1.7101449E0,-1.8888888E0,-0E0,1.8271605E0,-1.3333334E-1,-8.75E-1,1.3846154E0],"categories":[],"categories_nodes":[],"categories_segments":[],"categories_sizes":[],"default_left":[1,1,1,1,1,1,1,1,1,1,1,1,1,1,1,1,1,1,1,1,1,1,1,1,1,1,1,1,1,1,1,0,0,1,1,1,1,0,0,1,1,0,1,0,0,0,0,1,1,1,1,0,0,1,1,0,1,0,0,1,1,0,0,0,0,0,0,0,0,0,0,0,0,0,0,0,0,0,0,0,0,0,0,0,0,0,0,0,0,0,0,0,0,0,0],"id":0,"left_children":[1,3,5,7,9,11,13,15,17,19,21,23,25,27,29,31,33,35,37,39,41,43,45,47,49,51,53,55,57,59,61,-1,-1,63,65,67,69,-1,-1,71,73,-1,75,-1,-1,-1,-1,77,79,81,83,-1,-1,85,87,-1,89,-1,-1,91,93,-1,-1,-1,-1,-1,-1,-1,-1,-1,-1,-1,-1,-1,-1,-1,-1,-1,-1,-1,-1,-1,-1,-1,-1,-1,-1,-1,-1,-1,-1,-1,-1,-1,-1],"loss_changes":[8.688595E2,2.7281128E2,2.5384851E2,6.2436615E1,5.075123E1,1.1190662E2,8.894122E1,2.6904413E1,2.9191772E1,1.2928398E1,1.3958975E1,6.85625E1,3.0131433E1,1.8635239E1,3.9662666E1,6.2821445E0,1.2406349E1,1.5221313E1,1.5549999E1,1.0591675E1,9.333334E0,5.8362637E0,1.1878788E0,2.8845325E1,5.586377E1,1.05517235E1,2.3731064E1,9.681614E0,1.0963636E1,2.9498222E1,5.491948E0,0E0,0E0,1.0285714E0,6.158985E0,6.666666E-1,1.4135498E1,0E0,0E0,6.311111E0,6.519539E0,0E0,1.3333335E0,0E0,0E0,0E0,0E0,2.8161182E0,9.362319E0,3.589856E1,2.4605955E1,0E0,0E0,8.343435E0,1.10109215E1,0E0,3.3801155E0,0E0,0E0,1.0369019E1,1.1746013E1,0E0,0E0,0E0,0E0,0E0,0E0,0E0,0E0,0E0,0E0,0E0,0E0,0E0,0E0,0E0,0E0,0E0,0E0,0E0,0E0,0E0,0E0,0E0,0E0,0E0,0E0,0E0,0E0,0E0,0E0,0E0,0E0,0E0,0E0],"parents":[2147483647,0,0,1,1,2,2,3,3,4,4,5,5,6,6,7,7,8,8,9,9,10,10,11,11,12,12,13,13,14,14,15,15,16,16,17,17,18,18,19,19,20,20,21,21,22,22,23,23,24,24,25,25,26,26,27,27,28,28,29,29,30,30,33,33,34,34,35,35,36,36,39,39,40,40,42,42,47,47,48,48,49,49,50,50,53,53,54,54,56,56,59,59,60,60],"right_children":[2,4,6,8,10,12,14,16,18,20,22,24,26,28,30,32,34,36,38,40,42,44,46,48,50,52,54,56,58,60,62,-1,-1,64,66,68,70,-1,-1,72,74,-1,76,-1,-1,-1,-1,78,80,82,84,-1,-1,86,88,-1,90,-1,-1,92,94,-1,-1,-1,-1,-1,-1,-1,-1,-1,-1,-1,-1,-1,-1,-1,-1,-1,-1,-1,-1,-1,-1,-1,-1,-1,-1,-1,-1,-1,-1,-1,-1,-1,-1],"split_conditions":[1.333553E-2,5.361002E-2,6.3540965E-2,-2.1574148E-3,5.610003E-2,5.5919703E-2,1.814041E-3,-1.9225815E-2,3.5243095E-3,1.5253453E-2,-5.5978313E-2,-8.6286785E-3,-1.7286059E-2,-6.629248E-3,-2.8494041E-2,2.0567652E-2,-2.6822977E-2,-6.776714E-2,-1.3464592E-2,-7.462958E-2,-2.3545709E-2,-2.7542155E-2,3.532847E-2,-2.583605E-2,1.0620618E-1,-4.7051314E-2,-1.8771185E-2,-1.05663024E-1,-4.0074825E-2,2.7040724E-2,7.705203E-2,-5.2727276E-1,1.5E-1,-7.80444E-2,-7.417157E-2,1.49991345E-2,1.1071132E-1,-4.2000002E-1,3.75E-1,-8.17202E-3,8.8436574E-2,4.0000004E-1,2.7513979E-2,4.9714288E-1,-1.5E-1,-3.818182E-1,-0E0,-7.0094643E-3,6.76782E-2,1.3412073E-2,2.3049312E-2,2.4000001E-1,-5.172414E-1,-6.411098E-2,-1.665102E-2,2.0000002E-1,7.84055E-2,4.5000002E-1,-3.6E-1,8.4435314E-2,1.5262801E-2,-4.9565217E-1,1.5E-1,-0E0,-3.6E-1,-1.5E-1,5.225807E-1,-0E0,-3E-1,5.5944705E-1,-2.4000001E-1,-3.3333337E-1,3.6E-1,-5.8235294E-1,6.666667E-2,-4.0000004E-1,-0E0,5.314286E-1,-0E0,-4.9565217E-1,3E-1,-5.3386843E-1,-1.2808989E-1,4.1818184E-1,-2.6086956E-1,3E-1,-4.666667E-1,-3E-1,5.1304346E-1,-5.6666666E-1,-0E0,5.4814816E-1,-4.0000003E-2,-2.6250002E-1,4.1538465E-1],"split_indices":[102,53,92,92,92,226,4,142,378,9,218,160,1,63,261,214,0,9,142,202,77,295,4,215,303,100,216,190,293,24,83,0,0,8,26,1,99,0,0,82,89,0,1,0,0,0,0,50,331,142,149,0,0,110,106,0,89,0,0,287,127,0,0,0,0,0,0,0,0,0,0,0,0,0,0,0,0,0,0,0,0,0,0,0,0,0,0,0,0,0,0,0,0,0,0],"split_type":[0,0,0,0,0,0,0,0,0,0,0,0,0,0,0,0,0,0,0,0,0,0,0,0,0,0,0,0,0,0,0,0,0,0,0,0,0,0,0,0,0,0,0,0,0,0,0,0,0,0,0,0,0,0,0,0,0,0,0,0,0,0,0,0,0,0,0,0,0,0,0,0,0,0,0,0,0,0,0,0,0,0,0,0,0,0,0,0,0,0,0,0,0,0,0],"sum_hessian":[8.745E2,2.4425E2,6.3025E2,1.9075E2,5.35E1,5.4925E2,8.1E1,1.85E1,1.7225E2,4.2E1,1.15E1,5.1975E2,2.95E1,2.375E1,5.725E1,8.25E0,1.025E1,1.6525E2,7E0,3.7E1,5E0,8.75E0,2.75E0,1.45E1,5.0525E2,7.75E0,2.175E1,1.925E1,4.5E0,5.15E1,5.75E0,7.25E0,1E0,2.5E0,7.75E0,2E0,1.6325E2,4E0,3E0,2.75E0,3.425E1,2E0,3E0,7.75E0,1E0,1.75E0,1E0,8.75E0,5.75E0,4.875E2,1.775E1,1.5E0,6.25E0,4.5E0,1.725E1,1.25E0,1.8E1,3E0,1.5E0,4.225E1,9.25E0,4.75E0,1E0,1E0,1.5E0,1E0,6.75E0,1E0,1E0,1.6175E2,1.5E0,1.25E0,1.5E0,3.3E1,1.25E0,2E0,1E0,7.75E0,1E0,4.75E0,1E0,4.6625E2,2.125E1,7.25E0,1.05E1,1E0,3.5E0,1E0,1.625E1,1.7E1,1E0,3.95E1,2.75E0,7E0,2.25E0],"tree_param":{"num_deleted":"0","num_feature":"384","num_nodes":"95","size_leaf_vector":"0"}},{"base_weights":[-4.7416E-1,-1.024754E0,6.330291E-1,-3.4629366E-1,-1.3540871E0,1.0585732E0,-9.588798E-1,-7.4255055E-1,8.5822564E-1,-1.4023169E0,-4.2133257E-3,1.2495362E0,-6.090199E-1,6.1012757E-1,-1.2149526E0,2.5838497E-1,-1.0821548E0,-9.437727E-2,1.2856636E0,-1.4227914E0,1.1567547E0,-9.3492186E-1,1.450168E0,-6.130116E-1,1.3480276E0,-1.0745796E0,7.4147034E-1,-8.712617E-1,1.2130668E0,-1.3852743E0,5.966331E-1,-5.309591E-1,9.7236305E-1,-1.260068E0,1.1097082E0,-1.1775438E0,4.7984347E-1,1.5029339E0,-1.5986282E-1,8.207791E-1,-1.4416165E0,1.4558551E0,3.3973947E-1,1.0230234E0,-1.366557E0,-1.4395672E0,1.0251924E0,-9.409802E-2,1.430256E0,4.8841003E-1,-1.322395E0,-7.0157224E-1,1.3749694E0,9.469014E-2,1.4347613E0,-1.4765202E0,5.0154305E-1,-9.5974815E-1,1.3418427E0,-9.9062926E-1,1.2492672E0,-7.4706143E-1,1.2652982E0,-1.317565E0,1.2434738E0,-7.2900826E-1,1.0823771E0,1.5841575E0,3.1347342E-3,-1.21696E0,1.040809E0,1.3788667E0,-1.8041922E-1,-2.938138E-1,-1.4642698E0,-1.544885E0,-1.9464742E-1,1.3227025E0,1.5589574E-1,-1.0864419E0,1.1806364E0,1.4656823E0,-5.2759093E-1,1.0548444E-1,-1.4736637E0,-1.5369018E0,3.809478E-1],"categories":[],"categories_nodes":[],"categories_segments":[],"categories_sizes":[],"default_left":[1,1,1,1,1,1,1,1,1,1,1,1,1,1,1,1,1,1,1,1,1,1,0,1,1,1,1,0,1,1,1,1,1,1,0,0,1,1,1,1,1,0,0,0,1,0,1,1,1,0,1,0,0,0,0,1,0,0,0,0,0,0,0,0,0,0,0,0,0,0,0,0,0,0,0,0,0,0,0,0,0,0,0,0,0,0,0],"id":1,"left_children":[1,3,5,7,9,11,13,15,17,19,21,23,25,27,29,31,33,35,37,39,41,43,-1,45,47,49,51,-1,53,55,57,59,61,63,-1,-1,65,67,69,71,73,-1,-1,-1,75,-1,77,79,81,-1,83,-1,-1,-1,-1,85,-1,-1,-1,-1,-1,-1,-1,-1,-1,-1,-1,-1,-1,-1,-1,-1,-1,-1,-1,-1,-1,-1,-1,-1,-1,-1,-1,-1,-1,-1,-1],"loss_changes":[5.00019E2,1.2185925E2,1.8573834E2,8.667131E1,2.3967102E1,6.943161E1,2.4061474E1,4.6566223E1,1.847837E1,2.027356E1,1.99077E1,3.638028E1,1.515015E1,8.925404E0,1.6325935E1,2.041233E1,4.1121773E1,9.829537E0,1.0035553E1,1.6098572E1,3.2974768E-1,8.9748335E0,0E0,1.5587187E1,2.2000305E1,7.37961E0,6.855641E0,0E0,1.520153E0,8.697441E0,7.105398E0,1.548735E1,1.0459658E1,1.5267975E1,0E0,0E0,8.397003E0,3.3096237E0,7.586216E0,2.246724E0,8.685181E0,0E0,0E0,0E0,1.3239517E0,0E0,8.4869766E-1,1.5051787E1,1.2876923E1,0E0,3.4548435E0,0E0,0E0,0E0,0E0,5.558342E0,0E0,0E0,0E0,0E0,0E0,0E0,0E0,0E0,0E0,0E0,0E0,0E0,0E0,0E0,0E0,0E0,0E0,0E0,0E0,0E0,0E0,0E0,0E0,0E0,0E0,0E0,0E0,0E0,0E0,0E0,0E0],"parents":[2147483647,0,0,1,1,2,2,3,3,4,4,5,5,6,6,7,7,8,8,9,9,10,10,11,11,12,12,13,13,14,14,15,15,16,16,17,17,18,18,19,19,20,20,21,21,23,23,24,24,25,25,26,26,28,28,29,29,30,30,31,31,32,32,33,33,36,36,37,37,38,38,39,39,40,40,44,44,46,46,47,47,48,48,50,50,55,55],"right_children":[2,4,6,8,10,12,14,16,18,20,22,24,26,28,30,32,34,36,38,40,42,44,-1,46,48,50,52,-1,54,56,58,60,62,64,-1,-1,66,68,70,72,74,-1,-1,-1,76,-1,78,80,82,-1,84,-1,-1,-1,-1,86,-1,-1,-1,-1,-1,-1,-1,-1,-1,-1,-1,-1,-1,-1,-1,-1,-1,-1,-1,-1,-1,-1,-1,-1,-1,-1,-1,-1,-1,-1,-1],"split_conditions":[1.8158838E-2,-2.8569226E-3,1.1608196E-2,7.864874E-2,1.0877119E-1,6.049838E-2,-2.703121E-2,-1.733312E-2,-3.39577E-2,7.7987805E-2,3.5069857E-2,-2.2076435E-2,6.147949E-2,-5.8584645E-2,2.9690137E-2,7.5131627E-3,1.0169037E-1,-2.570967E-2,5.079601E-2,-7.3890075E-2,-1.9435244E-2,6.314668E-3,4.3505043E-1,-5.363595E-3,-2.5508743E-2,-2.4030916E-2,-2.6433751E-2,-2.6137853E-1,-4.8387412E-2,7.633147E-2,-9.390357E-3,4.2942345E-2,-1.8570958E-2,9.3248144E-2,3.3291247E-1,-3.5326314E-1,3.4223523E-2,8.314501E-2,5.440757E-2,3.276372E-2,-7.5388625E-2,4.3675655E-1,1.0192185E-1,3.0690703E-1,5.5148005E-2,-4.318702E-1,2.6694022E-2,3.366682E-2,3.911311E-2,1.4652301E-1,-1.1039224E-1,-2.1047167E-1,4.1249081E-1,2.8407043E-2,4.3042842E-1,7.225016E-2,1.5046293E-1,-2.8792447E-1,4.025528E-1,-2.971888E-1,3.7478018E-1,-2.2411844E-1,3.795895E-1,-3.952695E-1,3.7304214E-1,-2.1870248E-1,3.2471314E-1,4.7524726E-1,9.404203E-4,-3.65088E-1,3.1224272E-1,4.1366002E-1,-5.4125767E-2,-8.814414E-2,-4.3928096E-1,-4.6346554E-1,-5.8394227E-2,3.9681077E-1,4.6768725E-2,-3.2593256E-1,3.5419095E-1,4.397047E-1,-1.5827729E-1,3.1645335E-2,-4.4209912E-1,-4.6107057E-1,1.14284344E-1],"split_indices":[57,335,13,303,303,102,3,329,7,358,216,92,80,323,294,191,22,57,278,175,2,335,0,142,4,356,210,0,47,92,189,317,214,191,0,0,279,117,92,6,364,0,0,0,180,0,24,226,333,0,168,0,0,0,0,18,0,0,0,0,0,0,0,0,0,0,0,0,0,0,0,0,0,0,0,0,0,0,0,0,0,0,0,0,0,0,0],"split_type":[0,0,0,0,0,0,0,0,0,0,0,0,0,0,0,0,0,0,0,0,0,0,0,0,0,0,0,0,0,0,0,0,0,0,0,0,0,0,0,0,0,0,0,0,0,0,0,0,0,0,0,0,0,0,0,0,0,0,0,0,0,0,0,0,0,0,0,0,0,0,0,0,0,0,0,0,0,0,0,0,0,0,0,0,0,0,0],"sum_hessian":[8.181613E2,5.464778E2,2.716835E2,1.7925185E2,3.6722595E2,2.146413E2,5.7042213E1,1.3516835E2,4.4083496E1,3.545204E2,1.2705553E1,1.9281227E2,2.1829023E1,7.809464E0,4.9232746E1,3.4303318E1,1.00865036E2,1.3895255E1,3.018824E1,3.5214697E2,2.3734114E0,7.9653935E0,4.74016E0,9.42146E0,1.8339081E2,1.6384897E1,5.4441257E0,2.1303313E0,5.679133E0,4.521687E1,4.015878E0,1.6413538E1,1.788978E1,9.368569E1,7.1793437E0,4.450149E0,9.445106E0,2.6209152E1,3.979089E0,2.5757089E0,3.495713E2,1.1649989E0,1.2084126E0,1.1913201E0,6.7740736E0,6.3425703E0,3.0788903E0,9.884876E0,1.7350594E2,2.1094675E0,1.4275431E1,1.6280794E0,3.8160462E0,1.175622E0,4.503511E0,4.333849E1,1.8783809E0,1.2070487E0,2.8088293E0,1.3397677E1,3.0158608E0,2.3785105E0,1.5511269E1,9.204547E1,1.6402177E0,3.0719686E0,6.373137E0,2.4809324E1,1.3998275E0,2.1088483E0,1.8702407E0,1.4116251E0,1.1640838E0,7.0360503E0,3.4253522E2,5.603181E0,1.1708926E0,1.9052541E0,1.1736362E0,5.6411304E0,4.243746E0,1.7066913E2,2.8367999E0,1.3964559E0,1.2878975E1,4.2141167E1,1.1973207E0],"tree_param":{"num_deleted":"0","num_feature":"384","num_nodes":"87","size_leaf_vector":"0"}},{"base_weights":[-3.85924E-1,3.3595026E-1,-9.5884687E-1,8.232465E-1,-7.455827E-1,-1.147396E0,-3.339734E-1,-2.4099185E-1,1.0775787E0,-1.0746145E0,3.386346E-1,-1.2510414E0,-6.4859086E-1,6.325857E-1,-8.505115E-1,-7.171748E-1,8.776476E-1,1.202577E0,-3.1276363E-1,-3.68895E-1,-1.3060752E0,-5.785906E-1,1.0874317E0,3.3433327E-1,-1.2770677E0,1.2953594E0,-8.6607516E-1,-3.4016836E-1,1.1540568E0,1.218264E0,-1.040432E0,3.527172E-1,-1.1685241E0,1.2097162E0,-1.0782424E0,-2.7841577E-1,1.2794065E0,-1.0875877E0,7.356007E-1,4.631509E-1,-8.871543E-1,1.5230082E-1,-1.3494263E0,1.0042936E0,-1.0646151E0,-5.2422345E-1,1.3410184E0,-8.880312E-1,1.3290248E0,-1.3070774E0,-4.133881E-1,-1.1597266E0,2.0450022E-2,1.1843474E0,-6.388481E-1,1.3983824E0,-6.6454107E-1,4.6999446E-1,-1.1708415E0,-8.8812935E-1,8.670379E-1,-1.3584963E0,7.472129E-1,1.4451286E0,-4.9973205E-1,-9.2193913E-1,8.995349E-1,1.3232002E0,-4.9754718E-1,1.4871456E-1,-1.3766232E0,1.1794225E0,-4.3772373E-1,-3.5611838E-1,1.6578404E0,6.4448756E-1,-1.1636086E0,-1.3745524E0,-1.3780291E-1,1.576608E-1,-1.3686944E0,-1.0036013E-2,1.4750586E0,-1.3163502E0,4.1911376E-1,9.098071E-1,-1.120409E0,7.5962734E-1,-1.2406737E0,4.7387913E-1,-1.1214453E0,-1.1731101E0,2.2785427E-1,-3.8659868E-1,1.5233469E0,-8.458101E-1,-1.2626506E-1,-9.053833E-1,1.1401842E0,-1.248059E0,5.361089E-1],"categories":[],"categories_nodes":[],"categories_segments":[],"categories_sizes":[],"default_left":[1,1,1,1,1,1,1,1,1,1,1,1,1,1,1,1,1,1,1,1,1,1,1,1,1,0,1,1,1,0,1,1,1,1,0,1,1,1,1,1,1,0,1,0,1,0,1,0,0,1,1,1,1,0,1,1,1,1,1,0,0,0,0,0,0,0,0,0,0,0,0,0,0,0,0,0,0,0,0,0,0,0,0,0,0,0,0,0,0,0,0,0,0,0,0,0,0,0,0,0,0],"id":2,"left_children":[1,3,5,7,9,11,13,15,17,19,21,23,25,27,29,31,33,35,37,39,41,43,45,47,49,-1,51,53,55,-1,57,59,61,63,-1,65,67,69,71,73,75,-1,77,-1,79,-1,81,-1,-1,83,85,87,89,-1,91,93,95,97,99,-1,-1,-1,-1,-1,-1,-1,-1,-1,-1,-1,-1,-1,-1,-1,-1,-1,-1,-1,-1,-1,-1,-1,-1,-1,-1,-1,-1,-1,-1,-1,-1,-1,-1,-1,-1,-1,-1,-1,-1,-1,-1],"loss_changes":[2.983717E2,1.6906165E2,4.6985077E1,6.002823E1,3.596749E1,1.51345215E1,4.776981E1,2.3752651E1,3.1381638E1,1.2064148E1,1.7110168E1,1.0919678E1,2.443404E1,1.739706E1,2.565921E1,1.5381206E1,1.0014618E1,1.9005127E1,1.339892E1,9.191638E0,3.837181E0,9.868576E0,6.2442245E0,7.137741E0,5.949707E0,0E0,1.3090019E1,6.4352927E0,1.0727114E1,0E0,1.1856598E1,7.129858E0,9.033783E0,5.525425E0,0E0,7.579246E0,1.2797607E1,3.5358353E0,4.2594395E0,8.882963E0,6.208083E0,0E0,1.5119476E0,0E0,3.6486444E0,0E0,2.1872444E0,0E0,0E0,4.4177856E0,1.0253795E1,6.802868E0,7.5064435E0,0E0,5.3968143E0,4.9968643E0,2.1416795E-1,5.895137E0,7.671257E0,0E0,0E0,0E0,0E0,0E0,0E0,0E0,0E0,0E0,0E0,0E0,0E0,0E0,0E0,0E0,0E0,0E0,0E0,0E0,0E0,0E0,0E0,0E0,0E0,0E0,0E0,0E0,0E0,0E0,0E0,0E0,0E0,0E0,0E0,0E0,0E0,0E0,0E0,0E0,0E0,0E0,0E0],"parents":[2147483647,0,0,1,1,2,2,3,3,4,4,5,5,6,6,7,7,8,8,9,9,10,10,11,11,12,12,13,13,14,14,15,15,16,16,17,17,18,18,19,19,20,20,21,21,22,22,23,23,24,24,26,26,27,27,28,28,30,30,31,31,32,32,33,33,35,35,36,36,37,37,38,38,39,39,40,40,42,42,44,44,46,46,49,49,50,50,51,51,52,52,54,54,55,55,56,56,57,57,58,58],"right_children":[2,4,6,8,10,12,14,16,18,20,22,24,26,28,30,32,34,36,38,40,42,44,46,48,50,-1,52,54,56,-1,58,60,62,64,-1,66,68,70,72,74,76,-1,78,-1,80,-1,82,-1,-1,84,86,88,90,-1,92,94,96,98,100,-1,-1,-1,-1,-1,-1,-1,-1,-1,-1,-1,-1,-1,-1,-1,-1,-1,-1,-1,-1,-1,-1,-1,-1,-1,-1,-1,-1,-1,-1,-1,-1,-1,-1,-1,-1,-1,-1,-1,-1,-1,-1],"split_conditions":[3.2208245E-2,5.2444354E-2,3.159485E-2,-1.4242728E-2,4.4312954E-2,8.57023E-2,-5.289914E-3,-2.4226747E-2,4.0025607E-2,-1.0848131E-3,1.0072708E-2,-4.9457382E-2,-1.187505E-2,-1.4831823E-2,-1.6907016E-2,-4.954636E-2,3.0696604E-2,2.0056624E-2,5.3425804E-2,-5.419438E-2,-6.463125E-2,-5.0263535E-2,-4.001452E-2,6.656031E-2,3.7450306E-2,3.8860783E-1,6.740221E-3,-6.23632E-2,3.2170914E-2,3.654792E-1,-8.013292E-2,-1.686522E-2,4.101283E-2,-3.6086338E-3,-3.2347274E-1,-6.490365E-3,1.6415859E-2,-1.3333829E-2,6.9903426E-2,-4.064358E-2,-4.0441662E-2,4.5690246E-2,2.6664329E-3,3.0128807E-1,-1.7469227E-2,-1.5726703E-1,-2.9969845E-2,-2.6640937E-1,3.9870745E-1,7.407768E-2,-7.884423E-3,-6.171469E-2,6.023494E-2,3.5530424E-1,-3.810086E-2,-8.8371284E-2,-2.5384929E-2,-5.1011536E-2,8.774538E-2,-2.664388E-1,2.601114E-1,-4.075489E-1,2.2416387E-1,4.335386E-1,-1.4991961E-1,-2.7658176E-1,2.6986048E-1,3.9696008E-1,-1.4926416E-1,4.4614367E-2,-4.1298696E-1,3.5382676E-1,-1.3131712E-1,-1.0683552E-1,4.9735212E-1,1.9334628E-1,-3.490826E-1,-4.1236573E-1,-4.1340876E-2,4.729824E-2,-4.1060835E-1,-3.010804E-3,4.4251758E-1,-3.949051E-1,1.2573414E-1,2.7294213E-1,-3.3612272E-1,2.2788821E-1,-3.722021E-1,1.4216374E-1,-3.364336E-1,-3.5193306E-1,6.835628E-2,-1.15979604E-1,4.570041E-1,-2.5374305E-1,-3.787952E-2,-2.71615E-1,3.4205526E-1,-3.7441772E-1,1.6083267E-1],"split_indices":[102,53,191,124,92,303,13,338,136,13,226,194,53,207,42,381,358,303,247,26,248,364,0,67,189,0,57,371,198,0,326,214,187,314,0,105,113,102,32,325,361,0,304,0,101,0,99,0,0,73,364,62,53,0,9,312,7,142,191,0,0,0,0,0,0,0,0,0,0,0,0,0,0,0,0,0,0,0,0,0,0,0,0,0,0,0,0,0,0,0,0,0,0,0,0,0,0,0,0,0,0],"split_type":[0,0,0,0,0,0,0,0,0,0,0,0,0,0,0,0,0,0,0,0,0,0,0,0,0,0,0,0,0,0,0,0,0,0,0,0,0,0,0,0,0,0,0,0,0,0,0,0,0,0,0,0,0,0,0,0,0,0,0,0,0,0,0,0,0,0,0,0,0,0,0,0,0,0,0,0,0,0,0,0,0,0,0,0,0,0,0,0,0,0,0,0,0,0,0,0,0,0,0,0,0],"sum_hessian":[7.1966064E2,3.1861905E2,4.0104163E2,2.1981697E2,9.880206E1,3.074389E2,9.360272E1,4.2409466E1,1.774075E2,7.5805824E1,2.2996243E1,2.5329855E2,5.4140347E1,3.2522022E1,6.10807E1,2.9998554E1,1.24109125E1,1.6289732E2,1.4510183E1,1.9362791E1,5.644303E1,1.0437871E1,1.2558372E1,3.8997822E0,2.4939877E2,4.948935E0,4.919141E1,1.1471229E1,2.1050795E1,4.680637E0,5.6400063E1,8.965348E0,2.1033207E1,1.0935754E1,1.4751582E0,7.9044657E0,1.5499286E2,8.322088E0,6.1880946E0,7.472425E0,1.1890366E1,1.5568149E0,5.488622E1,2.2015438E0,8.236327E0,1.5622642E0,1.0996107E1,1.7977628E0,2.1020193E0,2.4052792E2,8.870845E0,3.6720116E1,1.2471298E1,1.3934635E0,1.0077765E1,1.8761309E1,2.2894855E0,4.2755723E0,5.212449E1,2.4141607E0,6.551188E0,1.9400272E1,1.6329345E0,9.747961E0,1.1877928E0,5.252384E0,2.652081E0,1.515141E2,3.4787624E0,1.6689416E0,6.6531467E0,4.4860163E0,1.7020782E0,4.849056E0,2.6233692E0,1.6144656E0,1.02759E1,5.3639397E1,1.2468224E0,1.7367618E0,6.4995656E0,1.0759743E0,9.920134E0,2.394789E2,1.0490254E0,2.9893794E0,5.8814654E0,1.1466784E0,3.5573437E1,9.345392E0,3.1259055E0,6.0158668E0,4.0618987E0,1.0905353E0,1.7670774E1,1.2853134E0,1.004172E0,1.2858295E0,2.9897428E0,5.012578E1,1.9987127E0],"tree_param":{"num_deleted":"0","num_feature":"384","num_nodes":"101","size_leaf_vector":"0"}},{"base_weights":[-3.309115E-1,3.0589044E-1,-8.505118E-1,-8.1826E-1,5.92501E-1,-1.0841188E0,-2.411035E-1,-1.0507274E0,1.5184076E-1,-1.3083209E-1,8.8883835E-1,1.14640094E-1,-1.1300673E0,-7.576314E-1,5.738791E-1,-1.1729065E0,4.2169708E-1,1.1225493E0,-7.062317E-1,5.157252E-1,-6.6137755E-1,3.5719657E-1,1.1344748E0,-9.410124E-1,6.7051697E-1,-2.2097741E-1,-1.1825439E0,-9.538963E-1,6.5593225E-1,1.0611175E0,-3.5884172E-1,-1.2491317E0,5.192427E-1,-7.11708E-1,1.0513432E0,1.2647824E0,2.132065E-1,-1.1036068E0,7.195417E-1,-5.293174E-1,7.9684013E-1,-9.355219E-1,6.273725E-1,9.302395E-1,-2.563753E-1,1.2032022E0,-2.5455916E-1,1.1971507E0,-2.9952967E-1,-9.590082E-1,6.830057E-1,-1.2043828E0,-1.3197239E-1,9.0059406E-1,-1.0317464E0,1.3662713E0,-4.0071997E-1,-4.3263996E-1,1.2328423E0,-1.0798664E0,4.460492E-1,-3.43188E-1,-1.2639092E0,-1.2168055E0,-3.2174134E-1,-8.757689E-1,7.02635E-1,-3.334582E-1,1.073488E0,-1.0648189E0,4.1753381E-1,1.1377374E0,-8.83207E-1,1.1918631E0,-1.9339329E-1,3.2838908E-1,-8.2471776E-1,-4.1532296E-1,1.2260936E0,-1.073254E0,5.7718694E-1,-7.6444286E-1,3.7245974E-1,9.251876E-3,-1.1017346E0,1.090432E0,-6.9429666E-1,-1.2153674E0,5.4381794E-1,6.981519E-1,-9.020086E-1,-1.1359165E0,3.1050611E-2,-8.313901E-1,3.4430304E-1,2.3326312E-1,-8.48076E-1,1.3577613E0,-4.969603E-1,-1.6120453E-1,-1.2090639E0,1.1505566E0,-1.073317E-1],"categories":[],"categories_nodes":[],"categories_segments":[],"categories_sizes":[],"default_left":[1,1,1,1,1,1,1,1,1,1,1,1,1,1,1,1,1,1,1,1,1,1,1,0,1,1,1,1,1,1,1,1,0,0,0,0,0,1,0,1,1,1,1,1,1,1,1,0,1,1,1,1,1,0,1,0,1,1,1,1,1,0,0,0,0,0,0,0,0,0,0,0,0,0,0,0,0,0,0,0,0,0,0,0,0,0,0,0,0,0,0,0,0,0,0,0,0,0,0,0,0,0,0],"id":3,"left_children":[1,3,5,7,9,11,13,15,17,19,21,23,25,27,29,31,33,35,37,39,41,43,45,-1,47,49,51,53,55,57,59,61,-1,-1,-1,-1,-1,63,-1,65,67,69,71,73,75,77,79,-1,81,83,85,87,89,-1,91,-1,93,95,97,99,101,-1,-1,-1,-1,-1,-1,-1,-1,-1,-1,-1,-1,-1,-1,-1,-1,-1,-1,-1,-1,-1,-1,-1,-1,-1,-1,-1,-1,-1,-1,-1,-1,-1,-1,-1,-1,-1,-1,-1,-1,-1,-1],"loss_changes":[2.0286496E2,8.9366554E1,4.777896E1,1.2893276E1,4.735913E1,1.35503845E1,4.034063E1,8.711674E0,1.0612184E1,2.2611996E1,2.0028976E1,6.441859E0,1.0937744E1,1.6842674E1,1.735168E1,6.12278E0,3.770708E0,4.9571037E-1,4.6871443E0,9.183598E0,1.3341084E1,1.813828E1,1.04796295E1,0E0,3.9706943E0,1.0022829E1,4.9278564E0,8.398243E0,6.3412485E0,6.890375E0,8.351792E0,1.13861084E-1,0E0,0E0,0E0,0E0,0E0,1.1903286E-1,0E0,3.5701714E0,7.831897E0,5.72254E0,6.348112E0,8.032429E0,8.702152E0,4.2778625E0,4.6026945E0,0E0,1.3118906E0,1.1359525E0,4.626258E0,4.8294983E0,4.2337275E0,0E0,5.583748E0,0E0,1.5299981E0,1.1094851E0,5.5337906E0,6.887932E-1,2.8975677E0,0E0,0E0,0E0,0E0,0E0,0E0,0E0,0E0,0E0,0E0,0E0,0E0,0E0,0E0,0E0,0E0,0E0,0E0,0E0,0E0,0E0,0E0,0E0,0E0,0E0,0E0,0E0,0E0,0E0,0E0,0E0,0E0,0E0,0E0,0E0,0E0,0E0,0E0,0E0,0E0,0E0,0E0],"parents":[2147483647,0,0,1,1,2,2,3,3,4,4,5,5,6,6,7,7,8,8,9,9,10,10,11,11,12,12,13,13,14,14,15,15,16,16,17,17,18,18,19,19,20,20,21,21,22,22,24,24,25,25,26,26,27,27,28,28,29,29,30,30,31,31,37,37,39,39,40,40,41,41,42,42,43,43,44,44,45,45,46,46,48,48,49,49,50,50,51,51,52,52,54,54,56,56,57,57,58,58,59,59,60,60],"right_children":[2,4,6,8,10,12,14,16,18,20,22,24,26,28,30,32,34,36,38,40,42,44,46,-1,48,50,52,54,56,58,60,62,-1,-1,-1,-1,-1,64,-1,66,68,70,72,74,76,78,80,-1,82,84,86,88,90,-1,92,-1,94,96,98,100,102,-1,-1,-1,-1,-1,-1,-1,-1,-1,-1,-1,-1,-1,-1,-1,-1,-1,-1,-1,-1,-1,-1,-1,-1,-1,-1,-1,-1,-1,-1,-1,-1,-1,-1,-1,-1,-1,-1,-1,-1,-1,-1],"split_conditions":[-1.727506E-3,-3.21998E-2,-3.7717037E-2,4.9531363E-2,-4.045792E-2,-1.0393827E-1,5.258862E-2,2.4207095E-3,-3.4565166E-2,4.334346E-3,1.4971789E-2,-6.1395124E-2,-4.4008892E-2,1.3923043E-2,3.967669E-2,6.37837E-2,-1.2276938E-2,6.1933525E-2,2.7541018E-3,-4.870917E-2,2.5175199E-2,-4.321094E-2,-2.5877351E-2,-2.8230372E-1,1.8559093E-2,4.7197275E-2,9.47606E-2,-5.433539E-2,-1.58987E-2,-5.1818497E-2,5.884809E-2,-6.5006316E-2,1.5577282E-1,-2.135124E-1,3.1540298E-1,3.7943473E-1,6.396195E-2,3.9250404E-2,2.1586253E-1,8.3086975E-3,-2.877897E-2,9.8587394E-2,3.5390276E-2,5.6591876E-2,2.9277194E-2,-5.7843897E-2,-4.510587E-2,3.5914522E-1,-1.1442832E-2,-8.380163E-2,6.32406E-2,1.0227497E-1,5.9426874E-3,2.7017823E-1,5.5838667E-2,4.0988138E-1,-1.2292011E-2,-5.5002593E-3,3.2331683E-2,-8.95037E-2,5.142586E-2,-1.029564E-1,-3.7917277E-1,-3.6504164E-1,-9.6522406E-2,-2.627307E-1,2.107905E-1,-1.0003746E-1,3.220464E-1,-3.1944567E-1,1.2526014E-1,3.4132123E-1,-2.649621E-1,3.5755894E-1,-5.8017988E-2,9.8516725E-2,-2.4741533E-1,-1.24596894E-1,3.678281E-1,-3.219762E-1,1.7315608E-1,-2.2933286E-1,1.1173793E-1,2.775563E-3,-3.305204E-1,3.2712963E-1,-2.0828901E-1,-3.6461025E-1,1.631454E-1,2.0944558E-1,-2.7060258E-1,-3.4077495E-1,9.315183E-3,-2.4941704E-1,1.03290915E-1,6.997894E-2,-2.544228E-1,4.073284E-1,-1.490881E-1,-4.836136E-2,-3.6271918E-1,3.4516698E-1,-3.2199513E-2],"split_indices":[335,216,325,92,142,195,33,107,308,324,57,308,174,9,24,320,189,313,289,308,255,378,261,0,245,279,374,198,364,362,80,55,0,0,0,0,0,246,0,289,134,303,175,313,24,60,298,0,9,269,102,331,128,0,1,0,197,98,11,144,287,0,0,0,0,0,0,0,0,0,0,0,0,0,0,0,0,0,0,0,0,0,0,0,0,0,0,0,0,0,0,0,0,0,0,0,0,0,0,0,0,0,0],"split_type":[0,0,0,0,0,0,0,0,0,0,0,0,0,0,0,0,0,0,0,0,0,0,0,0,0,0,0,0,0,0,0,0,0,0,0,0,0,0,0,0,0,0,0,0,0,0,0,0,0,0,0,0,0,0,0,0,0,0,0,0,0,0,0,0,0,0,0,0,0,0,0,0,0,0,0,0,0,0,0,0,0,0,0,0,0,0,0,0,0,0,0,0,0,0,0,0,0,0,0,0,0,0,0],"sum_hessian":[6.113165E2,2.7486453E2,3.36452E2,5.5464695E1,2.1939984E2,2.4265506E2,9.379695E1,4.4675823E1,1.0788873E1,6.392445E1,1.5547539E2,8.902467E0,2.337526E2,5.745372E1,3.6343227E1,4.144058E1,3.2352467E0,4.9175696E0,5.8713036E0,2.882471E1,3.509974E1,4.990909E1,1.055663E2,2.8318067E0,6.0706596E0,1.3041184E1,2.207114E2,5.073469E1,6.719026E0,2.3782154E1,1.2561074E1,3.9904816E1,1.5357611E0,1.1088723E0,2.1263745E0,3.9144268E0,1.0031428E0,4.7682977E0,1.1030059E0,5.9230175E0,2.2901695E1,2.916897E1,5.930769E0,2.554E1,2.4369085E1,1.0071675E2,4.849546E0,3.7828512E0,2.2878084E0,7.1460943E0,5.8950906E0,2.1607335E2,4.638053E0,1.6182226E0,4.911647E1,3.8427212E0,2.8763049E0,2.295474E0,2.1486681E1,6.4455194E0,6.115555E0,1.0292593E0,3.8875557E1,3.67932E0,1.0889773E0,4.848606E0,1.0744113E0,4.4627833E0,1.8438911E1,2.6819176E1,2.349794E0,4.6175146E0,1.3132544E0,2.0667189E1,4.8728127E0,1.221911E1,1.2149976E1,1.1655259E0,9.955123E1,2.2976182E0,2.5519278E0,1.2709353E0,1.0168732E0,1.0381863E0,6.107908E0,4.7100677E0,1.1850231E0,2.1502702E2,1.046325E0,2.2768674E0,2.3611858E0,4.46694E1,4.447071E0,1.7492203E0,1.1270846E0,1.0503602E0,1.2451138E0,2.0240105E1,1.2465758E0,1.0718488E0,5.3736706E0,2.2156622E0,3.8998923E0],"tree_param":{"num_deleted":"0","num_feature":"384","num_nodes":"103","size_leaf_vector":"0"}},{"base_weights":[-2.8899497E-1,-6.6180706E-1,4.1418555E-1,-8.7240976E-1,6.6213734E-2,8.0462945E-1,-1.6389291E-1,5.3644925E-1,-9.324276E-1,-4.4399625E-1,7.172275E-1,-1.6075571E-1,9.5383495E-1,-5.8347327E-1,4.6559772E-1,-7.7157545E-1,9.032603E-1,-6.5815425E-1,-1.0960158E0,-6.3371426E-1,7.510895E-1,-1.0166629E-1,1.0163841E0,-9.2456895E-1,6.02074E-1,-6.6879296E-1,1.0223184E0,-7.7219784E-1,5.898378E-1,8.9133364E-1,-4.3937674E-1,-3.9321533E-1,1.1087803E0,-9.319852E-1,8.6497396E-2,3.1630918E-1,-1.1356848E0,5.257244E-1,-8.1777674E-1,1.1729665E0,-3.749919E-1,-8.932378E-1,4.7938687E-1,1.181914E0,-2.9954472E-1,3.1893185E-1,-1.1532565E0,9.668865E-1,-7.148607E-1,2.7280194E-1,-1.0363169E0,1.064293E0,-8.7587243E-1,-9.4993454E-1,3.0229095E-1,-4.4943574E-1,1.1008791E0,-8.2428414E-1,1.08962E0,5.4352194E-1,-9.411712E-1,-1.0224112E0,2.2297284E-1,6.0024583E-1,-5.4363716E-1,-5.001844E-1,1.0136555E0,-1.1530396E0,3.4295303E-1,-6.742295E-1,1.1378983E0,-9.7870785E-1,2.6830155E-1,1.0409482E0,9.71373E-3,1.2138486E-1,1.2437344E0,-8.5251796E-1,5.650221E-1,1.1196225E0,3.946727E-2,-3.311545E-1,1.1203951E0,-1.0507005E0,2.146114E-1,-5.4503477E-1,9.1151834E-1,1.290044E0,-1.4850562E-2,-2.590833E-1,8.9582264E-1,-1.1544402E0,1.0380209E-1],"categories":[],"categories_nodes":[],"categories_segments":[],"categories_sizes":[],"default_left":[1,1,1,1,1,1,1,1,1,1,1,1,1,1,1,0,1,1,1,1,1,1,1,1,1,1,1,1,1,1,1,0,0,1,1,1,1,1,1,0,0,0,1,1,1,0,0,1,0,0,0,1,0,1,1,0,0,0,1,1,1,0,0,0,0,0,0,0,0,0,0,0,0,0,0,0,0,0,0,0,0,0,0,0,0,0,0,0,0,0,0,0,0],"id":4,"left_children":[1,3,5,7,9,11,13,15,17,19,21,23,25,27,29,-1,31,33,35,37,39,41,43,45,47,49,51,53,55,57,59,-1,-1,61,63,65,67,69,71,-1,-1,-1,73,75,77,-1,-1,79,-1,-1,-1,81,-1,83,85,-1,-1,-1,87,89,91,-1,-1,-1,-1,-1,-1,-1,-1,-1,-1,-1,-1,-1,-1,-1,-1,-1,-1,-1,-1,-1,-1,-1,-1,-1,-1,-1,-1,-1,-1,-1,-1],"loss_changes":[1.3515143E2,5.166899E1,4.050609E1,2.2582993E1,2.5714132E1,1.5556465E1,1.9537455E1,6.121381E0,1.0533936E1,1.0334594E1,8.426626E0,9.396084E0,1.0992073E1,1.0245637E1,1.1845995E1,0E0,2.9114003E0,1.9701519E1,9.078491E0,8.553824E0,3.4872396E0,5.0276375E0,5.794401E0,2.6356592E0,4.62879E0,1.7919236E0,8.055519E0,7.643507E0,4.0495605E0,7.8884506E0,5.533129E0,0E0,0E0,7.5843925E0,8.997769E0,3.3732843E0,4.2855988E0,5.0453887E0,6.0729733E0,0E0,0E0,0E0,1.6825248E0,1.3167896E0,2.19727E0,0E0,0E0,9.25138E-1,0E0,0E0,0E0,7.254158E0,0E0,4.132406E0,3.710737E0,0E0,0E0,0E0,4.191923E0,1.384333E0,1.7035608E0,0E0,0E0,0E0,0E0,0E0,0E0,0E0,0E0,0E0,0E0,0E0,0E0,0E0,0E0,0E0,0E0,0E0,0E0,0E0,0E0,0E0,0E0,0E0,0E0,0E0,0E0,0E0,0E0,0E0,0E0,0E0,0E0],"parents":[2147483647,0,0,1,1,2,2,3,3,4,4,5,5,6,6,7,7,8,8,9,9,10,10,11,11,12,12,13,13,14,14,16,16,17,17,18,18,19,19,20,20,21,21,22,22,23,23,24,24,25,25,26,26,27,27,28,28,29,29,30,30,33,33,34,34,35,35,36,36,37,37,38,38,42,42,43,43,44,44,47,47,51,51,53,53,54,54,58,58,59,59,60,60],"right_children":[2,4,6,8,10,12,14,16,18,20,22,24,26,28,30,-1,32,34,36,38,40,42,44,46,48,50,52,54,56,58,60,-1,-1,62,64,66,68,70,72,-1,-1,-1,74,76,78,-1,-1,80,-1,-1,-1,82,-1,84,86,-1,-1,-1,88,90,92,-1,-1,-1,-1,-1,-1,-1,-1,-1,-1,-1,-1,-1,-1,-1,-1,-1,-1,-1,-1,-1,-1,-1,-1,-1,-1,-1,-1,-1,-1,-1,-1],"split_conditions":[4.0804498E-2,-2.7316092E-2,2.9655986E-2,-1.757894E-2,4.98086E-2,2.3899816E-2,-1.7628588E-3,5.6875553E-3,6.2189396E-3,1.6795797E-2,-2.843643E-2,6.568765E-2,-4.4015054E-2,3.994086E-2,-1.781537E-2,-2.3147264E-1,1.5837085E-2,-3.0030567E-2,-2.4979642E-2,-4.5744233E-2,-1.2614455E-2,7.1679145E-2,2.673081E-2,-3.190323E-2,2.9741451E-2,9.281309E-3,5.428501E-2,3.3916607E-2,2.8637972E-2,-2.8990148E-2,2.577053E-2,-1.179646E-1,3.326341E-1,5.320599E-2,3.8634095E-2,-7.4907984E-3,8.427191E-2,-1.08582135E-2,2.7924702E-2,3.5188997E-1,-1.12497576E-1,-2.6797137E-1,5.4140836E-2,-5.779843E-2,-6.717573E-2,9.567956E-2,-3.4597698E-1,6.9821626E-2,-2.1445821E-1,8.184058E-2,-3.108951E-1,-7.651302E-2,-2.6276174E-1,4.4684492E-2,3.6192313E-2,-1.3483073E-1,3.3026373E-1,-2.4728525E-1,6.852313E-2,-1.6882077E-2,2.9832501E-2,-3.067234E-1,6.689186E-2,1.8007375E-1,-1.6309115E-1,-1.5005533E-1,3.0409667E-1,-3.459119E-1,1.0288591E-1,-2.0226885E-1,3.413695E-1,-2.9361236E-1,8.049047E-2,3.1228447E-1,2.914119E-3,3.6415458E-2,3.731203E-1,-2.557554E-1,1.6950664E-1,3.3588675E-1,1.1840182E-2,-9.9346355E-2,3.3611852E-1,-3.1521016E-1,6.4383425E-2,-1.6351044E-1,2.734555E-1,3.870132E-1,-4.4551687E-3,-7.772499E-2,2.687468E-1,-3.4633207E-1,3.114063E-2],"split_indices":[92,107,102,102,80,33,255,236,13,142,161,303,127,57,333,0,290,142,300,173,268,303,55,250,136,24,173,305,151,78,24,0,0,61,287,182,38,92,342,0,0,0,24,179,218,0,0,85,0,0,0,231,0,124,80,0,0,0,172,349,40,0,0,0,0,0,0,0,0,0,0,0,0,0,0,0,0,0,0,0,0,0,0,0,0,0,0,0,0,0,0,0,0],"split_type":[0,0,0,0,0,0,0,0,0,0,0,0,0,0,0,0,0,0,0,0,0,0,0,0,0,0,0,0,0,0,0,0,0,0,0,0,0,0,0,0,0,0,0,0,0,0,0,0,0,0,0,0,0,0,0,0,0,0,0,0,0,0,0,0,0,0,0,0,0,0,0,0,0,0,0,0,0,0,0,0,0,0,0,0,0,0,0,0,0,0,0,0,0],"sum_hessian":[5.134961E2,3.3561737E2,1.7787872E2,2.6015976E2,7.545763E1,1.0593592E2,7.19428E1,1.0305692E1,2.4985406E2,4.2481884E1,3.2975746E1,1.4170826E1,9.176509E1,4.321284E1,2.8729961E1,2.0154078E0,8.290283E0,9.522399E1,1.5463007E2,3.706725E1,5.4146357E0,8.999956E0,2.397579E1,6.974904E0,7.195922E0,3.3611526E0,8.840394E1,3.7519737E1,5.693105E0,1.9548597E1,9.181364E0,1.0094059E0,7.2808776E0,6.943798E1,2.5786013E1,4.034029E0,1.5059604E2,4.823983E0,3.2243267E1,3.9086552E0,1.5059805E0,3.5823834E0,5.4175725E0,2.1387331E1,2.5884583E0,1.0221721E0,5.952732E0,5.8430943E0,1.3528275E0,1.0159703E0,2.3451824E0,8.6921165E1,1.482773E0,3.2293777E1,5.22596E0,1.9163961E0,3.776709E0,1.6982155E0,1.7850382E1,3.074999E0,6.1063647E0,6.450259E1,4.9353886E0,1.4230954E1,1.1555059E1,1.9885045E0,2.0455246E0,1.4906665E2,1.5293885E0,1.5953957E0,3.2285874E0,2.8168257E1,4.0750093E0,1.9134476E0,3.5041246E0,1.3412725E0,2.0046059E1,1.5872173E0,1.0012411E0,4.838929E0,1.0041649E0,3.1699955E0,8.375117E1,2.981196E1,2.481815E0,2.2299156E0,2.9960444E0,1.4966456E1,2.8839252E0,1.018734E0,2.0562654E0,4.9843507E0,1.1220138E0],"tree_param":{"num_deleted":"0","num_feature":"384","num_nodes":"93","size_leaf_vector":"0"}},{"base_weights":[-2.5271973E-1,1.7019512E-1,-7.685417E-1,8.96337E-1,-1.3088785E-1,-9.35124E-1,-1.1488873E-1,1.0076478E0,-1.8842542E-1,-6.3367933E-1,2.1969697E-1,1.2988067E-1,-9.71703E-1,2.3035754E-1,-9.0015596E-1,1.0537258E0,-5.4012835E-1,7.190707E-1,-7.434738E-1,-8.6324775E-1,-5.783838E-2,-4.055819E-1,5.2919143E-1,7.406077E-1,-6.43327E-1,-1.0026908E0,1.3035068E-1,7.43477E-1,-4.9170497E-1,-1.0177222E0,2.3047617E-1,2.2224785E-1,1.1259164E0,-1.777027E-2,-9.70384E-1,-5.0028995E-2,-1.0096287E0,-7.442617E-1,4.8145297E-1,2.716602E-1,-6.7032385E-1,8.567221E-1,-1.748214E-2,-1.9660641E-1,1.1541749E0,-6.0857497E-2,-1.0406626E0,1.0006737E0,-7.8016335E-1,1.0715688E0,-4.4373024E-1,-9.053666E-1,2.7144253E-1,-7.301242E-1,9.2445934E-1,1.1572931E0,-2.9872563E-1,-7.1813047E-1,7.807639E-1,6.587222E-2,-1.0605414E0,-1.0176798E0,3.2415983E-1,9.677274E-1,-6.6439164E-1,7.325885E-1,-5.849629E-1,1.4338069E-1,-9.0459806E-1,-8.603321E-2,1.045427E0,2.882993E-1,-8.6288303E-1,-7.7174366E-1,7.679565E-1,2.915556E-1,-1.0612457E0,1.232763E0,5.1403888E-2,-8.982518E-1,4.9376547E-1,6.843246E-2,-1.0466509E0,8.4509164E-1,-5.8375543E-1],"categories":[],"categories_nodes":[],"categories_segments":[],"categories_sizes":[],"default_left":[1,1,1,1,1,1,1,1,1,1,1,1,1,1,1,1,0,0,1,1,1,1,1,1,0,1,1,1,1,0,0,1,1,0,0,1,1,1,1,1,1,1,1,0,0,1,1,0,0,1,1,1,1,0,0,0,0,0,0,0,0,0,0,0,0,0,0,0,0,0,0,0,0,0,0,0,0,0,0,0,0,0,0,0,0],"id":5,"left_children":[1,3,5,7,9,11,13,15,17,19,21,23,25,27,29,31,-1,-1,33,35,37,39,41,43,-1,45,47,49,51,-1,-1,53,55,-1,-1,57,59,61,63,65,67,69,71,-1,-1,73,75,-1,-1,77,79,81,83,-1,-1,-1,-1,-1,-1,-1,-1,-1,-1,-1,-1,-1,-1,-1,-1,-1,-1,-1,-1,-1,-1,-1,-1,-1,-1,-1,-1,-1,-1,-1,-1],"loss_changes":[9.422194E1,5.21118E1,2.1070625E1,8.62196E0,2.9926777E1,6.1588745E0,1.1225396E1,5.0973053E0,4.23251E0,9.161533E0,1.9625938E1,3.3211913E0,5.247467E0,1.1119642E1,1.9113846E0,3.4710236E0,0E0,0E0,8.1383276E-1,5.8714447E0,8.107421E0,6.23805E0,1.2106337E1,1.7116573E0,0E0,5.152664E0,4.7292085E0,7.2396955E0,4.2422276E0,0E0,0E0,4.820322E0,2.8845673E0,0E0,0E0,5.3568225E0,2.375496E0,3.1351748E0,7.5132685E0,4.4576683E0,4.8138905E0,7.6061363E0,7.0425625E0,0E0,0E0,4.548733E0,4.1520386E0,0E0,0E0,2.2221823E0,2.3470547E0,1.2328658E0,3.053861E0,0E0,0E0,0E0,0E0,0E0,0E0,0E0,0E0,0E0,0E0,0E0,0E0,0E0,0E0,0E0,0E0,0E0,0E0,0E0,0E0,0E0,0E0,0E0,0E0,0E0,0E0,0E0,0E0,0E0,0E0,0E0,0E0],"parents":[2147483647,0,0,1,1,2,2,3,3,4,4,5,5,6,6,7,7,8,8,9,9,10,10,11,11,12,12,13,13,14,14,15,15,18,18,19,19,20,20,21,21,22,22,23,23,25,25,26,26,27,27,28,28,31,31,32,32,35,35,36,36,37,37,38,38,39,39,40,40,41,41,42,42,45,45,46,46,49,49,50,50,51,51,52,52],"right_children":[2,4,6,8,10,12,14,16,18,20,22,24,26,28,30,32,-1,-1,34,36,38,40,42,44,-1,46,48,50,52,-1,-1,54,56,-1,-1,58,60,62,64,66,68,70,72,-1,-1,74,76,-1,-1,78,80,82,84,-1,-1,-1,-1,-1,-1,-1,-1,-1,-1,-1,-1,-1,-1,-1,-1,-1,-1,-1,-1,-1,-1,-1,-1,-1,-1,-1,-1,-1,-1,-1,-1],"split_conditions":[5.987752E-3,-2.0992002E-3,-2.9972102E-2,6.365563E-2,4.1869655E-2,-5.4600544E-2,2.0967249E-2,2.1465942E-2,-5.171498E-2,4.4069095E-3,-1.7504081E-2,1.5393591E-2,5.3467616E-2,2.8342627E-2,-7.0514707E-3,-4.880447E-2,-1.620385E-1,2.157212E-1,-3.1856462E-2,-1.764642E-2,-3.2767963E-2,3.58981E-2,-4.875975E-2,-3.960953E-2,-1.9299811E-1,-9.244743E-2,-4.1575156E-2,-1.2942655E-2,6.263162E-2,-3.053167E-1,6.9142856E-2,-5.7382733E-2,3.9935283E-2,-5.3310813E-3,-2.9111522E-1,2.9156834E-2,-6.514135E-2,1.8299957E-3,9.844559E-4,4.1196227E-2,-2.955196E-2,-3.40283E-2,4.430636E-2,-5.8981925E-2,3.462525E-1,4.9764387E-2,-9.373701E-2,3.002021E-1,-2.34049E-1,-5.29892E-2,3.2369208E-2,-1.8951485E-2,1.51998745E-2,-2.1903726E-1,2.7733782E-1,3.4718794E-1,-8.961769E-2,-2.1543916E-1,2.3422919E-1,1.9761667E-2,-3.1816244E-1,-3.0530396E-1,9.724795E-2,2.9031825E-1,-1.993175E-1,2.1977657E-1,-1.7548887E-1,4.3014206E-2,-2.7137944E-1,-2.5809964E-2,3.136281E-1,8.648979E-2,-2.588649E-1,-2.3152311E-1,2.3038696E-1,8.746669E-2,-3.183737E-1,3.6982894E-1,1.5421167E-2,-2.6947555E-1,1.4812964E-1,2.0529738E-2,-3.1399527E-1,2.535275E-1,-1.7512664E-1],"split_indices":[335,24,325,53,33,174,13,378,62,189,124,357,294,300,46,9,0,0,269,329,318,160,378,275,0,238,326,299,303,0,0,274,55,0,0,80,237,9,126,324,241,231,311,0,0,151,202,0,0,218,38,149,24,0,0,0,0,0,0,0,0,0,0,0,0,0,0,0,0,0,0,0,0,0,0,0,0,0,0,0,0,0,0,0,0],"split_type":[0,0,0,0,0,0,0,0,0,0,0,0,0,0,0,0,0,0,0,0,0,0,0,0,0,0,0,0,0,0,0,0,0,0,0,0,0,0,0,0,0,0,0,0,0,0,0,0,0,0,0,0,0,0,0,0,0,0,0,0,0,0,0,0,0,0,0,0,0,0,0,0,0,0,0,0,0,0,0,0,0,0,0,0,0],"sum_hessian":[4.303164E2,2.3682066E2,1.9349574E2,6.8833435E1,1.6798723E2,1.5385536E2,3.9640385E1,6.2492027E1,6.3414106E0,6.868093E1,9.93063E1,5.0241957E0,1.4883116E2,2.8025497E1,1.1614885E1,6.0995365E1,1.4966624E0,2.2944722E0,4.0469384E0,4.8747738E1,1.9933191E1,3.277657E1,6.652973E1,2.8305862E0,2.1936092E0,1.4484843E2,3.982728E0,1.6365805E1,1.1659693E1,1.0611352E1,1.0035338E0,5.198503E0,5.579686E1,1.2208221E0,2.8261163E0,7.640839E0,4.11069E1,8.6030035E0,1.1330189E1,9.204418E0,2.357215E1,4.1248936E1,2.5280796E1,1.0272563E0,1.8033301E0,5.7143903E0,1.3913405E2,1.9856787E0,1.9970493E0,1.2898602E1,3.4672031E0,7.4403286E0,4.219364E0,2.1893945E0,3.0091085E0,5.4778076E1,1.0187867E0,4.3102555E0,3.3305836E0,1.844709E0,3.9262188E1,6.8878393E0,1.7151638E0,8.063598E0,3.26659E0,6.0785117E0,3.1259062E0,5.3562536E0,1.8215897E1,6.970238E0,3.4278698E1,1.9049553E1,6.2312427E0,3.1130977E0,2.6012928E0,1.9166332E0,1.372174E2,1.09586525E1,1.9399496E0,2.3632839E0,1.1039193E0,1.0080444E0,6.4322844E0,2.53246E0,1.6869041E0],"tree_param":{"num_deleted":"0","num_feature":"384","num_nodes":"85","size_leaf_vector":"0"}},{"base_weights":[-2.219567E-1,-7.272922E-1,1.4513324E-1,-1.0128716E0,-3.254655E-1,4.576835E-1,-5.600934E-1,1.03282556E-1,-1.0497099E0,-6.716967E-1,2.0958379E-1,8.485134E-1,1.2848645E-2,-8.3342636E-1,1.5156813E-1,-6.657645E-1,1.0777838E0,-1.0811641E-1,-1.0743941E0,-7.947323E-1,5.0848037E-1,-5.7410246E-1,5.4917634E-1,9.150475E-1,-7.4670875E-1,2.9786977E-1,-6.085677E-1,3.0727404E-1,-9.139886E-1,-4.626531E-1,7.98666E-1,-6.455388E-1,5.257376E-1,1.07547335E-1,-1.0907565E0,-9.3215674E-1,2.2573203E-1,1.073189E0,-4.6572858E-1,6.336913E-1,-9.259268E-1,-4.50564E-1,8.701039E-1,-1.9263016E-1,9.8329395E-1,-9.399312E-1,-1.2069487E-1,6.689702E-1,-2.2433446E-1,-9.149896E-1,-9.000827E-2,-5.880927E-1,8.988288E-1,-9.724301E-1,5.0251544E-1,-8.2755846E-1,8.391877E-1,-2.7187306E-1,1.0357558E0,-1.1005625E0,-2.1775326E-1,3.5064098E-1,-1.0004094E0,5.94686E-1,-6.096134E-1,-9.285223E-1,5.9376353E-1,-5.9058297E-1,1.0242319E0,7.54975E-1,-9.381294E-1,1.0204668E0,-6.020635E-1,-5.9491545E-1,8.3582073E-1,2.5685176E-1,-7.7411443E-1,1.8166305E-1,-1.0181013E0,7.0284164E-1,-4.8914436E-1,1.453078E-1,-1.0199544E0,-9.6659625E-1,1.14170484E-1,1.1092876E0,2.866849E-1],"categories":[],"categories_nodes":[],"categories_segments":[],"categories_sizes":[],"default_left":[1,1,1,1,1,1,1,1,1,1,1,1,1,1,1,0,0,1,1,1,1,1,1,1,1,1,1,1,1,1,1,0,0,0,1,1,1,0,0,0,0,1,1,1,1,0,0,1,1,1,1,0,0,1,0,1,0,0,1,0,0,0,0,0,0,0,0,0,0,0,0,0,0,0,0,0,0,0,0,0,0,0,0,0,0,0,0],"id":6,"left_children":[1,3,5,7,9,11,13,15,17,19,21,23,25,27,29,-1,-1,31,33,35,37,39,41,43,45,47,49,51,53,55,57,-1,-1,-1,59,61,63,-1,-1,-1,-1,65,67,69,71,-1,-1,73,75,77,79,-1,-1,81,-1,83,-1,-1,85,-1,-1,-1,-1,-1,-1,-1,-1,-1,-1,-1,-1,-1,-1,-1,-1,-1,-1,-1,-1,-1,-1,-1,-1,-1,-1,-1,-1],"loss_changes":[6.756829E1,1.7249321E1,4.68715E1,3.7708893E0,1.22034E1,2.556136E1,1.284693E1,3.5326974E0,1.8900757E0,6.178997E0,7.326356E0,8.991901E0,1.254534E1,4.636944E0,7.9184666E0,0E0,0E0,1.4692879E0,1.7418365E0,5.3159294E0,2.9009619E0,4.178838E0,6.453044E0,5.904213E0,3.3228683E-1,9.55442E0,3.4577208E0,2.5811892E0,4.174675E0,5.624153E0,2.7222023E0,0E0,0E0,0E0,4.7039795E-1,3.1770744E0,1.942368E0,0E0,0E0,0E0,0E0,3.171523E0,3.9011593E0,4.3984137E0,4.82061E0,0E0,0E0,6.532565E0,5.730179E0,1.7561436E0,3.3134499E0,0E0,0E0,2.4378242E0,0E0,1.2375555E0,0E0,0E0,1.2704659E-1,0E0,0E0,0E0,0E0,0E0,0E0,0E0,0E0,0E0,0E0,0E0,0E0,0E0,0E0,0E0,0E0,0E0,0E0,0E0,0E0,0E0,0E0,0E0,0E0,0E0,0E0,0E0,0E0],"parents":[2147483647,0,0,1,1,2,2,3,3,4,4,5,5,6,6,7,7,8,8,9,9,10,10,11,11,12,12,13,13,14,14,17,17,18,18,19,19,20,20,21,21,22,22,23,23,24,24,25,25,26,26,27,27,28,28,29,29,30,30,34,34,35,35,36,36,41,41,42,42,43,43,44,44,47,47,48,48,49,49,50,50,53,53,55,55,58,58],"right_children":[2,4,6,8,10,12,14,16,18,20,22,24,26,28,30,-1,-1,32,34,36,38,40,42,44,46,48,50,52,54,56,58,-1,-1,-1,60,62,64,-1,-1,-1,-1,66,68,70,72,-1,-1,74,76,78,80,-1,-1,82,-1,84,-1,-1,86,-1,-1,-1,-1,-1,-1,-1,-1,-1,-1,-1,-1,-1,-1,-1,-1,-1,-1,-1,-1,-1,-1,-1,-1,-1,-1,-1,-1],"split_conditions":[-3.9331883E-2,5.505603E-3,1.1660008E-2,-7.0633814E-2,-3.571648E-2,-1.7389928E-3,8.300156E-2,1.3829304E-2,-8.53437E-3,-3.0338324E-3,-1.764366E-2,6.336045E-2,-9.88595E-3,-5.6500357E-2,-2.87014E-2,-1.9972937E-1,3.2333517E-1,-1.965973E-3,-8.830373E-2,5.0146427E-2,2.3652997E-2,4.2603437E-2,-5.858092E-2,-3.6105722E-2,4.330521E-2,3.866735E-2,3.8308103E-2,-9.636599E-3,7.181916E-2,4.2416334E-2,-6.036998E-2,-1.9366165E-1,1.5772128E-1,3.2264203E-2,1.10401705E-1,-8.079453E-2,-1.0339363E-2,3.2195672E-1,-1.3971858E-1,1.901074E-1,-2.7777806E-1,4.0803432E-2,-3.89228E-2,-6.1832387E-3,6.2678054E-2,-2.8197938E-1,-3.6208462E-2,-7.7848494E-2,2.7630966E-2,-2.7308792E-2,-2.9542102E-2,-1.7642781E-1,2.6964864E-1,-5.6098122E-2,1.5075463E-1,-5.0649117E-4,2.517563E-1,-8.156192E-2,9.4489545E-2,-3.3016875E-1,-6.532598E-2,1.05192296E-1,-3.0012283E-1,1.7840579E-1,-1.8288404E-1,-2.785567E-1,1.7812906E-1,-1.771749E-1,3.0726957E-1,2.2649251E-1,-2.8143883E-1,3.0614007E-1,-1.8061905E-1,-1.7847463E-1,2.5074622E-1,7.705553E-2,-2.3223434E-1,5.449892E-2,-3.054304E-1,2.108525E-1,-1.4674331E-1,4.359234E-2,-3.0598634E-1,-2.899789E-1,3.4251146E-2,3.327863E-1,8.600547E-2],"split_indices":[9,226,13,55,325,198,232,124,102,304,214,136,21,329,167,0,0,161,364,163,199,212,344,73,83,102,382,226,224,124,308,0,0,0,303,326,204,0,0,0,0,309,362,373,128,0,0,263,132,24,366,0,0,215,0,282,0,0,35,0,0,0,0,0,0,0,0,0,0,0,0,0,0,0,0,0,0,0,0,0,0,0,0,0,0,0,0],"split_type":[0,0,0,0,0,0,0,0,0,0,0,0,0,0,0,0,0,0,0,0,0,0,0,0,0,0,0,0,0,0,0,0,0,0,0,0,0,0,0,0,0,0,0,0,0,0,0,0,0,0,0,0,0,0,0,0,0,0,0,0,0,0,0,0,0,0,0,0,0,0,0,0,0,0,0,0,0,0,0,0,0,0,0,0,0,0,0],"sum_hessian":[3.6267355E2,1.5218906E2,2.1048448E2,8.807396E1,6.41151E1,1.4608978E2,6.43947E1,2.7563474E0,8.531761E1,3.8770958E1,2.5344141E1,7.7282364E1,6.880742E1,4.6401745E1,1.7992949E1,1.7176471E0,1.0387002E0,2.3169315E0,8.300069E1,3.540638E1,3.3645775E0,7.453334E0,1.7890808E1,7.459741E1,2.6849537E0,4.752849E1,2.127893E1,2.8753173E0,4.352643E1,9.377202E0,8.615747E0,1.2438664E0,1.073065E0,1.057252E0,8.194343E1,3.1280426E1,4.125954E0,2.0656216E0,1.2989559E0,1.5006222E0,5.952712E0,4.2493777E0,1.364143E1,4.223593E0,7.037382E1,1.6685064E0,1.0164473E0,2.7619703E1,1.9908783E1,1.289479E1,8.384142E0,1.1462406E0,1.7290767E0,4.2102867E1,1.423561E0,7.608781E0,1.7684212E0,1.535544E0,7.080203E0,8.077547E1,1.1679642E0,1.3712163E0,2.990921E1,3.0617442E0,1.0642099E0,2.9912565E0,1.2581213E0,1.0317413E0,1.2609689E1,1.8541147E0,2.3694785E0,6.910968E1,1.2641413E0,2.9217796E0,2.4697924E1,1.0900822E1,9.007962E0,1.042749E0,1.185204E1,2.5526373E0,5.8315043E0,1.6332179E0,4.046965E1,6.6069226E0,1.0018585E0,6.009409E0,1.070794E0],"tree_param":{"num_deleted":"0","num_feature":"384","num_nodes":"87","size_leaf_vector":"0"}},{"base_weights":[-1.9852869E-1,-5.837861E-1,2.188012E-1,-8.671954E-1,-2.267825E-1,-1.5621975E-1,6.282788E-1,-1.019248E0,-3.537548E-1,3.61161E-1,-5.073814E-1,1.882778E-1,-6.285306E-1,-2.3471367E-1,8.2133734E-1,2.9547843E-1,-1.045606E0,-6.34353E-1,3.5313272E-1,-5.2455705E-1,5.9133536E-1,3.2556066E-1,-6.981856E-1,4.541528E-1,-6.379305E-1,-8.62732E-1,1.1606473E-1,-6.193534E-1,5.576323E-1,9.7036827E-1,4.1217893E-2,2.1381086E-1,-1.068541E0,-8.0251735E-1,5.0350064E-1,8.185379E-1,-5.7977426E-1,-8.282539E-1,2.6942754E-1,8.0355024E-1,-3.5904565E-1,6.7645776E-1,-7.536287E-1,-8.846768E-1,-1.3532232E-1,-4.2061242E-1,6.800081E-1,1.897713E-1,-8.2491344E-1,-9.5673805E-1,4.0134743E-1,7.266233E-1,-2.3517032E-1,-9.377857E-1,1.4829138E-1,-1.5940093E-1,8.09676E-1,1.0163001E0,-2.4424684E-1,-5.227528E-1,6.826519E-1,-2.6398933E-1,-1.0775388E0,-9.637829E-1,2.1022484E-1,1.1939802E0,-9.0358436E-2,-3.7133422E-1,9.981814E-1,3.8097262E-1,-7.3893654E-1,-1.5460502E-1,1.0701022E0,4.684156E-1,-9.598923E-1,3.003694E-1,-8.6071455E-1,7.027872E-1,-7.291876E-1,-7.0627075E-1,7.7032626E-1,-9.287733E-1,-6.7664884E-2,1.2256266E-1,-1.0324657E0,2.0408168E-2,-6.815082E-1,-2.4864772E-1,-1.0239388E0,7.6816374E-1,-4.5015028E-1,1.0503279E0,-1.1476965E-1,-8.0168086E-1,3.7403315E-1,9.5184016E-1,-1.8871902E-1],"categories":[],"categories_nodes":[],"categories_segments":[],"categories_sizes":[],"default_left":[1,1,1,1,1,1,1,1,1,1,1,1,1,1,1,0,1,1,1,1,1,1,1,1,1,1,1,1,1,1,1,0,1,1,0,1,0,0,0,1,1,1,0,1,1,1,1,0,1,1,0,0,1,1,1,0,0,1,0,1,1,0,0,0,0,0,0,0,0,0,0,0,0,0,0,0,0,0,0,0,0,0,0,0,0,0,0,0,0,0,0,0,0,0,0,0,0],"id":7,"left_children":[1,3,5,7,9,11,13,15,17,19,21,23,25,27,29,-1,31,33,35,37,39,41,43,45,47,49,51,53,55,57,59,-1,61,63,-1,65,-1,-1,-1,67,69,71,-1,73,75,77,79,-1,81,83,-1,-1,85,87,89,-1,-1,91,-1,93,95,-1,-1,-1,-1,-1,-1,-1,-1,-1,-1,-1,-1,-1,-1,-1,-1,-1,-1,-1,-1,-1,-1,-1,-1,-1,-1,-1,-1,-1,-1,-1,-1,-1,-1,-1,-1],"loss_changes":[4.935359E1,1.5938732E1,2.277858E1,6.5522766E0,1.20497465E1,1.2792118E1,1.1989143E1,2.657898E0,4.5406914E0,5.1667767E0,8.03174E0,1.0352638E1,5.8691835E0,4.527207E0,6.712696E0,0E0,2.154274E0,3.453445E0,3.4384444E0,1.5357914E0,4.1968346E0,4.233925E0,4.107609E0,7.24862E0,1.9469595E0,3.3886356E0,2.0574276E0,2.5128515E0,1.0345569E0,2.9663658E0,4.10472E0,0E0,1.9077301E-1,2.533186E0,0E0,1.8034842E0,0E0,0E0,0E0,4.063654E0,1.4702299E0,2.7656832E0,0E0,3.5098572E0,3.7992334E0,3.2335439E0,4.098856E0,0E0,6.940398E-1,2.0742645E0,0E0,0E0,7.3714375E-1,1.6101933E-1,1.7222931E0,0E0,0E0,1.9348564E0,0E0,1.8205503E0,1.4183481E0,0E0,0E0,0E0,0E0,0E0,0E0,0E0,0E0,0E0,0E0,0E0,0E0,0E0,0E0,0E0,0E0,0E0,0E0,0E0,0E0,0E0,0E0,0E0,0E0,0E0,0E0,0E0,0E0,0E0,0E0,0E0,0E0,0E0,0E0,0E0,0E0],"parents":[2147483647,0,0,1,1,2,2,3,3,4,4,5,5,6,6,7,7,8,8,9,9,10,10,11,11,12,12,13,13,14,14,16,16,17,17,18,18,19,19,20,20,21,21,22,22,23,23,24,24,25,25,26,26,27,27,28,28,29,29,30,30,32,32,33,33,35,35,39,39,40,40,41,41,43,43,44,44,45,45,46,46,48,48,49,49,52,52,53,53,54,54,57,57,59,59,60,60],"right_children":[2,4,6,8,10,12,14,16,18,20,22,24,26,28,30,-1,32,34,36,38,40,42,44,46,48,50,52,54,56,58,60,-1,62,64,-1,66,-1,-1,-1,68,70,72,-1,74,76,78,80,-1,82,84,-1,-1,86,88,90,-1,-1,92,-1,94,96,-1,-1,-1,-1,-1,-1,-1,-1,-1,-1,-1,-1,-1,-1,-1,-1,-1,-1,-1,-1,-1,-1,-1,-1,-1,-1,-1,-1,-1,-1,-1,-1,-1,-1,-1,-1],"split_conditions":[2.5107618E-2,-1.3215347E-4,1.27191E-2,-1.3658728E-2,-1.7589422E-2,1.2106029E-2,1.4090474E-2,-2.3835223E-2,-3.0808166E-2,-4.3037444E-2,4.371121E-2,1.9514123E-3,-2.3846097E-2,8.251925E-2,-8.061767E-3,8.8643536E-2,-2.600167E-2,5.9510753E-2,2.3698056E-2,8.848147E-2,3.3806153E-2,8.645348E-3,2.1632802E-2,-3.3097E-2,-2.581205E-3,6.702738E-2,1.679612E-2,-5.4340288E-2,-7.4757477E-3,5.2838556E-2,3.508862E-2,6.414326E-2,-3.4839384E-2,3.9498317E-3,1.510502E-1,7.4177105E-3,-1.7393228E-1,-2.4847619E-1,8.0828264E-2,-6.2847376E-2,8.107634E-2,-5.0140573E-3,-2.2608861E-1,-4.8860803E-2,5.9060017E-3,-5.193489E-2,-5.1460955E-2,5.693139E-2,8.6589865E-2,-1.1529107E-2,1.20404236E-1,2.17987E-1,-3.659324E-3,-4.469179E-2,-3.144035E-2,-4.782028E-2,2.429028E-1,7.1479216E-2,-7.327405E-2,8.628655E-3,-1.0963276E-2,-7.91968E-2,-3.2326168E-1,-2.891349E-1,6.306745E-2,3.5819408E-1,-2.7107531E-2,-1.1140027E-1,2.9945442E-1,1.14291795E-1,-2.2168097E-1,-4.6381507E-2,3.2103068E-1,1.4052469E-1,-2.8796768E-1,9.011082E-2,-2.5821438E-1,2.1083617E-1,-2.1875629E-1,-2.1188124E-1,2.3109789E-1,-2.78632E-1,-2.0299466E-2,3.67688E-2,-3.097397E-1,6.122451E-3,-2.0445247E-1,-7.459432E-2,-3.0718166E-1,2.3044913E-1,-1.350451E-1,3.1509838E-1,-3.44309E-2,-2.4050426E-1,1.1220995E-1,2.8555205E-1,-5.6615707E-2],"split_indices":[92,226,124,9,198,136,67,280,281,362,35,364,338,303,333,0,102,82,230,303,13,126,57,38,199,4,354,168,214,245,191,0,213,142,0,235,0,0,0,9,221,108,0,376,13,380,90,0,334,199,0,0,14,296,333,0,0,24,0,325,10,0,0,0,0,0,0,0,0,0,0,0,0,0,0,0,0,0,0,0,0,0,0,0,0,0,0,0,0,0,0,0,0,0,0,0,0],"split_type":[0,0,0,0,0,0,0,0,0,0,0,0,0,0,0,0,0,0,0,0,0,0,0,0,0,0,0,0,0,0,0,0,0,0,0,0,0,0,0,0,0,0,0,0,0,0,0,0,0,0,0,0,0,0,0,0,0,0,0,0,0,0,0,0,0,0,0,0,0,0,0,0,0,0,0,0,0,0,0,0,0,0,0,0,0,0,0,0,0,0,0,0,0,0,0,0,0],"sum_hessian":[3.0517014E2,1.5847517E2,1.4669495E2,8.754665E1,7.092852E1,7.689186E1,6.9803085E1,6.678385E1,2.0762802E1,2.2822031E1,4.810649E1,4.4809643E1,3.2082214E1,1.2721383E1,5.7081703E1,1.1119088E0,6.567194E1,1.4936419E1,5.826383E0,4.443676E0,1.8378355E1,8.834382E0,3.9272106E1,3.424112E1,1.0568523E1,2.4285055E1,7.7971606E0,8.711006E0,4.0103774E0,4.7721336E1,9.360367E0,1.025706E0,6.464624E1,1.3269951E1,1.6664677E0,3.9689581E0,1.857425E0,3.1830187E0,1.2606571E0,1.5149951E1,3.2284048E0,6.948323E0,1.8860589E0,2.9069038E1,1.020307E1,6.849573E0,2.7391546E1,1.944786E0,8.623737E0,2.2830359E1,1.4546959E0,2.4571257E0,5.340035E0,6.000327E0,2.7106788E0,1.138643E0,2.8717341E0,4.6139793E1,1.5815463E0,5.079405E0,4.280962E0,1.0505347E0,6.3595703E1,1.1488849E1,1.7811016E0,2.5867693E0,1.3821888E0,2.0240364E0,1.3125915E1,1.09416E0,2.1342447E0,2.4285054E0,4.5198174E0,1.2554998E0,2.7813538E1,6.740469E0,3.4626007E0,1.200717E0,5.648856E0,1.2583E0,2.6133245E1,7.3844223E0,1.2393152E0,1.4562875E0,2.1374071E1,4.002456E0,1.3375788E0,1.0986166E0,4.9017105E0,1.1921893E0,1.5184894E0,4.4861534E1,1.2782567E0,3.955251E0,1.1241541E0,3.200041E0,1.0809209E0],"tree_param":{"num_deleted":"0","num_feature":"384","num_nodes":"97","size_leaf_vector":"0"}},{"base_weights":[-1.776983E-1,9.278206E-2,-6.6726613E-1,3.4580842E-1,-5.4518545E-1,-2.6356608E-1,-8.86758E-1,-2.1192981E-1,5.5717105E-1,3.5429415E-1,-6.84925E-1,2.9240653E-1,-5.405777E-1,5.762873E-1,-9.284784E-1,-6.433291E-1,3.1853628E-1,-4.6928185E-1,6.671968E-1,-5.1965964E-1,7.385345E-1,-8.2440615E-1,8.5741796E-2,-5.149914E-1,7.472115E-1,1.03805855E-1,-7.918761E-1,-9.6421236E-1,2.7770045E-1,4.1101807E-1,-7.6995707E-1,5.847265E-1,-5.848284E-1,2.17115E-1,-9.140025E-1,7.306348E-1,-4.195946E-1,-3.15225E-2,1.1764642E0,-9.4375384E-1,1.1037543E-2,-2.6533923E-1,7.691652E-1,-8.018157E-1,1.962927E-1,9.15115E-1,-5.327343E-2,5.7333344E-1,-6.575274E-1,2.0431767E-1,-9.1274965E-1,2.587127E-1,-9.911579E-1,1.0846751E-1,-9.44893E-1,7.752115E-1,-4.2163628E-1,-1.6966421E-2,-7.71187E-1,-6.4034486E-1,7.3527044E-1,8.937215E-1,2.9641864E-1,-8.230455E-1,5.959595E-1,1.2769993E-1,-1.0208503E0,-4.657576E-1,6.4098483E-1,-6.219006E-1,-4.190003E-2,-2.3859216E-1,8.681514E-1,-1.345833E-1,-1.0166256E0,-1.0213275E0,2.6102286E-2],"categories":[],"categories_nodes":[],"categories_segments":[],"categories_sizes":[],"default_left":[1,1,1,1,1,1,1,1,1,1,1,1,1,0,1,1,1,1,1,0,1,1,1,1,1,1,1,1,0,0,1,1,1,1,0,1,1,0,0,1,1,1,0,0,0,0,0,1,0,0,1,0,1,0,0,0,0,0,0,0,0,0,0,0,0,0,0,0,0,0,0,0,0,0,0,0,0],"id":8,"left_children":[1,3,5,7,9,11,13,15,17,19,21,23,25,-1,27,29,31,33,35,-1,37,39,41,43,45,47,49,51,-1,-1,53,55,57,59,-1,61,63,-1,-1,65,67,69,-1,-1,-1,-1,-1,71,-1,-1,73,-1,75,-1,-1,-1,-1,-1,-1,-1,-1,-1,-1,-1,-1,-1,-1,-1,-1,-1,-1,-1,-1,-1,-1,-1,-1],"loss_changes":[3.4373505E1,2.7272156E1,7.947891E0,1.4352227E1,6.2803106E0,5.385735E0,4.160198E0,7.9644303E0,1.0233242E1,2.7741146E0,4.5764637E0,4.768171E0,3.8077035E0,0E0,2.773117E0,2.857308E0,4.1597323E0,2.9735034E0,5.8046684E0,0E0,1.8437471E0,3.558752E0,1.9627275E0,1.1556698E0,1.1298695E0,3.0004177E0,2.1934881E0,2.124092E0,0E0,0E0,2.7668743E0,2.7734962E0,4.222244E-1,2.4178889E0,0E0,5.09676E0,2.5528498E0,0E0,0E0,2.7035503E0,1.931515E0,4.1894937E-1,0E0,0E0,0E0,0E0,0E0,1.4216077E0,0E0,0E0,1.079464E0,0E0,1.7349815E0,0E0,0E0,0E0,0E0,0E0,0E0,0E0,0E0,0E0,0E0,0E0,0E0,0E0,0E0,0E0,0E0,0E0,0E0,0E0,0E0,0E0,0E0,0E0,0E0],"parents":[2147483647,0,0,1,1,2,2,3,3,4,4,5,5,6,6,7,7,8,8,9,9,10,10,11,11,12,12,14,14,15,15,16,16,17,17,18,18,20,20,21,21,22,22,23,23,24,24,25,25,26,26,27,27,30,30,31,31,32,32,33,33,35,35,36,36,39,39,40,40,41,41,47,47,50,50,52,52],"right_children":[2,4,6,8,10,12,14,16,18,20,22,24,26,-1,28,30,32,34,36,-1,38,40,42,44,46,48,50,52,-1,-1,54,56,58,60,-1,62,64,-1,-1,66,68,70,-1,-1,-1,-1,-1,72,-1,-1,74,-1,76,-1,-1,-1,-1,-1,-1,-1,-1,-1,-1,-1,-1,-1,-1,-1,-1,-1,-1,-1,-1,-1,-1,-1,-1],"split_conditions":[1.173686E-2,5.97007E-2,-2.1632135E-2,4.5443222E-2,-1.6975842E-2,-2.1065729E-2,-6.478231E-2,2.0946112E-2,-6.524701E-2,-2.0392435E-2,3.9495103E-2,-1.7363648E-3,5.612791E-3,1.7288621E-1,1.1832273E-1,-2.7312723E-3,-1.6903356E-2,5.5628322E-2,3.9625414E-2,-1.558979E-1,2.9845553E-2,4.292543E-2,-1.288463E-2,4.8320025E-2,-3.6409188E-2,-5.6340195E-2,-5.1804863E-2,-8.598985E-2,8.331014E-2,1.23305425E-1,-1.2499818E-1,-9.134213E-3,9.358456E-3,2.4971534E-2,-2.7420077E-1,-3.1294294E-2,-1.7618174E-3,-9.456751E-3,3.5293928E-1,-7.817988E-2,3.286311E-2,4.2725414E-2,2.3074958E-1,-2.4054472E-1,5.8887813E-2,2.7453452E-1,-1.598203E-2,-8.678518E-2,-1.9725822E-1,6.1295304E-2,7.31646E-3,7.7613816E-2,9.225987E-2,3.2540254E-2,-2.8346792E-1,2.3256347E-1,-1.2649089E-1,-5.0899265E-3,-2.3135611E-1,-1.9210346E-1,2.2058114E-1,2.6811647E-1,8.892559E-2,-2.4691366E-1,1.7878786E-1,3.830998E-2,-3.062551E-1,-1.397273E-1,1.9229546E-1,-1.865702E-1,-1.257001E-2,-7.157765E-2,2.6044545E-1,-4.037499E-2,-3.049877E-1,-3.0639827E-1,7.830686E-3],"split_indices":[13,102,345,303,194,174,5,191,7,226,193,60,132,0,156,287,21,35,335,0,80,191,65,67,254,190,284,314,0,0,261,378,198,382,0,195,365,0,0,333,92,1,0,0,0,0,0,190,0,0,53,0,80,0,0,0,0,0,0,0,0,0,0,0,0,0,0,0,0,0,0,0,0,0,0,0,0],"split_type":[0,0,0,0,0,0,0,0,0,0,0,0,0,0,0,0,0,0,0,0,0,0,0,0,0,0,0,0,0,0,0,0,0,0,0,0,0,0,0,0,0,0,0,0,0,0,0,0,0,0,0,0,0,0,0,0,0,0,0,0,0,0,0,0,0,0,0,0,0,0,0,0,0,0,0,0,0],"sum_hessian":[2.5811484E2,1.6678088E2,9.1333954E1,1.19745995E2,4.7034893E1,3.294349E1,5.8390465E1,3.29076E1,8.6838394E1,6.1181326E0,4.091676E1,1.0936984E1,2.2006504E1,1.2636576E0,5.7126804E1,1.8031115E1,1.4876487E1,8.09096E0,7.874744E1,1.7607888E0,4.3573437E0,3.4587177E1,6.329582E0,3.8932002E0,7.0437837E0,6.3389587E0,1.5667546E1,5.5677914E1,1.4488921E0,1.6925452E0,1.633857E1,1.1763049E1,3.1134384E0,3.3823385E0,4.708621E0,7.471396E1,4.0334783E0,1.9160953E0,2.4412487E0,3.0150389E1,4.43679E0,4.585644E0,1.7439383E0,2.6837163E0,1.209484E0,5.704129E0,1.3396543E0,4.0736203E0,2.2653384E0,1.6206262E0,1.404692E1,1.0149081E0,5.4663006E1,2.776515E0,1.3562054E1,1.0084027E1,1.6790218E0,1.0388755E0,2.0745628E0,1.185206E0,2.1971323E0,5.354487E1,2.1169088E1,3.0223458E0,1.0111325E0,1.9797876E0,2.81706E1,2.6737328E0,1.7630572E0,1.0795699E0,3.5060737E0,1.1359471E0,2.937673E0,1.9246207E0,1.2122299E1,5.3084637E1,1.5783701E0],"tree_param":{"num_deleted":"0","num_feature":"384","num_nodes":"77","size_leaf_vector":"0"}},{"base_weights":[-1.5872979E-1,-5.914144E-1,1.13894746E-1,-8.91552E-1,-2.5007686E-1,-3.3322307E-1,3.8838327E-1,-1.7737448E-1,-9.819732E-1,-6.3014424E-1,7.83519E-2,5.367299E-2,-6.316397E-1,-1.781442E-1,5.937104E-1,8.5999507E-1,-7.5980514E-1,-3.6710065E-2,-1.0150425E0,1.4028054E-1,-8.9773566E-1,-5.9371656E-1,4.4775078E-1,-2.9855925E-1,6.140669E-1,1.797045E-1,-7.956319E-1,-4.0376252E-1,7.741215E-1,-3.7104833E-1,7.163887E-1,-1.0290524E0,-2.7362287E-1,5.149024E-1,-6.202124E-1,5.7721715E-2,-9.82692E-1,2.6847824E-1,-8.3490336E-1,6.8523216E-1,-6.486093E-1,-7.1485305E-1,2.3517624E-1,-5.0658166E-1,9.328572E-1,5.130506E-1,-5.036752E-1,-1.04108796E-1,-9.307484E-1,-6.063578E-1,5.1417077E-1,1.1265681E-1,9.434083E-1,-7.649377E-1,2.3745216E-1,8.192003E-1,-1.4128864E-1,-2.504636E-1,8.1106657E-1,-1.0208604E0,-2.5865215E-1,-5.7178166E-2,-9.561733E-1,8.397135E-1,-3.8538936E-1,-8.886664E-1,2.0963593E-1,8.6333066E-1,-1.5720154E-1,-1.4689177E-2,1.0794731E0,8.164503E-1,-2.0518716E-1,-7.940464E-1,5.280611E-1,-9.872471E-1,4.3061357E-2,4.1394302E-1,-7.9220504E-1,7.6087743E-1,-1.0948255E-1,-1.6044793E-1,-8.783763E-1,6.771974E-1,-3.5617235E-1,8.816254E-1,-1.4125963E-1,-6.258744E-1,5.577046E-1],"categories":[],"categories_nodes":[],"categories_segments":[],"categories_sizes":[],"default_left":[1,1,1,1,1,1,1,1,1,1,1,1,1,1,1,0,0,0,1,1,1,1,1,1,1,1,1,1,1,1,1,0,0,1,0,0,1,0,1,1,0,1,1,0,1,1,0,1,1,1,1,0,0,1,1,1,1,0,0,0,0,0,0,0,0,0,0,0,0,0,0,0,0,0,0,0,0,0,0,0,0,0,0,0,0,0,0,0,0],"id":9,"left_children":[1,3,5,7,9,11,13,15,17,19,21,23,25,27,29,-1,-1,-1,31,33,35,37,39,41,43,45,47,49,51,53,55,-1,-1,57,-1,-1,59,-1,61,63,-1,65,67,-1,69,71,-1,73,75,77,79,-1,-1,81,83,85,87,-1,-1,-1,-1,-1,-1,-1,-1,-1,-1,-1,-1,-1,-1,-1,-1,-1,-1,-1,-1,-1,-1,-1,-1,-1,-1,-1,-1,-1,-1,-1,-1],"loss_changes":[2.6202078E1,8.56706E0,1.691323E1,2.7489052E0,5.2338953E0,6.1020474E0,1.0016228E1,4.4643216E0,1.211792E0,4.118026E0,6.0180964E0,4.882736E0,4.1013565E0,5.34716E0,7.6942616E0,0E0,0E0,0E0,1.190567E-1,1.9879239E0,1.2343178E0,2.0225403E0,4.485836E0,3.565847E0,3.8721368E0,1.5837426E0,2.2326736E0,3.9571214E0,4.34716E-1,2.0366468E0,5.055956E0,0E0,0E0,1.21643E0,0E0,0E0,1.0566616E-1,0E0,6.056347E-1,2.5141702E0,0E0,1.6065755E0,1.9727457E0,0E0,1.093966E0,1.1276128E0,0E0,2.6878412E0,1.1831131E0,3.459824E0,7.1185374E-1,0E0,0E0,1.974802E-1,1.2342976E0,3.132862E0,2.6692433E0,0E0,0E0,0E0,0E0,0E0,0E0,0E0,0E0,0E0,0E0,0E0,0E0,0E0,0E0,0E0,0E0,0E0,0E0,0E0,0E0,0E0,0E0,0E0,0E0,0E0,0E0,0E0,0E0,0E0,0E0,0E0,0E0],"parents":[2147483647,0,0,1,1,2,2,3,3,4,4,5,5,6,6,7,7,8,8,9,9,10,10,11,11,12,12,13,13,14,14,18,18,19,19,20,20,21,21,22,22,23,23,24,24,25,25,26,26,27,27,28,28,29,29,30,30,33,33,36,36,38,38,39,39,41,41,42,42,44,44,45,45,47,47,48,48,49,49,50,50,53,53,54,54,55,55,56,56],"right_children":[2,4,6,8,10,12,14,16,18,20,22,24,26,28,30,-1,-1,-1,32,34,36,38,40,42,44,46,48,50,52,54,56,-1,-1,58,-1,-1,60,-1,62,64,-1,66,68,-1,70,72,-1,74,76,78,80,-1,-1,82,84,86,88,-1,-1,-1,-1,-1,-1,-1,-1,-1,-1,-1,-1,-1,-1,-1,-1,-1,-1,-1,-1,-1,-1,-1,-1,-1,-1,-1,-1,-1,-1,-1,-1],"split_conditions":[-3.9331883E-2,5.505603E-3,-6.790691E-3,-5.3094637E-2,-4.641458E-2,-2.862814E-2,-1.7607518E-2,-1.3340043E-2,-1.0967753E-2,-8.872588E-3,-1.8581118E-2,1.3158403E-2,-2.2449333E-2,7.409938E-2,-6.1076637E-2,2.5799853E-1,-2.2794156E-1,-1.101302E-2,3.8209048E-3,4.392886E-2,-3.3943903E-2,-3.9331272E-2,4.5299187E-2,8.64567E-3,-8.378567E-3,6.270545E-2,-1.24877E-1,2.0944192E-3,-2.604362E-2,-2.2654353E-2,1.4746044E-3,-3.0871573E-1,-8.208686E-2,-2.9100802E-2,-1.8606372E-1,1.7316515E-2,1.0011883E-1,8.054347E-2,-3.454054E-2,1.0045847E-1,-1.9458279E-1,7.1076676E-2,-1.27765285E-2,-1.519745E-1,-6.4030915E-2,-3.0557798E-2,-1.5110257E-1,-5.9999023E-2,6.444719E-2,-6.242469E-2,-1.9642893E-2,3.3797044E-2,2.830225E-1,-8.165965E-2,-1.9319199E-2,5.1753815E-2,-2.7762061E-2,-7.513908E-2,2.4331997E-1,-3.0625814E-1,-7.759565E-2,-1.7153451E-2,-2.86852E-1,2.5191405E-1,-1.1561681E-1,-2.6659992E-1,6.289078E-2,2.589992E-1,-4.7160465E-2,-4.4067535E-3,3.2384196E-1,2.449351E-1,-6.155615E-2,-2.3821393E-1,1.5841833E-1,-2.9617414E-1,1.2918408E-2,1.2418291E-1,-2.3766153E-1,2.2826324E-1,-3.2844767E-2,-4.813438E-2,-2.635129E-1,2.0315923E-1,-1.0685171E-1,2.6448762E-1,-4.237789E-2,-1.8776233E-1,1.673114E-1],"split_indices":[9,226,226,56,325,379,216,329,102,311,124,305,128,80,142,0,0,0,325,172,3,284,357,308,92,160,261,289,36,167,181,0,0,350,0,0,33,0,241,264,0,85,112,0,86,378,0,87,234,317,68,0,0,251,79,128,272,0,0,0,0,0,0,0,0,0,0,0,0,0,0,0,0,0,0,0,0,0,0,0,0,0,0,0,0,0,0,0,0],"split_type":[0,0,0,0,0,0,0,0,0,0,0,0,0,0,0,0,0,0,0,0,0,0,0,0,0,0,0,0,0,0,0,0,0,0,0,0,0,0,0,0,0,0,0,0,0,0,0,0,0,0,0,0,0,0,0,0,0,0,0,0,0,0,0,0,0,0,0,0,0,0,0,0,0,0,0,0,0,0,0,0,0,0,0,0,0,0,0,0,0],"sum_hessian":[2.2055495E2,8.479956E1,1.3575539E2,4.426525E1,4.053431E1,5.1557976E1,8.419742E1,5.30738E0,3.895787E1,1.8364132E1,2.2170177E1,2.2807838E1,2.8750137E1,2.243324E1,6.1764175E1,1.7370147E0,3.5703657E0,1.3881692E0,3.7569702E1,4.8567595E0,1.3507373E1,7.6481714E0,1.4522006E1,1.4291951E1,8.515887E0,4.8179126E0,2.3932224E1,1.8601925E1,3.831317E0,6.7394705E0,5.5024704E1,3.6492195E1,1.0775054E0,3.4702406E0,1.3865187E0,1.1291393E0,1.2378234E1,1.6470697E0,6.0011015E0,1.224469E1,2.2773156E0,7.83871E0,6.453241E0,1.755539E0,6.7603483E0,3.4058275E0,1.4120849E0,4.201183E0,1.9731041E1,1.5516696E1,3.085229E0,1.1201123E0,2.7112045E0,3.9351296E0,2.804341E0,4.9174873E1,5.8498335E0,1.0112396E0,2.459001E0,1.1368958E1,1.0092758E0,1.0080158E0,4.993086E0,1.0889156E1,1.355534E0,6.6308002E0,1.2079096E0,2.019687E0,4.433554E0,1.0264485E0,5.7338996E0,2.298253E0,1.1075746E0,1.8863705E0,2.3148122E0,1.8636015E1,1.095027E0,2.201752E0,1.3314944E1,2.053046E0,1.0321829E0,1.0032784E0,2.9318514E0,1.5300939E0,1.2742472E0,4.6250874E1,2.9239984E0,3.5165486E0,2.3332849E0],"tree_param":{"num_deleted":"0","num_feature":"384","num_nodes":"89","size_leaf_vector":"0"}},{"base_weights":[-1.4328037E-1,-3.499601E-1,3.5180438E-1,-5.6725687E-1,7.662022E-2,-3.3471128E-1,5.3324836E-1,-8.51756E-1,-2.204666E-1,-1.4563318E-1,6.126979E-1,4.9364197E-1,-6.841703E-1,7.84265E-1,4.132964E-2,1.8765071E-1,-9.0225095E-1,-6.515393E-1,5.730929E-2,5.9956115E-2,-7.551916E-1,-2.341066E-1,7.872121E-1,7.84774E-1,-2.2199221E-1,1.3792317E-1,-8.64984E-1,8.452904E-1,-3.9527872E-1,3.2556126E-1,-5.3771704E-1,4.4092655E-1,-1.518717E-1,-9.418514E-1,5.856413E-2,3.7225336E-1,-8.2040286E-1,-6.033525E-1,3.5282823E-1,-2.8920978E-1,5.4175603E-1,-9.2316943E-1,1.4559382E-1,-6.834881E-1,3.4196237E-1,-2.0265464E-1,9.260126E-1,-1.9964498E-1,-9.38745E-1,9.3793124E-1,1.2133511E-1,-5.4443423E-2,8.5396117E-1,1.9944406E-1,-8.963259E-1,-9.731767E-1,-8.203148E-3,-8.844916E-1,1.25172455E-2,-8.4570336E-1,4.3150324E-1,-3.4550115E-2,8.184554E-1,6.170256E-1,-4.8455065E-1,-4.6872315E-1,7.625556E-1,1.3881439E-1,1.0158228E0,-5.2642133E-2,9.8160356E-1,-4.1433752E-1,5.8276856E-1,-6.3410556E-1,1.6523914E-1],"categories":[],"categories_nodes":[],"categories_segments":[],"categories_sizes":[],"default_left":[1,1,1,1,1,1,1,1,1,1,1,1,1,1,1,1,1,1,1,1,1,1,1,0,0,0,1,1,0,1,1,0,0,1,0,0,1,1,1,1,1,0,0,0,0,0,1,0,0,1,1,1,0,0,0,0,0,0,0,0,0,0,0,0,0,0,0,0,0,0,0,0,0,0,0],"id":10,"left_children":[1,3,5,7,9,11,13,15,17,19,21,23,25,27,29,31,33,35,37,39,41,43,45,-1,-1,-1,47,49,-1,51,53,-1,-1,55,-1,-1,57,59,61,63,65,-1,-1,-1,-1,-1,67,-1,-1,69,71,73,-1,-1,-1,-1,-1,-1,-1,-1,-1,-1,-1,-1,-1,-1,-1,-1,-1,-1,-1,-1,-1,-1,-1],"loss_changes":[1.9472029E1,1.2455711E1,7.177713E0,8.576656E0,5.578416E0,3.9158394E0,5.5030766E0,2.712204E0,4.99263E0,4.228E0,2.2080965E0,1.0593232E0,1.4738111E0,2.4667416E0,2.8416576E0,3.3117855E-1,1.8197708E0,3.1229558E0,5.305773E0,4.5112915E0,1.4192762E0,1.0390412E0,1.7792249E0,0E0,0E0,0E0,1.8590641E-1,1.7968407E0,0E0,2.35372E0,1.6886466E0,0E0,0E0,1.2964363E0,0E0,0E0,7.745371E-1,2.4794152E0,3.3930635E0,3.0712523E0,2.8618307E0,0E0,0E0,0E0,0E0,0E0,5.899353E-1,0E0,0E0,1.1378498E0,1.3242245E0,1.0756123E0,0E0,0E0,0E0,0E0,0E0,0E0,0E0,0E0,0E0,0E0,0E0,0E0,0E0,0E0,0E0,0E0,0E0,0E0,0E0,0E0,0E0,0E0,0E0],"parents":[2147483647,0,0,1,1,2,2,3,3,4,4,5,5,6,6,7,7,8,8,9,9,10,10,11,11,12,12,13,13,14,14,15,15,16,16,17,17,18,18,19,19,20,20,21,21,22,22,26,26,27,27,29,29,30,30,33,33,36,36,37,37,38,38,39,39,40,40,46,46,49,49,50,50,51,51],"right_children":[2,4,6,8,10,12,14,16,18,20,22,24,26,28,30,32,34,36,38,40,42,44,46,-1,-1,-1,48,50,-1,52,54,-1,-1,56,-1,-1,58,60,62,64,66,-1,-1,-1,-1,-1,68,-1,-1,70,72,74,-1,-1,-1,-1,-1,-1,-1,-1,-1,-1,-1,-1,-1,-1,-1,-1,-1,-1,-1,-1,-1,-1,-1],"split_conditions":[8.086836E-2,-1.3788683E-2,-5.2755866E-2,4.769169E-3,2.8940794E-4,-6.489684E-2,-5.178595E-2,-4.6202585E-2,3.5636395E-2,2.207923E-2,-1.3177689E-2,-2.5955012E-2,1.0883818E-2,5.24033E-2,7.214141E-3,-1.670083E-2,6.8319574E-2,-4.94432E-2,-2.370708E-2,2.7802633E-2,1.8152311E-2,-9.222373E-2,-8.1717335E-2,2.3543221E-1,-6.659766E-2,4.1376952E-2,-4.873085E-2,4.4264875E-2,-1.1858362E-1,1.3317805E-2,-1.8286379E-2,1.3227797E-1,-4.556151E-2,4.2208616E-2,1.756924E-2,1.11676015E-1,2.8289638E-2,2.4124736E-2,1.2966418E-2,-4.032948E-2,1.3625404E-2,-2.7695084E-1,4.367815E-2,-2.0504643E-1,1.0258871E-1,-6.0796395E-2,8.247722E-3,-5.9893496E-2,-2.816235E-1,-1.3783146E-1,3.7162572E-2,3.1191662E-2,2.5618836E-1,5.9833217E-2,-2.6889777E-1,-2.9195303E-1,-2.4609445E-3,-2.653475E-1,3.7551739E-3,-2.5371101E-1,1.2945098E-1,-1.0365035E-2,2.4553663E-1,1.851077E-1,-1.4536521E-1,-1.4061695E-1,2.287667E-1,4.164432E-2,3.0474684E-1,-1.579264E-2,2.9448107E-1,-1.2430126E-1,1.7483057E-1,-1.9023168E-1,4.9571745E-2],"split_indices":[303,9,142,226,142,333,261,208,67,335,57,135,102,230,335,320,191,174,124,106,123,271,96,0,0,0,293,24,0,191,13,0,0,39,0,0,25,4,73,10,279,0,0,0,0,0,85,0,0,242,80,249,0,0,0,0,0,0,0,0,0,0,0,0,0,0,0,0,0,0,0,0,0,0,0],"split_type":[0,0,0,0,0,0,0,0,0,0,0,0,0,0,0,0,0,0,0,0,0,0,0,0,0,0,0,0,0,0,0,0,0,0,0,0,0,0,0,0,0,0,0,0,0,0,0,0,0,0,0,0,0,0,0,0,0,0,0,0,0,0,0,0,0,0,0,0,0,0,0,0,0,0,0],"sum_hessian":[1.880946E2,1.3290485E2,5.5189762E1,8.783339E1,4.507145E1,1.1360645E1,4.3829117E1,4.745019E1,4.03832E1,3.237668E1,1.269477E1,3.248308E0,8.112338E0,2.8627008E1,1.5202109E1,2.0725157E0,4.5377674E1,1.5297647E1,2.5085554E1,2.4885159E1,7.4915204E0,2.110825E0,1.0583944E1,2.240302E0,1.0080059E0,1.5053359E0,6.607002E0,2.748824E1,1.13877E0,1.0490495E1,4.7116146E0,1.0159634E0,1.0565523E0,4.36004E1,1.7772744E0,1.9953996E0,1.3302248E1,7.431046E0,1.7654507E1,1.4660359E1,1.0224799E1,6.2931323E0,1.198388E0,1.0810485E0,1.0297766E0,1.2450106E0,9.338934E0,1.029286E0,5.577716E0,2.4107733E1,3.3805065E0,6.6238465E0,3.8666477E0,1.6872077E0,3.024407E0,4.2144066E1,1.4563358E0,1.2294347E1,1.0079007E0,6.1690984E0,1.261948E0,1.0142366E1,7.5121408E0,2.2168987E0,1.244346E1,1.6322122E0,8.592587E0,1.2170416E0,8.121893E0,1.0093067E0,2.3098427E1,1.6116387E0,1.7688677E0,1.3019671E0,5.3218794E0],"tree_param":{"num_deleted":"0","num_feature":"384","num_nodes":"75","size_leaf_vector":"0"}},{"base_weights":[-1.23143554E-1,1.4930765E-1,-4.612837E-1,3.5362044E-1,-3.597966E-1,-6.257756E-1,1.1180365E-1,4.606681E-1,-5.183845E-1,3.9677602E-1,-6.7365474E-1,-3.684831E-2,-7.544723E-1,-2.3502158E-1,7.4431485E-1,6.7566055E-1,5.5386107E-2,3.4017242E-2,-8.3223325E-1,7.289299E-1,-2.8779632E-1,-7.844244E-1,3.2930303E-1,-4.4837862E-1,5.9742016E-1,-8.16694E-1,8.660768E-2,3.6231184E-1,-6.1114806E-1,-1.5355004E-3,9.162053E-1,-7.767889E-2,8.195874E-1,-2.835682E-1,4.739228E-1,-4.708762E-1,5.422995E-1,8.9886916E-1,-6.927884E-3,2.7305204E-1,-6.6204584E-1,-9.630417E-1,-2.3231338E-1,2.8239435E-1,-7.484128E-1,8.5509074E-1,-1.5268111E-1,-6.707704E-3,-8.688634E-1,-5.962277E-1,6.393147E-1,-4.1515535E-1,6.560399E-1,-8.128981E-1,1.3599832E-1,-5.378185E-1,5.068594E-1,8.6715806E-1,-1.9987889E-1,-7.303338E-1,1.7610171E-1,7.0308614E-1,-4.4602713E-1,-2.888832E-1,-1.0003846E0,-6.4687806E-1,3.738415E-1,-1.11534484E-1,-8.760062E-1,-5.114976E-1,4.0439337E-1,-9.070453E-1,1.2761053E-2,7.912391E-1,1.4230946E-1],"categories":[],"categories_nodes":[],"categories_segments":[],"categories_sizes":[],"default_left":[1,1,1,1,1,1,1,1,1,1,1,1,1,1,1,1,1,1,0,1,1,1,0,1,1,1,1,1,1,0,0,1,1,1,1,0,0,0,0,0,0,1,1,0,1,0,0,1,1,0,0,0,1,0,0,0,0,0,0,0,0,0,0,0,0,0,0,0,0,0,0,0,0,0,0],"id":11,"left_children":[1,3,5,7,9,11,13,15,17,19,21,23,25,27,29,31,33,35,-1,37,39,41,-1,43,45,47,49,51,53,-1,-1,55,57,59,61,-1,-1,-1,-1,-1,-1,63,65,-1,67,-1,-1,69,71,-1,-1,-1,73,-1,-1,-1,-1,-1,-1,-1,-1,-1,-1,-1,-1,-1,-1,-1,-1,-1,-1,-1,-1,-1,-1],"loss_changes":[1.514666E1,9.633398E0,6.9772463E0,6.3737087E0,6.599964E0,4.298712E0,3.945779E0,5.109124E0,1.3557141E0,2.1309023E0,2.3935986E0,3.214404E0,2.5196629E0,2.8864737E0,8.1261873E-1,4.2384624E0,3.1932755E0,1.2137905E0,0E0,7.529993E-1,9.1060174E-1,1.5123234E0,0E0,1.8377167E0,1.0719914E0,1.8393974E0,1.9389144E0,1.4623686E0,1.2638218E0,0E0,0E0,2.1794977E0,1.7453003E0,2.7037408E0,2.426566E0,0E0,0E0,0E0,0E0,0E0,0E0,3.7854195E-2,1.6543355E0,0E0,3.518796E-1,0E0,0E0,9.643145E-1,1.3923016E0,0E0,0E0,0E0,1.770091E-1,0E0,0E0,0E0,0E0,0E0,0E0,0E0,0E0,0E0,0E0,0E0,0E0,0E0,0E0,0E0,0E0,0E0,0E0,0E0,0E0,0E0,0E0],"parents":[2147483647,0,0,1,1,2,2,3,3,4,4,5,5,6,6,7,7,8,8,9,9,10,10,11,11,12,12,13,13,14,14,15,15,16,16,17,17,19,19,20,20,21,21,23,23,24,24,25,25,26,26,27,27,28,28,31,31,32,32,33,33,34,34,41,41,42,42,44,44,47,47,48,48,52,52],"right_children":[2,4,6,8,10,12,14,16,18,20,22,24,26,28,30,32,34,36,-1,38,40,42,-1,44,46,48,50,52,54,-1,-1,56,58,60,62,-1,-1,-1,-1,-1,-1,64,66,-1,68,-1,-1,70,72,-1,-1,-1,74,-1,-1,-1,-1,-1,-1,-1,-1,-1,-1,-1,-1,-1,-1,-1,-1,-1,-1,-1,-1,-1,-1],"split_conditions":[-2.3058099E-3,4.685343E-3,4.915323E-2,1.4151759E-3,-3.7371549E-3,3.5678983E-2,-3.235714E-2,1.32401725E-2,-3.020082E-2,-1.8541928E-2,1.3011321E-2,-2.1647045E-2,5.794325E-2,-3.5670586E-2,-3.338046E-2,-5.470998E-2,1.7063705E-2,-5.4642208E-2,-2.4966998E-1,3.8774025E-3,-3.9156373E-3,3.3402402E-2,9.8790914E-2,-7.2869346E-2,1.5744673E-2,-3.852202E-2,-3.1982172E-2,-3.420066E-2,1.02369234E-1,-4.6065013E-4,2.748616E-1,4.684887E-2,6.5400854E-2,-5.9918217E-2,4.507091E-2,-1.4126286E-1,1.6268986E-1,2.6966077E-1,-2.0783653E-3,8.191562E-2,-1.9861376E-1,-6.45087E-2,5.5007387E-2,8.471831E-2,8.106085E-3,2.5652725E-1,-4.5804337E-2,-1.7331459E-2,2.9477542E-2,-1.7886832E-1,1.9179443E-1,-1.2454661E-1,-3.308426E-2,-2.4386944E-1,4.07995E-2,-1.6134556E-1,1.5205783E-1,2.6014742E-1,-5.996367E-2,-2.1910015E-1,5.2830517E-2,2.1092585E-1,-1.3380815E-1,-8.666497E-2,-3.0011538E-1,-1.9406343E-1,1.1215245E-1,-3.3460345E-2,-2.6280186E-1,-1.534493E-1,1.2131802E-1,-2.721136E-1,3.828316E-3,2.3737173E-1,4.269284E-2],"split_indices":[13,364,191,21,324,35,281,178,55,181,142,318,124,62,26,9,210,327,0,329,361,382,0,327,335,208,142,255,232,0,0,151,300,346,192,0,0,0,0,0,0,10,67,0,331,0,0,231,9,0,0,0,68,0,0,0,0,0,0,0,0,0,0,0,0,0,0,0,0,0,0,0,0,0,0],"split_type":[0,0,0,0,0,0,0,0,0,0,0,0,0,0,0,0,0,0,0,0,0,0,0,0,0,0,0,0,0,0,0,0,0,0,0,0,0,0,0,0,0,0,0,0,0,0,0,0,0,0,0,0,0,0,0,0,0,0,0,0,0,0,0,0,0,0,0,0,0,0,0,0,0,0,0],"sum_hessian":[1.6266359E2,9.039094E1,7.227265E1,6.472216E1,2.5668774E1,5.608327E1,1.6189383E1,5.806571E1,6.6564527E0,7.44881E0,1.8219965E1,1.0288505E1,4.5794765E1,1.0861901E1,5.3274813E0,3.750373E1,2.0561977E1,2.734718E0,3.9217346E0,4.9717336E0,2.4770768E0,1.6604052E1,1.6159122E0,6.4176435E0,3.870861E0,4.26673E1,3.1274633E0,4.2110243E0,6.6508765E0,1.1834477E0,4.144034E0,6.0896554E0,3.1414076E1,1.1539292E1,9.022684E0,1.4088521E0,1.3258659E0,3.8590071E0,1.1127263E0,1.0996093E0,1.3774675E0,1.1983043E1,4.621009E0,1.8850782E0,4.5325656E0,2.7769663E0,1.0938947E0,2.6501033E0,4.0017197E1,1.3638141E0,1.7636491E0,1.0413309E0,3.1696932E0,5.1675043E0,1.4833722E0,3.4521232E0,2.6375325E0,3.0156315E1,1.2577618E0,5.5531826E0,5.9861097E0,7.4120474E0,1.6106374E0,1.0874294E0,1.0895614E1,2.704292E0,1.9167168E0,1.069305E0,3.4632607E0,1.0798924E0,1.5702109E0,3.832841E1,1.6887852E0,2.0816731E0,1.0880201E0],"tree_param":{"num_deleted":"0","num_feature":"384","num_nodes":"75","size_leaf_vector":"0"}},{"base_weights":[-1.0845353E-1,-4.6197706E-1,1.20915614E-1,-2.3158513E-2,-6.4666796E-1,-4.4842234E-1,2.6717755E-1,-5.832236E-1,2.7755246E-1,3.02232E-1,-7.228129E-1,-7.8420395E-1,7.70266E-2,-1.04213506E-1,5.6706446E-1,1.464836E-1,-7.534668E-1,-4.6791244E-1,5.02092E-1,6.6683793E-1,-2.1604049E-1,-7.8919303E-1,2.8308794E-1,6.3975945E-2,-8.8093835E-1,-4.900044E-1,4.9922204E-1,-6.031395E-1,1.883116E-1,6.6455203E-1,-2.793651E-1,-6.711523E-1,2.2390909E-3,6.735324E-1,-2.2566414E-1,-8.379453E-1,3.1078222E-1,5.3357977E-1,-1.0795636E-1,-2.3544714E-1,-9.2640984E-1,-1.781072E-2,-6.9502133E-1,-2.0902129E-1,8.2122064E-1,-8.051272E-1,-4.779261E-2,4.4368175E-1,-2.4129309E-1,7.868229E-1,-6.374018E-2,-7.221895E-1,3.5299867E-1,-1.4696854E-2,8.1202006E-1,-8.9604133E-1,-6.120166E-2,-8.847704E-1,-9.417492E-2,3.9007947E-1,-4.7071043E-1,6.422814E-1,-2.5349128E-1,2.115185E-2,-5.831877E-1,8.52438E-1,-1.5047649E-1,-4.8235714E-1,2.8958786E-1],"categories":[],"categories_nodes":[],"categories_segments":[],"categories_sizes":[],"default_left":[1,1,1,1,1,1,1,1,1,1,1,1,1,1,1,0,0,1,1,0,0,1,1,0,1,1,1,1,1,1,1,0,0,1,0,1,0,0,0,0,0,0,0,0,0,1,1,1,1,1,1,0,0,0,0,0,0,0,0,0,0,0,0,0,0,0,0,0,0],"id":12,"left_children":[1,3,5,7,9,11,13,15,17,19,21,23,25,27,29,-1,-1,31,33,-1,-1,35,37,-1,39,41,43,45,47,49,51,-1,-1,53,-1,55,-1,-1,-1,-1,-1,-1,-1,-1,-1,57,59,61,63,65,67,-1,-1,-1,-1,-1,-1,-1,-1,-1,-1,-1,-1,-1,-1,-1,-1,-1,-1],"loss_changes":[1.1586699E1,4.536912E0,7.3676972E0,3.138439E0,3.0718136E0,3.2650423E0,7.8414545E0,9.174442E-1,2.2731943E0,8.316511E-1,2.6840878E0,9.729228E-1,2.1579185E0,4.7927957E0,3.3884678E0,0E0,0E0,3.2030565E-1,1.3797717E0,0E0,0E0,2.1284695E0,3.5316193E-1,0E0,7.8186035E-2,3.6668563E-1,1.3293602E0,1.3174467E0,2.4079654E0,3.1759062E0,1.5746304E0,0E0,0E0,7.949493E-1,0E0,1.462595E0,0E0,0E0,0E0,0E0,0E0,0E0,0E0,0E0,0E0,4.1499805E-1,9.7750205E-1,2.0328538E0,7.7205014E-1,1.981327E0,1.0228511E0,0E0,0E0,0E0,0E0,0E0,0E0,0E0,0E0,0E0,0E0,0E0,0E0,0E0,0E0,0E0,0E0,0E0,0E0],"parents":[2147483647,0,0,1,1,2,2,3,3,4,4,5,5,6,6,7,7,8,8,9,9,10,10,11,11,12,12,13,13,14,14,17,17,18,18,21,21,22,22,24,24,25,25,26,26,27,27,28,28,29,29,30,30,33,33,35,35,45,45,46,46,47,47,48,48,49,49,50,50],"right_children":[2,4,6,8,10,12,14,16,18,20,22,24,26,28,30,-1,-1,32,34,-1,-1,36,38,-1,40,42,44,46,48,50,52,-1,-1,54,-1,56,-1,-1,-1,-1,-1,-1,-1,-1,-1,58,60,62,64,66,68,-1,-1,-1,-1,-1,-1,-1,-1,-1,-1,-1,-1,-1,-1,-1,-1,-1,-1],"split_conditions":[-3.935474E-2,-1.0490182E-1,-3.4731515E-2,3.555794E-2,-5.579642E-2,2.570944E-2,-1.8052552E-2,-2.796823E-2,-3.653501E-2,-3.66587E-2,1.1683532E-1,-4.9876317E-2,-2.9354824E-2,2.700665E-2,7.392333E-2,4.394508E-2,-2.2604005E-1,-8.406725E-3,3.545127E-2,2.0005138E-1,-6.481215E-2,1.0404229E-1,1.8538114E-2,1.9192785E-2,2.614342E-2,2.4487395E-3,2.8438125E-2,-5.3854454E-2,5.164129E-2,2.4454443E-2,7.02556E-2,-2.013457E-1,6.717273E-4,-6.554197E-2,-6.7699246E-2,1.03605166E-1,9.323467E-2,1.6007394E-1,-3.238691E-2,-7.063414E-2,-2.7792296E-1,-5.343216E-3,-2.085064E-1,-6.270639E-2,2.463662E-1,5.157865E-3,3.3408068E-2,2.7963225E-2,-3.813973E-2,4.634348E-2,-4.072101E-2,-2.1665685E-1,1.0589961E-1,-4.4090566E-3,2.4360603E-1,-2.6881242E-1,-1.83605E-2,-2.6543114E-1,-2.8252477E-2,1.1702385E-1,-1.4121313E-1,1.9268443E-1,-7.604739E-2,6.345555E-3,-1.7495632E-1,2.557314E-1,-4.514295E-2,-1.4470714E-1,8.687636E-2],"split_indices":[142,261,216,151,311,92,255,324,152,364,33,248,289,151,24,0,0,28,3,0,0,92,120,0,35,184,106,242,102,335,203,0,0,15,0,303,0,0,0,0,0,0,0,0,0,197,53,128,263,54,321,0,0,0,0,0,0,0,0,0,0,0,0,0,0,0,0,0,0],"split_type":[0,0,0,0,0,0,0,0,0,0,0,0,0,0,0,0,0,0,0,0,0,0,0,0,0,0,0,0,0,0,0,0,0,0,0,0,0,0,0,0,0,0,0,0,0,0,0,0,0,0,0,0,0,0,0,0,0,0,0,0,0,0,0,0,0,0,0,0,0],"sum_hessian":[1.4120262E2,5.5164387E1,8.603824E1,1.6673702E1,3.8490685E1,1.7163164E1,6.887507E1,5.496729E0,1.1176972E1,2.6386962E0,3.5851986E1,1.01710415E1,6.992123E0,3.1060764E1,3.781431E1,1.0662149E0,4.430514E0,2.3363807E0,8.840592E0,1.380709E0,1.2579873E0,3.383465E1,2.0173385E0,1.0759159E0,9.095126E0,2.9156454E0,4.0764775E0,1.1087784E1,1.997298E1,3.4101536E1,3.7127695E0,1.3327351E0,1.0036457E0,7.215351E0,1.6252409E0,3.2626804E1,1.2078441E0,1.0074774E0,1.009861E0,1.0051016E0,8.090024E0,1.2117121E0,1.7039334E0,1.3837501E0,2.6927276E0,7.800761E0,3.2870226E0,1.2506166E1,7.466814E0,2.913053E1,4.9710073E0,2.1000931E0,1.6126764E0,1.3584185E0,5.8569326E0,3.0213425E1,2.4133809E0,6.795069E0,1.0056919E0,1.6531081E0,1.6339146E0,9.794732E0,2.7114346E0,4.7549534E0,2.711861E0,2.7309298E1,1.8212312E0,2.1081388E0,2.8628685E0],"tree_param":{"num_deleted":"0","num_feature":"384","num_nodes":"69","size_leaf_vector":"0"}},{"base_weights":[-9.799104E-2,1.1043936E-1,-4.3707335E-1,6.1177856E-1,-7.694149E-2,-6.505713E-1,-7.3029466E-2,7.09865E-1,-3.8404852E-1,-3.9747068E-1,1.7652948E-1,-7.75061E-1,-3.90389E-2,2.4773127E-1,-4.7424838E-1,-1.1321478E-1,8.24826E-1,-1.7968435E-2,-6.360754E-1,4.8254856E-1,-1.5216307E-1,-8.210533E-1,1.4580481E-1,4.508451E-1,-4.7641632E-1,6.860383E-1,-1.5906158E-1,-6.628009E-1,4.599638E-1,-4.8678243E-1,3.4779155E-1,8.843263E-1,-7.296205E-2,-2.3802161E-1,4.2182252E-1,2.3431812E-1,-7.271759E-1,-4.5938239E-1,6.340223E-1,-6.0883063E-1,2.4212801E-1,-1.2814173E-1,-9.01391E-1,7.56519E-1,-6.975791E-2,-6.5512395E-1,2.3024243E-3,1.1071371E-1,8.343175E-1,3.5211653E-1,-5.660748E-1,-8.0012584E-1,1.5534541E-2,2.648891E-2,9.5943755E-1,-1.1795311E-2,-6.4948916E-1,-7.882991E-2,6.8069303E-1,6.829174E-2,-8.0654E-1,-4.2457126E-2,7.828922E-1,-7.90155E-1,2.2549555E-1,4.775594E-1,-5.271588E-1,-5.047663E-1,4.2636144E-1,-1.04954086E-1,-9.434368E-1,-1.14757285E-1,5.9004205E-1,-7.1695817E-1,-8.509866E-2,-2.1729743E-1,-8.6941385E-1],"categories":[],"categories_nodes":[],"categories_segments":[],"categories_sizes":[],"default_left":[1,1,1,1,1,1,1,1,0,1,1,1,1,1,1,1,1,1,1,1,1,1,0,1,1,1,1,1,0,0,0,1,0,1,1,0,1,0,1,1,1,1,1,0,0,0,0,0,0,1,1,1,0,0,0,0,0,0,0,0,0,0,0,0,0,0,0,0,0,0,0,0,0,0,0,0,0],"id":13,"left_children":[1,3,5,7,9,11,13,15,-1,17,19,21,23,25,27,29,31,33,35,37,39,41,-1,43,45,47,49,51,-1,-1,-1,53,-1,55,57,-1,59,-1,61,63,65,67,69,-1,-1,-1,-1,-1,-1,71,73,75,-1,-1,-1,-1,-1,-1,-1,-1,-1,-1,-1,-1,-1,-1,-1,-1,-1,-1,-1,-1,-1,-1,-1,-1,-1],"loss_changes":[8.905198E0,7.4130235E0,3.676093E0,2.3672924E0,4.7795444E0,2.259118E0,2.5416892E0,1.973813E0,0E0,2.3342266E0,3.3989077E0,1.175683E0,1.530243E0,2.0926847E0,1.8394519E0,7.4017054E-1,1.0024586E0,1.167737E0,1.4292102E0,2.7682533E0,3.1544633E0,1.2147961E0,0E0,5.9536934E-1,3.205896E-1,3.8051414E-1,1.5686744E0,7.2584057E-1,0E0,0E0,0E0,1.0405111E0,0E0,7.360885E-1,5.7709545E-1,0E0,9.777489E-1,0E0,1.5817008E0,1.3918636E0,2.0045137E0,9.771805E-1,6.125412E-1,0E0,0E0,0E0,0E0,0E0,0E0,4.6027246E-1,2.3273003E-1,6.905365E-2,0E0,0E0,0E0,0E0,0E0,0E0,0E0,0E0,0E0,0E0,0E0,0E0,0E0,0E0,0E0,0E0,0E0,0E0,0E0,0E0,0E0,0E0,0E0,0E0,0E0],"parents":[2147483647,0,0,1,1,2,2,3,3,4,4,5,5,6,6,7,7,9,9,10,10,11,11,12,12,13,13,14,14,15,15,16,16,17,17,18,18,19,19,20,20,21,21,23,23,24,24,25,25,26,26,27,27,31,31,33,33,34,34,36,36,38,38,39,39,40,40,41,41,42,42,49,49,50,50,51,51],"right_children":[2,4,6,8,10,12,14,16,-1,18,20,22,24,26,28,30,32,34,36,38,40,42,-1,44,46,48,50,52,-1,-1,-1,54,-1,56,58,-1,60,-1,62,64,66,68,70,-1,-1,-1,-1,-1,-1,72,74,76,-1,-1,-1,-1,-1,-1,-1,-1,-1,-1,-1,-1,-1,-1,-1,-1,-1,-1,-1,-1,-1,-1,-1,-1,-1],"split_conditions":[5.987752E-3,-4.209499E-2,-4.2469084E-2,7.707042E-2,7.4367523E-3,2.8645532E-4,2.9774882E-2,-3.9542675E-2,-1.15214564E-1,-3.3295874E-2,-1.1363732E-2,5.4847166E-2,-2.1669297E-2,-8.856278E-2,1.4943715E-2,-2.5554758E-2,4.933118E-2,2.087688E-2,-1.6000118E-2,-6.583327E-2,-6.4841877E-3,-6.871498E-2,4.3741442E-2,7.820047E-3,4.0117472E-2,-6.444609E-2,-8.088392E-2,4.36192E-3,1.3798915E-1,-1.4603473E-1,1.0433747E-1,3.3272423E-2,-2.1888617E-2,-3.7500747E-2,9.028129E-3,7.029544E-2,-6.528291E-2,-1.3781472E-1,-5.6131218E-2,6.7651525E-2,3.3873666E-2,4.0281206E-2,-4.7945186E-2,2.2695571E-1,-2.0927373E-2,-1.965372E-1,6.907273E-4,3.3214115E-2,2.5029525E-1,4.1160334E-4,-3.790615E-3,-4.987579E-2,4.6603624E-3,7.946673E-3,2.8783128E-1,-3.5385934E-3,-1.9484676E-1,-2.3648974E-2,2.0420791E-1,2.0487523E-2,-2.4196202E-1,-1.2737138E-2,2.3486768E-1,-2.3704651E-1,6.7648664E-2,1.4326783E-1,-1.5814765E-1,-1.5142989E-1,1.2790844E-1,-3.1486228E-2,-2.8303105E-1,-3.442719E-2,1.7701262E-1,-2.1508746E-1,-2.5529599E-2,-6.5189235E-2,-2.6082417E-1],"split_indices":[335,62,325,24,191,150,24,31,0,91,13,11,381,261,9,289,296,73,102,7,189,202,0,363,118,46,218,379,0,0,0,232,0,48,290,0,219,0,9,106,330,206,198,0,0,0,0,0,0,207,143,202,0,0,0,0,0,0,0,0,0,0,0,0,0,0,0,0,0,0,0,0,0,0,0,0,0],"split_type":[0,0,0,0,0,0,0,0,0,0,0,0,0,0,0,0,0,0,0,0,0,0,0,0,0,0,0,0,0,0,0,0,0,0,0,0,0,0,0,0,0,0,0,0,0,0,0,0,0,0,0,0,0,0,0,0,0,0,0,0,0,0,0,0,0,0,0,0,0,0,0,0,0,0,0,0,0],"sum_hessian":[1.24319E2,7.74101E1,4.6908894E1,2.0444843E1,5.6965263E1,2.9072128E1,1.7836767E1,1.8873056E1,1.5717871E0,2.4904245E1,3.2061016E1,2.393273E1,5.139397E0,1.012485E1,7.7119164E0,2.3148382E0,1.6558218E1,1.0028754E1,1.4875491E1,1.6360756E1,1.5700261E1,2.2897512E1,1.0352185E0,2.4096642E0,2.729733E0,4.543216E0,5.5816345E0,6.6585436E0,1.0533731E0,1.2477971E0,1.0670412E0,1.5543104E1,1.0151144E0,6.9900217E0,3.0387328E0,1.260483E0,1.3615007E1,1.9849161E0,1.4375839E1,7.02259E0,8.677671E0,2.64858E0,2.0248932E1,1.2327131E0,1.1769512E0,1.719385E0,1.010348E0,1.2889061E0,3.2543101E0,2.5339987E0,3.0476358E0,5.3881936E0,1.2703499E0,1.3602695E0,1.4182835E1,5.174003E0,1.8160185E0,1.2727448E0,1.7659879E0,1.2478011E0,1.2367207E1,2.7219296E0,1.165391E1,5.8123355E0,1.2102545E0,6.934627E0,1.7430446E0,1.6306925E0,1.0178876E0,1.1907004E0,1.9058231E1,1.0301814E0,1.5038173E0,1.9464104E0,1.1012254E0,1.0119709E0,4.3762226E0],"tree_param":{"num_deleted":"0","num_feature":"384","num_nodes":"77","size_leaf_vector":"0"}},{"base_weights":[-8.591471E-2,-4.326118E-1,9.488637E-2,-6.256369E-1,2.891332E-2,2.800263E-1,-3.5240042E-1,1.3324837E-1,-7.297088E-1,-2.3069626E-1,4.2565674E-1,5.704869E-1,-1.0549969E-2,-6.4572453E-1,1.08371176E-1,4.7462928E-1,-3.490744E-1,-7.9747874E-1,3.9035093E-2,-6.0443825E-1,9.690379E-3,7.623626E-1,-2.408376E-1,1.213613E-2,7.281831E-1,5.092438E-1,-2.5036505E-1,-9.172753E-2,-8.322691E-1,-3.704323E-1,4.081467E-1,1.15954824E-1,-8.52381E-1,-1.3665846E-1,3.4932896E-1,3.2599387E-1,-5.355647E-1,-2.8325928E-2,8.160219E-1,6.645025E-1,-2.9954687E-1,-5.8187443E-1,1.5267362E-1,-4.814199E-1,4.1389236E-1,-9.057874E-1,-2.1168417E-1,-7.167919E-1,1.9722101E-1,-1.3712864E-1,6.233655E-1,-1.293519E-1,-9.0394115E-1,-2.6489717E-1,5.806002E-1,-2.6526144E-1,2.3256244E-1,-5.3122837E-2,8.773546E-1,2.0847514E-2,7.940359E-1,1.4436118E-1,-7.180242E-1,-3.0032864E-1,5.263353E-1,7.863203E-1,3.4915395E-2],"categories":[],"categories_nodes":[],"categories_segments":[],"categories_sizes":[],"default_left":[1,1,1,1,1,1,1,1,1,1,1,1,1,1,1,0,0,1,0,0,1,0,0,1,1,1,1,1,1,1,1,0,1,0,0,1,0,1,1,1,0,1,1,0,0,0,0,0,0,0,1,0,0,0,0,0,0,0,0,0,0,0,0,0,0,0,0],"id":14,"left_children":[1,3,5,7,9,11,13,15,17,19,21,23,25,27,29,-1,-1,31,-1,-1,33,-1,-1,35,37,39,41,43,45,47,49,-1,51,-1,-1,53,-1,55,57,59,-1,61,63,-1,-1,-1,-1,-1,-1,-1,65,-1,-1,-1,-1,-1,-1,-1,-1,-1,-1,-1,-1,-1,-1,-1,-1],"loss_changes":[6.9579964E0,3.4035115E0,6.1725044E0,2.2169666E0,1.35091E0,4.4312844E0,3.0318348E0,8.3787036E-1,1.2688112E0,7.246258E-1,1.3420541E0,2.3015118E0,3.5171437E0,1.32233E0,1.497601E0,0E0,0E0,1.1960573E0,0E0,0E0,3.386659E-1,0E0,0E0,1.3427608E0,1.3816004E0,1.3184543E0,2.664578E0,1.0924442E0,2.6454306E-1,9.545482E-1,8.182937E-1,0E0,6.56929E-1,0E0,0E0,8.972468E-1,0E0,2.528932E-1,1.0248051E0,6.328957E-1,0E0,1.170083E0,1.7648606E0,0E0,0E0,0E0,0E0,0E0,0E0,0E0,4.1916847E-1,0E0,0E0,0E0,0E0,0E0,0E0,0E0,0E0,0E0,0E0,0E0,0E0,0E0,0E0,0E0,0E0],"parents":[2147483647,0,0,1,1,2,2,3,3,4,4,5,5,6,6,7,7,8,8,9,9,10,10,11,11,12,12,13,13,14,14,17,17,20,20,23,23,24,24,25,25,26,26,27,27,28,28,29,29,30,30,32,32,35,35,37,37,38,38,39,39,41,41,42,42,50,50],"right_children":[2,4,6,8,10,12,14,16,18,20,22,24,26,28,30,-1,-1,32,-1,-1,34,-1,-1,36,38,40,42,44,46,48,50,-1,52,-1,-1,54,-1,56,58,60,-1,62,64,-1,-1,-1,-1,-1,-1,-1,66,-1,-1,-1,-1,-1,-1,-1,-1,-1,-1,-1,-1,-1,-1,-1,-1],"split_conditions":[-1.617535E-2,3.8992546E-2,2.635181E-2,-4.1939057E-2,1.0448892E-2,9.197026E-4,-1.190773E-2,1.3144029E-2,2.7439188E-2,3.604239E-2,-5.9360806E-2,-9.317294E-3,-4.1144785E-2,-1.4358522E-2,-3.202433E-2,1.4238879E-1,-1.0472232E-1,-9.606847E-2,1.1710528E-2,-1.8133149E-1,3.5886792E-3,2.2870879E-1,-7.225128E-2,2.9059056E-2,-4.988206E-2,5.3896468E-2,2.8751798E-2,-1.0112306E-2,3.5078928E-2,6.7632556E-2,9.114895E-3,3.4786448E-2,-7.3009424E-2,-4.099754E-2,1.047987E-1,-2.2667474E-3,-1.6066942E-1,2.8671142E-2,1.43036805E-2,-9.672668E-2,-8.986406E-2,5.4908004E-3,-6.0511116E-2,-1.4442597E-1,1.2416771E-1,-2.7173623E-1,-6.3505255E-2,-2.1503758E-1,5.9166305E-2,-4.1138593E-2,4.020083E-2,-3.880557E-2,-2.7118236E-1,-7.946915E-2,1.7418006E-1,-7.957844E-2,6.9768734E-2,-1.5936852E-2,2.632064E-1,6.2542544E-3,2.3821078E-1,4.3308355E-2,-2.1540727E-1,-9.00986E-2,1.579006E-1,2.3589611E-1,1.04746185E-2],"split_indices":[124,214,136,329,191,128,9,178,39,118,190,4,62,335,228,0,0,186,0,0,6,0,0,5,362,192,191,260,216,303,290,0,333,0,0,234,0,74,33,274,0,201,254,0,0,0,0,0,0,0,213,0,0,0,0,0,0,0,0,0,0,0,0,0,0,0,0],"split_type":[0,0,0,0,0,0,0,0,0,0,0,0,0,0,0,0,0,0,0,0,0,0,0,0,0,0,0,0,0,0,0,0,0,0,0,0,0,0,0,0,0,0,0,0,0,0,0,0,0,0,0,0,0,0,0,0,0,0,0,0,0,0,0,0,0,0,0],"sum_hessian":[1.09347694E2,3.7001778E1,7.234592E1,2.583933E1,1.1162448E1,5.1431465E1,2.091445E1,3.0823922E0,2.2756939E1,7.0003104E0,4.162137E0,2.5239109E1,2.6192358E1,1.2533994E1,8.380456E0,1.8142463E0,1.2681459E0,2.087894E1,1.877998E0,2.1473184E0,4.8529925E0,2.669629E0,1.492508E0,5.7956305E0,1.9443478E1,7.9144597E0,1.8277899E1,3.5331168E0,9.000877E0,3.1359682E0,5.244488E0,1.1207354E0,1.9758205E1,3.8092418E0,1.0437506E0,3.941669E0,1.8539616E0,2.093219E0,1.735026E1,6.789517E0,1.1249429E0,9.785423E0,8.492475E0,2.022327E0,1.5107899E0,7.636625E0,1.3642523E0,1.784443E0,1.3515251E0,1.5868664E0,3.6576214E0,1.5487539E0,1.8209452E1,1.1747915E0,2.7668774E0,1.0881829E0,1.0050361E0,1.1524712E0,1.6197788E1,1.3319525E0,5.4575644E0,1.5353595E0,8.250064E0,3.9274065E0,4.565068E0,2.601071E0,1.0565505E0],"tree_param":{"num_deleted":"0","num_feature":"384","num_nodes":"67","size_leaf_vector":"0"}},{"base_weights":[-7.3942356E-2,-2.7472192E-1,1.8738885E-1,-2.2616122E-2,-5.5034965E-1,-9.940913E-2,4.6489352E-1,-5.695089E-1,1.4720169E-1,1.24192014E-1,-6.683495E-1,-3.160065E-1,3.7035334E-1,2.4807157E-2,6.6066927E-1,1.4839265E-1,-7.215631E-1,4.650332E-1,-1.6072556E-1,-2.9882538E-1,5.709597E-1,1.3783486E-1,-7.904318E-1,7.0971705E-2,-5.370499E-1,-2.4641447E-1,5.890948E-1,4.5082858E-1,-4.262188E-1,7.438959E-1,-1.371855E-1,-1.6401224E-1,-7.9961425E-1,5.894572E-1,-1.8527673E-1,3.717822E-1,-3.4509015E-1,8.850672E-2,-5.3647596E-1,-3.2203627E-1,5.197089E-1,-8.506217E-1,-4.1518237E-2,-3.360715E-1,4.0349367E-1,-7.162E-1,8.2801536E-2,7.668281E-1,-1.7755741E-2,-1.32023E-1,6.6143113E-1,1.8210556E-1,-7.1450067E-1,-1.2034825E-3,8.2054704E-1,7.5912327E-1,7.2098754E-2,5.730217E-1,-6.911059E-2,-7.1580446E-1,-4.0502086E-2,9.564007E-3,-9.138488E-1,-5.752415E-1,1.0844182E-1,-1.3190444E-1,6.575356E-1,-1.7213671E-1,-8.4800315E-1,3.2981145E-1,-1.98653E-1,8.885461E-1,2.1886548E-2],"categories":[],"categories_nodes":[],"categories_segments":[],"categories_sizes":[],"default_left":[1,1,1,1,1,1,1,1,1,1,1,1,1,1,1,0,1,1,1,1,0,1,1,1,1,0,1,1,1,1,0,0,0,1,0,1,1,0,0,0,0,1,0,1,1,1,1,0,0,0,0,0,0,0,1,0,0,0,0,0,0,0,0,0,0,0,0,0,0,0,0,0,0],"id":15,"left_children":[1,3,5,7,9,11,13,15,17,19,21,23,25,27,29,-1,31,33,35,37,-1,39,41,43,45,-1,47,49,51,53,-1,-1,-1,55,-1,57,59,-1,-1,-1,-1,61,-1,63,65,67,69,-1,-1,-1,-1,-1,-1,-1,71,-1,-1,-1,-1,-1,-1,-1,-1,-1,-1,-1,-1,-1,-1,-1,-1,-1,-1],"loss_changes":[5.1885095E0,3.862996E0,3.4790158E0,2.8859463E0,2.200266E0,2.35906E0,1.8874888E0,9.0986896E-1,2.4057317E0,1.0784794E0,2.3525953E0,1.3743006E0,1.1454072E0,1.6990826E0,1.1150155E0,0E0,1.4037895E-1,1.0783284E0,1.3889081E0,3.350354E-1,0E0,8.4340787E-1,8.6382675E-1,1.023793E0,1.1762798E0,0E0,6.3572836E-1,6.420399E-1,8.883283E-1,7.988281E-1,0E0,0E0,0E0,8.4874177E-1,0E0,3.7530684E-1,1.1065629E0,0E0,0E0,0E0,0E0,1.0100956E0,0E0,4.3405885E-1,6.3977623E-1,4.210286E-1,2.8463024E-1,0E0,0E0,0E0,0E0,0E0,0E0,0E0,6.6852856E-1,0E0,0E0,0E0,0E0,0E0,0E0,0E0,0E0,0E0,0E0,0E0,0E0,0E0,0E0,0E0,0E0,0E0,0E0],"parents":[2147483647,0,0,1,1,2,2,3,3,4,4,5,5,6,6,7,7,8,8,9,9,10,10,11,11,12,12,13,13,14,14,16,16,17,17,18,18,19,19,21,21,22,22,23,23,24,24,26,26,27,27,28,28,29,29,33,33,35,35,36,36,41,41,43,43,44,44,45,45,46,46,54,54],"right_children":[2,4,6,8,10,12,14,16,18,20,22,24,26,28,30,-1,32,34,36,38,-1,40,42,44,46,-1,48,50,52,54,-1,-1,-1,56,-1,58,60,-1,-1,-1,-1,62,-1,64,66,68,70,-1,-1,-1,-1,-1,-1,-1,72,-1,-1,-1,-1,-1,-1,-1,-1,-1,-1,-1,-1,-1,-1,-1,-1,-1,-1],"split_conditions":[-3.5512056E-2,7.302357E-3,1.3436879E-2,-3.604827E-2,-5.5663712E-2,7.645361E-2,9.567123E-3,-5.9679013E-2,-9.480789E-3,4.4923626E-2,-2.264674E-2,-2.051938E-2,8.732557E-3,3.3462398E-2,1.411332E-2,4.4517796E-2,3.0597046E-2,-2.661768E-4,1.079364E-2,8.333076E-3,1.7128791E-1,-8.409986E-3,5.6699537E-2,-1.56354E-2,4.3661777E-2,-7.392434E-2,7.1564736E-4,-6.7618806E-3,4.629831E-2,-4.4119954E-2,-4.115565E-2,-4.9203675E-2,-2.3988429E-1,5.8373675E-2,-5.5583023E-2,5.3549953E-2,-2.0429872E-2,2.6552018E-2,-1.609428E-1,-9.661088E-2,1.5591267E-1,-6.841021E-2,-1.2455472E-2,-7.3719546E-2,3.973479E-2,-1.06980064E-4,-2.0326525E-2,2.3004845E-1,-5.3267227E-3,-3.9606903E-2,1.9842935E-1,5.463167E-2,-2.1435021E-1,-3.6104477E-4,2.0599503E-3,2.27737E-1,2.1629628E-2,1.7190652E-1,-2.0733178E-2,-2.1474135E-1,-1.2150627E-2,2.869202E-3,-2.7415466E-1,-1.7257246E-1,3.2532547E-2,-3.9571334E-2,1.972607E-1,-5.1641013E-2,-2.5440097E-1,9.894344E-2,-5.95959E-2,2.6656383E-1,6.565965E-3],"split_indices":[325,3,191,231,333,303,137,263,10,92,194,173,267,213,68,0,287,345,213,361,0,294,193,109,341,0,245,162,307,157,0,0,0,201,0,53,20,0,0,0,0,171,0,276,337,324,10,0,0,0,0,0,0,0,326,0,0,0,0,0,0,0,0,0,0,0,0,0,0,0,0,0,0],"split_type":[0,0,0,0,0,0,0,0,0,0,0,0,0,0,0,0,0,0,0,0,0,0,0,0,0,0,0,0,0,0,0,0,0,0,0,0,0,0,0,0,0,0,0,0,0,0,0,0,0,0,0,0,0,0,0,0,0,0,0,0,0,0,0,0,0,0,0,0,0,0,0,0,0],"sum_hessian":[9.690418E1,5.4771923E1,4.213226E1,2.9171736E1,2.5600185E1,2.1034801E1,2.1097458E1,6.354293E0,2.2817444E1,3.803745E0,2.1796442E1,1.462078E1,6.414021E0,6.8426056E0,1.4254852E1,1.1148363E0,5.239456E0,1.0977084E1,1.184036E1,2.1238954E0,1.6798495E0,2.8496206E0,1.8946821E1,5.5621347E0,9.058645E0,1.6461092E0,4.767912E0,3.5190687E0,3.3235369E0,1.2969586E1,1.2852657E0,1.0242397E0,4.2152166E0,9.292686E0,1.6843973E0,2.7836552E0,9.0567045E0,1.0462512E0,1.0776443E0,1.3638732E0,1.4857473E0,1.7411646E1,1.5351748E0,2.4960377E0,3.0660973E0,6.9069514E0,2.151693E0,3.4839265E0,1.2839853E0,1.0330836E0,2.4859853E0,1.1870224E0,2.1365144E0,1.3015895E0,1.1667997E1,6.6458836E0,2.6468027E0,1.7055125E0,1.0781428E0,3.475995E0,5.5807095E0,1.2503092E0,1.6161337E1,1.4316479E0,1.0643898E0,1.1413847E0,1.9247124E0,1.7966533E0,5.110298E0,1.0544643E0,1.0972289E0,1.0648799E1,1.0191985E0],"tree_param":{"num_deleted":"0","num_feature":"384","num_nodes":"73","size_leaf_vector":"0"}},{"base_weights":[-6.363981E-2,8.188245E-2,-4.0385097E-1,2.9580507E-1,-1.6435972E-1,-5.0260067E-1,3.509815E-1,5.485446E-1,-9.135587E-2,2.0431907E-1,-3.6569563E-1,-1.158294E-1,-6.910161E-1,5.953406E-1,-1.3435583E-1,-2.6391256E-1,6.5373784E-1,-6.331673E-1,1.0841565E-1,-1.287575E-1,5.460754E-1,-5.642567E-1,1.0616097E-1,1.9035271E-1,-5.178484E-1,1.4464846E-1,-7.6808184E-1,-5.114522E-1,1.14753194E-1,-2.708849E-1,7.465801E-1,4.5328692E-1,-2.2598551E-1,-3.479662E-1,4.0022057E-1,7.1128476E-1,-5.658751E-2,1.5822937E-1,-6.757012E-1,4.2066574E-1,-3.560787E-1,5.415812E-1,-3.762639E-1,2.1056194E-2,-7.076864E-1,-1.1769094E-1,-8.6446613E-1,1.6272414E-1,8.5012734E-1,-4.6742447E-2,6.8919075E-1,7.3723616E-3,-5.560344E-1,-6.132332E-1,1.050217E-1,-2.6056562E-3,-7.916287E-1,-9.359051E-2,6.199943E-1,-6.1040395E-1,1.0148945E-1,5.628463E-2,6.890231E-1,-4.4780955E-1,2.7682E-1,-9.181036E-1,-1.9585802E-1],"categories":[],"categories_nodes":[],"categories_segments":[],"categories_sizes":[],"default_left":[1,1,1,1,1,1,1,1,1,1,1,1,1,0,0,1,1,0,1,1,1,1,1,1,1,0,1,0,0,0,1,1,1,1,0,0,0,0,1,1,1,1,0,0,0,1,1,0,0,0,0,0,0,0,0,0,0,0,0,0,0,0,0,0,0,0,0],"id":16,"left_children":[1,3,5,7,9,11,13,15,17,19,21,23,25,-1,-1,27,29,-1,31,33,35,37,39,41,43,-1,45,-1,-1,-1,47,49,51,53,-1,-1,-1,-1,55,57,59,61,-1,-1,-1,63,65,-1,-1,-1,-1,-1,-1,-1,-1,-1,-1,-1,-1,-1,-1,-1,-1,-1,-1,-1,-1],"loss_changes":[4.356489E0,3.314368E0,2.1391153E0,3.3312793E0,2.261758E0,1.6467857E0,5.110895E-1,1.9186602E0,1.5949588E0,1.3279711E0,1.8789592E0,1.201911E0,1.1242967E0,0E0,0E0,3.4500074E-1,1.7797465E0,0E0,1.3890626E0,8.819065E-1,6.021962E-1,1.2199254E0,1.1081061E0,1.3619286E0,4.3885982E-1,0E0,8.111572E-1,0E0,0E0,0E0,8.8736343E-1,7.19319E-1,4.9175128E-1,6.7278475E-1,0E0,0E0,0E0,0E0,9.4722986E-1,5.0713384E-1,4.3557844E-1,2.4761093E-1,0E0,0E0,0E0,5.1950884E-1,2.6937675E-1,0E0,0E0,0E0,0E0,0E0,0E0,0E0,0E0,0E0,0E0,0E0,0E0,0E0,0E0,0E0,0E0,0E0,0E0,0E0,0E0],"parents":[2147483647,0,0,1,1,2,2,3,3,4,4,5,5,6,6,7,7,8,8,9,9,10,10,11,11,12,12,15,15,16,16,18,18,19,19,20,20,21,21,22,22,23,23,24,24,26,26,30,30,31,31,32,32,33,33,38,38,39,39,40,40,41,41,45,45,46,46],"right_children":[2,4,6,8,10,12,14,16,18,20,22,24,26,-1,-1,28,30,-1,32,34,36,38,40,42,44,-1,46,-1,-1,-1,48,50,52,54,-1,-1,-1,-1,56,58,60,62,-1,-1,-1,64,66,-1,-1,-1,-1,-1,-1,-1,-1,-1,-1,-1,-1,-1,-1,-1,-1,-1,-1,-1,-1],"split_conditions":[1.173686E-2,-4.3967165E-2,-8.42031E-3,-1.0990179E-2,2.0488175E-2,-1.4215588E-2,-3.7686147E-3,-5.6401446E-2,-3.7627265E-2,1.0792191E-2,4.2695284E-2,4.6603147E-2,-4.55451E-3,1.7860219E-1,-4.030675E-2,3.3021245E-2,-2.9798573E-2,-1.8995021E-1,1.7945532E-3,5.600431E-2,7.43741E-3,-1.4371587E-2,9.512538E-3,3.7992172E-2,-5.1792078E-2,4.339454E-2,-5.497732E-2,-1.5343566E-1,3.442596E-2,-8.126547E-2,-1.925911E-2,-3.21998E-2,-9.948668E-2,7.264544E-2,1.2006617E-1,2.1338543E-1,-1.6976254E-2,4.746881E-2,-2.4099615E-32,-3.7309453E-2,5.1208097E-2,2.5094418E-2,-1.1287917E-1,6.3168583E-3,-2.1230593E-1,-3.554797E-2,9.224528E-2,4.8817243E-2,2.550382E-1,-1.4022735E-2,2.0675723E-1,2.2117086E-3,-1.6681032E-1,-1.8396997E-1,3.1506512E-2,-7.816969E-4,-2.3748863E-1,-2.8077155E-2,1.8599829E-1,-1.8312119E-1,3.0446835E-2,1.6885389E-2,2.0670693E-1,-1.3434286E-1,8.3046004E-2,-2.754311E-1,-5.8757406E-2],"split_indices":[13,378,96,333,201,329,56,7,9,152,80,24,53,0,0,279,348,0,296,249,173,53,141,230,268,0,371,0,0,0,226,216,168,67,0,0,0,0,223,167,176,92,0,0,0,308,131,0,0,0,0,0,0,0,0,0,0,0,0,0,0,0,0,0,0,0,0],"split_type":[0,0,0,0,0,0,0,0,0,0,0,0,0,0,0,0,0,0,0,0,0,0,0,0,0,0,0,0,0,0,0,0,0,0,0,0,0,0,0,0,0,0,0,0,0,0,0,0,0,0,0,0,0,0,0,0,0,0,0,0,0,0,0,0,0,0,0],"sum_hessian":[8.6327194E1,6.0996017E1,2.5331179E1,3.2532322E1,2.8463697E1,2.269615E1,2.6350288E0,1.943093E1,1.3101393E1,1.0048479E1,1.8415216E1,7.963588E0,1.4732561E1,1.6018642E0,1.0331646E0,2.054469E0,1.7376461E1,2.944902E0,1.015649E1,5.404494E0,4.6439857E0,1.2823261E1,5.5919557E0,4.8195066E0,3.1440818E0,1.1698893E0,1.3562672E1,1.0302862E0,1.024183E0,1.4105909E0,1.5965869E1,4.824951E0,5.331539E0,4.0629835E0,1.3415102E0,3.503364E0,1.1406215E0,1.6575688E0,1.1165693E1,3.3812892E0,2.2106662E0,3.0025194E0,1.8169872E0,1.050643E0,2.0934389E0,2.0371635E0,1.1525508E1,2.7923825E0,1.3173487E1,1.803677E0,3.0212743E0,3.695989E0,1.6355504E0,2.3393326E0,1.723651E0,1.7907512E0,9.374942E0,1.0926881E0,2.2886012E0,1.2062124E0,1.0044538E0,1.0216281E0,1.9808912E0,1.0355425E0,1.001621E0,1.0324123E1,1.2013847E0],"tree_param":{"num_deleted":"0","num_feature":"384","num_nodes":"67","size_leaf_vector":"0"}},{"base_weights":[-5.746473E-2,8.271345E-2,-3.726407E-1,4.29721E-1,-8.3854906E-2,-7.02966E-1,-7.375508E-2,7.093317E-1,-8.832823E-4,1.15938306E-1,-3.8872588E-1,5.6262936E-2,-8.130367E-1,1.0848586E-1,-4.2908224E-1,-1.7865682E-1,8.3225316E-1,-4.4578972E-1,3.124339E-1,-2.5826916E-1,3.1799564E-1,2.3050666E-1,-5.7821304E-1,-1.976273E-1,-8.679703E-1,4.398501E-1,-1.09391294E-1,1.0506392E-1,-6.716809E-1,8.8456726E-1,1.9116883E-1,-6.2809056E-1,2.2535257E-2,5.898756E-1,-1.746391E-1,1.7881769E-1,-5.435204E-1,-3.3699864E-1,4.3379357E-1,-2.2995064E-1,4.9950173E-1,-6.86631E-1,3.020376E-1,-6.769175E-3,5.984065E-1,-4.6916342E-1,5.226169E-2,7.2999763E-1,1.1222781E-1,-1.8921094E-1,4.5019785E-1,-8.874415E-3,-6.7195183E-1,6.35119E-1,3.7126638E-2,-7.7639633E-1,9.749786E-2,2.7690634E-1,-5.7202198E-2],"categories":[],"categories_nodes":[],"categories_segments":[],"categories_sizes":[],"default_left":[1,1,1,1,1,1,1,1,1,1,1,0,1,1,1,0,1,1,1,1,1,1,1,0,0,1,1,0,0,0,0,0,0,1,0,1,1,0,1,0,0,1,0,0,0,0,1,0,0,0,0,0,0,0,0,0,0,0,0],"id":17,"left_children":[1,3,5,7,9,11,13,15,17,19,21,-1,23,25,27,-1,29,31,33,35,37,39,41,-1,-1,43,45,-1,-1,-1,-1,-1,-1,47,-1,49,51,-1,53,-1,-1,55,-1,-1,-1,-1,57,-1,-1,-1,-1,-1,-1,-1,-1,-1,-1,-1,-1],"loss_changes":[3.4833813E0,3.2097228E0,2.3412063E0,2.1644237E0,2.3558028E0,9.9813366E-1,9.428919E-1,1.3381696E0,1.2647859E0,1.8731912E0,1.9224782E0,0E0,1.6714668E-1,7.6630193E-1,7.0480037E-1,0E0,1.5785885E-1,3.341853E-1,8.226903E-1,1.201543E0,1.3468627E0,6.45945E-1,1.3488531E0,0E0,0E0,2.9759526E-1,4.2013273E-1,0E0,0E0,0E0,0E0,0E0,0E0,1.6044998E-1,0E0,5.09682E-1,3.790599E-1,0E0,1.0856016E0,0E0,0E0,8.467603E-1,0E0,0E0,0E0,0E0,1.5338048E-1,0E0,0E0,0E0,0E0,0E0,0E0,0E0,0E0,0E0,0E0,0E0,0E0],"parents":[2147483647,0,0,1,1,2,2,3,3,4,4,5,5,6,6,7,7,8,8,9,9,10,10,12,12,13,13,14,14,16,16,17,17,18,18,19,19,20,20,21,21,22,22,25,25,26,26,33,33,35,35,36,36,38,38,41,41,46,46],"right_children":[2,4,6,8,10,12,14,16,18,20,22,-1,24,26,28,-1,30,32,34,36,38,40,42,-1,-1,44,46,-1,-1,-1,-1,-1,-1,48,-1,50,52,-1,54,-1,-1,56,-1,-1,-1,-1,58,-1,-1,-1,-1,-1,-1,-1,-1,-1,-1,-1,-1],"split_conditions":[2.7376542E-2,-3.3261284E-2,-2.1371469E-2,2.9655986E-2,4.2624727E-2,-3.6817938E-2,5.889774E-2,-2.765704E-2,2.1449432E-2,-2.2026401E-2,-4.8663117E-2,1.6878882E-2,5.9515713E-3,2.879187E-2,-2.4734188E-2,-5.3597048E-2,1.7401703E-2,8.1934236E-2,8.783916E-2,-4.3856233E-2,-5.151235E-2,6.1318097E-3,7.561958E-2,-5.9288193E-2,-2.603911E-1,-2.4658073E-2,1.0263903E-2,3.151918E-2,-2.0150429E-1,2.653702E-1,5.735065E-2,-1.8842718E-1,6.760577E-3,-6.1802942E-2,-5.2391734E-2,-6.388513E-2,-1.0705641E-1,-1.01099595E-1,2.306329E-2,-6.8985194E-2,1.4985053E-1,5.5919703E-2,9.061128E-2,-2.0307526E-3,1.7952195E-1,-1.4074904E-1,-5.5551524E-3,2.189993E-1,3.3668347E-2,-5.6763284E-2,1.3505936E-1,-2.6623248E-3,-2.0158556E-1,1.9053571E-1,1.1137992E-2,-2.329189E-1,2.9249359E-2,8.30719E-2,-1.716066E-2],"split_indices":[136,55,9,102,24,335,32,38,290,157,48,0,201,213,366,0,364,303,35,266,159,55,88,0,0,60,40,0,0,0,0,0,0,261,0,96,69,0,300,0,0,226,0,0,0,0,126,0,0,0,0,0,0,0,0,0,0,0,0],"split_type":[0,0,0,0,0,0,0,0,0,0,0,0,0,0,0,0,0,0,0,0,0,0,0,0,0,0,0,0,0,0,0,0,0,0,0,0,0,0,0,0,0,0,0,0,0,0,0,0,0,0,0,0,0,0,0,0,0,0,0],"sum_hessian":[7.714615E1,5.3907658E1,2.3238493E1,1.6971506E1,3.693615E1,1.0396467E1,1.2842025E1,9.897392E0,7.074115E0,2.2687746E1,1.42484045E1,1.3782979E0,9.018169E0,8.947632E0,3.894393E0,1.1483386E0,8.749054E0,2.7484887E0,4.325626E0,7.857522E0,1.4830224E1,3.2877529E0,1.0960651E1,1.1157898E0,7.90238E0,3.1452687E0,5.8023634E0,1.393391E0,2.5010018E0,7.737829E0,1.0112244E0,1.7328246E0,1.0156642E0,2.6213927E0,1.7042333E0,3.2502806E0,4.6072416E0,1.9410012E0,1.2889223E1,1.2659276E0,2.0218253E0,9.954539E0,1.0061127E0,1.0748775E0,2.0703912E0,1.2091074E0,4.593256E0,1.6183251E0,1.0030675E0,1.5080038E0,1.7422767E0,1.0994505E0,3.5077913E0,8.151068E0,4.7381554E0,8.94087E0,1.0136691E0,1.0037254E0,3.5895307E0],"tree_param":{"num_deleted":"0","num_feature":"384","num_nodes":"59","size_leaf_vector":"0"}},{"base_weights":[-4.8699163E-2,-2.9762232E-1,1.2379834E-1,-4.698039E-1,1.5698773E-1,3.6025125E-1,-1.1235965E-1,2.6697403E-2,-6.4008355E-1,-1.2128157E-1,5.0894123E-1,5.641566E-1,-9.655925E-3,-4.6052155E-1,1.0865995E-1,3.6569032E-1,-4.007909E-1,7.993142E-2,-7.3230946E-1,-4.0751022E-1,2.4292654E-1,6.313296E-2,6.66615E-1,-2.0646277E-1,6.433307E-1,4.0123832E-1,-3.164595E-1,-6.503024E-1,2.1480033E-1,4.84485E-1,-7.0631124E-2,5.983162E-1,-1.0877718E-1,-3.9674006E-2,-5.6517136E-1,-8.233354E-1,7.713353E-2,-6.392366E-1,9.0610996E-2,4.2124066E-1,-6.6784635E-2,7.2069085E-1,-3.3881254E-2,-1.0473532E-1,6.0685354E-1,-5.3244054E-1,2.9203022E-1,-2.9630489E-3,-7.569365E-1,-1.1065066E-2,6.253033E-1,-2.1246378E-1,4.926055E-1,-1.4056359E-1,-8.692023E-1,8.20245E-1,4.832908E-2,-7.058269E-1,-3.7433088E-2,4.1486658E-4,-5.495699E-1],"categories":[],"categories_nodes":[],"categories_segments":[],"categories_sizes":[],"default_left":[1,1,1,1,1,1,1,1,1,1,1,1,1,1,1,1,1,0,1,1,1,0,0,0,1,1,1,1,0,1,1,0,0,0,0,1,0,0,0,0,0,1,0,0,0,1,0,0,0,0,0,1,0,0,0,0,0,0,0,0,0],"id":18,"left_children":[1,3,5,7,9,11,13,15,17,19,21,23,25,27,29,31,33,-1,35,37,39,-1,-1,-1,41,43,45,47,-1,49,51,-1,-1,-1,-1,53,-1,-1,-1,-1,-1,55,-1,-1,-1,57,-1,-1,-1,-1,-1,59,-1,-1,-1,-1,-1,-1,-1,-1,-1],"loss_changes":[3.0698822E0,2.3599446E0,2.4097557E0,1.8292232E0,9.2091316E-1,1.6225286E0,1.7422059E0,1.0789136E0,1.1210308E0,6.939104E-1,2.437222E-1,9.771004E-1,1.2113343E0,1.2585475E0,9.951086E-1,5.1884747E-1,1.7480654E-1,0E0,1.1158166E0,4.6988028E-1,2.0142175E-1,0E0,0E0,0E0,6.945467E-1,4.91979E-1,8.7616396E-1,4.8531508E-1,0E0,3.3720112E-1,9.456364E-1,0E0,0E0,0E0,0E0,2.8255844E-1,0E0,0E0,0E0,0E0,0E0,7.31791E-1,0E0,0E0,0E0,3.5133553E-1,0E0,0E0,0E0,0E0,0E0,6.538616E-1,0E0,0E0,0E0,0E0,0E0,0E0,0E0,0E0,0E0],"parents":[2147483647,0,0,1,1,2,2,3,3,4,4,5,5,6,6,7,7,8,8,9,9,10,10,11,11,12,12,13,13,14,14,15,15,16,16,18,18,19,19,20,20,24,24,25,25,26,26,27,27,29,29,30,30,35,35,41,41,45,45,51,51],"right_children":[2,4,6,8,10,12,14,16,18,20,22,24,26,28,30,32,34,-1,36,38,40,-1,-1,-1,42,44,46,48,-1,50,52,-1,-1,-1,-1,54,-1,-1,-1,-1,-1,56,-1,-1,-1,58,-1,-1,-1,-1,-1,60,-1,-1,-1,-1,-1,-1,-1,-1,-1],"split_conditions":[-2.6015232E-3,6.7362495E-2,8.4626704E-2,-9.134425E-2,1.7993318E-2,-1.0635203E-3,3.0076943E-2,3.29263E-3,-5.4381873E-2,-4.8046395E-2,2.4512038E-2,-6.502808E-2,-3.5733394E-2,2.3923807E-2,-5.0742604E-2,4.014048E-2,-3.6496256E-2,2.3979427E-2,7.057041E-3,2.8591435E-2,3.2101065E-2,1.8939888E-2,1.999845E-1,-6.1938833E-2,-1.7413124E-2,-2.1360036E-2,2.4225112E-2,-8.722397E-2,6.44401E-2,-3.9498884E-2,2.003052E-2,1.7949486E-1,-3.2633156E-2,-1.1902203E-2,-1.6955142E-1,