{"learner":{"attributes":{"best_iteration":"99","best_ntree_limit":"100","scikit_learn":"{\"use_label_encoder\": false, \"n_estimators\": 100, \"objective\": \"binary:logistic\", \"max_depth\": null, \"max_leaves\": null, \"max_bin\": null, \"grow_policy\": null, \"learning_rate\": null, \"verbosity\": null, \"booster\": null, \"tree_method\": null, \"gamma\": null, \"min_child_weight\": null, \"max_delta_step\": null, \"subsample\": null, \"sampling_method\": null, \"colsample_bytree\": null, \"colsample_bylevel\": null, \"colsample_bynode\": null, \"reg_alpha\": null, \"reg_lambda\": null, \"scale_pos_weight\": null, \"base_score\": null, \"missing\": NaN, \"num_parallel_tree\": null, \"random_state\": null, \"n_jobs\": null, \"monotone_constraints\": null, \"interaction_constraints\": null, \"importance_type\": null, \"gpu_id\": null, \"validate_parameters\": null, \"predictor\": null, \"enable_categorical\": false, \"max_cat_to_onehot\": null, \"eval_metric\": null, \"early_stopping_rounds\": null, \"callbacks\": null, \"classes_\": [0, 1], \"n_classes_\": 2, \"_estimator_type\": \"classifier\"}"},"feature_names":[],"feature_types":[],"gradient_booster":{"model":{"gbtree_model_param":{"num_parallel_tree":"1","num_trees":"100","size_leaf_vector":"0"},"tree_info":[0,0,0,0,0,0,0,0,0,0,0,0,0,0,0,0,0,0,0,0,0,0,0,0,0,0,0,0,0,0,0,0,0,0,0,0,0,0,0,0,0,0,0,0,0,0,0,0,0,0,0,0,0,0,0,0,0,0,0,0,0,0,0,0,0,0,0,0,0,0,0,0,0,0,0,0,0,0,0,0,0,0,0,0,0,0,0,0,0,0,0,0,0,0,0,0,0,0,0,0],"trees":[{"base_weights":[-5.870931E-1,9.25483E-1,-1.2658123E0,-7.284768E-1,1.5538657E0,-1.4983116E0,1.2571429E-1,-1.5343915E0,5.982906E-1,1.6985195E0,-7.2E-1,-1.6388888E0,-1.8536586E-1,6.814815E-1,-1.6666666E0,-1.7660819E0,5.4545456E-1,-1.2E0,1.3023256E0,1.7617729E0,-4E-1,-1.4594594E0,1.0588236E0,-1.7174639E0,2.5641027E-1,-1.03125E0,1.1604939E0,1.357513E0,-9.62963E-1,-1.8974359E0,8E-1,-1.8554217E0,6.666667E-1,1.4666667E0,-9.0909094E-1,-1.7241379E0,8E-1,-1.1111112E0,1.5061729E0,-0E0,1.8434782E0,8.5714287E-1,-1.4666667E0,-1.75E0,2.2222222E-1,-0E0,1.3846154E0,-1.749577E0,4.827586E-1,1.2340425E0,-1.0857143E0,-1.4174757E0,4.827586E-1,-1.1111112E0,1.3684211E0,1.5801105E0,-1.5E0,4.7619048E-1,-1.375E0,-1.9254658E0,2.2222222E-1,1.68E0,-4E-1,8.8E-1,-1.4666667E0,1.8768328E0,-6.666667E-1,-0E0,1.2E0,-1.7746158E0,8E-1,-1.0769231E0,1.4E0,-1.1111112E0,1.6190476E0,1.1111112E0,-1.6E0,-0E0,-1.8481013E0,-8.5714287E-1,1.3684211E0,3.448276E-1,1.8431373E0,1.68E0,-8E-1,-6.666667E-1,1.3846154E0,-1.5932204E0,6.666667E-1],"categories":[],"categories_nodes":[],"categories_segments":[],"categories_sizes":[],"default_left":[1,1,1,1,1,1,1,1,1,1,1,1,1,1,1,1,1,1,1,1,1,1,1,1,1,1,1,1,1,0,0,1,0,0,0,0,0,0,1,1,1,1,0,0,0,0,0,1,1,1,1,1,1,0,1,1,0,1,1,0,0,0,0,0,0,0,0,0,0,0,0,0,0,0,0,0,0,0,0,0,0,0,0,0,0,0,0,0,0],"id":0,"left_children":[1,3,5,7,9,11,13,15,17,19,21,23,25,27,29,31,33,35,37,39,41,43,45,47,49,51,53,55,57,-1,-1,59,-1,-1,-1,-1,-1,-1,61,63,65,67,-1,-1,-1,-1,-1,69,71,73,75,77,79,-1,81,83,-1,85,87,-1,-1,-1,-1,-1,-1,-1,-1,-1,-1,-1,-1,-1,-1,-1,-1,-1,-1,-1,-1,-1,-1,-1,-1,-1,-1,-1,-1,-1,-1],"loss_changes":[8.999724E2,2.8356708E2,1.9584247E2,8.164725E1,6.610309E1,9.534985E1,8.829862E1,2.373217E1,3.859503E1,2.536084E1,1.798741E1,7.013635E1,5.954188E1,7.6346725E1,1.3471798E1,1.052829E1,8.70303E0,1.05517235E1,1.2250935E1,2.59823E1,9.638095E0,4.908407E0,1.4660635E0,3.2604614E1,2.6925852E1,1.939627E1,1.1085123E1,3.30608E1,1.2662697E1,0E0,0E0,6.4672394E0,0E0,0E0,0E0,0E0,0E0,0E0,7.381729E0,1.2906667E1,1.5693726E1,1.0285714E0,0E0,0E0,0E0,0E0,0E0,2.9715942E1,1.1879576E1,1.24079685E1,1.1663494E1,1.5717831E1,9.77651E0,0E0,8.596844E0,1.2102104E1,0E0,6.3736267E0,8.190678E0,0E0,0E0,0E0,0E0,0E0,0E0,0E0,0E0,0E0,0E0,0E0,0E0,0E0,0E0,0E0,0E0,0E0,0E0,0E0,0E0,0E0,0E0,0E0,0E0,0E0,0E0,0E0,0E0,0E0,0E0],"parents":[2147483647,0,0,1,1,2,2,3,3,4,4,5,5,6,6,7,7,8,8,9,9,10,10,11,11,12,12,13,13,14,14,15,15,16,16,17,17,18,18,19,19,20,20,21,21,22,22,23,23,24,24,25,25,26,26,27,27,28,28,31,31,38,38,39,39,40,40,41,41,47,47,48,48,49,49,50,50,51,51,52,52,54,54,55,55,57,57,58,58],"right_children":[2,4,6,8,10,12,14,16,18,20,22,24,26,28,30,32,34,36,38,40,42,44,46,48,50,52,54,56,58,-1,-1,60,-1,-1,-1,-1,-1,-1,62,64,66,68,-1,-1,-1,-1,-1,70,72,74,76,78,80,-1,82,84,-1,86,88,-1,-1,-1,-1,-1,-1,-1,-1,-1,-1,-1,-1,-1,-1,-1,-1,-1,-1,-1,-1,-1,-1,-1,-1,-1,-1,-1,-1,-1,-1],"split_conditions":[1.6541002E-2,1.1887776E-2,5.821956E-2,1.0671052E-2,7.3730975E-2,-5.8142687E-3,3.7950907E-2,-1.6577845E-2,-3.0452099E-2,3.5643004E-2,7.7696785E-2,6.1027624E-2,5.6359664E-2,3.408221E-2,4.086356E-2,6.574451E-2,1.991085E-2,1.9004187E-2,-7.4791685E-2,-6.2424254E-2,-2.3942664E-2,-2.9648975E-2,-2.2557069E-2,1.2181734E-1,-5.8913127E-2,2.0793844E-2,-2.6202315E-2,7.749325E-2,-8.36998E-4,-5.692308E-1,2.4000001E-1,3.0909296E-2,2.0000002E-1,4.4000003E-1,-2.7272728E-1,-5.172414E-1,2.4000001E-1,-3.3333337E-1,4.573901E-2,-3.1921938E-2,6.706229E-2,-7.693578E-3,-4.4000003E-1,-5.2500004E-1,6.666667E-2,-0E0,4.1538465E-1,7.7189505E-2,7.3515554E-3,-2.2128824E-2,1.3733331E-2,3.675518E-2,1.7592613E-2,-3.3333337E-1,-2.480782E-2,3.320075E-2,-4.5000002E-1,-2.6317941E-2,6.5416455E-2,-5.7763976E-1,6.666667E-2,5.04E-1,-1.20000005E-1,2.64E-1,-4.4000003E-1,5.6304985E-1,-2.0000002E-1,-0E0,3.6E-1,-5.3238475E-1,2.4000001E-1,-3.2307696E-1,4.2000002E-1,-3.3333337E-1,4.8571432E-1,3.3333337E-1,-4.8000002E-1,-0E0,-5.544304E-1,-2.5714287E-1,4.1052634E-1,1.0344828E-1,5.529412E-1,5.04E-1,-2.4000001E-1,-2.0000002E-1,4.1538465E-1,-4.7796613E-1,2.0000002E-1],"split_indices":[102,92,92,57,53,107,136,96,216,123,303,226,80,24,124,367,287,214,231,231,186,29,9,33,186,255,6,102,147,0,0,321,0,0,0,0,0,0,136,55,130,0,0,0,0,0,0,358,255,127,201,160,226,0,169,332,0,283,216,0,0,0,0,0,0,0,0,0,0,0,0,0,0,0,0,0,0,0,0,0,0,0,0,0,0,0,0,0,0],"split_type":[0,0,0,0,0,0,0,0,0,0,0,0,0,0,0,0,0,0,0,0,0,0,0,0,0,0,0,0,0,0,0,0,0,0,0,0,0,0,0,0,0,0,0,0,0,0,0,0,0,0,0,0,0,0,0,0,0,0,0,0,0,0,0,0,0,0,0,0,0,0,0,0,0,0,0,0,0,0,0,0,0,0,0,0,0,0,0,0,0],"sum_hessian":[8.745E2,2.7075E2,6.0375E2,7.45E1,1.9625E2,5.1725E2,8.65E1,4.625E1,2.825E1,1.8475E2,1.15E1,4.67E2,5.025E1,6.65E1,2E1,4.175E1,4.5E0,7.75E0,2.05E1,1.795E2,5.25E0,8.25E0,3.25E0,4.485E2,1.85E1,3.1E1,1.925E1,4.725E1,1.925E1,1.85E1,1.5E0,4.05E1,1.25E0,2.75E0,1.75E0,6.25E0,1.5E0,1.25E0,1.925E1,8E0,1.715E2,2.5E0,2.75E0,7E0,1.25E0,1E0,2.25E0,4.4225E2,6.25E0,1.075E1,7.75E0,2.475E1,6.25E0,1.25E0,1.8E1,4.425E1,3E0,4.25E0,1.5E1,3.925E1,1.25E0,1.775E1,1.5E0,5.25E0,2.75E0,1.695E2,2E0,1E0,1.5E0,4.3825E2,4E0,2.25E0,4E0,1.25E0,9.5E0,1.25E0,6.5E0,6E0,1.875E1,2.5E0,3.75E0,6.25E0,1.175E1,4.275E1,1.5E0,2E0,2.25E0,1.375E1,1.25E0],"tree_param":{"num_deleted":"0","num_feature":"384","num_nodes":"89","size_leaf_vector":"0"}},{"base_weights":[-4.4525316E-1,7.014541E-1,-9.5719916E-1,-5.5672836E-1,1.1822138E0,8.9385554E-2,-1.1648796E0,5.6491107E-1,-1.1328331E0,1.3361672E0,-1.4021839E-1,5.8523774E-1,-9.3617404E-1,-1.3782936E0,-6.006056E-1,1.1776373E0,-6.355046E-1,-1.3156866E0,2.870428E-1,-6.1809E-1,1.3948038E0,1.1688805E0,-9.2855704E-1,-1.4100695E-1,1.250462E0,-1.2948371E0,7.267448E-1,-1.4064821E0,3.816604E-1,3.321576E-1,-1.1685078E0,-7.3546606E-1,1.4066172E0,-1.2376534E0,8.875304E-1,9.1450304E-1,-1.403595E0,-7.1812123E-1,1.0917569E0,-1.352801E0,6.788689E-1,1.4444957E0,-1.4765532E-1,2.7566576E-2,1.3596727E0,-1.4165877E0,1.0978335E0,2.972697E-1,-1.1696277E0,1.5176017E0,-3.3196726E-1,-1.5155971E0,8.116331E-1,1.3103082E0,-9.6278805E-1,1.984229E-1,-1.4346294E0,-1.0527958E0,1.2526302E0,1.1677889E0,-4.9999666E-1,-1.3300952E0,2.8277087E-1,1.5336822E0,1.082287E-1,-1.4312451E0,-1.5676498E-1,-1.4904411E0,-1.6668238E-1,-9.5814437E-1,-1.4330521E-1,-4.8299704E-2,1.4891642E0,1.0684159E0,-1.0944012E0,-1.6894525E0,2.528311E-1,8.4809864E-1,-8.180166E-1,-1.4211411E0,3.46294E-1,-1.2586947E-1,1.6200157E0,9.0910006E-1,-1.0615426E0,-1.4922274E0,-8.2808423E-1,-8.5672665E-1,1.3877108E0,9.898751E-1,-1.0772103E0,-1.4045632E0,9.859459E-1,1.1155376E0,-1.0170484E0],"categories":[],"categories_nodes":[],"categories_segments":[],"categories_sizes":[],"default_left":[1,1,1,1,1,1,1,1,1,1,1,1,1,1,1,1,1,1,1,1,1,1,1,1,1,1,1,1,1,1,1,0,1,1,0,0,1,1,0,0,0,1,1,0,0,1,0,1,1,1,1,0,0,0,0,0,1,0,0,1,1,1,1,0,0,0,0,0,0,0,0,0,0,0,0,0,0,0,0,0,0,0,0,0,0,0,0,0,0,0,0,0,0,0,0],"id":1,"left_children":[1,3,5,7,9,11,13,15,17,19,21,23,25,27,29,31,33,35,37,39,41,43,45,47,49,51,53,55,57,59,61,-1,63,65,-1,-1,67,69,-1,-1,-1,71,73,-1,-1,75,-1,77,79,81,83,-1,-1,-1,-1,-1,85,-1,-1,87,89,91,93,-1,-1,-1,-1,-1,-1,-1,-1,-1,-1,-1,-1,-1,-1,-1,-1,-1,-1,-1,-1,-1,-1,-1,-1,-1,-1,-1,-1,-1,-1,-1,-1],"loss_changes":[4.8116827E2,1.5381802E2,1.2318915E2,4.6313866E1,3.75513E1,4.8702183E1,5.6083557E1,1.8880903E1,1.2588108E1,1.9710083E1,2.1769278E1,3.131167E1,1.9577528E1,1.7509949E1,7.0025604E1,8.337879E0,9.334367E0,9.487167E0,5.788118E0,6.144335E0,1.2476654E1,1.6992722E0,1.4477197E1,1.4642784E1,1.476582E1,1.334988E1,7.358899E0,1.5505981E1,9.039768E0,3.5719788E1,1.9590149E1,0E0,2.3471737E0,1.2097445E0,0E0,0E0,4.118393E0,3.25428E-1,0E0,0E0,0E0,1.0413818E1,7.9629607E0,0E0,0E0,5.422905E0,0E0,1.4843318E1,4.1815834E0,5.0925217E0,6.120153E0,0E0,0E0,0E0,0E0,0E0,1.033728E1,0E0,0E0,1.2547352E1,2.3440168E1,1.4130417E1,1.0912604E1,0E0,0E0,0E0,0E0,0E0,0E0,0E0,0E0,0E0,0E0,0E0,0E0,0E0,0E0,0E0,0E0,0E0,0E0,0E0,0E0,0E0,0E0,0E0,0E0,0E0,0E0,0E0,0E0,0E0,0E0,0E0,0E0],"parents":[2147483647,0,0,1,1,2,2,3,3,4,4,5,5,6,6,7,7,8,8,9,9,10,10,11,11,12,12,13,13,14,14,15,15,16,16,17,17,18,18,19,19,20,20,21,21,22,22,23,23,24,24,25,25,26,26,27,27,28,28,29,29,30,30,32,32,33,33,36,36,37,37,41,41,42,42,45,45,47,47,48,48,49,49,50,50,56,56,59,59,60,60,61,61,62,62],"right_children":[2,4,6,8,10,12,14,16,18,20,22,24,26,28,30,32,34,36,38,40,42,44,46,48,50,52,54,56,58,60,62,-1,64,66,-1,-1,68,70,-1,-1,-1,72,74,-1,-1,76,-1,78,80,82,84,-1,-1,-1,-1,-1,86,-1,-1,88,90,92,94,-1,-1,-1,-1,-1,-1,-1,-1,-1,-1,-1,-1,-1,-1,-1,-1,-1,-1,-1,-1,-1,-1,-1,-1,-1,-1,-1,-1,-1,-1,-1,-1],"split_conditions":[1.6541002E-2,1.1887776E-2,7.607498E-3,2.7706748E-2,3.073834E-2,6.677884E-2,2.936494E-2,1.02550555E-2,3.765068E-3,-7.969308E-2,5.932455E-3,6.718468E-2,4.317223E-2,1.21489346E-1,-2.641367E-3,-1.0895273E-2,-1.794511E-3,-1.7959591E-2,5.5458076E-2,-2.2282083E-2,2.0683143E-2,-4.888059E-2,6.116274E-2,1.7315757E-2,-3.1718105E-2,2.2191592E-2,2.490526E-2,-1.4646009E-1,2.936446E-4,1.0160614E-2,9.012005E-2,-2.2063982E-1,-1.7259695E-2,1.5358322E-3,2.6625913E-1,2.743509E-1,7.923011E-2,-2.1164706E-2,3.275271E-1,-4.058403E-1,2.0366068E-1,-2.521205E-2,3.4961805E-2,8.269973E-3,4.0790182E-1,-1.3671458E-2,3.2935005E-1,3.20648E-2,5.0012223E-2,-8.1533484E-2,2.22869E-2,-4.5467916E-1,2.4348994E-1,3.9309248E-1,-2.8883642E-1,5.9526872E-2,4.1481988E-3,-3.1583875E-1,3.7578908E-1,-1.5352454E-2,4.9123038E-2,3.3178184E-2,6.703892E-2,4.6010467E-1,3.246861E-2,-4.2937353E-1,-4.70295E-2,-4.4713235E-1,-5.0004717E-2,-2.874433E-1,-4.2991564E-2,-1.44899115E-2,4.467493E-1,3.2052478E-1,-3.2832038E-1,-5.0683576E-1,7.584933E-2,2.544296E-1,-2.4540499E-1,-4.2634237E-1,1.038882E-1,-3.7760843E-2,4.8600474E-1,2.7273002E-1,-3.184628E-1,-4.4766825E-1,-2.4842528E-1,-2.57018E-1,4.1631326E-1,2.9696253E-1,-3.231631E-1,-4.21369E-1,2.957838E-1,3.346613E-1,-3.051145E-1],"split_indices":[102,92,53,53,136,102,191,174,179,344,300,303,191,303,329,290,142,233,111,9,43,58,75,136,113,124,27,190,90,300,33,0,251,219,0,0,67,6,0,0,0,57,140,0,0,325,0,372,22,15,213,0,0,0,0,0,9,0,0,257,196,308,102,0,0,0,0,0,0,0,0,0,0,0,0,0,0,0,0,0,0,0,0,0,0,0,0,0,0,0,0,0,0,0,0],"split_type":[0,0,0,0,0,0,0,0,0,0,0,0,0,0,0,0,0,0,0,0,0,0,0,0,0,0,0,0,0,0,0,0,0,0,0,0,0,0,0,0,0,0,0,0,0,0,0,0,0,0,0,0,0,0,0,0,0,0,0,0,0,0,0,0,0,0,0,0,0,0,0,0,0,0,0,0,0,0,0,0,0,0,0,0,0,0,0,0,0,0,0,0,0,0,0],"sum_hessian":[8.174908E2,2.5220558E2,5.652852E2,6.968277E1,1.8252283E2,9.3693886E1,4.715913E2,2.3652426E1,4.6030342E1,1.6348053E2,1.9042288E1,6.3446983E1,3.0246904E1,3.4112997E2,1.3046133E2,1.5671978E1,7.9804487E0,4.0843803E1,5.1865396E0,4.4843273E0,1.589962E2,6.9757643E0,1.2066524E1,3.0709051E1,3.273793E1,2.5062664E1,5.1842403E0,3.3595004E2,5.179928E0,4.9528046E1,8.093329E1,1.4388237E0,1.4233154E1,5.8535566E0,2.1268916E0,1.1923206E0,3.965148E1,2.3539014E0,2.8326385E0,2.8351784E0,1.6491492E0,1.5409538E2,4.900828E0,1.1630307E0,5.8127337E0,9.967022E0,2.0995016E0,2.2032433E1,8.676619E0,2.8044527E1,4.693403E0,2.2939127E1,2.1235368E0,4.0201416E0,1.1640989E0,5.686177E0,3.302639E2,1.878063E0,3.301865E0,2.4511148E1,2.5016897E1,7.29E1,8.033287E0,1.2799344E1,1.4338106E0,4.6895084E0,1.1640484E0,3.6858597E1,2.7928858E0,1.1900898E0,1.1638116E0,4.4746404E0,1.4962074E2,2.0890203E0,2.8118076E0,8.556475E0,1.4105474E0,1.4908728E1,7.1237054E0,7.4955254E0,1.1810937E0,1.631664E0,2.6412865E1,1.6465018E0,3.046901E0,3.0028806E2,2.9975815E1,2.118007E0,2.2393143E1,6.7860928E0,1.8230804E1,7.1010345E1,1.8896555E0,4.982731E0,3.050556E0],"tree_param":{"num_deleted":"0","num_feature":"384","num_nodes":"95","size_leaf_vector":"0"}},{"base_weights":[-3.6550787E-1,4.9926567E-1,-8.347848E-1,-5.6819886E-1,9.616061E-1,-1.0968558E0,-2.5966647E-1,2.898436E-1,-1.020905E0,1.1262167E0,-8.829925E-2,3.1476113E-1,-1.1608102E0,-9.419023E-1,3.4416333E-1,-6.171639E-1,8.444828E-1,3.8553852E-1,-1.1543416E0,3.5804302E-1,1.2657351E0,5.2872807E-1,-1.1500342E0,-4.024133E-1,1.3838129E0,-3.0922693E-1,-1.2147985E0,3.012216E-1,-1.1362668E0,-3.651635E-2,1.152328E0,-1.1595666E0,6.0784024E-1,-1.0242552E0,1.0702045E0,1.1615732E0,-5.145651E-1,1.5177052E-1,-1.246234E0,-1.0962132E0,8.424687E-1,1.2925502E0,-5.9420377E-1,-3.7293127E-1,1.1670092E0,-4.909815E-2,-1.4896855E0,7.6488924E-1,-1.1942155E0,1.1059508E0,-8.216252E-1,-3.7006778E-1,-1.2664472E0,1.1978747E0,-1.1759317E0,-1.2613376E0,1.9686697E-2,1.9272797E-1,-1.1963485E0,1.3434429E0,-5.029079E-1,-1.2842021E0,-1.5260057E-1,-2.7229905E-1,1.0065004E0,-1.2072022E-1,1.2260151E0,-4.2728666E-2,-7.327322E-1,-7.968692E-1,9.7200394E-1,1.2673436E-1,-1.2965618E0,-1.386696E0,2.51131E-1,1.1960286E0,-4.3797076E-1,-6.656815E-1,1.3146923E0,-9.8952484E-1,9.6530527E-1,1.3271607E0,-1.2698692E-1,7.5072926E-1,-7.718319E-1,1.2017905E0,-3.496881E-1,-2.6897886E-1,1.5960953E0,6.1612463E-1,-1.1194566E0,-8.68273E-1,1.2191015E0,2.820477E-1,-1.2858131E0,1.1762462E-1,1.365521E0,-1.3195257E0,6.2660754E-1,1.1080896E0,-6.700911E-1,-4.6152487E-1,7.871754E-1,-2.615627E-1,-1.283738E0,1.4660168E0,-4.9406138E-1,6.268411E-2,-8.00756E-1],"categories":[],"categories_nodes":[],"categories_segments":[],"categories_sizes":[],"default_left":[1,1,1,1,1,1,1,1,1,1,1,1,1,1,1,1,1,1,1,1,1,1,1,1,0,1,1,1,1,1,1,1,1,0,1,0,1,1,1,1,1,1,0,1,1,1,0,1,0,1,1,1,1,1,0,1,1,1,1,1,1,0,0,0,0,0,0,0,0,0,0,0,0,0,0,0,0,0,0,0,0,0,0,0,0,0,0,0,0,0,0,0,0,0,0,0,0,0,0,0,0,0,0,0,0,0,0,0,0],"id":2,"left_children":[1,3,5,7,9,11,13,15,17,19,21,23,25,27,29,31,33,35,37,39,41,43,45,47,-1,49,51,53,55,57,59,61,63,-1,65,-1,67,69,71,73,75,77,-1,79,81,83,-1,85,-1,87,89,91,93,95,-1,97,99,101,103,105,107,-1,-1,-1,-1,-1,-1,-1,-1,-1,-1,-1,-1,-1,-1,-1,-1,-1,-1,-1,-1,-1,-1,-1,-1,-1,-1,-1,-1,-1,-1,-1,-1,-1,-1,-1,-1,-1,-1,-1,-1,-1,-1,-1,-1,-1,-1,-1,-1],"loss_changes":[2.920412E2,1.2561209E2,6.9981476E1,3.0289171E1,3.0723267E1,2.9250336E1,6.098341E1,1.4328818E1,9.972584E0,1.5971451E1,1.6949097E1,1.1792086E1,1.3706512E1,1.711132E1,2.429879E1,8.009031E0,8.458629E0,4.194208E0,5.7843857E0,1.8500456E1,7.2168427E0,9.908522E0,3.4728594E0,9.735748E0,0E0,1.5122955E1,1.2083252E1,1.4884671E1,8.732414E0,1.4739141E1,8.671936E0,8.034401E-1,1.6880035E0,0E0,3.1284943E0,0E0,2.8541976E-1,3.8525352E0,3.181343E0,2.9583445E0,9.252694E0,6.4155426E0,0E0,7.2102375E0,2.2160492E0,2.4696445E0,0E0,2.59569E0,0E0,4.228187E0,7.097949E0,1.53014965E1,8.48056E0,1.0756922E0,0E0,6.7989655E0,5.896414E0,1.841807E1,4.1121197E-1,5.8896027E0,6.135414E-1,0E0,0E0,0E0,0E0,0E0,0E0,0E0,0E0,0E0,0E0,0E0,0E0,0E0,0E0,0E0,0E0,0E0,0E0,0E0,0E0,0E0,0E0,0E0,0E0,0E0,0E0,0E0,0E0,0E0,0E0,0E0,0E0,0E0,0E0,0E0,0E0,0E0,0E0,0E0,0E0,0E0,0E0,0E0,0E0,0E0,0E0,0E0,0E0],"parents":[2147483647,0,0,1,1,2,2,3,3,4,4,5,5,6,6,7,7,8,8,9,9,10,10,11,11,12,12,13,13,14,14,15,15,16,16,17,17,18,18,19,19,20,20,21,21,22,22,23,23,25,25,26,26,27,27,28,28,29,29,30,30,31,31,32,32,34,34,36,36,37,37,38,38,39,39,40,40,41,41,43,43,44,44,45,45,47,47,49,49,50,50,51,51,52,52,53,53,55,55,56,56,57,57,58,58,59,59,60,60],"right_children":[2,4,6,8,10,12,14,16,18,20,22,24,26,28,30,32,34,36,38,40,42,44,46,48,-1,50,52,54,56,58,60,62,64,-1,66,-1,68,70,72,74,76,78,-1,80,82,84,-1,86,-1,88,90,92,94,96,-1,98,100,102,104,106,108,-1,-1,-1,-1,-1,-1,-1,-1,-1,-1,-1,-1,-1,-1,-1,-1,-1,-1,-1,-1,-1,-1,-1,-1,-1,-1,-1,-1,-1,-1,-1,-1,-1,-1,-1,-1,-1,-1,-1,-1,-1,-1,-1,-1,-1,-1,-1,-1],"split_conditions":[2.2015143E-2,1.3295716E-2,5.4740034E-2,3.149341E-2,2.7446683E-2,-2.91234E-2,-5.89765E-3,1.9681334E-2,-1.4925781E-1,-1.0295745E-2,1.3181795E-2,1.9185213E-2,-4.2448156E-2,-7.327646E-2,2.2881262E-2,-9.144969E-3,1.677788E-2,1.675393E-2,-8.226192E-2,1.3839008E-2,8.6637124E-2,1.28529165E-2,-1.9751001E-2,1.4815526E-3,4.1514388E-1,-1.2798879E-2,-6.1635777E-2,-3.7389442E-2,5.1570954E-5,3.192044E-2,5.575575E-2,4.506125E-2,8.832044E-3,-3.0727655E-1,-6.1686836E-2,3.4847197E-1,1.15186E-3,-3.1705853E-2,1.4212907E-2,2.1567723E-2,1.6323255E-2,-1.2294823E-1,-1.7826113E-1,-2.4861228E-2,-2.0665796E-2,-6.030907E-2,-4.4690567E-1,1.8683169E-2,-3.5826468E-1,3.5522215E-2,1.8553818E-2,-1.8264059E-2,-5.2074265E-2,2.2584029E-2,-3.527795E-1,4.9207002E-2,2.9460303E-2,-2.1719977E-2,-1.1608691E-1,-2.2250847E-3,4.058921E-3,-3.8526064E-1,-4.5780174E-2,-8.1689715E-2,3.0195013E-1,-3.621607E-2,3.6780453E-1,-1.28186E-2,-2.1981966E-1,-2.3906077E-1,2.9160118E-1,3.802031E-2,-3.8896856E-1,-4.160088E-1,7.53393E-2,3.5880858E-1,-1.3139123E-1,-1.9970445E-1,3.944077E-1,-2.9685748E-1,2.8959158E-1,3.9814824E-1,-3.8096078E-2,2.2521879E-1,-2.3154959E-1,3.6053714E-1,-1.0490644E-1,-8.069366E-2,4.788286E-1,1.848374E-1,-3.35837E-1,-2.6048192E-1,3.6573046E-1,8.461431E-2,-3.8574395E-1,3.5287388E-2,4.0965632E-1,-3.9585772E-1,1.8798228E-1,3.3242688E-1,-2.0102733E-1,-1.3845746E-1,2.3615263E-1,-7.8468814E-2,-3.8512143E-1,4.3980506E-1,-1.4821842E-1,1.8805234E-2,-2.402268E-1],"split_indices":[102,92,33,53,136,300,57,290,69,4,174,169,329,326,124,92,303,128,186,162,53,124,266,324,0,3,364,227,86,128,213,226,312,0,200,0,215,7,285,44,324,68,0,359,269,79,0,54,0,307,32,304,24,290,0,124,24,9,302,49,4,0,0,0,0,0,0,0,0,0,0,0,0,0,0,0,0,0,0,0,0,0,0,0,0,0,0,0,0,0,0,0,0,0,0,0,0,0,0,0,0,0,0,0,0,0,0,0,0],"split_type":[0,0,0,0,0,0,0,0,0,0,0,0,0,0,0,0,0,0,0,0,0,0,0,0,0,0,0,0,0,0,0,0,0,0,0,0,0,0,0,0,0,0,0,0,0,0,0,0,0,0,0,0,0,0,0,0,0,0,0,0,0,0,0,0,0,0,0,0,0,0,0,0,0,0,0,0,0,0,0,0,0,0,0,0,0,0,0,0,0,0,0,0,0,0,0,0,0,0,0,0,0,0,0,0,0,0,0,0,0],"sum_hessian":[7.1760834E2,2.5240952E2,4.6519882E2,7.621446E1,1.7619505E2,3.1895132E2,1.4624748E2,2.644719E1,4.976727E1,1.5225145E2,2.3943604E1,1.3654063E1,3.0529727E2,6.8402824E1,7.7844666E1,9.992923E0,1.6454266E1,4.1488094E0,4.561846E1,2.395025E1,1.2830121E2,1.5460657E1,8.482947E0,8.545133E0,5.108931E0,1.8602262E1,2.86695E2,9.17449E0,5.9228336E1,5.356711E1,2.4277554E1,6.9632006E0,3.029722E0,1.3920307E0,1.5062236E1,2.0719583E0,2.0768511E0,2.955727E0,4.2662735E1,5.6689696E0,1.8281282E1,1.2677847E2,1.5227267E0,6.580511E0,8.880146E0,2.2699032E0,6.213044E0,3.4673836E0,5.077749E0,4.637023E0,1.396524E1,1.6989643E1,2.6970535E2,5.8266788E0,3.3478112E0,5.33634E1,5.8649364E0,4.542296E1,8.144153E0,2.1933466E1,2.3440883E0,5.951274E0,1.0119264E0,1.0433149E0,1.9864072E0,1.768682E0,1.3293553E1,1.0347719E0,1.0420792E0,1.3837909E0,1.5719364E0,1.45487E0,4.1207863E1,4.6395025E0,1.0294675E0,1.4377292E1,3.9039898E0,1.0925201E0,1.2568595E2,4.6832676E0,1.8972435E0,7.8793306E0,1.0008155E0,1.059097E0,1.210806E0,2.4347444E0,1.032639E0,1.3372E0,3.299823E0,2.2130888E0,1.17521515E1,1.3279991E1,3.7096517E0,3.163794E0,2.6654156E2,1.0113758E0,4.8153033E0,5.2059944E1,1.303453E0,2.0398326E0,3.8251038E0,2.173018E1,2.3692776E1,1.0376549E0,7.106498E0,2.0751379E1,1.1820866E0,1.0809624E0,1.2631259E0],"tree_param":{"num_deleted":"0","num_feature":"384","num_nodes":"109","size_leaf_vector":"0"}},{"base_weights":[-3.1192243E-1,-7.0090425E-1,4.8660627E-1,-1.6350353E-2,-9.345353E-1,8.1887156E-1,-6.462889E-1,-5.406389E-1,6.869893E-1,-1.0388017E0,1.0750432E-1,1.8137617E-1,1.1080047E0,-3.3818774E-2,-1.092986E0,6.9028723E-1,-8.14454E-1,8.64043E-1,-8.471695E-1,3.0886343E-1,-1.0830802E0,-5.7193935E-1,9.2832744E-1,7.5462055E-1,-2.644331E-1,-1.0980624E0,1.1426371E0,7.469488E-1,-8.4177405E-1,-1.1809658E0,1.6270116E-1,1.0345272E0,-3.9215627E-1,-1.0088768E0,1.2955232E-1,-7.755713E-1,1.0360594E0,-1.095724E0,7.912875E-2,1.0180575E0,-8.282132E-1,-1.8963203E-1,-1.1307364E0,-9.007817E-1,7.8615624E-1,1.3178382E0,-1.1348896E-1,-6.366475E-1,1.039418E0,-6.5701944E-1,6.760542E-1,1.2230586E0,1.5571988E-1,1.0324123E0,-5.4537565E-1,-1.1475004E0,5.8746E-1,-1.5005869E-1,-1.2324071E0,-3.1662628E-1,1.4033003E0,-9.297183E-1,4.3849602E-1,-1.1137419E0,-6.280035E-2,-9.802551E-1,9.349631E-1,-1.0794884E0,1.04411565E-1,1.1957604E0,-4.6005198E-1,2.1608105E-1,1.1293355E0,-2.0580803E-1,-9.55651E-1,4.768801E-1,-1.0742692E0,-1.1612293E0,2.3215737E-2,-1.0666267E0,5.301553E-1,1.6408953E-1,9.596681E-1,1.4452775E0,1.303342E-1,7.972544E-1,-8.523538E-1,-1.0447196E0,3.0864817E-1,1.2664651E0,-9.328432E-2,-8.3215505E-1,6.738835E-1,1.3071376E0,-1.9385357E-1,1.2553791E0,-5.311245E-1,-7.962146E-1,7.707148E-1,-2.3753546E-1,1.3441933E0,-9.394074E-2,-1.2784493E0],"categories":[],"categories_nodes":[],"categories_segments":[],"categories_sizes":[],"default_left":[1,1,1,1,1,1,1,1,1,1,1,1,1,1,1,1,1,1,1,1,1,1,1,1,1,0,1,1,1,1,0,1,1,1,1,1,1,0,0,1,1,1,1,1,1,1,1,1,1,1,1,1,1,1,0,1,0,0,0,0,0,0,0,0,0,0,0,0,0,0,0,0,0,0,0,0,0,0,0,0,0,0,0,0,0,0,0,0,0,0,0,0,0,0,0,0,0,0,0,0,0,0,0],"id":3,"left_children":[1,3,5,7,9,11,13,15,17,19,21,23,25,27,29,31,33,35,37,39,41,43,45,47,49,-1,51,53,55,57,-1,59,61,63,65,67,69,-1,-1,71,73,75,77,79,81,83,85,87,89,91,93,95,97,99,-1,101,-1,-1,-1,-1,-1,-1,-1,-1,-1,-1,-1,-1,-1,-1,-1,-1,-1,-1,-1,-1,-1,-1,-1,-1,-1,-1,-1,-1,-1,-1,-1,-1,-1,-1,-1,-1,-1,-1,-1,-1,-1,-1,-1,-1,-1,-1,-1],"loss_changes":[1.9079611E2,6.599251E1,7.6354416E1,3.9471867E1,3.354181E1,2.8589355E1,1.2613834E1,2.1226292E1,1.3152178E1,1.7030579E1,1.6644663E1,1.2960386E1,9.449768E0,1.3581782E1,3.1425781E0,4.764466E0,9.4198E0,1.2505114E1,1.292203E0,8.648009E0,1.1329224E1,8.044291E0,5.6141834E0,9.420005E0,1.1088609E1,0E0,8.23027E0,4.610845E0,5.288868E0,1.1450462E0,0E0,5.0034866E0,1.9917815E0,4.1050262E0,9.434685E0,1.319226E0,9.624123E0,0E0,0E0,3.2796E-1,1.4193964E-1,9.31559E0,9.07663E0,3.814437E0,2.4578786E-1,1.3069706E0,3.7650936E0,2.010515E0,4.9345303E0,5.4198084E0,5.184924E0,6.2204437E0,5.9644923E0,4.014556E0,0E0,1.1269102E0,0E0,0E0,0E0,0E0,0E0,0E0,0E0,0E0,0E0,0E0,0E0,0E0,0E0,0E0,0E0,0E0,0E0,0E0,0E0,0E0,0E0,0E0,0E0,0E0,0E0,0E0,0E0,0E0,0E0,0E0,0E0,0E0,0E0,0E0,0E0,0E0,0E0,0E0,0E0,0E0,0E0,0E0,0E0,0E0,0E0,0E0,0E0],"parents":[2147483647,0,0,1,1,2,2,3,3,4,4,5,5,6,6,7,7,8,8,9,9,10,10,11,11,12,12,13,13,14,14,15,15,16,16,17,17,18,18,19,19,20,20,21,21,22,22,23,23,24,24,26,26,27,27,28,28,29,29,31,31,32,32,33,33,34,34,35,35,36,36,39,39,40,40,41,41,42,42,43,43,44,44,45,45,46,46,47,47,48,48,49,49,50,50,51,51,52,52,53,53,55,55],"right_children":[2,4,6,8,10,12,14,16,18,20,22,24,26,28,30,32,34,36,38,40,42,44,46,48,50,-1,52,54,56,58,-1,60,62,64,66,68,70,-1,-1,72,74,76,78,80,82,84,86,88,90,92,94,96,98,100,-1,102,-1,-1,-1,-1,-1,-1,-1,-1,-1,-1,-1,-1,-1,-1,-1,-1,-1,-1,-1,-1,-1,-1,-1,-1,-1,-1,-1,-1,-1,-1,-1,-1,-1,-1,-1,-1,-1,-1,-1,-1,-1,-1,-1,-1,-1,-1,-1],"split_conditions":[1.8328289E-2,-1.3239592E-2,1.1572343E-2,3.8283207E-2,9.765108E-2,1.4203961E-2,4.5126593E-3,5.5190865E-3,4.6389833E-2,-8.926018E-2,1.3581759E-2,2.4648424E-2,-8.5177064E-2,9.705521E-3,1.2546424E-2,-4.825718E-2,7.902523E-2,1.4524097E-2,-2.7860306E-2,-5.6348808E-2,-3.9254483E-3,6.127003E-2,-5.821538E-2,-4.371567E-2,6.1086975E-2,-3.2941872E-1,5.2469153E-2,1.1129722E-1,5.2652717E-2,-1.0056637E-1,4.881035E-2,-1.0635043E-3,-2.084576E-2,7.917132E-3,-4.654547E-2,-1.16762575E-2,7.214074E-2,-3.287172E-1,2.3738626E-2,3.593227E-2,1.4197547E-2,-3.3623207E-2,9.0977535E-2,8.679213E-3,-6.386723E-2,3.2730658E-2,-4.6261124E-2,-4.728665E-3,2.2055514E-2,4.9433075E-2,9.02635E-3,5.351791E-2,-2.6891092E-2,-4.9533937E-2,-1.636127E-1,-3.5432335E-2,1.76238E-1,-4.5017608E-2,-3.6972213E-1,-9.498789E-2,4.209901E-1,-2.789155E-1,1.315488E-1,-3.3412257E-1,-1.8840104E-2,-2.9407656E-1,2.8048894E-1,-3.2384652E-1,3.132347E-2,3.587281E-1,-1.380156E-1,6.482432E-2,3.3880067E-1,-6.174241E-2,-2.866953E-1,1.4306404E-1,-3.2228076E-1,-3.483688E-1,6.9647213E-3,-3.19988E-1,1.5904659E-1,4.922686E-2,2.8790045E-1,4.3358326E-1,3.910026E-2,2.3917632E-1,-2.5570616E-1,-3.1341588E-1,9.259445E-2,3.7993953E-1,-2.7985295E-2,-2.4964653E-1,2.0216505E-1,3.921413E-1,-5.8156073E-2,3.7661374E-1,-1.5933734E-1,-2.3886438E-1,2.3121445E-1,-7.126064E-2,4.0325803E-1,-2.8182223E-2,-3.8353482E-1],"split_indices":[57,335,13,290,303,4,335,24,300,266,236,201,142,324,26,261,303,247,338,299,188,92,378,9,80,0,53,212,1,113,0,115,325,308,142,58,361,0,0,92,24,314,80,66,251,164,202,231,175,115,300,159,289,323,0,95,0,0,0,0,0,0,0,0,0,0,0,0,0,0,0,0,0,0,0,0,0,0,0,0,0,0,0,0,0,0,0,0,0,0,0,0,0,0,0,0,0,0,0,0,0,0,0],"split_type":[0,0,0,0,0,0,0,0,0,0,0,0,0,0,0,0,0,0,0,0,0,0,0,0,0,0,0,0,0,0,0,0,0,0,0,0,0,0,0,0,0,0,0,0,0,0,0,0,0,0,0,0,0,0,0,0,0,0,0,0,0,0,0,0,0,0,0,0,0,0,0,0,0,0,0,0,0,0,0,0,0,0,0,0,0,0,0,0,0,0,0,0,0,0,0,0,0,0,0,0,0,0,0],"sum_hessian":[6.121583E2,4.1172147E2,2.0043683E2,1.0503428E2,3.066872E2,1.5519661E2,4.5240215E1,6.030936E1,4.4724915E1,2.787942E2,2.7893002E1,4.893331E1,1.06263306E2,1.953345E1,2.5706766E1,1.0697616E1,4.9611744E1,4.048897E1,4.235941E0,8.678527E0,2.7011566E2,1.542666E1,1.2466343E1,2.1104004E1,2.7829308E1,1.167815E0,1.0509549E2,9.972262E0,9.561188E0,2.4079163E1,1.6276028E0,8.150007E0,2.5476084E0,4.108199E1,8.5297575E0,3.5113187E0,3.6977654E1,3.1955657E0,1.0403751E0,5.4093747E0,3.2691524E0,1.3930415E1,2.5618524E2,1.2690563E1,2.7360966E0,8.881001E0,3.5853415E0,3.3760715E0,1.7727934E1,1.9846298E1,7.983008E0,9.695555E1,8.139937E0,8.332748E0,1.6395134E0,8.038748E0,1.5224398E0,1.3305905E0,2.2748573E1,1.7777795E0,6.3722277E0,1.4742652E0,1.0733433E0,3.6823208E1,4.258781E0,3.4957447E0,5.0340123E0,2.4414182E0,1.0699006E0,3.35926E1,3.385054E0,1.0175737E0,4.391801E0,1.0000217E0,2.2691307E0,8.2075405E0,5.7228746E0,2.4958376E2,6.601496E0,1.1600648E1,1.0899147E0,1.0210766E0,1.71502E0,7.824255E0,1.0567464E0,1.57049E0,2.0148513E0,2.2846427E0,1.0914288E0,1.46694E1,3.0585327E0,1.7869558E1,1.97674E0,4.335303E0,3.6477056E0,9.548069E1,1.474863E0,3.0791438E0,5.060794E0,1.6894419E0,6.6433067E0,1.078553E0,6.960195E0],"tree_param":{"num_deleted":"0","num_feature":"384","num_nodes":"103","size_leaf_vector":"0"}},{"base_weights":[-2.6908812E-1,3.489423E-1,-6.583117E-1,-4.3603927E-1,7.1258014E-1,6.009032E-2,-8.106979E-1,-8.5948235E-1,1.7299815E-1,-2.7270488E-2,9.439948E-1,-6.342504E-1,5.0403863E-1,-9.986669E-1,-3.8056207E-1,-1.0237994E0,4.3915898E-1,7.636884E-1,-5.11887E-1,-7.2117674E-1,4.6366072E-1,1.0520632E0,-1.0911172E-1,-8.7239325E-1,4.6559554E-1,8.637529E-1,-3.4147394E-1,-1.9874226E-1,-1.0489664E0,3.0837294E-1,-7.56453E-1,-1.1290466E0,2.5970784E-1,-4.986881E-1,9.5930254E-1,-5.157717E-1,9.6494216E-1,2.74452E-1,-9.512076E-1,3.5148257E-1,-1.044798E0,7.868918E-1,-5.403826E-1,1.1165216E0,-1.0711255E-3,-7.8790075E-1,5.8629525E-1,-1.0458881E0,8.4858936E-1,8.8885397E-1,-4.7965106E-1,1.0167254E0,-7.1232337E-1,-8.8886756E-1,8.773121E-1,2.874259E-1,-1.0776275E0,4.035041E-1,-1.065995E0,-3.624634E-1,1.0601999E0,-9.189358E-1,1.7311677E-1,-8.6281955E-2,-1.1624916E0,-4.6264803E-1,8.3347213E-1,1.2155166E0,2.954794E-2,8.540434E-1,-4.405897E-1,-1.2930534E-2,-1.1009527E0,-5.6919223E-1,8.549285E-1,1.8285242E-1,-1.2846311E0,1.0877569E0,-1.367635E-1,6.143256E-1,-1.1993566E0,7.9749376E-2,1.1616228E0,-1.0825857E0,5.8443666E-1,1.1016973E-1,-1.0097008E0,1.0145948E0,-6.546847E-1,-1.1404265E0,1.8324248E-1,-5.06974E-1,1.1555793E0,3.9560837E-1,-1.1553396E0,1.4571127E-1,1.0759594E0,-1.0571434E-1,1.5827519E0,-1.0868771E0,2.0644191E-1,-9.644975E-1,6.0233676E-1,-3.1088287E-1,1.3881892E0,5.4035777E-1,-1.0394228E0,6.9234246E-1,-8.6687934E-1],"categories":[],"categories_nodes":[],"categories_segments":[],"categories_sizes":[],"default_left":[1,1,1,1,1,1,1,1,1,1,1,1,1,1,1,1,1,1,1,1,1,1,1,1,1,1,1,1,1,1,1,1,1,0,0,0,1,1,1,1,1,1,1,1,1,1,1,1,0,0,0,1,0,1,1,1,0,0,1,1,1,1,1,0,0,0,0,0,0,0,0,0,0,0,0,0,0,0,0,0,0,0,0,0,0,0,0,0,0,0,0,0,0,0,0,0,0,0,0,0,0,0,0,0,0,0,0,0,0],"id":4,"left_children":[1,3,5,7,9,11,13,15,17,19,21,23,25,27,29,31,33,35,37,39,41,43,45,47,49,51,53,55,57,59,61,63,65,-1,-1,-1,67,69,71,73,75,77,79,81,83,85,87,89,-1,-1,-1,91,-1,93,95,97,-1,-1,99,101,103,105,107,-1,-1,-1,-1,-1,-1,-1,-1,-1,-1,-1,-1,-1,-1,-1,-1,-1,-1,-1,-1,-1,-1,-1,-1,-1,-1,-1,-1,-1,-1,-1,-1,-1,-1,-1,-1,-1,-1,-1,-1,-1,-1,-1,-1,-1,-1],"loss_changes":[1.2508617E2,5.7749268E1,3.495134E1,1.673752E1,2.3635437E1,1.7804869E1,2.0891815E1,8.582115E0,1.1400225E1,1.1858052E1,1.2072525E1,6.316641E0,1.0987984E1,7.1333923E0,2.137111E1,4.9037933E0,2.9079068E0,4.3634186E0,4.821272E0,5.368602E0,7.0522566E0,6.4762573E0,5.505481E0,6.529955E0,2.2940967E0,6.7390957E0,8.258612E0,5.449481E0,4.670532E0,1.5275006E1,8.179272E0,1.0063324E0,1.7946103E0,0E0,0E0,0E0,3.0862455E0,2.6588285E0,1.2071443E0,2.381247E0,3.5678587E0,4.554573E0,4.9718776E0,4.1103363E0,4.7490387E0,1.273243E0,3.774159E0,2.2558117E0,0E0,0E0,0E0,5.4843082E0,0E0,3.2748184E0,4.2128563E-1,4.5132914E0,0E0,0E0,4.7342834E0,1.0076465E1,6.8067846E0,8.5367775E0,5.3208237E0,0E0,0E0,0E0,0E0,0E0,0E0,0E0,0E0,0E0,0E0,0E0,0E0,0E0,0E0,0E0,0E0,0E0,0E0,0E0,0E0,0E0,0E0,0E0,0E0,0E0,0E0,0E0,0E0,0E0,0E0,0E0,0E0,0E0,0E0,0E0,0E0,0E0,0E0,0E0,0E0,0E0,0E0,0E0,0E0,0E0,0E0],"parents":[2147483647,0,0,1,1,2,2,3,3,4,4,5,5,6,6,7,7,8,8,9,9,10,10,11,11,12,12,13,13,14,14,15,15,16,16,17,17,18,18,19,19,20,20,21,21,22,22,23,23,24,24,25,25,26,26,27,27,28,28,29,29,30,30,31,31,32,32,36,36,37,37,38,38,39,39,40,40,41,41,42,42,43,43,44,44,45,45,46,46,47,47,51,51,53,53,54,54,55,55,58,58,59,59,60,60,61,61,62,62],"right_children":[2,4,6,8,10,12,14,16,18,20,22,24,26,28,30,32,34,36,38,40,42,44,46,48,50,52,54,56,58,60,62,64,66,-1,-1,-1,68,70,72,74,76,78,80,82,84,86,88,90,-1,-1,-1,92,-1,94,96,98,-1,-1,100,102,104,106,108,-1,-1,-1,-1,-1,-1,-1,-1,-1,-1,-1,-1,-1,-1,-1,-1,-1,-1,-1,-1,-1,-1,-1,-1,-1,-1,-1,-1,-1,-1,-1,-1,-1,-1,-1,-1,-1,-1,-1,-1,-1,-1,-1,-1,-1,-1],"split_conditions":[2.604413E-2,1.3295716E-2,7.5998586E-3,8.87507E-3,5.3200137E-2,-3.78984E-2,2.6795782E-2,-1.6577845E-2,1.5411861E-3,-5.4075792E-2,3.942464E-2,1.0312704E-1,-2.2782959E-2,-4.700883E-3,-5.109251E-3,2.0438138E-2,-1.0915003E-2,-8.288197E-2,2.5587673E-3,-1.5785119E-2,-3.0323854E-2,3.9200634E-2,3.3337582E-2,7.5739564E-4,-3.89832E-2,7.322347E-2,2.7645139E-2,6.14437E-2,-8.2282245E-2,1.7488202E-2,6.4967185E-2,-9.940678E-2,2.0304348E-2,-1.4960644E-1,2.8779078E-1,-1.5473151E-1,1.611735E-2,-3.9908765E-3,-4.1124843E-2,2.6050314E-2,-2.8856888E-2,-2.4931036E-2,3.9969504E-2,-2.843606E-2,-5.9998925E-3,-1.038315E-1,4.9086064E-3,9.728495E-2,2.5457683E-1,2.666562E-1,-1.4389533E-1,-5.552234E-2,-2.1369702E-1,-6.065944E-2,-1.8714663E-2,3.593582E-2,-3.2328826E-1,1.2105124E-1,8.444722E-2,-1.8098293E-2,-1.0828409E-1,-4.6305686E-2,1.34046115E-2,-2.5884587E-2,-3.487475E-1,-1.3879442E-1,2.5004166E-1,3.64655E-1,8.864382E-3,2.5621304E-1,-1.3217692E-1,-3.8791604E-3,-3.3028585E-1,-1.7075768E-1,2.5647855E-1,5.4855727E-2,-3.8538936E-1,3.263271E-1,-4.102905E-2,1.8429768E-1,-3.5980698E-1,2.3924815E-2,3.4848684E-1,-3.2477573E-1,1.75331E-1,3.305092E-2,-3.0291024E-1,3.0437845E-1,-1.9640543E-1,-3.4212798E-1,5.497275E-2,-1.520922E-1,3.4667382E-1,1.1868251E-1,-3.466019E-1,4.3713383E-2,3.2278785E-1,-3.1714305E-2,4.748256E-1,-3.2606316E-1,6.1932575E-2,-2.8934926E-1,1.8070103E-1,-9.326486E-2,4.164568E-1,1.6210733E-1,-3.1182683E-1,2.0770274E-1,-2.6006383E-1],"split_indices":[102,92,53,57,303,289,191,96,347,304,136,303,238,188,329,321,308,339,102,178,378,230,1,325,113,24,255,177,62,124,92,299,367,0,0,0,174,77,13,67,13,48,286,226,290,93,141,307,0,0,0,375,0,173,278,40,0,0,290,222,146,174,27,0,0,0,0,0,0,0,0,0,0,0,0,0,0,0,0,0,0,0,0,0,0,0,0,0,0,0,0,0,0,0,0,0,0,0,0,0,0,0,0,0,0,0,0,0,0],"split_type":[0,0,0,0,0,0,0,0,0,0,0,0,0,0,0,0,0,0,0,0,0,0,0,0,0,0,0,0,0,0,0,0,0,0,0,0,0,0,0,0,0,0,0,0,0,0,0,0,0,0,0,0,0,0,0,0,0,0,0,0,0,0,0,0,0,0,0,0,0,0,0,0,0,0,0,0,0,0,0,0,0,0,0,0,0,0,0,0,0,0,0,0,0,0,0,0,0,0,0,0,0,0,0,0,0,0,0,0,0],"sum_hessian":[5.180413E2,2.0022177E2,3.1781955E2,6.332455E1,1.3689722E2,5.5723774E1,2.6209576E2,3.7111183E1,2.6213364E1,3.282746E1,1.04069756E2,2.1565853E1,3.415792E1,1.8147127E2,8.06245E1,3.3130787E1,3.9803991E0,1.4012767E1,1.2200598E1,1.340756E1,1.94199E1,9.438508E1,9.684678E0,1.7897436E1,3.6684172E0,2.394795E1,1.0209972E1,1.102881E1,1.7044246E2,2.8524414E1,5.2100086E1,3.0731182E1,2.3996022E0,1.4347379E0,2.5456612E0,1.692159E0,1.2320607E1,4.5076485E0,7.6929493E0,3.0875673E0,1.0319993E1,1.485418E1,4.5657206E0,8.88846E1,5.5004854E0,4.8335896E0,4.851089E0,1.661475E1,1.2826844E0,2.5750372E0,1.09338E0,2.2152727E1,1.7952225E0,7.232385E0,2.9775877E0,7.5341506E0,3.4946592E0,1.7120979E0,1.6873036E2,1.5347825E1,1.317659E1,4.435803E1,7.742056E0,1.0662733E0,2.966491E1,1.1479818E0,1.2516205E0,9.481282E0,2.8393257E0,2.3822618E0,2.1253867E0,1.2083001E0,6.4846497E0,1.0453305E0,2.0422368E0,1.7254415E0,8.594552E0,1.1070491E1,3.78369E0,1.6835029E0,2.8822176E0,3.8208244E0,8.506377E1,1.6337507E0,3.866735E0,1.0570155E0,3.776574E0,3.7420273E0,1.1090617E0,1.5495112E1,1.1196381E0,1.6287434E0,2.0523985E1,1.1593506E0,6.0730343E0,1.0060202E0,1.9715676E0,6.4844604E0,1.04969E0,1.661495E2,2.580858E0,9.450831E0,5.896993E0,2.5536804E0,1.062291E1,3.1173282E0,4.12407E1,5.3868937E0,2.3551624E0],"tree_param":{"num_deleted":"0","num_feature":"384","num_nodes":"109","size_leaf_vector":"0"}},{"base_weights":[-2.3632401E-1,1.835315E-1,-7.273108E-1,8.528652E-1,-1.5978377E-1,-8.876577E-1,-9.5477484E-2,1.0523945E-1,1.0252151E0,-6.473746E-1,1.7513858E-1,-9.8874384E-1,-2.3797108E-1,-6.175291E-1,4.7946504E-1,-5.5132574E-1,7.125209E-1,-4.590524E-1,1.0720668E0,6.888144E-1,-7.887718E-1,4.7602963E-1,-4.5312408E-1,2.2046047E-1,-1.0187553E0,-9.1231614E-1,4.6913168E-1,-8.8733363E-1,3.2037798E-1,7.6406187E-1,-8.49322E-1,6.5768856E-1,-8.8528687E-1,1.0753511E0,-5.7938105E-1,1.1101743E0,-1.2940115E-2,1.0271863E0,-5.856902E-1,-9.8577034E-1,-5.2658506E-2,2.6904162E-2,8.9058477E-1,3.7430787E-1,-7.5438887E-1,9.260198E-1,-6.7261153E-1,-1.0402542E0,1.3468888E-1,2.748457E-1,-1.0804513E0,-3.1894988E-1,1.001767E0,-1.0206393E0,6.575861E-1,-5.714356E-1,9.212725E-1,-5.888332E-1,1.0781658E0,-1.1011637E0,1.7007135E-1,1.2421749E0,3.8013488E-2,1.1548573E0,1.8686259E-1,4.223297E-1,-1.0344225E0,6.944768E-1,-6.7919934E-1,-4.4787362E-1,6.043114E-1,-5.795407E-1,1.0028378E0,-3.2034707E-1,1.1241353E0,-8.930717E-1,3.894448E-1,-2.7837202E-2,-1.0626988E0,8.552581E-1,-6.357157E-1,-7.297365E-1,5.845218E-1,-6.66563E-2,1.2375369E0,-1.0847601E0,-6.461453E-2,1.0669959E-1,-8.7046856E-1,1.2629304E0,-4.2407218E-1],"categories":[],"categories_nodes":[],"categories_segments":[],"categories_sizes":[],"default_left":[1,1,1,1,1,1,1,1,1,1,1,1,1,1,1,1,1,0,1,1,1,1,1,1,1,1,1,1,1,1,0,0,1,1,0,1,0,0,0,1,1,1,1,1,1,0,0,1,1,0,0,1,1,1,0,0,0,1,1,0,0,0,0,0,0,0,0,0,0,0,0,0,0,0,0,0,0,0,0,0,0,0,0,0,0,0,0,0,0,0,0],"id":5,"left_children":[1,3,5,7,9,11,13,15,17,19,21,23,25,27,29,31,33,-1,35,37,39,41,43,45,47,49,51,53,55,57,-1,-1,59,61,-1,63,-1,-1,-1,65,67,69,71,73,75,-1,-1,77,79,-1,-1,81,83,85,-1,-1,-1,87,89,-1,-1,-1,-1,-1,-1,-1,-1,-1,-1,-1,-1,-1,-1,-1,-1,-1,-1,-1,-1,-1,-1,-1,-1,-1,-1,-1,-1,-1,-1,-1,-1],"loss_changes":[8.965444E1,5.4111736E1,2.021598E1,1.0173458E1,2.5604774E1,1.0252769E1,1.2806125E1,6.797311E0,4.9933777E0,1.2592466E1,1.7857197E1,5.2282104E0,1.1308882E1,5.922655E0,8.362751E0,3.9261718E0,4.7389183E0,0E0,2.6211853E0,3.4637394E0,8.378849E0,1.1815504E1,7.9434195E0,3.244926E0,3.4808044E0,2.6961365E0,5.272444E0,4.289447E0,3.5876675E0,7.99759E0,0E0,0E0,1.7628427E0,1.1997137E0,0E0,2.2975311E0,0E0,0E0,0E0,3.574997E0,6.7118373E0,8.920607E0,6.0329876E0,4.981014E0,3.9743557E0,0E0,0E0,2.9782562E0,2.4036107E0,0E0,0E0,2.4741402E0,1.9169173E0,9.4538116E-1,0E0,0E0,0E0,8.590776E-1,4.536522E0,0E0,0E0,0E0,0E0,0E0,0E0,0E0,0E0,0E0,0E0,0E0,0E0,0E0,0E0,0E0,0E0,0E0,0E0,0E0,0E0,0E0,0E0,0E0,0E0,0E0,0E0,0E0,0E0,0E0,0E0,0E0,0E0],"parents":[2147483647,0,0,1,1,2,2,3,3,4,4,5,5,6,6,7,7,8,8,9,9,10,10,11,11,12,12,13,13,14,14,15,15,16,16,18,18,19,19,20,20,21,21,22,22,23,23,24,24,25,25,26,26,27,27,28,28,29,29,32,32,33,33,35,35,39,39,40,40,41,41,42,42,43,43,44,44,47,47,48,48,51,51,52,52,53,53,57,57,58,58],"right_children":[2,4,6,8,10,12,14,16,18,20,22,24,26,28,30,32,34,-1,36,38,40,42,44,46,48,50,52,54,56,58,-1,-1,60,62,-1,64,-1,-1,-1,66,68,70,72,74,76,-1,-1,78,80,-1,-1,82,84,86,-1,-1,-1,88,90,-1,-1,-1,-1,-1,-1,-1,-1,-1,-1,-1,-1,-1,-1,-1,-1,-1,-1,-1,-1,-1,-1,-1,-1,-1,-1,-1,-1,-1,-1,-1,-1],"split_conditions":[5.22446E-3,4.034365E-3,-3.1601764E-2,-3.9191907E-3,4.1068535E-2,4.7429267E-2,1.122382E-2,2.5168093E-2,-1.048144E-1,-5.3736072E-2,-3.5268165E-2,-3.9863292E-2,-3.52368E-2,6.699304E-2,1.211177E-2,-2.3716297E-3,4.3238163E-2,-1.3771573E-1,-1.9385215E-2,6.37007E-2,-3.1137466E-2,1.18919695E-2,4.0710874E-2,-2.3394173E-2,7.3651336E-3,-2.0565737E-2,-5.482716E-2,5.6950815E-2,-3.199624E-2,6.059894E-3,-2.5479662E-1,1.9730657E-1,3.1102324E-2,-9.218306E-3,-1.7381433E-1,7.244775E-2,-3.8820347E-3,3.081559E-1,-1.7570707E-1,-5.628778E-2,-8.118277E-2,2.9241797E-2,8.0581065E-3,-7.7178692E-3,9.205459E-2,2.7780595E-1,-2.0178346E-1,-1.06441185E-1,1.4316147E-2,8.245371E-2,-3.241354E-1,-7.911626E-3,-1.0933828E-1,9.962183E-2,1.9727583E-1,-1.7143068E-1,2.7638176E-1,5.341927E-2,-3.5356132E-3,-3.3034915E-1,5.102141E-2,3.7265247E-1,1.1404047E-2,3.4645718E-1,5.605878E-2,1.2669891E-1,-3.1032676E-1,2.0834304E-1,-2.037598E-1,-1.3436209E-1,1.8129343E-1,-1.7386222E-1,3.0085135E-1,-9.610412E-2,3.3724058E-1,-2.6792154E-1,1.1683344E-1,-8.351161E-3,-3.1880966E-1,2.5657743E-1,-1.9071473E-1,-2.1892096E-1,1.7535654E-1,-1.999689E-2,3.712611E-1,-3.2542804E-1,-1.9384358E-2,3.200988E-2,-2.6114058E-1,3.7887913E-1,-1.2722166E-1],"split_indices":[335,24,325,191,33,191,191,60,281,136,378,213,179,279,314,102,356,0,218,160,46,57,286,48,338,198,272,161,154,151,0,0,84,144,0,53,0,0,0,329,261,191,279,189,151,0,0,195,338,0,0,9,302,303,0,0,0,155,327,0,0,0,0,0,0,0,0,0,0,0,0,0,0,0,0,0,0,0,0,0,0,0,0,0,0,0,0,0,0,0,0],"split_type":[0,0,0,0,0,0,0,0,0,0,0,0,0,0,0,0,0,0,0,0,0,0,0,0,0,0,0,0,0,0,0,0,0,0,0,0,0,0,0,0,0,0,0,0,0,0,0,0,0,0,0,0,0,0,0,0,0,0,0,0,0,0,0,0,0,0,0,0,0,0,0,0,0,0,0,0,0,0,0,0,0,0,0,0,0,0,0,0,0,0,0],"sum_hessian":[4.3326523E2,2.3388788E2,1.9937737E2,7.87911E1,1.5509677E2,1.5869803E2,4.067934E1,1.5062606E1,6.372849E1,6.2774586E1,9.232219E1,1.3687888E2,2.181915E1,2.1281515E1,1.9397827E1,7.2818933E0,7.780712E0,1.6808523E0,6.2047638E1,5.636716E0,5.7137867E1,6.258902E1,2.9733171E1,3.161262E0,1.337176E2,1.101972E1,1.0799431E1,1.6569069E1,4.712446E0,1.6326126E1,3.0717022E0,1.3662834E0,5.91561E0,6.2055163E0,1.5751958E0,5.9919945E1,2.1276925E0,4.6075068E0,1.0292094E0,4.4807373E1,1.2330497E1,3.0553028E1,3.2035988E1,7.871481E0,2.1861692E1,1.7454222E0,1.4158397E0,1.313672E2,2.350405E0,1.2883457E0,9.731375E0,4.5171256E0,6.2823057E0,1.5565347E1,1.0037215E0,1.916746E0,2.7957003E0,2.9114416E0,1.3414683E1,4.875008E0,1.0406016E0,5.1757007E0,1.029816E0,5.6914818E1,3.0051296E0,1.2399482E0,4.3567425E1,5.5745482E0,6.7559485E0,1.6889685E1,1.3663343E1,1.9773086E0,3.0058681E1,4.383392E0,3.4880886E0,1.9693235E1,2.1684556E0,2.897759E0,1.2846945E2,1.1575719E0,1.1928332E0,3.2374382E0,1.2796874E0,1.2653741E0,5.0169315E0,1.4460803E1,1.104544E0,1.0181468E0,1.8932949E0,1.2087328E1,1.3273555E0],"tree_param":{"num_deleted":"0","num_feature":"384","num_nodes":"91","size_leaf_vector":"0"}},{"base_weights":[-2.0495416E-1,-5.1797235E-1,3.5197386E-1,7.9154745E-2,-7.439419E-1,7.649484E-1,-1.9991349E-1,-3.9333457E-1,5.9541166E-1,-8.577245E-1,2.7292585E-1,9.669E-1,6.192003E-2,4.172103E-1,-5.52821E-1,7.62236E-1,-5.635419E-1,-3.8435552E-1,9.4280154E-1,-9.26061E-1,1.7187214E-2,-5.2952784E-1,9.1868E-1,-4.0420398E-1,1.0070891E0,-5.476321E-1,5.592991E-1,9.873159E-1,-7.5369747E-3,2.977576E-1,-7.773652E-1,2.1409096E-1,8.49115E-1,-8.9481384E-1,1.0640806E-1,7.0244086E-1,-6.8337154E-1,-5.9481263E-1,1.0515113E0,-9.5970476E-1,5.220746E-1,-6.7320114E-1,7.2262293E-1,-7.866806E-1,4.696663E-1,-1.7681678E-1,1.0663584E0,1.0474334E0,-4.36232E-1,3.6170015E-1,-8.38184E-1,-2.8905368E-1,8.8178736E-1,-5.0506677E-2,1.1986717E0,-5.832349E-1,3.2450363E-1,-5.009841E-1,7.7689457E-1,-8.592143E-1,5.5666286E-1,2.2580329E-1,-1.0032505E0,-6.553215E-1,5.608583E-1,-8.8853395E-1,2.85249E-1,1.1469936E0,-1.3962899E-1,-9.9928755E-1,1.5332135E-2,-4.0455708E-1,1.0652924E0,-9.892896E-1,5.064138E-1,-3.619455E-1,1.2315953E0,1.0641019E-1,-9.67727E-1,2.0725677E-2,1.1917996E0,1.0896723E0,-2.7701807E-1,3.1459395E-2,-9.9508077E-1,-7.3510724E-1,4.1944087E-1,1.0964643E0,-2.8485394E-1,2.478784E-1,-8.9812696E-1,1.5765697E-2,9.295047E-1,8.809264E-2,-7.4533117E-1,1.05766E0,-2.3027906E-1,2.2388469E-1,-9.638376E-1],"categories":[],"categories_nodes":[],"categories_segments":[],"categories_sizes":[],"default_left":[1,1,1,1,1,1,1,1,1,1,1,1,1,1,1,1,1,1,1,1,1,1,1,0,1,1,1,1,1,1,1,0,0,1,1,0,1,0,1,1,1,1,1,1,0,0,1,1,0,0,1,1,1,0,0,1,1,1,1,1,0,0,0,0,0,0,0,0,0,0,0,0,0,0,0,0,0,0,0,0,0,0,0,0,0,0,0,0,0,0,0,0,0,0,0,0,0,0,0],"id":6,"left_children":[1,3,5,7,9,11,13,15,17,19,21,23,25,27,29,31,33,35,37,39,41,43,45,-1,47,49,51,53,55,57,59,-1,-1,61,63,-1,65,-1,67,69,71,73,75,77,-1,-1,79,81,-1,-1,83,85,87,-1,-1,89,91,93,95,97,-1,-1,-1,-1,-1,-1,-1,-1,-1,-1,-1,-1,-1,-1,-1,-1,-1,-1,-1,-1,-1,-1,-1,-1,-1,-1,-1,-1,-1,-1,-1,-1,-1,-1,-1,-1,-1,-1,-1],"loss_changes":[6.401977E1,3.1745735E1,3.0318796E1,1.6180704E1,1.9956673E1,1.071804E1,1.2740986E1,7.261718E0,1.113075E1,9.196289E0,9.768678E0,3.6528778E0,5.7661653E0,5.205986E0,7.2933464E0,5.0828695E-2,6.9423065E0,3.4020948E0,4.5780125E0,7.4408875E0,6.3823915E0,2.5847757E0,1.853467E0,0E0,3.8058815E0,2.5746186E0,3.103329E0,2.0727062E0,2.7306483E0,3.6213107E0,3.7025661E0,0E0,0E0,2.7480106E0,4.2105465E0,0E0,1.7555201E0,0E0,2.7130184E0,5.401581E0,2.3849263E0,2.9752905E0,4.017334E0,1.27213E0,0E0,0E0,1.1834507E0,3.448288E0,0E0,0E0,9.6142054E-1,1.4526095E0,2.2635393E0,0E0,0E0,1.5889169E0,1.6803019E0,6.089601E-1,1.8471568E0,3.4130878E0,0E0,0E0,0E0,0E0,0E0,0E0,0E0,0E0,0E0,0E0,0E0,0E0,0E0,0E0,0E0,0E0,0E0,0E0,0E0,0E0,0E0,0E0,0E0,0E0,0E0,0E0,0E0,0E0,0E0,0E0,0E0,0E0,0E0,0E0,0E0,0E0,0E0,0E0,0E0],"parents":[2147483647,0,0,1,1,2,2,3,3,4,4,5,5,6,6,7,7,8,8,9,9,10,10,11,11,12,12,13,13,14,14,15,15,16,16,17,17,18,18,19,19,20,20,21,21,22,22,24,24,25,25,26,26,27,27,28,28,29,29,30,30,33,33,34,34,36,36,38,38,39,39,40,40,41,41,42,42,43,43,46,46,47,47,50,50,51,51,52,52,55,55,56,56,57,57,58,58,59,59],"right_children":[2,4,6,8,10,12,14,16,18,20,22,24,26,28,30,32,34,36,38,40,42,44,46,-1,48,50,52,54,56,58,60,-1,-1,62,64,-1,66,-1,68,70,72,74,76,78,-1,-1,80,82,-1,-1,84,86,88,-1,-1,90,92,94,96,98,-1,-1,-1,-1,-1,-1,-1,-1,-1,-1,-1,-1,-1,-1,-1,-1,-1,-1,-1,-1,-1,-1,-1,-1,-1,-1,-1,-1,-1,-1,-1,-1,-1,-1,-1,-1,-1,-1,-1],"split_conditions":[-1.7023671E-2,-1.4610272E-2,2.975038E-2,-1.2425959E-2,9.853723E-2,3.0864734E-2,-6.4525823E-3,-1.6329259E-2,-2.3950577E-2,3.908503E-2,-4.9020074E-2,-7.1259245E-2,3.731712E-3,-1.0130372E-2,-2.169491E-2,-2.381324E-2,-2.9672978E-2,-1.1370195E-2,-9.3354724E-2,1.2169242E-1,-1.9984567E-3,9.092663E-2,-2.526992E-2,-1.212612E-1,2.1111544E-2,-7.326073E-3,-4.2936772E-2,-4.9511503E-2,2.104888E-5,-6.586613E-2,4.0382158E-2,6.422729E-2,2.5473452E-1,-2.6382005E-2,-4.8150085E-2,2.1073227E-1,2.1457624E-2,-1.7844379E-1,1.8316858E-2,9.9825114E-2,-4.314138E-3,5.2882717E-3,-2.9645517E-2,1.4175361E-2,1.408999E-1,-5.3045034E-2,-4.6517335E-2,4.3940917E-2,-1.3086961E-1,1.0851005E-1,-4.146204E-2,3.405271E-2,3.3275403E-2,-1.5152004E-2,3.5960153E-1,-1.2831962E-2,-9.500129E-3,-3.157228E-2,5.1640435E-3,-8.751626E-2,1.6699886E-1,6.774099E-2,-3.0097514E-1,-1.9659646E-1,1.682575E-1,-2.665602E-1,8.55747E-2,3.440981E-1,-4.18887E-2,-2.9978627E-1,4.5996406E-3,-1.2136713E-1,3.195877E-1,-2.9678687E-1,1.5192415E-1,-1.0858366E-1,3.6947858E-1,3.192306E-2,-2.903181E-1,6.217703E-3,3.575399E-1,3.269017E-1,-8.310542E-2,9.437819E-3,-2.9852423E-1,-2.2053218E-1,1.2583226E-1,3.289393E-1,-8.5456185E-2,7.436352E-2,-2.694381E-1,4.729709E-3,2.7885142E-1,2.6427792E-2,-2.2359936E-1,3.17298E-1,-6.908372E-2,6.716541E-2,-2.891513E-1],"split_indices":[9,335,24,7,303,300,128,24,124,193,325,7,214,2,178,235,46,114,68,232,57,247,348,0,21,213,308,320,214,282,321,0,0,324,15,0,4,0,2,131,340,103,138,147,0,0,193,335,0,0,62,1,245,0,0,136,294,321,205,94,0,0,0,0,0,0,0,0,0,0,0,0,0,0,0,0,0,0,0,0,0,0,0,0,0,0,0,0,0,0,0,0,0,0,0,0,0,0,0],"split_type":[0,0,0,0,0,0,0,0,0,0,0,0,0,0,0,0,0,0,0,0,0,0,0,0,0,0,0,0,0,0,0,0,0,0,0,0,0,0,0,0,0,0,0,0,0,0,0,0,0,0,0,0,0,0,0,0,0,0,0,0,0,0,0,0,0,0,0,0,0,0,0,0,0,0,0,0,0,0,0,0,0,0,0,0,0,0,0,0,0,0,0,0,0,0,0,0,0,0,0],"sum_hessian":[3.6519034E2,2.338348E2,1.3135556E2,6.43744E1,1.6946039E2,7.49127E1,5.644286E1,3.3736313E1,3.0638088E1,1.5254756E2,1.6912832E1,5.7903915E1,1.7008783E1,2.046821E1,3.597465E1,3.8846157E0,2.9851696E1,7.9918175E0,2.264627E1,1.4144156E2,1.1106002E1,7.621667E0,9.291164E0,1.3909899E0,5.6512924E1,7.597184E0,9.411599E0,8.173318E0,1.2294893E1,7.44537E0,2.852928E1,1.005413E0,2.8792026E0,1.9750145E1,1.0101551E1,1.4332795E0,6.558538E0,1.2001088E0,2.1446161E1,1.3855975E2,2.881802E0,5.6359572E0,5.4700446E0,6.230794E0,1.3908727E0,1.0802712E0,8.210894E0,5.5243042E1,1.2698826E0,1.7803622E0,5.816822E0,2.620821E0,6.790778E0,1.5116551E0,6.6616626E0,4.220609E0,8.074285E0,2.774524E0,4.670846E0,2.7215408E1,1.3138727E0,1.6470166E0,1.8103128E1,3.6094837E0,6.4920673E0,5.480418E0,1.0781201E0,1.9888922E1,1.5572411E0,1.331303E2,5.4294567E0,1.1593751E0,1.722427E0,4.572153E0,1.063804E0,1.8393806E0,3.6306639E0,1.1196889E0,5.111105E0,1.0043355E0,7.206558E0,5.3707485E1,1.5355564E0,1.0112392E0,4.805583E0,1.5852302E0,1.0355908E0,5.786197E0,1.004581E0,1.2181879E0,3.002421E0,6.025481E0,2.0488029E0,1.0009329E0,1.773591E0,3.6134212E0,1.0574248E0,2.296922E0,2.4918486E1],"tree_param":{"num_deleted":"0","num_feature":"384","num_nodes":"99","size_leaf_vector":"0"}},{"base_weights":[-1.7569052E-1,-6.098396E-1,1.5962522E-1,-6.78056E-1,6.962899E-1,-3.2018495E-1,5.067132E-1,-7.705536E-1,1.0330271E-1,1.0283058E0,-1.8954213E-1,-6.574448E-1,1.7692219E-1,6.661597E-1,-3.7069336E-1,8.1487143E-1,-8.0750024E-1,4.4535816E-1,-9.053145E-1,-9.16626E-1,7.5199105E-2,-1.7343214E-1,7.4144465E-1,-8.998503E-2,8.223696E-1,-8.125578E-1,2.1749732E-1,-4.3472067E-2,-8.7489134E-1,7.893194E-1,-4.6975592E-1,1.2414933E-1,-9.7952366E-1,6.9866127E-1,-6.273298E-1,-4.5087707E-1,8.681482E-1,8.838233E-1,-3.3490467E-1,-4.1323817E-1,7.6722926E-1,-3.8805366E-1,8.8850164E-1,2.5192124E-1,-9.7743523E-1,7.35331E-1,-1.8936783E-2,6.885078E-1,-6.063783E-1,-9.6415824E-1,-2.8985935E-1,-4.1766468E-1,1.009396E0,-7.4137414E-1,1.3578717E-1,-1.0233382E0,1.4937992E-1,1.0017374E0,-3.5788372E-1,2.9116696E-1,-9.032356E-1,2.9008573E-1,-7.822451E-1,1.156683E0,-3.0280335E-2,-1.2353234E-1,9.990992E-1,-1.0100831E0,3.969764E-2,-7.915553E-1,4.2550874E-1,-1.6376741E-2,9.49897E-1],"categories":[],"categories_nodes":[],"categories_segments":[],"categories_sizes":[],"default_left":[1,1,1,1,1,1,1,1,1,0,0,1,1,1,1,0,1,1,0,1,1,1,1,1,1,1,1,1,1,1,1,0,1,1,1,1,1,1,0,1,0,1,1,0,0,0,0,0,0,0,0,0,0,0,0,0,0,0,0,0,0,0,0,0,0,0,0,0,0,0,0,0,0],"id":7,"left_children":[1,3,5,7,9,11,13,15,17,-1,-1,19,21,23,25,-1,27,29,-1,31,33,35,37,39,41,43,45,47,49,51,53,-1,55,57,59,61,63,65,-1,67,-1,69,71,-1,-1,-1,-1,-1,-1,-1,-1,-1,-1,-1,-1,-1,-1,-1,-1,-1,-1,-1,-1,-1,-1,-1,-1,-1,-1,-1,-1,-1,-1],"loss_changes":[4.4970547E1,1.24589615E1,2.9257885E1,9.356819E0,2.3039703E0,1.2513843E1,1.4483591E1,7.388031E0,5.3950067E0,0E0,0E0,8.475037E0,6.1961927E0,1.0287827E1,4.410924E0,0E0,5.768814E0,3.9826872E0,0E0,2.267233E0,5.90997E0,6.095996E0,2.1254573E0,4.6693482E0,6.089428E0,1.9160461E0,9.6614957E-1,4.617648E0,5.1301804E0,2.736082E0,7.193799E-1,0E0,1.6872406E0,2.6293833E0,1.8850367E0,4.215885E0,1.1999981E0,1.3796463E0,0E0,3.2991283E0,0E0,1.7857531E0,3.8128357E0,0E0,0E0,0E0,0E0,0E0,0E0,0E0,0E0,0E0,0E0,0E0,0E0,0E0,0E0,0E0,0E0,0E0,0E0,0E0,0E0,0E0,0E0,0E0,0E0,0E0,0E0,0E0,0E0,0E0,0E0],"parents":[2147483647,0,0,1,1,2,2,3,3,4,4,5,5,6,6,7,7,8,8,11,11,12,12,13,13,14,14,16,16,17,17,19,19,20,20,21,21,22,22,23,23,24,24,25,25,26,26,27,27,28,28,29,29,30,30,32,32,33,33,34,34,35,35,36,36,37,37,39,39,41,41,42,42],"right_children":[2,4,6,8,10,12,14,16,18,-1,-1,20,22,24,26,-1,28,30,-1,32,34,36,38,40,42,44,46,48,50,52,54,-1,56,58,60,62,64,66,-1,68,-1,70,72,-1,-1,-1,-1,-1,-1,-1,-1,-1,-1,-1,-1,-1,-1,-1,-1,-1,-1,-1,-1,-1,-1,-1,-1,-1,-1,-1,-1,-1,-1],"split_conditions":[-5.277652E-3,2.2168128E-2,4.6202775E-2,9.670838E-2,-2.1954468E-3,-2.8148075E-3,6.210462E-2,-6.8256915E-2,-3.9312574E-3,3.0849174E-1,-5.686264E-2,3.196317E-2,4.1884214E-2,-3.7457265E-2,5.099568E-2,2.4446143E-1,8.8138785E-3,-2.0982932E-2,-2.7159438E-1,1.5124012E-4,-8.818598E-3,2.2394681E-2,6.415064E-2,9.317264E-2,-6.782362E-2,-5.5263817E-2,5.894682E-2,1.6594987E-2,7.149984E-2,2.0142145E-2,-2.5790628E-2,3.72448E-2,7.3904485E-2,5.7326734E-2,-6.1063472E-2,-4.0469974E-2,-4.050794E-2,-4.623825E-2,-1.0047141E-1,-2.1775408E-2,2.3016879E-1,5.431824E-2,-8.544974E-2,7.557637E-2,-2.932306E-1,2.2059931E-1,-5.681035E-3,2.0655234E-1,-1.819135E-1,-2.8924748E-1,-8.695781E-2,-1.2529941E-1,3.028188E-1,-2.2241224E-1,4.0736154E-2,-3.0700147E-1,4.481398E-2,3.0052122E-1,-1.07365124E-1,8.735009E-2,-2.709707E-1,8.7025724E-2,-2.3467354E-1,3.470049E-1,-9.084101E-3,-3.7059702E-2,2.9972976E-1,-3.0302495E-1,1.1909292E-2,-2.3746659E-1,1.2765263E-1,-4.9130227E-3,2.8496912E-1],"split_indices":[57,142,33,303,311,214,102,192,336,0,0,124,92,255,80,0,188,182,0,280,183,231,102,303,9,55,160,357,151,249,333,0,191,361,238,364,266,157,0,9,0,307,29,0,0,0,0,0,0,0,0,0,0,0,0,0,0,0,0,0,0,0,0,0,0,0,0,0,0,0,0,0,0],"split_type":[0,0,0,0,0,0,0,0,0,0,0,0,0,0,0,0,0,0,0,0,0,0,0,0,0,0,0,0,0,0,0,0,0,0,0,0,0,0,0,0,0,0,0,0,0,0,0,0,0,0,0,0,0,0,0,0,0,0,0,0,0,0,0,0,0,0,0,0,0,0,0,0,0],"sum_hessian":[3.072437E2,1.3353323E2,1.7371048E2,1.27362236E2,6.170995E0,7.2946976E1,1.007635E2,1.13893326E2,1.3468909E1,4.3716393E0,1.7993559E0,4.326888E1,2.9678095E1,8.54719E1,1.5291597E1,2.1142237E0,1.11779106E2,1.0474953E1,2.9939566E0,3.1776468E1,1.1492412E1,1.8740274E1,1.0937821E1,1.4706762E1,7.076514E1,8.514115E0,6.7774825E0,9.193652E0,1.0258545E2,7.7132573E0,2.7616959E0,1.7554246E0,3.0021044E1,6.09176E0,5.400652E0,1.5246262E1,3.4940126E0,9.817977E0,1.1198447E0,1.105564E1,3.6511223E0,3.4138143E0,6.7351326E1,1.0710822E0,7.443033E0,1.4630494E0,5.314433E0,3.8996193E0,5.294033E0,8.844245E1,1.4143004E1,1.051055E0,6.6622024E0,1.7516673E0,1.0100287E0,2.898943E1,1.0316149E0,4.774143E0,1.3176167E0,1.2347679E0,4.165884E0,4.7498455E0,1.0496416E1,2.4270895E0,1.0669233E0,1.0007912E0,8.817185E0,4.239312E0,6.816328E0,2.300091E0,1.1137233E0,4.325978E0,6.302535E1],"tree_param":{"num_deleted":"0","num_feature":"384","num_nodes":"73","size_leaf_vector":"0"}},{"base_weights":[-1.5112157E-1,-5.6051606E-1,1.5644653E-1,-2.3451087E-1,-8.2288665E-1,-2.3920523E-1,5.131386E-1,4.1507414E-1,-4.7157094E-1,-9.048049E-1,1.767917E-1,-4.863421E-1,2.6416817E-1,7.083534E-1,-4.8271415E-1,9.432734E-1,-2.7212197E-1,-6.433615E-1,5.307431E-1,3.8312975E-1,-9.470665E-1,8.9565563E-1,-3.21748E-1,-6.731351E-1,2.5869444E-1,5.182306E-1,-7.61032E-1,7.921269E-1,-2.9844922E-1,-7.010543E-1,3.227982E-1,1.3161036E0,-5.8348006E-1,-7.0822537E-1,3.9041576E-1,-7.6312304E-1,5.4691184E-1,-4.6845737E-1,9.3478066E-1,-9.768904E-1,2.5859547E-1,4.926742E-1,-7.573004E-1,2.2246692E-1,-7.908572E-1,6.117227E-1,-6.5251195E-1,7.768225E-1,-2.4538234E-1,-8.8786334E-1,-1.1091008E-1,9.3472654E-1,1.7219783E-1,5.7529795E-1,-7.9898477E-1,2.7094814E-1,-8.253615E-1,7.428413E-1,-3.0829296E-1,1.5675198E0,-5.9077922E-2,-1.6390067E-1,-8.16453E-1,-1.5300862E-1,7.18813E-1,-9.4354075E-1,8.022766E-2,7.757454E-1,-1.268236E-2,1.049528E0,2.5923604E-1,-1.032572E0,-3.3795294E-1,-6.91218E-1,8.502183E-1,-8.8144517E-1,2.5443015E-1,-2.7536E-1,9.8109156E-1,1.4758474E-2,9.8527974E-1,-6.913541E-1,5.522433E-1,9.849356E-1,-8.5813645E-3,-9.257601E-2,1.0378174E0,1.6320334E-1,-9.6073204E-1],"categories":[],"categories_nodes":[],"categories_segments":[],"categories_sizes":[],"default_left":[1,1,1,1,1,1,1,1,1,1,1,1,1,1,1,1,1,1,1,0,1,0,1,1,1,1,1,1,1,1,1,1,0,1,1,1,1,0,1,1,0,0,0,1,1,1,0,1,1,0,0,1,1,0,0,0,1,0,0,0,0,0,0,0,0,0,0,0,0,0,0,0,0,0,0,0,0,0,0,0,0,0,0,0,0,0,0,0,0],"id":8,"left_children":[1,3,5,7,9,11,13,15,17,19,21,23,25,27,29,31,33,35,37,-1,39,-1,41,43,45,47,49,51,53,55,57,59,-1,61,63,65,67,-1,69,71,-1,-1,-1,73,75,77,-1,79,81,-1,-1,83,85,-1,-1,-1,87,-1,-1,-1,-1,-1,-1,-1,-1,-1,-1,-1,-1,-1,-1,-1,-1,-1,-1,-1,-1,-1,-1,-1,-1,-1,-1,-1,-1,-1,-1,-1,-1],"loss_changes":[3.343087E1,9.542152E0,2.1572159E1,8.226602E0,5.2916336E0,9.177571E0,1.5942402E1,5.510957E0,7.001029E0,3.5242271E0,2.2888825E0,7.0127983E0,6.802066E0,5.9295845E0,2.644089E0,5.554197E0,2.318413E0,5.188364E0,2.9437225E0,0E0,2.2850876E0,0E0,1.8034116E0,4.347563E0,3.800249E0,4.201128E0,3.3778954E-1,5.3719788E0,3.0449576E0,1.568531E0,1.1876549E0,2.53539E0,0E0,1.3818312E-1,7.256468E-1,4.7661915E0,4.7624028E-1,0E0,9.640741E-2,1.6209068E0,0E0,0E0,0E0,3.6718183E0,3.5564022E0,2.9361959E0,0E0,2.4338026E0,2.4797802E0,0E0,0E0,2.4077568E0,3.0596504E0,0E0,0E0,0E0,1.5105257E0,0E0,0E0,0E0,0E0,0E0,0E0,0E0,0E0,0E0,0E0,0E0,0E0,0E0,0E0,0E0,0E0,0E0,0E0,0E0,0E0,0E0,0E0,0E0,0E0,0E0,0E0,0E0,0E0,0E0,0E0,0E0,0E0],"parents":[2147483647,0,0,1,1,2,2,3,3,4,4,5,5,6,6,7,7,8,8,9,9,10,10,11,11,12,12,13,13,14,14,15,15,16,16,17,17,18,18,20,20,22,22,23,23,24,24,25,25,26,26,27,27,28,28,29,29,30,30,31,31,33,33,34,34,35,35,36,36,38,38,39,39,43,43,44,44,45,45,47,47,48,48,51,51,52,52,56,56],"right_children":[2,4,6,8,10,12,14,16,18,20,22,24,26,28,30,32,34,36,38,-1,40,-1,42,44,46,48,50,52,54,56,58,60,-1,62,64,66,68,-1,70,72,-1,-1,-1,74,76,78,-1,80,82,-1,-1,84,86,-1,-1,-1,88,-1,-1,-1,-1,-1,-1,-1,-1,-1,-1,-1,-1,-1,-1,-1,-1,-1,-1,-1,-1,-1,-1,-1,-1,-1,-1,-1,-1,-1,-1,-1,-1],"split_conditions":[1.3404577E-2,1.1358537E-2,1.4290353E-2,-2.4281245E-2,9.8565E-3,5.1755033E-2,3.781236E-2,8.003781E-3,8.0263335E-3,-7.9022795E-2,6.0725934E-3,-1.218511E-2,5.01965E-2,6.059619E-2,-1.6241897E-2,1.8636819E-2,1.878916E-2,9.1773994E-2,-2.1843283E-2,1.1493893E-1,5.4338323E-3,2.686967E-1,2.6441613E-2,-1.593564E-2,5.9182257E-3,3.332112E-2,3.9602004E-2,5.039504E-2,8.432552E-3,-1.932796E-2,-3.22314E-2,-4.1762397E-2,-1.7504403E-1,-3.2842983E-3,-4.211731E-3,2.8121442E-2,1.6430045E-2,-1.4053722E-1,-1.0914262E-2,3.1432677E-2,7.757864E-2,1.4780226E-1,-2.2719012E-1,-2.5660407E-2,-1.0599792E-2,-3.2505248E-2,-1.9575359E-1,1.1053454E-2,1.76082E-2,-2.66359E-1,-3.3273026E-2,1.1208281E-3,6.686624E-3,1.7258939E-1,-2.3969544E-1,8.128445E-2,-1.2240138E-2,2.228524E-1,-9.248789E-2,4.7025594E-1,-1.7723378E-2,-4.9170204E-2,-2.449359E-1,-4.5902587E-2,2.1564391E-1,-2.8306225E-1,2.4068298E-2,2.3272362E-1,-3.8047081E-3,3.148584E-1,7.7770814E-2,-3.0977163E-1,-1.01385884E-1,-2.0736541E-1,2.550655E-1,-2.6443356E-1,7.6329045E-2,-8.2608E-2,2.9432747E-1,4.4275424E-3,2.9558393E-1,-2.0740624E-1,1.6567299E-1,2.954807E-1,-2.5744094E-3,-2.7772805E-2,3.1134522E-1,4.8961006E-2,-2.8821963E-1],"split_indices":[92,136,4,347,9,80,136,81,142,364,357,325,59,192,325,311,57,80,255,0,93,0,140,24,2,357,54,24,324,356,70,302,0,262,312,216,356,0,358,226,0,0,0,142,338,273,0,162,226,0,0,259,359,0,0,0,131,0,0,0,0,0,0,0,0,0,0,0,0,0,0,0,0,0,0,0,0,0,0,0,0,0,0,0,0,0,0,0,0],"split_type":[0,0,0,0,0,0,0,0,0,0,0,0,0,0,0,0,0,0,0,0,0,0,0,0,0,0,0,0,0,0,0,0,0,0,0,0,0,0,0,0,0,0,0,0,0,0,0,0,0,0,0,0,0,0,0,0,0,0,0,0,0,0,0,0,0,0,0,0,0,0,0,0,0,0,0,0,0,0,0,0,0,0,0,0,0,0,0,0,0],"sum_hessian":[2.6380347E2,1.1281563E2,1.5098784E2,5.1151638E1,6.166399E1,7.174068E1,7.924717E1,1.34755125E1,3.767613E1,5.7081383E1,4.5826073E0,4.813975E1,2.3600924E1,6.6500015E1,1.2747154E1,7.408488E0,6.0670247E0,3.2469223E1,5.206905E0,1.5572754E0,5.552411E1,1.5504272E0,3.03218E0,3.85669E1,9.572854E0,1.9310062E1,4.290862E0,6.1588608E1,4.9114056E0,1.0130803E1,2.616351E0,6.065321E0,1.3431667E0,3.6171455E0,2.449879E0,2.9826992E1,2.6422303E0,1.453328E0,3.753577E0,5.4368958E1,1.1551514E0,1.0108618E0,2.0213182E0,4.377109E0,3.418979E1,7.136594E0,2.43626E0,1.4412184E1,4.897878E0,3.2844212E0,1.0064409E0,4.965816E1,1.1930449E1,1.7344106E0,3.176995E0,1.0149423E0,9.115861E0,1.4645185E0,1.1518322E0,5.009585E0,1.0557363E0,1.0169348E0,2.6002107E0,1.1239939E0,1.3258852E0,2.4472746E1,5.354245E0,1.6011935E0,1.0410366E0,2.7353504E0,1.0182265E0,4.944397E1,4.9249864E0,1.7414081E0,2.6357012E0,3.160734E1,2.5824502E0,2.172821E0,4.963773E0,3.3255727E0,1.1086611E1,3.2268844E0,1.670994E0,4.71067E1,2.5514603E0,9.819832E0,2.1106167E0,1.0731815E0,8.04268E0],"tree_param":{"num_deleted":"0","num_feature":"384","num_nodes":"89","size_leaf_vector":"0"}},{"base_weights":[-1.2910306E-1,-4.8638105E-1,2.0093657E-1,-1.1771208E-1,-7.5972706E-1,4.688985E-1,-2.80577E-1,1.3085411E-1,-8.175016E-1,3.438511E-1,-8.162582E-1,-3.438157E-2,6.795009E-1,-5.266218E-1,3.4466365E-1,-2.3681499E-1,5.806532E-1,2.6019332E-1,-9.554172E-1,9.4796836E-1,-5.1533544E-1,5.7580394E-1,-8.539558E-1,2.8576213E-1,-4.9601477E-1,3.879181E-2,8.467305E-1,3.0913794E-1,-7.225046E-1,-3.4818473E-1,8.149073E-1,3.0849722E-1,-6.1706036E-1,7.8037703E-1,-4.0276182E-1,-8.84814E-1,2.9687625E-1,-4.6924567E-1,4.7676185E-1,2.7552634E-1,-8.2818055E-1,-6.952929E-1,6.646437E-1,9.288393E-1,-2.6342618E-1,8.7133104E-1,-3.9766264E-1,4.943442E-1,-8.055949E-1,5.3140825E-1,-6.707059E-1,1.0187448E0,-2.523598E-1,6.402924E-1,-6.966341E-1,-8.2176435E-1,1.2602076E-1,-4.4299564E-1,9.432564E-1,8.431748E-2,-6.4299184E-1,-4.9191883E-1,-9.9947697E-1,-7.511672E-1,9.16564E-2,8.662529E-1,5.290344E-2,6.734655E-1,-3.945191E-1,3.3896862E-4,-9.669451E-1,1.321654E-1,-8.914678E-1,9.9100643E-1,-6.110949E-1,9.9017113E-1,2.2925207E-2,4.595431E-1,-7.9653466E-1,-6.9738626E-1,1.8929392E-1,-9.7692555E-1,-1.5769896E-1,-3.9701607E-2,-8.37472E-1,1.1333653E0,2.240748E-1],"categories":[],"categories_nodes":[],"categories_segments":[],"categories_sizes":[],"default_left":[1,1,1,1,1,1,1,1,1,1,1,1,1,1,1,1,1,0,0,0,0,0,1,1,1,1,1,1,1,1,1,1,1,1,1,1,0,1,1,1,1,1,1,1,1,0,1,0,1,0,1,1,0,0,0,0,0,0,0,0,0,0,0,0,0,0,0,0,0,0,0,0,0,0,0,0,0,0,0,0,0,0,0,0,0,0,0],"id":9,"left_children":[1,3,5,7,9,11,13,15,17,19,21,23,25,27,29,31,33,-1,-1,-1,-1,-1,35,37,39,41,43,45,47,49,51,53,55,57,59,61,-1,63,65,67,69,71,73,75,77,-1,79,-1,81,-1,83,85,-1,-1,-1,-1,-1,-1,-1,-1,-1,-1,-1,-1,-1,-1,-1,-1,-1,-1,-1,-1,-1,-1,-1,-1,-1,-1,-1,-1,-1,-1,-1,-1,-1,-1,-1],"loss_changes":[2.6745947E1,1.0875912E1,1.5380319E1,8.371231E0,4.167351E0,8.110836E0,6.778001E0,6.077904E0,2.1199646E0,2.4294705E0,3.6172905E0,3.6091506E0,5.735956E0,5.3256273E0,4.425841E0,4.4358788E0,3.5443716E0,0E0,0E0,0E0,0E0,0E0,2.3363686E0,2.3130565E0,2.7841527E0,6.0635405E0,4.132265E0,2.9762323E0,2.981389E0,2.0133524E0,1.9697747E0,3.4736602E0,1.9892159E0,3.2094612E0,4.5623112E-1,2.0815887E0,0E0,6.111131E-1,1.9450333E0,1.266089E0,8.305726E-1,1.107955E0,3.5585907E0,2.196003E0,1.7983361E0,0E0,7.6860815E-1,0E0,2.5428553E0,0E0,4.6298814E-1,3.6621523E-1,0E0,0E0,0E0,0E0,0E0,0E0,0E0,0E0,0E0,0E0,0E0,0E0,0E0,0E0,0E0,0E0,0E0,0E0,0E0,0E0,0E0,0E0,0E0,0E0,0E0,0E0,0E0,0E0,0E0,0E0,0E0,0E0,0E0,0E0,0E0],"parents":[2147483647,0,0,1,1,2,2,3,3,4,4,5,5,6,6,7,7,8,8,9,9,10,10,11,11,12,12,13,13,14,14,15,15,16,16,22,22,23,23,24,24,25,25,26,26,27,27,28,28,29,29,30,30,31,31,32,32,33,33,34,34,35,35,37,37,38,38,39,39,40,40,41,41,42,42,43,43,44,44,46,46,48,48,50,50,51,51],"right_children":[2,4,6,8,10,12,14,16,18,20,22,24,26,28,30,32,34,-1,-1,-1,-1,-1,36,38,40,42,44,46,48,50,52,54,56,58,60,62,-1,64,66,68,70,72,74,76,78,-1,80,-1,82,-1,84,86,-1,-1,-1,-1,-1,-1,-1,-1,-1,-1,-1,-1,-1,-1,-1,-1,-1,-1,-1,-1,-1,-1,-1,-1,-1,-1,-1,-1,-1,-1,-1,-1,-1,-1,-1],"split_conditions":[-3.0945908E-2,2.312475E-3,6.415677E-3,6.675712E-2,-3.9622325E-2,-9.677173E-2,2.8704256E-2,8.522138E-2,-5.7427764E-2,4.902543E-2,-2.297333E-2,9.870885E-3,-4.5272205E-2,3.1958122E-3,1.8984467E-2,-4.8017252E-2,7.134554E-2,7.8058E-2,-2.8662518E-1,2.843905E-1,-1.5460064E-1,1.7274119E-1,1.2080026E-1,-1.8459458E-2,1.1368554E-2,2.1863386E-2,4.9347736E-2,-2.0331064E-2,-7.859002E-2,-1.623431E-2,-7.975826E-3,3.3816576E-2,3.7437804E-2,-4.2206354E-2,1.7897844E-2,-3.585481E-2,8.906288E-2,-1.8324066E-2,4.0229745E-2,-4.2663507E-2,-4.3517686E-2,-9.230806E-2,1.4749421E-31,9.650042E-4,3.2430417E-3,2.6139933E-1,-4.3460775E-2,1.4830327E-1,2.957518E-2,1.5942249E-1,2.6207361E-2,8.204082E-2,-7.570794E-2,1.9208772E-1,-2.0899025E-1,-2.4652931E-1,3.7806228E-2,-1.328987E-1,2.8297693E-1,2.5295246E-2,-1.9289756E-1,-1.4757566E-1,-2.998431E-1,-2.2535016E-1,2.749692E-2,2.598759E-1,1.5871033E-2,2.0203966E-1,-1.1835573E-1,1.0169059E-4,-2.9008356E-1,3.964962E-2,-2.6744035E-1,2.9730195E-1,-1.8332848E-1,2.9705134E-1,6.8775625E-3,1.3786294E-1,-2.389604E-1,-2.092159E-1,5.678818E-2,-2.9307768E-1,-4.730969E-2,-1.1910482E-2,-2.5124162E-1,3.400096E-1,6.722244E-2],"split_indices":[9,136,13,24,313,265,124,232,181,153,102,192,142,196,1,266,102,0,0,0,0,0,232,73,356,290,347,68,314,184,326,245,354,216,351,364,0,28,102,251,109,261,319,181,198,0,112,0,82,0,32,243,0,0,0,0,0,0,0,0,0,0,0,0,0,0,0,0,0,0,0,0,0,0,0,0,0,0,0,0,0,0,0,0,0,0,0],"split_type":[0,0,0,0,0,0,0,0,0,0,0,0,0,0,0,0,0,0,0,0,0,0,0,0,0,0,0,0,0,0,0,0,0,0,0,0,0,0,0,0,0,0,0,0,0,0,0,0,0,0,0,0,0,0,0,0,0,0,0,0,0,0,0,0,0,0,0,0,0,0,0,0,0,0,0,0,0,0,0,0,0,0,0,0,0,0,0],"sum_hessian":[2.2499341E2,1.07811005E2,1.171824E2,4.6511013E1,6.1299988E1,7.5302704E1,4.18797E1,3.4920288E1,1.1590725E1,2.73943E0,5.856056E1,2.246189E1,5.2840816E1,3.0166357E1,1.1713341E1,1.9474882E1,1.5445406E1,1.2144219E0,1.0376304E1,1.5477985E0,1.1916313E0,1.1676681E0,5.739289E1,1.3488535E1,8.973355E0,1.119215E1,4.1648666E1,5.6180463E0,2.4548311E1,4.840703E0,6.8726377E0,8.078355E0,1.1396528E1,1.30097E1,2.4357057E0,5.6119267E1,1.2736218E0,2.42922E0,1.1059315E1,2.751891E0,6.221464E0,5.0996404E0,6.0925097E0,3.8932487E1,2.71618E0,2.9994695E0,2.6185768E0,1.2527301E0,2.3295582E1,1.1249701E0,3.7157333E0,5.808698E0,1.0639399E0,6.346382E0,1.7319729E0,8.852072E0,2.5444562E0,1.326523E0,1.1683177E1,1.0188818E0,1.4168239E0,1.3873052E1,4.2246216E1,1.3909074E0,1.0383127E0,5.2193913E0,5.8399234E0,1.7233131E0,1.0285778E0,1.0356256E0,5.185838E0,1.0398558E0,4.0597844E0,5.029134E0,1.0633761E0,3.6376717E1,2.5557685E0,1.2113771E0,1.504803E0,1.6088791E0,1.0096978E0,1.8021978E1,5.273602E0,1.0355436E0,2.6801896E0,4.704E0,1.1046978E0],"tree_param":{"num_deleted":"0","num_feature":"384","num_nodes":"87","size_leaf_vector":"0"}},{"base_weights":[-1.1458058E-1,1.3927948E-1,-4.9507174E-1,-1.0282089E-1,5.717444E-1,-1.07493214E-1,-7.233808E-1,-5.112082E-1,1.982908E-1,9.176737E-2,8.293585E-1,7.540623E-1,-4.022409E-1,2.7061316E-1,-8.235122E-1,1.0738186E-1,-6.9098586E-1,-4.1631456E-2,7.1198106E-1,3.6850628E-1,-4.8148704E-1,2.0196892E-1,9.5558935E-1,9.057755E-1,-1.2312206E-1,4.2622268E-1,-6.152052E-1,7.237563E-1,-5.220505E-1,1.5688033E-1,-8.842541E-1,-3.4709784E-1,6.692376E-1,1.3684519E-1,-8.330415E-1,4.2195302E-1,-4.0115806E-1,8.5567063E-1,-5.4957134E-1,6.3512266E-2,8.422528E-1,2.3317716E-1,-8.100179E-1,-4.0848434E-1,6.370429E-1,1.0212636E0,2.8295882E-2,1.0051119E0,3.0692157E-1,-4.4398904E-1,7.634814E-1,-7.4283683E-1,4.609623E-1,8.793668E-1,1.6626073E-1,-5.3270566E-1,6.664037E-1,-9.7722806E-2,-9.47618E-1,4.2181516E-1,-8.5771847E-1,8.2499576E-1,1.3795188E-1,8.019585E-1,-4.8189473E-1,-9.554531E-1,-3.4723744E-2,-4.4316223E-1,6.182765E-1,-6.1473066E-1,3.5198852E-1,-1.5396729E-1,1.043256E0,-4.9226323E-1,2.3644963E-1,1.2174813E-2,-6.285522E-1,1.9428837E-1,7.2641844E-1,2.958377E-1,1.0505875E0,8.76974E-1,2.1210377E-1,2.0753153E-1,-8.485172E-1,5.521567E-1,-5.915529E-1,-1.7245468E-1,-9.8815596E-1],"categories":[],"categories_nodes":[],"categories_segments":[],"categories_sizes":[],"default_left":[1,1,1,1,1,1,1,1,1,1,1,1,1,1,1,1,1,1,1,1,1,1,1,1,0,1,1,1,0,1,1,1,1,1,1,1,1,1,0,1,0,0,0,1,1,1,0,0,0,0,1,1,0,0,0,0,0,1,1,0,0,0,0,0,0,0,0,0,0,0,0,0,0,0,0,0,0,0,0,0,0,0,0,0,0,0,0,0,0],"id":10,"left_children":[1,3,5,7,9,11,13,15,17,19,21,23,25,27,29,31,33,35,37,39,41,43,45,47,-1,49,51,53,-1,55,57,59,61,63,65,67,69,71,-1,73,-1,-1,-1,75,77,79,-1,-1,-1,-1,81,83,-1,-1,-1,-1,-1,85,87,-1,-1,-1,-1,-1,-1,-1,-1,-1,-1,-1,-1,-1,-1,-1,-1,-1,-1,-1,-1,-1,-1,-1,-1,-1,-1,-1,-1,-1,-1],"loss_changes":[1.8756657E1,1.2290549E1,6.792835E0,9.4158E0,5.1272087E0,7.910726E0,5.068699E0,3.6802416E0,5.491839E0,2.687452E0,1.9658375E0,1.1740551E0,4.315447E0,2.248642E0,2.7874813E0,2.3178053E0,3.0843697E0,5.3618407E0,3.03796E0,1.5701576E0,1.5001314E0,1.8096709E0,1.3367996E0,1.035552E-1,0E0,1.891104E0,2.9088068E0,1.7763889E-1,0E0,1.5651896E0,2.002304E0,2.3930411E0,2.1667635E-1,2.262408E0,2.0874424E0,2.6679926E0,3.1212318E0,2.6431265E0,0E0,8.773962E-1,0E0,0E0,0E0,2.8879583E-1,9.11665E-3,1.340828E-1,0E0,0E0,0E0,0E0,7.550883E-2,1.8921833E0,0E0,0E0,0E0,0E0,0E0,1.69022E0,1.0483704E0,0E0,0E0,0E0,0E0,0E0,0E0,0E0,0E0,0E0,0E0,0E0,0E0,0E0,0E0,0E0,0E0,0E0,0E0,0E0,0E0,0E0,0E0,0E0,0E0,0E0,0E0,0E0,0E0,0E0,0E0],"parents":[2147483647,0,0,1,1,2,2,3,3,4,4,5,5,6,6,7,7,8,8,9,9,10,10,11,11,12,12,13,13,14,14,15,15,16,16,17,17,18,18,19,19,20,20,21,21,22,22,23,23,25,25,26,26,27,27,29,29,30,30,31,31,32,32,33,33,34,34,35,35,36,36,37,37,39,39,43,43,44,44,45,45,50,50,51,51,57,57,58,58],"right_children":[2,4,6,8,10,12,14,16,18,20,22,24,26,28,30,32,34,36,38,40,42,44,46,48,-1,50,52,54,-1,56,58,60,62,64,66,68,70,72,-1,74,-1,-1,-1,76,78,80,-1,-1,-1,-1,82,84,-1,-1,-1,-1,-1,86,88,-1,-1,-1,-1,-1,-1,-1,-1,-1,-1,-1,-1,-1,-1,-1,-1,-1,-1,-1,-1,-1,-1,-1,-1,-1,-1,-1,-1,-1,-1],"split_conditions":[7.2642053E-3,7.848041E-2,-4.9492773E-3,2.0670325E-2,-3.165963E-3,-7.5642854E-2,-4.940387E-2,2.2263393E-2,4.3114033E-2,-5.3815678E-2,9.644843E-4,7.298173E-2,-1.5412878E-2,3.2863867E-2,-6.8046555E-2,-5.9998803E-2,-3.68048E-2,-3.8187142E-2,4.6113633E-2,1.341538E-31,-5.9686754E-2,-3.0170385E-2,2.8721098E-2,-3.658879E-3,-3.693662E-2,8.969242E-3,2.0811677E-2,-9.087233E-3,-1.5661515E-1,2.5906738E-2,-1.5212716E-1,2.3903932E-2,-1.2377901E-2,-2.0506002E-2,9.500712E-3,-3.1462498E-2,-1.23941675E-2,-6.870161E-2,-1.6487141E-1,3.4651E-2,2.5267586E-1,6.995315E-2,-2.4300538E-1,3.2728247E-2,-3.2468073E-2,8.5569394E-5,8.488765E-3,3.0153358E-1,9.207647E-2,-1.3319671E-1,-2.7468804E-2,-7.631205E-3,1.3828869E-1,2.6381007E-1,4.987822E-2,-1.598117E-1,1.9992112E-1,-3.921543E-2,-9.368567E-2,1.2654455E-1,-2.5731555E-1,2.4749874E-1,4.1385565E-2,2.4058756E-1,-1.4456843E-1,-2.8663594E-1,-1.0417123E-2,-1.3294868E-1,1.8548295E-1,-1.844192E-1,1.05596565E-1,-4.6190187E-2,3.1297684E-1,-1.4767897E-1,7.093489E-2,3.652444E-3,-1.8856567E-1,5.8286514E-2,2.1792553E-1,8.8751316E-2,3.1517628E-1,2.6309222E-1,6.363113E-2,6.225946E-2,-2.5455517E-1,1.6564701E-1,-1.7746589E-1,-5.1736407E-2,-2.964468E-1],"split_indices":[335,303,13,290,124,378,174,287,382,239,4,53,27,335,55,265,230,181,154,319,126,142,332,314,0,80,371,296,0,367,69,201,198,260,7,161,9,338,0,99,0,0,0,361,224,286,0,0,0,0,332,85,0,0,0,0,0,21,238,0,0,0,0,0,0,0,0,0,0,0,0,0,0,0,0,0,0,0,0,0,0,0,0,0,0,0,0,0,0],"split_type":[0,0,0,0,0,0,0,0,0,0,0,0,0,0,0,0,0,0,0,0,0,0,0,0,0,0,0,0,0,0,0,0,0,0,0,0,0,0,0,0,0,0,0,0,0,0,0,0,0,0,0,0,0,0,0,0,0,0,0,0,0,0,0,0,0,0,0,0,0,0,0,0,0,0,0,0,0,0,0,0,0,0,0,0,0,0,0,0,0],"sum_hessian":[1.924715E2,1.1582686E2,7.664463E1,7.474547E1,4.1081398E1,2.8957338E1,4.768729E1,3.142589E1,4.3319572E1,1.4821939E1,2.6259457E1,6.9841495E0,2.1973188E1,4.2083964E0,4.3478893E1,7.1672125E0,2.4258678E1,3.0154623E1,1.316495E1,1.0237128E1,4.5848117E0,4.8339367E0,2.142552E1,5.9265327E0,1.0576165E0,4.2885795E0,1.7684608E1,2.732968E0,1.4754285E0,2.4443076E0,4.1034588E1,4.173521E0,2.9936914E0,3.5584488E0,2.070023E1,1.3095393E1,1.705923E1,1.2107635E1,1.0573157E0,6.91766E0,3.3194678E0,1.5352888E0,3.0495229E0,2.0369718E0,2.7969646E0,1.9913816E1,1.5117046E0,4.5014505E0,1.4250824E0,1.1094519E0,3.1791275E0,1.6086515E1,1.5980941E0,1.6852281E0,1.04774E0,1.019298E0,1.4250097E0,3.2488701E0,3.7785717E1,1.7349223E0,2.4385989E0,1.8875004E0,1.106191E0,1.572248E0,1.9862008E0,1.7777456E1,2.9227736E0,2.18957E0,1.0905824E1,1.34335985E1,3.6256323E0,1.9251498E0,1.0182485E1,1.2034866E0,5.714174E0,1.0240947E0,1.0128771E0,1.0028455E0,1.7941192E0,1.204522E0,1.8709293E1,2.14674E0,1.0323876E0,1.5133561E0,1.4573159E1,1.3517971E0,1.897073E0,2.138954E0,3.5646763E1],"tree_param":{"num_deleted":"0","num_feature":"384","num_nodes":"89","size_leaf_vector":"0"}},{"base_weights":[-9.38629E-2,-4.8726967E-1,1.2677884E-1,-6.2078553E-1,1.9060726E-1,3.3920228E-1,-3.17135E-1,-6.7715645E-1,5.516401E-1,-5.236837E-1,4.968942E-1,7.463813E-2,7.3619163E-1,1.6779155E-1,-6.781193E-1,-8.601111E-1,-3.155433E-1,-6.717267E-1,-6.447756E-2,8.345352E-1,-2.1747334E-1,-3.7677193E-1,3.6127758E-1,1.0876348E-1,8.953303E-1,5.592393E-1,-1.4941032E-1,9.876104E-2,-8.0803096E-1,1.24601655E-1,-9.37259E-1,2.3287244E-1,-7.068376E-1,9.2893326E-1,2.1278481E-1,3.0193344E-1,-6.190818E-1,-6.57089E-1,4.0222722E-1,6.1914706E-1,-1.3168104E-1,5.041213E-1,-4.4546172E-1,9.521637E-1,-1.8368399E-1,8.097691E-1,-3.215821E-1,-6.587286E-1,1.5966347E-1,6.22736E-1,-4.4711626E-1,-9.137631E-1,2.0576906E-1,6.4725924E-1,-4.6007198E-1,-9.7697705E-1,3.426026E-2,6.258333E-1,-6.954037E-1,-8.57033E-1,3.2007584E-1,-8.126572E-1,3.2508376E-1,6.8518865E-1,-3.4525958E-1,7.484259E-1,-3.2440352E-1,-5.5897415E-1,4.1769952E-1,7.38175E-1,-1.6260047E-1,1.04885004E-1,-7.288271E-1,-2.0991115E-2,1.0054624E0,9.5977235E-1,1.6039097E-1,3.018175E-2,4.5444828E-1,-9.5347327E-1,-1.7441536E-1],"categories":[],"categories_nodes":[],"categories_segments":[],"categories_sizes":[],"default_left":[1,1,1,1,1,1,1,1,0,1,1,1,1,1,1,1,1,0,0,1,1,1,1,1,1,1,1,1,1,1,1,1,1,0,0,0,0,1,1,1,1,1,1,1,0,1,0,0,1,0,0,1,0,0,0,0,0,0,0,0,0,0,0,0,0,0,0,0,0,0,0,0,0,0,0,0,0,0,0,0,0],"id":11,"left_children":[1,3,5,7,9,11,13,15,-1,17,19,21,23,25,27,29,31,-1,-1,33,35,37,39,41,43,45,47,49,51,53,55,57,59,-1,-1,-1,-1,61,63,65,67,69,71,73,-1,75,-1,-1,77,-1,-1,79,-1,-1,-1,-1,-1,-1,-1,-1,-1,-1,-1,-1,-1,-1,-1,-1,-1,-1,-1,-1,-1,-1,-1,-1,-1,-1,-1,-1,-1],"loss_changes":[1.4620019E1,5.591425E0,1.0314975E1,3.7280235E0,2.6045825E0,7.685256E0,6.3369784E0,2.962185E0,0E0,2.0841253E-1,2.1142097E0,6.002317E0,2.834073E0,2.0668411E0,2.1566734E0,2.5383663E0,4.027262E0,0E0,0E0,1.3382506E-1,8.888593E-1,4.2161026E0,3.6713142E0,1.7755289E0,1.6025734E0,1.8846428E0,1.6182969E0,1.3765534E0,2.0894852E0,1.2752178E0,1.1786346E0,3.4436529E0,1.9327774E0,0E0,0E0,0E0,0E0,2.355627E0,1.3806593E0,2.5258102E0,2.7038162E0,8.379028E-1,6.188187E-1,1.1766052E0,0E0,4.319501E-1,0E0,0E0,2.453371E-1,0E0,0E0,3.1071854E-1,0E0,0E0,0E0,0E0,0E0,0E0,0E0,0E0,0E0,0E0,0E0,0E0,0E0,0E0,0E0,0E0,0E0,0E0,0E0,0E0,0E0,0E0,0E0,0E0,0E0,0E0,0E0,0E0,0E0],"parents":[2147483647,0,0,1,1,2,2,3,3,4,4,5,5,6,6,7,7,9,9,10,10,11,11,12,12,13,13,14,14,15,15,16,16,19,19,20,20,21,21,22,22,23,23,24,24,25,25,26,26,27,27,28,28,29,29,30,30,31,31,32,32,37,37,38,38,39,39,40,40,41,41,42,42,43,43,45,45,48,48,51,51],"right_children":[2,4,6,8,10,12,14,16,-1,18,20,22,24,26,28,30,32,-1,-1,34,36,38,40,42,44,46,48,50,52,54,56,58,60,-1,-1,-1,-1,62,64,66,68,70,72,74,-1,76,-1,-1,78,-1,-1,80,-1,-1,-1,-1,-1,-1,-1,-1,-1,-1,-1,-1,-1,-1,-1,-1,-1,-1,-1,-1,-1,-1,-1,-1,-1,-1,-1,-1,-1],"split_conditions":[-4.239158E-2,-1.28418505E-2,-4.542794E-3,7.6537207E-3,-2.3688681E-2,2.3414161E-2,-4.4282656E-3,2.5314234E-2,1.6549203E-1,-5.218052E-3,-1.5603321E-2,2.3257267E-2,4.797469E-2,7.3415926E-3,9.178384E-4,-3.969664E-2,-8.6089924E-2,-2.0151801E-1,-1.934327E-2,-1.108888E-2,4.6676993E-3,7.785182E-2,1.8483202E-3,2.2685334E-2,4.7859818E-2,3.7029418E-3,6.1249524E-2,2.2549596E-2,4.75998E-2,2.1285485E-2,6.5149575E-2,2.0650484E-2,3.193483E-2,2.7868E-1,6.383545E-2,9.058003E-2,-1.8572454E-1,2.6229993E-2,1.3066875E-2,6.759931E-2,5.0650984E-2,7.6434664E-2,-5.2351236E-2,-6.481473E-2,-5.51052E-2,-3.5963327E-2,-9.647464E-2,-1.9761859E-1,3.9744858E-2,1.868208E-1,-1.3413489E-1,1.01393245E-1,6.173072E-2,1.9417778E-1,-1.380216E-1,-2.9309312E-1,1.0278079E-2,1.8775E-1,-2.0862111E-1,-2.571099E-1,9.6022755E-2,-2.4379717E-1,9.7525135E-2,2.055566E-1,-1.03577875E-1,2.2452778E-1,-9.732106E-2,-1.6769224E-1,1.2530985E-1,2.214525E-1,-4.8780143E-2,3.1465504E-2,-2.1864815E-1,-6.2973346E-3,3.0163872E-1,2.879317E-1,4.8117295E-2,9.054526E-3,1.363345E-1,-2.86042E-1,-5.232461E-2],"split_indices":[9,325,345,338,152,305,59,92,0,372,326,382,303,215,300,306,261,0,0,314,335,303,347,34,204,68,155,102,255,334,262,55,255,0,0,0,0,321,59,145,151,286,378,31,0,165,0,0,232,0,0,303,0,0,0,0,0,0,0,0,0,0,0,0,0,0,0,0,0,0,0,0,0,0,0,0,0,0,0,0,0],"split_type":[0,0,0,0,0,0,0,0,0,0,0,0,0,0,0,0,0,0,0,0,0,0,0,0,0,0,0,0,0,0,0,0,0,0,0,0,0,0,0,0,0,0,0,0,0,0,0,0,0,0,0,0,0,0,0,0,0,0,0,0,0,0,0,0,0,0,0,0,0,0,0,0,0,0,0,0,0,0,0,0,0],"sum_hessian":[1.6671791E2,5.947136E1,1.07246544E2,4.9755627E1,9.7157345E0,7.269576E1,3.4550785E1,4.7876144E1,1.8794829E0,2.7027884E0,7.012946E0,4.4336655E1,2.8359104E1,1.4972598E1,1.9578188E1,3.0876127E1,1.7000017E1,1.6938952E0,1.008893E0,4.647922E0,2.365024E0,1.7097094E1,2.7239563E1,6.0782285E0,2.2280876E1,6.3604054E0,8.612193E0,2.8392246E0,1.6738964E1,2.198569E0,2.8677557E1,7.2473755E0,9.752641E0,3.6063254E0,1.0415967E0,1.139491E0,1.225533E0,1.2687932E1,4.4091616E0,1.7716156E1,9.523406E0,3.600329E0,2.4778996E0,2.1277708E1,1.0031687E0,5.014741E0,1.3456641E0,2.825233E0,5.78696E0,1.3768346E0,1.4623898E0,1.524744E1,1.4915241E0,1.1043307E0,1.0942385E0,2.7545801E1,1.1317567E0,5.320778E0,1.9265975E0,8.6525545E0,1.1000862E0,1.110205E1,1.5858827E0,3.2588615E0,1.1503E0,1.576319E1,1.9529657E0,5.347109E0,4.176297E0,2.5855107E0,1.0148183E0,1.0562774E0,1.4216222E0,1.1363215E0,2.0141386E1,3.6854362E0,1.3293048E0,4.7867894E0,1.0001707E0,1.41953945E1,1.052045E0],"tree_param":{"num_deleted":"0","num_feature":"384","num_nodes":"81","size_leaf_vector":"0"}},{"base_weights":[-8.181033E-2,-4.8305196E-1,1.1758972E-1,-8.367176E-1,-1.6743249E-1,-5.6734692E-2,6.02551E-1,3.5310127E-2,-8.9672464E-1,-3.580028E-1,5.093892E-1,-2.7378902E-1,3.6293924E-1,-2.2910554E-2,7.795949E-1,-7.4386805E-2,-9.3660855E-1,-5.84694E-1,3.1170645E-1,-2.3462565E-1,7.7855897E-1,3.4782016E-1,-4.6912324E-1,7.0100904E-1,2.0230025E-2,5.885728E-1,-4.25078E-1,8.46738E-1,-2.1979903E-1,-2.4916804E-1,-9.607383E-1,7.561107E-2,-7.3700154E-1,-3.806528E-1,6.332301E-1,1.3051255E-1,9.1606367E-1,-5.764105E-1,5.612719E-1,2.4174488E-1,-6.846025E-1,-2.9862827E-1,8.450823E-1,6.48177E-1,-2.11873E-1,2.6567134E-1,-6.9103205E-1,-6.7793643E-3,9.090891E-1,-4.7077894E-1,5.261916E-1,-8.3587444E-1,2.5660185E-2,8.1793815E-1,6.4270734E-3,-2.0982312E-1,7.713541E-1,-4.0187573E-1,5.0518906E-1,-7.6232713E-1,3.3401063E-1,9.491068E-1,7.283754E-3,-1.177905E-1,1.0380031E0,1.6053855E-1,-6.987906E-1,9.626174E-1,6.759816E-3],"categories":[],"categories_nodes":[],"categories_segments":[],"categories_sizes":[],"default_left":[1,1,1,1,1,1,1,0,1,1,1,1,1,1,1,0,1,1,1,0,1,1,1,1,1,0,1,1,0,0,0,1,1,0,1,0,0,0,1,1,1,0,1,1,1,0,0,0,1,0,0,0,0,0,0,0,0,0,0,0,0,0,0,0,0,0,0,0,0],"id":12,"left_children":[1,3,5,7,9,11,13,-1,15,17,19,21,23,25,27,-1,29,31,33,-1,35,37,39,41,43,-1,45,47,-1,-1,-1,49,51,-1,53,-1,-1,-1,55,57,59,-1,61,63,65,-1,-1,-1,67,-1,-1,-1,-1,-1,-1,-1,-1,-1,-1,-1,-1,-1,-1,-1,-1,-1,-1,-1,-1],"loss_changes":[1.173708E1,5.291649E0,8.346929E0,1.2193632E0,3.6602173E0,6.7712197E0,2.906414E0,0E0,6.2807083E-1,3.4656065E0,1.4517226E0,6.0940256E0,2.9283974E0,1.9043056E0,1.5522633E0,0E0,9.5746994E-2,1.715673E0,1.6037555E0,0E0,3.1573367E-1,2.7408385E0,5.9237194E0,2.0894566E0,2.1256409E0,0E0,1.0356712E0,1.0323925E0,0E0,0E0,0E0,1.2326301E0,1.0398083E0,0E0,5.221827E-1,0E0,0E0,0E0,1.8564594E0,1.8110008E0,2.559188E0,0E0,9.8748493E-1,1.2951314E0,2.0550132E0,0E0,0E0,0E0,8.6184216E-1,0E0,0E0,0E0,0E0,0E0,0E0,0E0,0E0,0E0,0E0,0E0,0E0,0E0,0E0,0E0,0E0,0E0,0E0,0E0,0E0],"parents":[2147483647,0,0,1,1,2,2,3,3,4,4,5,5,6,6,8,8,9,9,10,10,11,11,12,12,13,13,14,14,16,16,17,17,18,18,20,20,21,21,22,22,23,23,24,24,26,26,27,27,31,31,32,32,34,34,38,38,39,39,40,40,42,42,43,43,44,44,48,48],"right_children":[2,4,6,8,10,12,14,-1,16,18,20,22,24,26,28,-1,30,32,34,-1,36,38,40,42,44,-1,46,48,-1,-1,-1,50,52,-1,54,-1,-1,-1,56,58,60,-1,62,64,66,-1,-1,-1,68,-1,-1,-1,-1,-1,-1,-1,-1,-1,-1,-1,-1,-1,-1,-1,-1,-1,-1,-1,-1],"split_conditions":[-2.5270533E-4,-5.070913E-2,-1.8854093E-2,-9.973945E-2,5.0116733E-2,5.5205964E-2,-1.0453471E-2,1.0593038E-2,-1.4412309E-2,8.0153316E-2,-3.8089834E-2,-1.7977681E-2,3.0821536E-2,-4.8550963E-2,4.8328772E-2,-2.2316042E-2,7.344447E-4,-4.0893152E-2,-3.865324E-3,-7.03877E-2,-9.074493E-4,-2.3898175E-2,-3.560972E-3,1.1095667E-2,-1.1264609E-1,1.7657185E-1,-4.165571E-2,-9.742126E-2,-6.593971E-2,-7.4750416E-2,-2.882215E-1,2.3571957E-2,4.0580034E-2,-1.1419584E-1,6.7232446E-5,3.9153766E-2,2.748191E-1,-1.7292315E-1,1.9610226E-2,-2.7062485E-2,6.061666E-2,-8.9588486E-2,7.037005E-2,8.371095E-2,-4.0190965E-2,7.970141E-2,-2.0730962E-1,-2.0338094E-3,2.3401672E-2,-1.4123368E-1,1.5785748E-1,-2.5076234E-1,7.698056E-3,2.4538146E-1,1.9281221E-3,-6.294694E-2,2.3140623E-1,-1.20562725E-1,1.5155673E-1,-2.2869815E-1,1.0020319E-1,2.8473204E-1,2.1851263E-3,-3.533715E-2,3.1140095E-1,4.816157E-2,-2.096372E-1,2.8878522E-1,2.027945E-3],"split_indices":[191,46,325,186,382,151,349,0,287,303,0,324,300,48,173,0,102,364,267,0,291,340,356,67,51,0,183,107,0,0,0,162,57,0,174,0,0,0,80,157,124,0,53,151,314,0,0,0,266,0,0,0,0,0,0,0,0,0,0,0,0,0,0,0,0,0,0,0,0],"split_type":[0,0,0,0,0,0,0,0,0,0,0,0,0,0,0,0,0,0,0,0,0,0,0,0,0,0,0,0,0,0,0,0,0,0,0,0,0,0,0,0,0,0,0,0,0,0,0,0,0,0,0,0,0,0,0,0,0,0,0,0,0,0,0,0,0,0,0,0,0],"sum_hessian":[1.449896E2,4.7661163E1,9.732844E1,2.1697319E1,2.5963844E1,7.224296E1,2.5085478E1,1.4234315E0,2.0273888E1,2.062702E1,5.336825E0,4.784517E1,2.4397789E1,5.7262726E0,1.9359205E1,1.0703433E0,1.9203545E1,1.5505482E1,5.121537E0,1.4519131E0,3.884912E0,1.12533045E1,3.6591866E1,1.1755721E1,1.2642069E1,2.088012E0,3.6382606E0,1.8283592E1,1.0756124E0,1.0352802E0,1.8168264E1,3.000567E0,1.2504915E1,1.565828E0,3.5557094E0,1.0212076E0,2.8637044E0,1.7923096E0,9.460995E0,8.483342E0,2.8108522E1,1.3457339E0,1.04099865E1,2.9279559E0,9.714113E0,1.011696E0,2.6265647E0,1.3053997E0,1.6978193E1,1.3358455E0,1.6647214E0,1.0984826E1,1.5200894E0,2.5108645E0,1.0448449E0,2.02598E0,7.4350147E0,2.3112524E0,6.1720896E0,2.6349539E1,1.758983E0,9.142018E0,1.2679684E0,1.2229079E0,1.7050478E0,5.884069E0,3.8300445E0,1.5964336E1,1.0138558E0],"tree_param":{"num_deleted":"0","num_feature":"384","num_nodes":"69","size_leaf_vector":"0"}},{"base_weights":[-6.663336E-2,-2.7986315E-1,2.6629415E-1,-7.4174166E-1,-1.0517481E-1,-2.0802993E-1,5.279535E-1,7.816439E-2,-8.5412E-1,-2.4970922E-1,4.2857665E-1,1.416828E-1,-6.8314403E-1,6.530872E-1,-1.4563258E-1,-4.876869E-1,5.038345E-1,-5.730301E-3,-9.029913E-1,-2.2537382E-2,-5.4538697E-1,6.6586876E-1,-6.5485966E-1,-2.883033E-1,5.309964E-1,-8.064032E-1,8.790346E-2,7.252657E-1,-2.3195566E-1,3.926532E-1,-5.6792873E-1,-9.474348E-1,-1.2160893E-1,-4.7517186E-1,1.8042585E-1,3.5997117E-1,-6.6252625E-1,1.8210183E-1,9.3301773E-1,-6.792997E-1,2.5922406E-1,-2.3634684E-1,7.158706E-1,-1.9844235E-1,-8.767224E-1,-2.8552562E-1,7.8738964E-1,6.015542E-1,1.6734704E-2,-6.8246514E-1,-1.4397661E-1,-6.7722243E-1,3.748371E-1,-6.052686E-1,3.0398306E-1,-7.985494E-1,2.319843E-1,6.124428E-1,-3.3473647E-1,6.333812E-1,-2.5021875E-1,4.799507E-2,8.937227E-1,1.6548106E-2,8.6588216E-1],"categories":[],"categories_nodes":[],"categories_segments":[],"categories_sizes":[],"default_left":[1,1,1,1,1,1,1,1,1,1,1,1,1,1,1,0,0,0,1,1,1,1,0,1,1,1,0,1,0,1,1,0,0,1,1,0,1,1,0,0,1,0,1,0,0,0,1,0,0,0,0,0,0,0,0,0,0,0,0,0,0,0,0,0,0],"id":13,"left_children":[1,3,5,7,9,11,13,15,17,19,21,23,25,27,29,-1,-1,-1,31,33,35,37,-1,39,41,43,-1,45,-1,47,49,-1,-1,51,53,-1,55,57,-1,-1,59,-1,61,-1,-1,-1,63,-1,-1,-1,-1,-1,-1,-1,-1,-1,-1,-1,-1,-1,-1,-1,-1,-1,-1],"loss_changes":[9.196538E0,6.281323E0,6.3997927E0,2.044444E0,4.608693E0,3.2097201E0,2.8719673E0,1.0895733E0,7.809639E-1,3.1144958E0,3.727449E0,2.0982792E0,8.421452E-1,1.9547071E0,1.5821322E0,0E0,0E0,0E0,5.071459E-1,2.5999835E0,2.378913E0,1.2514682E0,0E0,1.4969106E0,1.0842528E0,1.2934208E-1,0E0,1.8637085E0,0E0,2.4278134E-1,8.428371E-2,0E0,0E0,1.7562612E0,2.0886743E0,0E0,2.402453E0,1.3516188E0,0E0,0E0,7.8638667E-1,0E0,6.0402346E-1,0E0,0E0,0E0,1.489481E0,0E0,0E0,0E0,0E0,0E0,0E0,0E0,0E0,0E0,0E0,0E0,0E0,0E0,0E0,0E0,0E0,0E0,0E0],"parents":[2147483647,0,0,1,1,2,2,3,3,4,4,5,5,6,6,7,7,8,8,9,9,10,10,11,11,12,12,13,13,14,14,18,18,19,19,20,20,21,21,23,23,24,24,25,25,27,27,29,29,30,30,33,33,34,34,36,36,37,37,40,40,42,42,46,46],"right_children":[2,4,6,8,10,12,14,16,18,20,22,24,26,28,30,-1,-1,-1,32,34,36,38,-1,40,42,44,-1,46,-1,48,50,-1,-1,52,54,-1,56,58,-1,-1,60,-1,62,-1,-1,-1,64,-1,-1,-1,-1,-1,-1,-1,-1,-1,-1,-1,-1,-1,-1,-1,-1,-1,-1],"split_conditions":[1.206231E-2,-1.6085476E-2,9.364718E-3,-2.8168496E-2,2.8435174E-2,5.2588735E-2,5.5357456E-2,-7.88939E-2,-6.473078E-2,-4.2096052E-2,4.677874E-2,4.88405E-2,5.1047046E-2,4.098318E-3,-1.8224407E-2,-1.4630608E-1,1.5115035E-1,-1.7190904E-3,3.842122E-2,4.2391866E-2,-7.96362E-2,1.0689337E-2,-1.9645791E-1,5.483316E-2,-4.6660356E-2,-1.7293489E-3,2.637104E-2,-2.5677525E-2,-6.95867E-2,2.7420816E-3,3.3068076E-2,-2.8423044E-1,-3.648268E-2,5.4871913E-2,1.48026915E-2,1.0799135E-1,4.338696E-2,-4.3483205E-2,2.7990532E-1,-2.0378992E-1,1.2541022E-2,-7.0904054E-2,1.7655969E-2,-5.953271E-2,-2.6301673E-1,-8.5657686E-2,-7.233724E-2,1.8046626E-1,5.0204117E-3,-2.0473956E-1,-4.3192986E-2,-2.0316674E-1,1.12451136E-1,-1.8158059E-1,9.119492E-2,-2.3956484E-1,6.959529E-2,1.8373284E-1,-1.00420944E-1,1.9001436E-1,-7.506563E-2,1.4398522E-2,2.6811683E-1,4.964432E-3,2.5976467E-1],"split_indices":[124,214,1,3,255,53,102,265,62,378,59,303,115,238,311,0,0,0,216,279,126,163,0,156,325,59,0,331,0,331,137,0,0,214,85,0,273,222,0,0,198,0,52,0,0,0,86,0,0,0,0,0,0,0,0,0,0,0,0,0,0,0,0,0,0],"split_type":[0,0,0,0,0,0,0,0,0,0,0,0,0,0,0,0,0,0,0,0,0,0,0,0,0,0,0,0,0,0,0,0,0,0,0,0,0,0,0,0,0,0,0,0,0,0,0,0,0,0,0,0,0,0,0,0,0,0,0,0,0,0,0,0,0],"sum_hessian":[1.27497025E2,7.781702E1,4.9680008E1,2.0463951E1,5.7353065E1,1.7735275E1,3.1944735E1,2.5034413E0,1.7960508E1,4.5550594E1,1.180247E1,1.062006E1,7.115215E0,2.6965687E1,4.979048E0,1.0122054E0,1.491236E0,1.0391115E0,1.6921398E1,2.6368029E1,1.9182566E1,9.998114E0,1.804357E0,5.1697125E0,5.4503474E0,6.095015E0,1.0201995E0,2.509928E1,1.8664081E0,2.219775E0,2.759273E0,1.5809665E1,1.111733E0,7.74794E0,1.8620089E1,1.9601029E0,1.7222464E1,4.155241E0,5.8428726E0,2.8755655E0,2.294147E0,1.0041367E0,4.446211E0,1.028127E0,5.0668883E0,1.2450799E0,2.3854198E1,1.0410368E0,1.1787381E0,1.6923044E0,1.0669686E0,6.424166E0,1.3237742E0,2.0004742E0,1.6619614E1,1.5042337E1,2.1801255E0,2.1664147E0,1.9888262E0,1.1824337E0,1.1117134E0,1.2020597E0,3.244151E0,2.316422E0,2.1537777E1],"tree_param":{"num_deleted":"0","num_feature":"384","num_nodes":"65","size_leaf_vector":"0"}},{"base_weights":[-6.1054356E-2,-3.9870182E-1,1.1220976E-1,-1.7305961E-1,-7.237616E-1,-6.8342976E-2,4.8723274E-1,-5.940014E-1,1.2836081E-1,-8.285137E-1,1.3805863E-1,-2.4452409E-1,2.6459634E-1,8.146322E-1,1.3164632E-1,-1.3366911E-3,-7.8548825E-1,4.84694E-1,-2.9630476E-1,-9.411735E-1,-2.182055E-1,2.6024353E-2,-5.169574E-1,-4.772131E-1,4.4049576E-1,-6.825865E-2,8.985834E-1,-4.5748892E-1,4.5908707E-1,-3.1432867E-1,3.8479337E-1,-8.7977225E-1,-7.7184096E-2,6.5736943E-1,-3.3607307E-1,3.2261527E-1,-6.444833E-1,-5.766104E-1,2.34545E-1,-2.1109635E-1,4.941523E-1,-8.55298E-1,-1.8145843E-1,-6.9077826E-1,7.332874E-2,5.857673E-1,-3.7195337E-1,9.5720387E-1,1.5838557E-1,1.3836436E-2,-7.1121407E-1,7.033875E-1,-2.979157E-1,-8.602606E-2,7.919962E-1,-1.1662761E-1,5.660393E-1,-7.574661E-2,-7.6559675E-1,1.2451727E-1,-6.131952E-1,-1.9891597E-1,7.007292E-1,-9.089092E-1,-2.3806405E-1,4.0015E-1,-3.8476232E-1,7.091152E-1,-2.657105E-1,-1.4910703E-2,8.6752653E-1],"categories":[],"categories_nodes":[],"categories_segments":[],"categories_sizes":[],"default_left":[1,1,1,1,1,1,1,1,1,1,0,1,1,1,1,1,1,1,1,0,1,1,1,1,1,0,1,1,1,0,0,0,0,1,0,1,1,0,0,1,1,1,1,0,0,1,0,0,0,0,0,1,0,0,0,0,0,0,0,0,0,0,0,0,0,0,0,0,0,0,0],"id":14,"left_children":[1,3,5,7,9,11,13,15,17,19,-1,21,23,25,27,29,31,33,35,-1,37,39,41,43,45,-1,47,49,51,-1,-1,-1,-1,53,-1,55,57,-1,-1,59,61,63,65,-1,-1,67,-1,-1,-1,-1,-1,69,-1,-1,-1,-1,-1,-1,-1,-1,-1,-1,-1,-1,-1,-1,-1,-1,-1,-1,-1],"loss_changes":[6.6999044E0,2.7205086E0,5.1767097E0,3.1487367E0,1.5211658E0,3.1237993E0,2.7809877E0,1.1658471E0,2.403386E0,7.5976944E-1,0E0,2.5654914E0,2.627738E0,1.0044107E0,2.7342722E0,5.4546547E-1,4.5096254E-1,1.4255148E0,1.8099184E0,0E0,7.014243E-1,2.1383686E0,1.8085742E0,5.246269E-1,2.0468311E0,0E0,3.55608E-1,6.28765E-1,1.8572924E0,0E0,0E0,0E0,0E0,8.0476594E-1,0E0,4.2344046E-1,2.9269958E-1,0E0,0E0,1.8123435E0,1.0643319E0,5.9737682E-2,1.3311659E0,0E0,0E0,1.6098742E0,0E0,0E0,0E0,0E0,0E0,8.421891E-1,0E0,0E0,0E0,0E0,0E0,0E0,0E0,0E0,0E0,0E0,0E0,0E0,0E0,0E0,0E0,0E0,0E0,0E0,0E0],"parents":[2147483647,0,0,1,1,2,2,3,3,4,4,5,5,6,6,7,7,8,8,9,9,11,11,12,12,13,13,14,14,15,15,16,16,17,17,18,18,20,20,21,21,22,22,23,23,24,24,26,26,27,27,28,28,33,33,35,35,36,36,39,39,40,40,41,41,42,42,45,45,51,51],"right_children":[2,4,6,8,10,12,14,16,18,20,-1,22,24,26,28,30,32,34,36,-1,38,40,42,44,46,-1,48,50,52,-1,-1,-1,-1,54,-1,56,58,-1,-1,60,62,64,66,-1,-1,68,-1,-1,-1,-1,-1,70,-1,-1,-1,-1,-1,-1,-1,-1,-1,-1,-1,-1,-1,-1,-1,-1,-1,-1,-1],"split_conditions":[-4.239158E-2,5.37918E-2,2.5753437E-2,2.8837033E-2,7.18586E-2,-1.4541761E-3,-2.622331E-2,-2.0885687E-2,-2.5747597E-2,1.8759754E-2,4.141759E-2,-2.8614663E-2,-2.0416815E-2,2.7505446E-2,5.0759926E-2,-1.6600909E-2,3.369294E-2,-3.0674988E-2,9.90019E-3,-2.8235206E-1,3.4311257E-2,-2.5855822E-2,5.4253563E-2,3.16085E-2,4.128126E-2,-2.0477597E-2,3.1290326E-2,-2.3456296E-2,-2.620348E-2,-9.429861E-2,1.15438014E-1,-2.639317E-1,-2.315523E-2,-5.510755E-2,-1.0082193E-1,-5.0308548E-2,-6.852287E-3,-1.7298312E-1,7.036351E-2,-3.6964767E-2,-7.534001E-2,1.0624658E-2,-1.3179645E-2,-2.0723349E-1,2.1998623E-2,5.7657942E-2,-1.1158601E-1,2.8716117E-1,4.7515675E-2,4.150931E-3,-2.1336423E-1,5.043865E-2,-8.937471E-2,-2.5807818E-2,2.3759887E-1,-3.4988284E-2,1.698118E-1,-2.2723984E-2,-2.2967903E-1,3.735518E-2,-1.8395856E-1,-5.9674796E-2,2.1021877E-1,-2.7267277E-1,-7.141922E-2,1.2004501E-1,-1.154287E-1,2.1273457E-1,-7.971315E-2,-4.473211E-3,2.6025796E-1],"split_indices":[9,102,305,33,220,157,268,184,266,7,0,91,191,232,209,308,189,238,300,0,106,292,279,124,215,0,296,266,333,0,0,0,0,297,0,239,102,0,0,364,46,365,132,0,0,175,0,0,0,0,0,232,0,0,0,0,0,0,0,0,0,0,0,0,0,0,0,0,0,0,0],"split_type":[0,0,0,0,0,0,0,0,0,0,0,0,0,0,0,0,0,0,0,0,0,0,0,0,0,0,0,0,0,0,0,0,0,0,0,0,0,0,0,0,0,0,0,0,0,0,0,0,0,0,0,0,0,0,0,0,0,0,0,0,0,0,0,0,0,0,0,0,0,0,0],"sum_hessian":[1.1275926E2,3.7798508E1,7.496075E1,2.3215633E1,1.4582876E1,5.1151775E1,2.3808975E1,9.282165E0,1.3933468E1,1.3036919E1,1.5459571E0,3.3624367E1,1.7527409E1,1.1723673E1,1.2085302E1,2.5125706E0,6.769594E0,7.4994173E0,6.434051E0,1.0547732E1,2.489186E0,1.732435E1,1.6300016E1,3.031187E0,1.4496221E1,1.0342011E0,1.0689471E1,4.17551E0,7.9097924E0,1.4904127E0,1.0221578E0,5.7606926E0,1.0089017E0,6.3603806E0,1.1390365E0,2.3428447E0,4.091206E0,1.2366563E0,1.2525297E0,1.1863964E1,5.460387E0,7.3442407E0,8.955775E0,2.0004513E0,1.0307356E0,1.2534055E1,1.962166E0,9.633377E0,1.0560945E0,1.7920414E0,2.3834684E0,6.0334873E0,1.8763052E0,1.0305867E0,5.329794E0,1.0211439E0,1.3217007E0,1.0036384E0,3.0875678E0,6.8428664E0,5.0210977E0,1.2623316E0,4.1980557E0,6.3225307E0,1.0217099E0,2.0688908E0,6.886884E0,1.1094119E1,1.439936E0,1.2913771E0,4.7421103E0],"tree_param":{"num_deleted":"0","num_feature":"384","num_nodes":"71","size_leaf_vector":"0"}},{"base_weights":[-5.955976E-2,-2.4223527E-1,2.1453454E-1,-4.3680882E-1,8.678088E-2,-1.7040275E-1,4.1375488E-1,-6.1976284E-1,-8.112907E-2,3.0657318E-1,-3.942271E-1,4.4301838E-1,-3.5912353E-1,-1.10026106E-1,6.079734E-1,-1.4859332E-1,-7.953364E-1,-5.186509E-1,8.7120056E-2,5.231531E-1,-2.1781546E-1,-5.9418607E-1,2.94188E-1,6.1974835E-1,-3.286014E-2,-5.7895434E-1,1.9356023E-1,5.020352E-1,-3.107578E-1,8.1232125E-1,1.0416162E-1,2.7303836E-1,-5.6296325E-1,-8.654082E-2,-8.8693005E-1,-3.918271E-2,-6.698014E-1,-1.2707567E-1,4.7296122E-1,6.913808E-1,-3.220773E-1,-5.748567E-1,2.7412775E-1,5.214234E-2,-7.4740785E-1,6.659776E-2,-7.657837E-1,-2.4499424E-1,5.4166746E-1,-5.318844E-1,3.1676057E-1,8.7037694E-1,7.830632E-2,-2.8776306E-1,4.3645197E-1,-3.3563507E-1,5.905963E-1,-2.8428791E-2,-7.1221733E-1,3.419759E-1,-4.6903485E-1,-9.3386704E-1,-2.4324057E-1,-5.04851E-1,5.6128614E-2,-9.566484E-3,6.404797E-1,8.050376E-1,-1.5493329E-1,-6.724441E-1,-1.6261856E-1,4.9591365E-1,-8.091897E-2,-8.272229E-1,-2.1721902E-1,-2.7761257E-1,-8.4836626E-1,-6.874314E-1,7.097719E-2,9.174376E-1,2.0023923E-1,2.1869232E-1,-5.8756876E-1,6.705125E-1,-4.9421057E-2],"categories":[],"categories_nodes":[],"categories_segments":[],"categories_sizes":[],"default_left":[1,1,1,1,1,1,1,1,1,1,1,1,1,1,1,1,1,1,1,1,1,1,0,0,0,1,1,0,1,1,1,1,1,1,1,0,0,1,1,1,0,1,1,0,1,0,1,0,0,1,0,1,0,1,1,0,0,0,0,0,0,0,0,0,0,0,0,0,0,0,0,0,0,0,0,0,0,0,0,0,0,0,0,0,0],"id":15,"left_children":[1,3,5,7,9,11,13,15,17,19,21,23,25,27,29,31,33,35,37,39,41,43,-1,-1,-1,45,47,-1,49,51,53,55,57,59,61,-1,-1,63,65,67,-1,69,71,-1,73,-1,75,-1,-1,77,-1,79,-1,81,83,-1,-1,-1,-1,-1,-1,-1,-1,-1,-1,-1,-1,-1,-1,-1,-1,-1,-1,-1,-1,-1,-1,-1,-1,-1,-1,-1,-1,-1,-1],"loss_changes":[5.122956E0,3.9585683E0,3.217299E0,2.4648004E0,2.6151702E0,1.8611379E0,2.8472776E0,1.9806709E0,1.0962735E0,2.016982E0,1.2536019E0,3.489328E-1,1.5452062E0,1.1683708E0,1.9838777E0,1.5719202E0,1.1083183E0,2.7158713E-1,9.8317134E-1,1.9506423E0,1.1418486E0,6.731856E-1,0E0,0E0,0E0,1.0990391E0,7.5955796E-1,0E0,1.1151941E0,5.346956E-1,1.0300312E0,1.1060772E0,3.3243227E-1,6.8441135E-1,2.5797272E-1,0E0,0E0,5.799563E-1,3.4552538E-1,1.1301932E0,0E0,3.426552E-2,2.7902126E-1,0E0,4.2142153E-2,0E0,3.9396286E-2,0E0,0E0,5.568695E-1,0E0,2.2662544E-1,0E0,7.038287E-1,5.05734E-1,0E0,0E0,0E0,0E0,0E0,0E0,0E0,0E0,0E0,0E0,0E0,0E0,0E0,0E0,0E0,0E0,0E0,0E0,0E0,0E0,0E0,0E0,0E0,0E0,0E0,0E0,0E0,0E0,0E0,0E0],"parents":[2147483647,0,0,1,1,2,2,3,3,4,4,5,5,6,6,7,7,8,8,9,9,10,10,11,11,12,12,13,13,14,14,15,15,16,16,17,17,18,18,19,19,20,20,21,21,25,25,26,26,28,28,29,29,30,30,31,31,32,32,33,33,34,34,37,37,38,38,39,39,41,41,42,42,44,44,46,46,49,49,51,51,53,53,54,54],"right_children":[2,4,6,8,10,12,14,16,18,20,22,24,26,28,30,32,34,36,38,40,42,44,-1,-1,-1,46,48,-1,50,52,54,56,58,60,62,-1,-1,64,66,68,-1,70,72,-1,74,-1,76,-1,-1,78,-1,80,-1,82,84,-1,-1,-1,-1,-1,-1,-1,-1,-1,-1,-1,-1,-1,-1,-1,-1,-1,-1,-1,-1,-1,-1,-1,-1,-1,-1,-1,-1,-1,-1],"split_conditions":[-2.2526374E-2,-3.502722E-2,-2.4902835E-2,7.919237E-2,1.8027335E-2,-2.6050773E-2,3.859724E-2,-4.2855885E-2,4.7842908E-4,-3.9027994E-3,3.0726695E-2,-4.2876333E-2,-2.7231928E-2,-8.741077E-2,-1.985749E-3,-2.5706317E-2,7.4290754E-3,-1.212489E-2,3.226594E-2,7.188803E-2,4.346448E-2,-5.5104326E-2,8.8256404E-2,1.8592452E-1,-9.858043E-3,-3.0243147E-2,-2.6203704E-3,1.5061057E-1,1.0673897E-2,4.907597E-2,-5.6786546E-3,-6.0603404E-3,2.535035E-2,-2.399541E-2,5.0291702E-2,-1.1754814E-2,-2.0094043E-1,-4.720469E-2,1.1328147E-2,1.192693E-2,-9.66232E-2,-1.0368463E-2,-3.8710593E-3,1.5642703E-2,1.7998807E-2,1.9979328E-2,-1.8334635E-2,-7.349827E-2,1.6250025E-1,-1.0325352E-3,9.502818E-2,-3.5917014E-3,2.3491897E-2,4.501237E-2,3.49505E-2,-1.0069052E-1,1.771789E-1,-8.528638E-3,-2.136652E-1,1.02592774E-1,-1.4071046E-1,-2.8016013E-1,-7.297217E-2,-1.514553E-1,1.6838584E-2,-2.8699453E-3,1.9214392E-1,2.415113E-1,-4.647999E-2,-2.0173325E-1,-4.878557E-2,1.487741E-1,-2.4275692E-2,-2.4816687E-1,-6.516571E-2,-8.3283775E-2,-2.545099E-1,-2.0622943E-1,2.1293158E-2,2.752313E-1,6.007177E-2,6.56077E-2,-1.7627063E-1,2.0115376E-1,-1.4826317E-2],"split_indices":[142,46,255,303,173,198,303,171,191,266,234,378,70,113,2,332,147,364,92,102,155,333,0,0,0,13,169,0,321,3,22,60,32,381,124,0,0,325,156,314,0,103,180,0,273,0,335,0,0,9,0,326,0,233,53,0,0,0,0,0,0,0,0,0,0,0,0,0,0,0,0,0,0,0,0,0,0,0,0,0,0,0,0,0,0],"split_type":[0,0,0,0,0,0,0,0,0,0,0,0,0,0,0,0,0,0,0,0,0,0,0,0,0,0,0,0,0,0,0,0,0,0,0,0,0,0,0,0,0,0,0,0,0,0,0,0,0,0,0,0,0,0,0,0,0,0,0,0,0,0,0,0,0,0,0,0,0,0,0,0,0,0,0,0,0,0,0,0,0,0,0,0,0],"sum_hessian":[1.00277336E2,6.0243263E1,4.003407E1,3.7650116E1,2.2593145E1,1.3702498E1,2.6331572E1,2.4371477E1,1.3278639E1,1.5756156E1,6.8369904E0,2.9067783E0,1.079572E1,7.2399364E0,1.9091635E1,7.1174374E0,1.725404E1,3.10962E0,1.0169019E1,1.1152409E1,4.603747E0,5.4041605E0,1.4328299E0,1.8991534E0,1.007625E0,7.6896267E0,3.1060932E0,1.4173119E0,5.8226247E0,1.3146868E1,5.944767E0,3.6968632E0,3.4205744E0,2.1970496E0,1.5056991E1,1.0471524E0,2.0624678E0,6.970224E0,3.1987948E0,9.452986E0,1.699423E0,2.5699747E0,2.0337722E0,1.1620462E0,4.242114E0,1.8703927E0,5.8192344E0,1.5055602E0,1.600533E0,4.4181466E0,1.4044777E0,1.2011094E1,1.1357737E0,2.7891111E0,3.155656E0,1.2479508E0,2.4489124E0,1.0064771E0,2.4140973E0,1.0861466E0,1.1109031E0,1.3613507E1,1.4434834E0,1.7029642E0,5.2672596E0,1.067323E0,2.131472E0,8.376786E0,1.0761993E0,1.5676649E0,1.0023098E0,1.007601E0,1.0261711E0,3.2001228E0,1.0419914E0,1.4730731E0,4.346161E0,3.40049E0,1.0176567E0,1.0878144E1,1.13295E0,1.1377268E0,1.6513842E0,1.8732407E0,1.2824155E0],"tree_param":{"num_deleted":"0","num_feature":"384","num_nodes":"85","size_leaf_vector":"0"}},{"base_weights":[-5.576409E-2,-3.4160355E-1,1.08342454E-1,-5.6368893E-1,9.617446E-2,2.6954508E-1,-2.6992962E-1,-8.955218E-2,-7.748668E-1,4.3879747E-1,-3.0239502E-1,-1.2710796E-1,4.6514514E-1,-7.169458E-1,-9.164199E-2,3.4179774E-1,-4.8213387E-1,-8.728891E-1,3.6270957E-2,6.082998E-1,-1.8803765E-1,2.854789E-1,-5.555276E-1,-3.8191387E-1,2.6962325E-1,-2.3856667E-1,5.448404E-1,6.263614E-2,-5.067486E-1,-1.6402788E-1,5.861418E-1,1.2320182E-1,-6.863656E-1,-9.06774E-1,-2.2597894E-1,7.387275E-1,2.4135167E-2,-6.2373642E-2,-6.825184E-1,9.802662E-2,-6.0879374E-1,-2.745887E-1,5.4882425E-1,1.6592173E-1,-4.8244888E-1,-4.6373857E-3,6.8637604E-1,3.6107156E-1,-2.1104206E-1,-6.7018616E-1,-3.2824956E-2,4.6166897E-1,-3.5817143E-1,-7.6006544E-1,-3.479435E-2,7.236821E-1,1.1781114E-2,-4.709215E-1,3.3386135E-1,7.6934636E-1,-5.154429E-2,-6.759819E-2,5.946642E-1,-6.645265E-2,-4.952107E-1],"categories":[],"categories_nodes":[],"categories_segments":[],"categories_sizes":[],"default_left":[1,1,1,1,1,1,1,1,1,1,1,1,1,0,1,1,1,1,0,1,0,0,1,1,1,1,1,1,1,0,0,0,0,0,0,0,0,0,0,1,1,0,1,0,0,1,1,1,1,0,0,0,0,0,0,0,0,0,0,0,0,0,0,0,0],"id":16,"left_children":[1,3,5,7,9,11,13,15,17,19,21,23,25,-1,27,29,31,33,-1,35,-1,-1,37,39,41,43,45,47,49,-1,-1,-1,-1,-1,-1,-1,-1,-1,-1,51,53,-1,55,-1,-1,57,59,61,63,-1,-1,-1,-1,-1,-1,-1,-1,-1,-1,-1,-1,-1,-1,-1,-1],"loss_changes":[4.274461E0,3.280911E0,3.618463E0,2.1498365E0,1.7747011E0,3.2612352E0,1.3588692E0,1.5128199E0,1.2404938E0,8.44733E-1,1.0738184E0,1.5602872E0,1.692215E0,0E0,9.2351246E-1,6.372594E-1,6.510725E-1,9.330082E-2,0E0,4.1241407E-1,0E0,0E0,2.4792504E-1,1.0605851E0,1.0964155E0,4.281996E-1,1.9728642E0,9.780436E-1,2.7876788E-1,0E0,0E0,0E0,0E0,0E0,0E0,0E0,0E0,0E0,0E0,7.9771143E-1,5.2754474E-1,0E0,4.0908515E-1,0E0,0E0,1.1327795E0,1.2731028E0,6.060435E-1,2.2968096E-1,0E0,0E0,0E0,0E0,0E0,0E0,0E0,0E0,0E0,0E0,0E0,0E0,0E0,0E0,0E0,0E0],"parents":[2147483647,0,0,1,1,2,2,3,3,4,4,5,5,6,6,7,7,8,8,9,9,10,10,11,11,12,12,14,14,15,15,16,16,17,17,19,19,22,22,23,23,24,24,25,25,26,26,27,27,28,28,39,39,40,40,42,42,45,45,46,46,47,47,48,48],"right_children":[2,4,6,8,10,12,14,16,18,20,22,24,26,-1,28,30,32,34,-1,36,-1,-1,38,40,42,44,46,48,50,-1,-1,-1,-1,-1,-1,-1,-1,-1,-1,52,54,-1,56,-1,-1,58,60,62,64,-1,-1,-1,-1,-1,-1,-1,-1,-1,-1,-1,-1,-1,-1,-1,-1],"split_conditions":[-8.070115E-3,2.5026958E-2,5.8027364E-2,1.9630238E-3,-6.338894E-2,7.8490395E-3,1.666735E-2,-3.3299755E-2,1.8900875E-2,8.9253095E-4,-4.9021542E-2,-1.6574912E-2,4.5225993E-3,-2.1508376E-1,7.909886E-3,-5.1734443E-3,5.485475E-3,8.9117795E-2,1.0881288E-2,3.621358E-2,-5.6411296E-2,8.564367E-2,-4.312129E-2,-1.1347228E-1,2.1409035E-2,8.246414E-3,1.3116866E-2,2.8919121E-2,3.0081999E-2,-4.920837E-2,1.7584255E-1,3.6960546E-2,-2.0590968E-1,-2.720322E-1,-6.779368E-2,2.2161826E-1,7.24055E-3,-1.8712094E-2,-2.0475553E-1,-4.0476352E-2,5.4837793E-2,-8.2376614E-2,-1.980518E-2,4.977652E-2,-1.4473467E-1,2.2599189E-2,6.2394045E-2,-3.0948555E-2,-5.0922066E-2,-2.0105585E-1,-9.847487E-3,1.3850069E-1,-1.0745143E-1,-2.2801964E-1,-1.0438305E-2,2.1710464E-1,3.5343345E-3,-1.4127645E-1,1.0015841E-1,2.3080392E-1,-1.5463288E-2,-2.0279456E-2,1.7839926E-1,-1.9935796E-2,-1.4856322E-1],"split_indices":[214,124,102,59,378,331,309,100,64,126,314,325,67,0,204,73,149,156,0,324,0,0,21,51,249,149,155,81,191,0,0,0,0,0,0,0,0,0,0,295,92,0,181,0,0,1,316,9,13,0,0,0,0,0,0,0,0,0,0,0,0,0,0,0,0],"split_type":[0,0,0,0,0,0,0,0,0,0,0,0,0,0,0,0,0,0,0,0,0,0,0,0,0,0,0,0,0,0,0,0,0,0,0,0,0,0,0,0,0,0,0,0,0,0,0,0,0,0,0,0,0,0,0,0,0,0,0,0,0,0,0,0,0],"sum_hessian":[8.933511E1,3.2188263E1,5.714685E1,2.116408E1,1.1024181E1,4.027211E1,1.687474E1,6.960476E0,1.4203605E1,5.873878E0,5.1503034E0,1.3416086E1,2.6856022E1,3.9499187E0,1.2924822E1,3.3781195E0,3.5823565E0,1.2604302E1,1.5993019E0,4.6468844E0,1.2269933E0,1.5117167E0,3.6385865E0,8.192009E0,5.2240777E0,2.5292408E0,2.432678E1,1.0041803E1,2.8830187E0,1.2073798E0,2.1707397E0,1.003821E0,2.5785356E0,1.1595248E1,1.0090541E0,3.5824378E0,1.0644467E0,1.0504504E0,2.5881362E0,2.811825E0,5.3801837E0,1.77697E0,3.4471078E0,1.0716052E0,1.4576356E0,5.1808043E0,1.9145977E1,4.6508756E0,5.390928E0,1.8358009E0,1.0472178E0,1.5579597E0,1.2538655E0,4.0014777E0,1.378706E0,2.338256E0,1.1088519E0,2.014547E0,3.166257E0,1.7172543E1,1.9734348E0,1.8911006E0,2.759775E0,4.3907137E0,1.0002139E0],"tree_param":{"num_deleted":"0","num_feature":"384","num_nodes":"65","size_leaf_vector":"0"}},{"base_weights":[-5.6008954E-2,-3.1669757E-1,1.0894878E-1,1.0391648E-1,-5.164375E-1,3.3311364E-1,-1.5521818E-1,4.063863E-1,-2.817977E-1,-6.493031E-1,7.488672E-2,7.88707E-2,6.7127895E-1,-2.9443645E-1,2.7013794E-1,-1.0313064E-1,6.286056E-1,3.3633992E-1,-5.614422E-1,-1.1947987E-1,-8.159354E-1,3.887702E-1,-3.2708868E-1,3.1994513E-1,-3.1404293E-1,7.751853E-1,4.4741075E-2,3.7969507E-2,-5.268174E-1,6.137694E-1,-9.906964E-2,1.0724572E-1,7.525192E-1,-1.180936E-1,-6.831403E-1,4.9895072E-1,-4.0979445E-1,-8.668932E-1,-9.219171E-2,5.3504163E-1,5.275149E-2,-7.40478E-2,5.887513E-1,3.6224937E-1,-5.959557E-1,8.541588E-1,3.3343673E-2,-1.8177092E-1,4.4861278E-1,2.2862971E-1,-6.2693024E-1,7.1866494E-1,1.7810899E-1,-4.2619926E-1,2.9487568E-1,1.2836607E-1,-6.195004E-1,-4.5861802E-1,3.111731E-1,-4.690686E-2,7.4559355E-1,-7.211519E-1,-4.081155E-2,3.949652E-2,6.125404E-1,4.9126486E-4,-7.348724E-1],"categories":[],"categories_nodes":[],"categories_segments":[],"categories_sizes":[],"default_left":[1,1,1,1,1,1,1,1,1,1,1,1,1,1,1,0,1,0,1,1,1,1,0,1,1,1,0,1,1,1,1,0,0,0,0,0,1,0,0,0,0,1,1,0,1,0,0,0,1,0,1,0,0,0,0,0,0,0,0,0,0,0,0,0,0,0,0],"id":17,"left_children":[1,3,5,7,9,11,13,15,17,19,21,23,25,27,29,-1,31,-1,33,35,37,39,-1,41,43,45,-1,47,49,51,53,-1,-1,-1,-1,-1,55,-1,-1,-1,-1,57,59,-1,61,-1,-1,-1,63,-1,65,-1,-1,-1,-1,-1,-1,-1,-1,-1,-1,-1,-1,-1,-1,-1,-1],"loss_changes":[3.5431883E0,2.731744E0,3.054927E0,1.4090655E0,1.7598615E0,2.3331382E0,1.4985478E0,8.1535184E-1,1.1339339E0,1.4817696E0,7.444852E-1,1.7084045E0,7.3204803E-1,1.4515228E0,8.7665E-1,0E0,2.2658479E-1,0E0,1.4264774E-1,1.1832094E0,4.156294E-1,1.2926605E-1,0E0,1.2102537E0,1.5427585E0,5.597744E-1,0E0,8.537612E-1,9.7332835E-1,3.0555129E-2,6.36122E-1,0E0,0E0,0E0,0E0,0E0,5.601646E-1,0E0,0E0,0E0,0E0,9.361522E-1,6.9895554E-1,0E0,3.3823586E-1,0E0,0E0,0E0,1.9520879E-1,0E0,6.747327E-1,0E0,0E0,0E0,0E0,0E0,0E0,0E0,0E0,0E0,0E0,0E0,0E0,0E0,0E0,0E0,0E0],"parents":[2147483647,0,0,1,1,2,2,3,3,4,4,5,5,6,6,7,7,8,8,9,9,10,10,11,11,12,12,13,13,14,14,16,16,18,18,19,19,20,20,21,21,23,23,24,24,25,25,27,27,28,28,29,29,30,30,36,36,41,41,42,42,44,44,48,48,50,50],"right_children":[2,4,6,8,10,12,14,16,18,20,22,24,26,28,30,-1,32,-1,34,36,38,40,-1,42,44,46,-1,48,50,52,54,-1,-1,-1,-1,-1,56,-1,-1,-1,-1,58,60,-1,62,-1,-1,-1,64,-1,66,-1,-1,-1,-1,-1,-1,-1,-1,-1,-1,-1,-1,-1,-1,-1,-1],"split_conditions":[2.0661246E-2,-3.5873897E-2,1.9958679E-2,-3.664518E-3,-2.9520635E-3,1.4326281E-2,-1.6326407E-2,6.3117845E-3,-6.5070435E-2,-4.8136547E-2,5.1744446E-2,8.501318E-2,2.519805E-2,-3.3688627E-2,-1.8199973E-2,-3.0939193E-2,-3.020041E-2,1.0090198E-1,1.9894434E-2,9.323522E-4,2.8156266E-2,-1.6979083E-2,-9.812661E-2,-4.7548316E-2,-1.4201951E-2,1.0796653E-1,1.3422323E-2,-2.1957129E-4,-1.691301E-2,1.0609596E-2,1.3733255E-2,3.217372E-2,2.2575577E-1,-3.542808E-2,-2.0494209E-1,1.4968522E-1,-3.485984E-2,-2.6006797E-1,-2.7657514E-2,1.6051249E-1,1.5825447E-2,1.715172E-3,-2.1381117E-2,1.0867482E-1,5.0368655E-2,2.5624767E-1,1.0003102E-2,-5.453128E-2,-7.0425905E-2,6.858891E-2,-6.261277E-2,2.1559949E-1,5.34327E-2,-1.2785979E-1,8.846271E-2,3.8509823E-2,-1.8585013E-1,-1.3758542E-1,9.335194E-2,-1.4072058E-2,2.2367807E-1,-2.1634558E-1,-1.22434655E-2,1.1848956E-2,1.8376213E-1,1.4737947E-4,